{"learner":{"attributes":{"best_iteration":"40","best_score":"0.06236565933013959"},"feature_names":[],"feature_types":[],"gradient_booster":{"model":{"gbtree_model_param":{"num_parallel_tree":"1","num_trees":"350"},"iteration_indptr":[0,7,14,21,28,35,42,49,56,63,70,77,84,91,98,105,112,119,126,133,140,147,154,161,168,175,182,189,196,203,210,217,224,231,238,245,252,259,266,273,280,287,294,301,308,315,322,329,336,343,350],"tree_info":[0,1,2,3,4,5,6,0,1,2,3,4,5,6,0,1,2,3,4,5,6,0,1,2,3,4,5,6,0,1,2,3,4,5,6,0,1,2,3,4,5,6,0,1,2,3,4,5,6,0,1,2,3,4,5,6,0,1,2,3,4,5,6,0,1,2,3,4,5,6,0,1,2,3,4,5,6,0,1,2,3,4,5,6,0,1,2,3,4,5,6,0,1,2,3,4,5,6,0,1,2,3,4,5,6,0,1,2,3,4,5,6,0,1,2,3,4,5,6,0,1,2,3,4,5,6,0,1,2,3,4,5,6,0,1,2,3,4,5,6,0,1,2,3,4,5,6,0,1,2,3,4,5,6,0,1,2,3,4,5,6,0,1,2,3,4,5,6,0,1,2,3,4,5,6,0,1,2,3,4,5,6,0,1,2,3,4,5,6,0,1,2,3,4,5,6,0,1,2,3,4,5,6,0,1,2,3,4,5,6,0,1,2,3,4,5,6,0,1,2,3,4,5,6,0,1,2,3,4,5,6,0,1,2,3,4,5,6,0,1,2,3,4,5,6,0,1,2,3,4,5,6,0,1,2,3,4,5,6,0,1,2,3,4,5,6,0,1,2,3,4,5,6,0,1,2,3,4,5,6,0,1,2,3,4,5,6,0,1,2,3,4,5,6,0,1,2,3,4,5,6,0,1,2,3,4,5,6,0,1,2,3,4,5,6,0,1,2,3,4,5,6,0,1,2,3,4,5,6,0,1,2,3,4,5,6,0,1,2,3,4,5,6,0,1,2,3,4,5,6],"trees":[{"base_weights":[-2.3650244E-1,-5.024811E-1,3.1949577E0,-5.350788E-1,2.5727923E0,3.4461932E0,-4.5433894E-1,-5.4976225E-1,1.984082E0,3.4121952E0,-3.649438E-1,3.4660642E0,1.3083307E0,-5.128677E-1,2.5074625E0,-5.5545676E-1,2.1431608E0,2.9236617E0,-4.1453934E-1,3.4593353E0,1.1812998E0,-5.19878E-1,2.0335765E0,3.4819171E0,2.669914E0,-8.8454925E-2,2.8251119E0,1.1801385E0,-5.436893E-1,9.20403E-1,-1.04132235E-1,-5.61348E-1,1.1970093E0,3.4012241E0,-4.9860638E-1,1.149379E-1,3.3242753E0,-5.006038E-1,1.6996804E0,3.4721568E0,-1.2426036E-1,-4.0415704E-1,2.4563894E0,-5.6620157E-1,1.2110726E0,2.8052928E0,-1.3317074E-1,3.4836652E0,1.834061E-1,7.521826E-1,3.17105E0,1.8064516E0,-3.4710744E-1,2.961359E0,-9.633028E-2,-1.394191E-1,7.7551866E-1,-5.6042063E-1,5.0909084E-1,-5.6479996E-1,5.6123513E-1,3.030899E0,-5.195077E-1,3.444528E0,-1.04132235E-1,4.4905657E-1,-1.72154E-1,-3.392941E-1,2.3942993E0,3.4512155E0,-3.024E-1,-5.3890646E-1,7.551867E-1,7.6113534E-1,-1.10526316E-1,3.4785979E0,-9.633028E-2,-1.5201074E-1,3.8532108E-2,2.764434E0,3.8532108E-2,-1.7414533E-1,7.924526E-2,6.845304E-1,-1.2038217E-1,9.0895516E-1,1.733945E-1,3.4870095E0,1.6370157E0,-1.2426036E-1,3.082569E-1,3.833514E-2,1.736E0,3.2465675E0,-1.24260366E-1,3.8532108E-2,7.22293E-1,-4.6635574E-1,3.818182E-1,9.9024385E-1,3.1539032E0,-5.647012E-1,1.733945E-1,-1.3548388E-1,1.3548386E0,-1.7011046E-1,2.3567243E-1,1.0126181E0,-1.741594E-1,1.0019886E0,-2.2919513E-2,-1.6115734E-1,2.603306E-1,1.0399238E0,1.733945E-1,-1.3056995E-1,5.033058E-1,-1.4872818E-1,4.846154E-1,9.0257883E-1,-1.04132235E-1,1.037092E0,3.082569E-1,-1.59823E-1,3.082569E-1,-1.737931E-1,2.9707316E-1,6.2479335E-1,-1.2426036E-1,1.0443487E0,3.082569E-1,1.733945E-1,9.120643E-1,3.082569E-1,-1.3317074E-1,1.0463222E0,1.735537E-2,-4.883721E-2,8.0224717E-1,-1.1754917E-1,2.9302326E-1,7.2089547E-1,-6.1463416E-2,9.867953E-1,1.1052631E-1,3.8532108E-2,-9.633028E-2,-1.688968E-1,1.8827586E-1,6.2479335E-1,-1.10526316E-1,2.8965518E-1,9.852682E-1,-1.7069449E-1,8.6896546E-2,6.286624E-1,-9.633028E-2],"categories":[],"categories_nodes":[],"categories_segments":[],"categories_sizes":[],"default_left":[0,0,0,0,0,0,0,0,0,0,0,0,0,0,0,0,0,0,0,0,0,0,0,0,0,0,0,0,0,0,0,0,0,0,0,0,0,0,0,0,0,0,0,0,0,0,0,0,0,0,0,0,0,0,0,0,0,0,0,0,0,0,0,0,0,0,0,0,0,0,0,0,0,0,0,0,0,0,0,0,0,0,0,0,0,0,0,0,0,0,0,0,0,0,0,0,0,0,0,0,0,0,0,0,0,0,0,0,0,0,0,0,0,0,0,0,0,0,0,0,0,0,0,0,0,0,0,0,0,0,0,0,0,0,0,0,0,0,0,0,0,0,0,0,0,0,0,0,0,0,0,0,0,0,0,0,0],"id":0,"left_children":[1,3,5,7,9,11,13,15,17,19,21,23,25,27,29,31,33,35,37,39,41,43,45,47,49,51,53,55,57,-1,-1,59,61,63,65,67,69,71,73,75,-1,77,79,81,83,85,-1,87,89,91,93,95,97,99,-1,-1,-1,101,103,105,107,109,111,113,-1,115,-1,117,119,121,123,125,127,-1,-1,129,-1,-1,-1,131,-1,-1,133,-1,-1,-1,-1,135,137,-1,-1,139,141,143,145,-1,-1,147,-1,149,151,153,-1,-1,155,-1,-1,-1,-1,-1,-1,-1,-1,-1,-1,-1,-1,-1,-1,-1,-1,-1,-1,-1,-1,-1,-1,-1,-1,-1,-1,-1,-1,-1,-1,-1,-1,-1,-1,-1,-1,-1,-1,-1,-1,-1,-1,-1,-1,-1,-1,-1,-1,-1,-1,-1,-1],"loss_changes":[9.539339E4,9.725223E3,6.8948984E3,3.5514785E3,2.51052E3,2.943047E2,8.538934E1,1.4645488E3,1.2552327E3,7.915527E1,8.542847E1,7.865625E1,1.4090022E2,2.5510742E1,1.6380386E1,9.8380664E2,6.7162085E2,4.4963452E2,2.9507582E1,3.990918E1,3.717527E1,1.7849972E1,2.7973E1,3.875E1,1.3249438E2,1.8041378E1,1.4606873E1,2.1622303E1,8.542145E0,0E0,0E0,3.680957E2,1.00691205E3,2.3380127E1,4.956375E0,5.3573418E1,1.6216455E2,7.72311E0,1.1997719E1,1.9983398E1,0E0,5.477028E-1,6.85997E0,1.9742432E0,1.109745E1,3.648491E0,0E0,3.6445312E1,2.7831347E0,2.1274635E1,2.8015991E1,4.158333E0,6.794457E0,8.502777E0,0E0,0E0,0E0,2.5772247E0,6.9958935E0,2.86E2,9.384177E2,1.4867822E2,4.5339317E0,6.4782715E0,0E0,6.605962E0,0E0,1.4064387E1,1.5513279E1,1.1674805E0,4.45479E0,9.728973E0,8.497481E0,0E0,0E0,1.2685547E0,0E0,0E0,0E0,3.5711899E0,0E0,0E0,3.1390517E0,0E0,0E0,0E0,0E0,1.6890625E1,2.6987534E1,0E0,0E0,7.9041867E0,1.7004265E1,1.2139404E1,2.1280059E-1,0E0,0E0,3.5915475E0,0E0,6.9767265E0,4.65744E0,1.8495026E0,0E0,0E0,6.170389E0,0E0,0E0,0E0,0E0,0E0,0E0,0E0,0E0,0E0,0E0,0E0,0E0,0E0,0E0,0E0,0E0,0E0,0E0,0E0,0E0,0E0,0E0,0E0,0E0,0E0,0E0,0E0,0E0,0E0,0E0,0E0,0E0,0E0,0E0,0E0,0E0,0E0,0E0,0E0,0E0,0E0,0E0,0E0,0E0,0E0,0E0,0E0,0E0,0E0,0E0,0E0,0E0],"parents":[2147483647,0,0,1,1,2,2,3,3,4,4,5,5,6,6,7,7,8,8,9,9,10,10,11,11,12,12,13,13,14,14,15,15,16,16,17,17,18,18,19,19,20,20,21,21,22,22,23,23,24,24,25,25,26,26,27,27,28,28,31,31,32,32,33,33,34,34,35,35,36,36,37,37,38,38,39,39,41,41,42,42,43,43,44,44,45,45,47,47,48,48,49,49,50,50,51,51,52,52,53,53,57,57,58,58,59,59,60,60,61,61,62,62,63,63,65,65,67,67,68,68,69,69,70,70,71,71,72,72,75,75,79,79,82,82,87,87,88,88,91,91,92,92,93,93,94,94,97,97,99,99,100,100,101,101,104,104],"right_children":[2,4,6,8,10,12,14,16,18,20,22,24,26,28,30,32,34,36,38,40,42,44,46,48,50,52,54,56,58,-1,-1,60,62,64,66,68,70,72,74,76,-1,78,80,82,84,86,-1,88,90,92,94,96,98,100,-1,-1,-1,102,104,106,108,110,112,114,-1,116,-1,118,120,122,124,126,128,-1,-1,130,-1,-1,-1,132,-1,-1,134,-1,-1,-1,-1,136,138,-1,-1,140,142,144,146,-1,-1,148,-1,150,152,154,-1,-1,156,-1,-1,-1,-1,-1,-1,-1,-1,-1,-1,-1,-1,-1,-1,-1,-1,-1,-1,-1,-1,-1,-1,-1,-1,-1,-1,-1,-1,-1,-1,-1,-1,-1,-1,-1,-1,-1,-1,-1,-1,-1,-1,-1,-1,-1,-1,-1,-1,-1,-1,-1,-1],"split_conditions":[2E0,2E0,3E0,2E0,2E0,2E0,2.7E1,3E0,1E0,2E0,2E0,2E0,1.5E1,4E0,8E0,1E0,2E0,1E0,1E0,2E0,9E0,3E0,6E0,5E0,2E0,3E0,9E0,1E0,2E0,9.20403E-1,-1.04132235E-1,1.4E1,1E0,3E0,1E0,1E0,1E0,2E0,1E0,1.1E1,-1.2426036E-1,1E0,3E0,3E0,2E0,3E0,-1.3317074E-1,5E0,3E0,2E0,2E0,1E0,8E0,1E0,-9.633028E-2,-1.394191E-1,7.7551866E-1,1.1E1,3E0,2E0,1E0,1E0,2E0,1E0,-1.04132235E-1,2E0,-1.72154E-1,1E0,2E0,1E0,3E0,2E0,4E0,7.6113534E-1,-1.10526316E-1,1E0,-9.633028E-2,-1.5201074E-1,3.8532108E-2,1E0,3.8532108E-2,-1.7414533E-1,4E0,6.845304E-1,-1.2038217E-1,9.0895516E-1,1.733945E-1,9E0,1E0,-1.2426036E-1,3.082569E-1,1E0,1E0,5E0,5E0,3.8532108E-2,7.22293E-1,1E0,3.818182E-1,1E0,1.1E1,1.2E1,1.733945E-1,-1.3548388E-1,4E0,-1.7011046E-1,2.3567243E-1,1.0126181E0,-1.741594E-1,1.0019886E0,-2.2919513E-2,-1.6115734E-1,2.603306E-1,1.0399238E0,1.733945E-1,-1.3056995E-1,5.033058E-1,-1.4872818E-1,4.846154E-1,9.0257883E-1,-1.04132235E-1,1.037092E0,3.082569E-1,-1.59823E-1,3.082569E-1,-1.737931E-1,2.9707316E-1,6.2479335E-1,-1.2426036E-1,1.0443487E0,3.082569E-1,1.733945E-1,9.120643E-1,3.082569E-1,-1.3317074E-1,1.0463222E0,1.735537E-2,-4.883721E-2,8.0224717E-1,-1.1754917E-1,2.9302326E-1,7.2089547E-1,-6.1463416E-2,9.867953E-1,1.1052631E-1,3.8532108E-2,-9.633028E-2,-1.688968E-1,1.8827586E-1,6.2479335E-1,-1.10526316E-1,2.8965518E-1,9.852682E-1,-1.7069449E-1,8.6896546E-2,6.286624E-1,-9.633028E-2],"split_indices":[2239,2663,2297,2252,1795,2400,1041,2395,1373,1373,1658,1373,1821,2255,2371,846,1795,1041,1759,2467,622,2395,1591,2369,1778,2060,665,2131,1920,0,0,1921,2919,1827,1591,2158,2358,2342,1610,1479,0,1792,1832,2586,1046,828,0,1469,257,240,2115,1564,2824,1564,0,0,0,1612,2383,2586,2297,1373,0,1692,0,2243,0,1742,1795,2800,830,2395,1373,0,0,2468,0,0,0,2043,0,0,2338,0,0,0,0,174,578,0,0,1293,2325,1725,2048,0,0,2355,0,1900,2820,818,0,0,519,0,0,0,0,0,0,0,0,0,0,0,0,0,0,0,0,0,0,0,0,0,0,0,0,0,0,0,0,0,0,0,0,0,0,0,0,0,0,0,0,0,0,0,0,0,0,0,0,0,0,0,0],"split_type":[0,0,0,0,0,0,0,0,0,0,0,0,0,0,0,0,0,0,0,0,0,0,0,0,0,0,0,0,0,0,0,0,0,0,0,0,0,0,0,0,0,0,0,0,0,0,0,0,0,0,0,0,0,0,0,0,0,0,0,0,0,0,0,0,0,0,0,0,0,0,0,0,0,0,0,0,0,0,0,0,0,0,0,0,0,0,0,0,0,0,0,0,0,0,0,0,0,0,0,0,0,0,0,0,0,0,0,0,0,0,0,0,0,0,0,0,0,0,0,0,0,0,0,0,0,0,0,0,0,0,0,0,0,0,0,0,0,0,0,0,0,0,0,0,0,0,0,0,0,0,0,0,0,0,0,0,0],"sum_hessian":[1.045156E5,9.699797E4,7.5176333E3,9.59814E4,1.0165715E3,7.0334697E3,4.841633E2,9.542597E4,5.554286E2,7.9053064E2,2.2604083E2,6.968082E3,6.538776E1,4.7559186E2,8.571429E0,9.522539E4,2.0057144E2,3.989388E2,1.564898E2,7.736327E2,1.689796E1,2.1306123E2,1.2979592E1,6.8287354E3,1.3934695E2,3.4530613E1,3.0857145E1,7.8367352E0,4.6775513E2,7.1020412E0,1.4693879E0,9.490702E4,3.1836737E2,1.3567348E2,6.4897964E1,4.9959187E1,3.489796E2,1.5110205E2,5.3877554E0,7.711837E2,2.4489799E0,7.8367352E0,9.061225E0,2.0816328E2,4.8979597E0,9.795919E0,3.1836736E0,6.8250615E3,3.6734695E0,2.9387756E1,1.0995919E2,3.4285717E0,3.1102043E1,2.9632656E1,1.2244899E0,3.9183676E0,3.9183676E0,4.6089798E2,6.8571434E0,9.461658E4,2.90449E2,1.5355103E2,1.6481635E2,1.3420409E2,1.4693879E0,4.4081635E0,6.04898E1,4.236735E1,7.5918374E0,3.3722452E2,1.1755103E1,1.4718369E2,3.9183676E0,3.6734695E0,1.7142859E0,7.699592E2,1.2244899E0,6.6122456E0,1.2244899E0,7.8367352E0,1.2244899E0,2.0375511E2,4.4081635E0,2.6938777E0,2.2040818E0,8.571429E0,1.2244899E0,6.8118374E3,1.3224491E1,2.4489799E0,1.2244899E0,1.7632654E1,1.1755103E1,1.0751021E2,2.4489799E0,1.2244899E0,2.2040818E0,2.9632656E1,1.4693879E0,3.1836736E0,2.6448982E1,4.596735E2,1.2244899E0,3.4285717E0,3.4285717E0,9.446082E4,1.5575511E2,8.326531E1,2.0718369E2,1.3959184E2,1.3959185E1,1.6334695E2,1.4693879E0,1.329796E2,1.2244899E0,2.9387758E0,1.4693879E0,3.991837E1,2.4489799E0,6.1224494E0,1.4693879E0,3.3600003E2,1.2244899E0,1.0530613E1,1.2244899E0,1.4400002E2,3.1836736E0,1.4693879E0,2.4489799E0,7.6873474E2,1.2244899E0,1.2244899E0,6.6122456E0,1.2244899E0,3.1836736E0,6.8103677E3,1.4693879E0,5.1428576E0,8.081634E0,1.2489797E1,5.1428576E0,8.571429E0,3.1836736E0,1.0579593E2,1.7142859E0,1.2244899E0,1.2244899E0,2.7673471E1,1.9591838E0,1.4693879E0,1.7142859E0,1.9591838E0,2.4489798E1,4.5771432E2,1.9591838E0,2.2040818E0,1.2244899E0],"tree_param":{"num_deleted":"0","num_feature":"3000","num_nodes":"157","size_leaf_vector":"1"}},{"base_weights":[3.152855E-1,-4.4745466E-1,3.3531382E0,-5.057094E-1,2.5570507E0,4.2540044E-1,3.3931732E0,9.507641E-1,-5.4942966E-1,3.206824E0,-6.912801E-2,2.7595968E0,-4.092454E-1,3.4132605E0,-7.127101E-2,1.5655991E-1,3.1265934E0,-5.540724E-1,2.4309237E0,3.3296585E0,5.1777375E-1,-4.138136E-1,2.1670678E0,3.08151E0,-3.8181818E-1,8.637015E-1,-4.9911907E-1,3.4339056E0,1.7012964E0,-3.167188E-1,2.5782177E0,-1.0362186E-1,2.5021589E0,5.6247365E-1,3.3316991E0,-5.56083E-1,2.81623E0,-4.0106595E-1,3.3250377E0,3.369312E0,-3.270073E-1,-3.3790818E-1,2.990291E0,-4.8311147E-1,1.3675047E0,2.8893616E0,-1.5717256E-1,3.2304306E0,3.4146328E-2,-1.4861539E-1,3.8532108E-2,2.1206434E0,-1.5201074E-1,-5.13573E-1,1.6050954E-1,3.4398768E0,6.407322E-1,9.599781E-1,2.806078E0,-4.6781018E-1,3.7913737E-1,8.9287406E-1,1.1052631E-1,-2.4357139E-1,1.752258E0,2.953199E0,-3.2E-1,-4.4478717E-1,2.5565217E0,3.36111E0,-1.4264151E-1,-5.580966E-1,7.261885E-1,-2.6448363E-1,3.3639574E0,-5.290413E-1,3.818182E-1,1.0319892E0,-1.2762432E-1,1.4951456E0,3.38963E0,2.2105263E-1,-1.6073212E-1,-4.732974E-1,6.2479335E-1,9.721634E-1,3.8532108E-2,-5.0832486E-1,8.8537544E-1,7.916933E-1,-1.4110672E-1,3.1626227E0,-1.2426036E-1,3.2723484E0,1.733945E-1,-1.1586207E-1,1.733945E-1,8.2110727E-1,-3.293941E-9,-5.281473E-1,3.2642484E-1,2.8434627E0,3.4475777E0,-2.825112E-1,2.7355125E0,2.2678183E-1,1.5240978E0,1.9793103E0,3.2795732E0,-5.103011E-1,3.818182E-1,1.0649086E0,-2.658228E-1,-9.0201825E-2,6.612766E-1,7.6909536E-1,2.9722368E-2,9.343914E-1,-1.1454546E-1,-1.6748467E-1,5.5263156E-1,-1.6008969E-1,3.082569E-1,8.428188E-1,-9.633028E-2,1.0131533E0,3.33574E-1,-1.7101592E-1,-1.2504707E-1,9.2529565E-1,-1.10343195E-1,1.733945E-1,-1.4955491E-1,3.082569E-1,1.0232171E0,-1.6873631E-1,3.8532108E-2,7.765865E-1,-1.0063898E-1,1.0183543E0,-3.293941E-9,-1.631068E-1,2.2105263E-1,-1.5787329E-1,7.753845E-2,6.631579E-1,-1.2426036E-1,9.8477817E-1,3.8532108E-2,9.8997056E-1,3.082569E-1,-1.6148657E-1,1.733945E-1,-1.10526316E-1,3.082569E-1,9.313185E-1,1.8376851E-1,1.034611E0,2.5983772E-1,3.117904E-1,-1.4750181E-1,8.941272E-1,3.8532108E-2,4.2672E-1,-1.733584E-2,4.992967E-1,8.7318085E-2,6.680025E-1,1.5578635E-1,1.0165558E0,2.5025907E-1,1.8827586E-1,-1.6280954E-1,5.0474775E-1,-6.1463416E-2,2.2105263E-1,-1.5671642E-1],"categories":[],"categories_nodes":[],"categories_segments":[],"categories_sizes":[],"default_left":[0,0,0,0,0,0,0,0,0,0,0,0,0,0,0,0,0,0,0,0,0,0,0,0,0,0,0,0,0,0,0,0,0,0,0,0,0,0,0,0,0,0,0,0,0,0,0,0,0,0,0,0,0,0,0,0,0,0,0,0,0,0,0,0,0,0,0,0,0,0,0,0,0,0,0,0,0,0,0,0,0,0,0,0,0,0,0,0,0,0,0,0,0,0,0,0,0,0,0,0,0,0,0,0,0,0,0,0,0,0,0,0,0,0,0,0,0,0,0,0,0,0,0,0,0,0,0,0,0,0,0,0,0,0,0,0,0,0,0,0,0,0,0,0,0,0,0,0,0,0,0,0,0,0,0,0,0,0,0,0,0,0,0,0,0,0,0,0,0,0,0,0,0,0,0,0,0],"id":1,"left_children":[1,3,5,7,9,11,13,15,17,19,21,23,25,27,29,31,33,35,37,39,41,43,45,47,49,51,53,55,57,59,61,63,65,67,69,71,73,75,77,79,81,83,85,87,89,91,-1,93,95,-1,-1,97,-1,99,-1,101,103,105,107,109,111,-1,-1,113,115,117,119,121,123,125,-1,127,129,131,133,135,-1,-1,-1,137,139,-1,-1,141,-1,-1,-1,143,145,-1,-1,147,-1,149,-1,-1,-1,-1,-1,151,153,155,157,159,161,163,165,167,169,171,-1,173,175,-1,-1,-1,-1,-1,-1,-1,-1,-1,-1,-1,-1,-1,-1,-1,-1,-1,-1,-1,-1,-1,-1,-1,-1,-1,-1,-1,-1,-1,-1,-1,-1,-1,-1,-1,-1,-1,-1,-1,-1,-1,-1,-1,-1,-1,-1,-1,-1,-1,-1,-1,-1,-1,-1,-1,-1,-1,-1,-1,-1,-1,-1,-1,-1],"loss_changes":[2.4217611E5,1.4623381E4,2.4571406E3,5.219135E3,2.712002E3,5.546248E2,1.4402656E3,4.1274053E3,1.1022949E3,4.1908203E2,2.4460623E2,7.698004E1,2.4472363E1,7.2128125E2,7.9026436E1,1.0688883E3,3.3403662E2,5.399121E2,3.1516162E2,1.7773242E2,1.2125927E2,3.458191E1,8.390181E1,3.079535E1,5.189351E-1,2.557647E1,3.2182236E0,3.3682812E2,1.9969824E2,1.184338E1,7.968376E0,4.1006265E2,2.2354797E2,9.857114E1,6.779639E1,2.0540625E2,8.109247E1,7.2349696E0,4.2111816E1,4.0823242E1,3.4995923E0,1.51176605E1,1.0121979E1,9.602119E0,2.5896774E1,3.1616058E1,0E0,5.326538E0,1.1796205E0,0E0,0E0,9.950142E0,0E0,2.5561676E0,0E0,8.334375E1,8.7013084E1,6.1451157E1,3.2152466E1,7.424843E0,9.28243E0,0E0,0E0,2.0577432E2,1.482561E2,8.242212E1,1.3908195E1,4.875648E0,1.2856789E1,1.7451172E1,0E0,1.3366016E2,3.233979E2,1.8855674E0,9.128723E-1,7.129135E-1,0E0,0E0,0E0,3.0322361E1,1.9726562E1,0E0,0E0,3.9487896E0,0E0,0E0,0E0,3.7233734E0,9.807442E0,0E0,0E0,1.0907379E1,0E0,5.489502E-1,0E0,0E0,0E0,0E0,0E0,2.4623718E0,2.2973557E0,1.5193091E2,5.51875E1,9.318613E0,8.38681E0,2.2586285E1,1.4085251E1,1.2737244E1,1.3489746E1,3.6636658E0,0E0,8.234715E0,3.2881563E0,0E0,0E0,0E0,0E0,0E0,0E0,0E0,0E0,0E0,0E0,0E0,0E0,0E0,0E0,0E0,0E0,0E0,0E0,0E0,0E0,0E0,0E0,0E0,0E0,0E0,0E0,0E0,0E0,0E0,0E0,0E0,0E0,0E0,0E0,0E0,0E0,0E0,0E0,0E0,0E0,0E0,0E0,0E0,0E0,0E0,0E0,0E0,0E0,0E0,0E0,0E0,0E0,0E0,0E0,0E0,0E0,0E0,0E0,0E0,0E0,0E0,0E0,0E0,0E0],"parents":[2147483647,0,0,1,1,2,2,3,3,4,4,5,5,6,6,7,7,8,8,9,9,10,10,11,11,12,12,13,13,14,14,15,15,16,16,17,17,18,18,19,19,20,20,21,21,22,22,23,23,24,24,25,25,26,26,27,27,28,28,29,29,30,30,31,31,32,32,33,33,34,34,35,35,36,36,37,37,38,38,39,39,40,40,41,41,42,42,43,43,44,44,45,45,47,47,48,48,51,51,53,53,55,55,56,56,57,57,58,58,59,59,60,60,63,63,64,64,65,65,66,66,67,67,68,68,69,69,71,71,72,72,73,73,74,74,75,75,79,79,80,80,83,83,87,87,88,88,91,91,93,93,99,99,100,100,101,101,102,102,103,103,104,104,105,105,106,106,107,107,108,108,109,109,111,111,112,112],"right_children":[2,4,6,8,10,12,14,16,18,20,22,24,26,28,30,32,34,36,38,40,42,44,46,48,50,52,54,56,58,60,62,64,66,68,70,72,74,76,78,80,82,84,86,88,90,92,-1,94,96,-1,-1,98,-1,100,-1,102,104,106,108,110,112,-1,-1,114,116,118,120,122,124,126,-1,128,130,132,134,136,-1,-1,-1,138,140,-1,-1,142,-1,-1,-1,144,146,-1,-1,148,-1,150,-1,-1,-1,-1,-1,152,154,156,158,160,162,164,166,168,170,172,-1,174,176,-1,-1,-1,-1,-1,-1,-1,-1,-1,-1,-1,-1,-1,-1,-1,-1,-1,-1,-1,-1,-1,-1,-1,-1,-1,-1,-1,-1,-1,-1,-1,-1,-1,-1,-1,-1,-1,-1,-1,-1,-1,-1,-1,-1,-1,-1,-1,-1,-1,-1,-1,-1,-1,-1,-1,-1,-1,-1,-1,-1,-1,-1,-1,-1],"split_conditions":[1E0,1E0,1E0,1E0,4E0,1E0,2E0,1E0,2E0,6E0,3E0,1E0,2E0,4E0,9E0,1E0,1E0,9E0,2E0,5E0,2E0,1E0,3E0,2E0,1E0,1E0,3E0,9E0,7E0,1.3E1,9E0,1E0,6E0,1E0,2.4E1,2E0,2E0,1E0,2.1E1,1E0,1E0,1E0,5E0,2E0,1.7E1,1.9E1,-1.5717256E-1,7E0,3E0,-1.4861539E-1,3.8532108E-2,1E0,-1.5201074E-1,4E0,1.6050954E-1,1E0,4E0,1E0,2E0,1.1E1,1.2E1,8.9287406E-1,1.1052631E-1,1E0,1E0,2E0,2E0,1E0,1E0,2E0,-1.4264151E-1,1E0,1.5E1,2E0,4E0,3E0,3.818182E-1,1.0319892E0,-1.2762432E-1,1E0,7E0,2.2105263E-1,-1.6073212E-1,1E0,6.2479335E-1,9.721634E-1,3.8532108E-2,2E0,1E0,7.916933E-1,-1.4110672E-1,2E0,-1.2426036E-1,3E0,1.733945E-1,-1.1586207E-1,1.733945E-1,8.2110727E-1,-3.293941E-9,4E0,1E0,5E0,1.9E1,2E0,3E0,3E0,3E0,2E0,3E0,1E0,3.818182E-1,2E0,1E0,-9.0201825E-2,6.612766E-1,7.6909536E-1,2.9722368E-2,9.343914E-1,-1.1454546E-1,-1.6748467E-1,5.5263156E-1,-1.6008969E-1,3.082569E-1,8.428188E-1,-9.633028E-2,1.0131533E0,3.33574E-1,-1.7101592E-1,-1.2504707E-1,9.2529565E-1,-1.10343195E-1,1.733945E-1,-1.4955491E-1,3.082569E-1,1.0232171E0,-1.6873631E-1,3.8532108E-2,7.765865E-1,-1.0063898E-1,1.0183543E0,-3.293941E-9,-1.631068E-1,2.2105263E-1,-1.5787329E-1,7.753845E-2,6.631579E-1,-1.2426036E-1,9.8477817E-1,3.8532108E-2,9.8997056E-1,3.082569E-1,-1.6148657E-1,1.733945E-1,-1.10526316E-1,3.082569E-1,9.313185E-1,1.8376851E-1,1.034611E0,2.5983772E-1,3.117904E-1,-1.4750181E-1,8.941272E-1,3.8532108E-2,4.2672E-1,-1.733584E-2,4.992967E-1,8.7318085E-2,6.680025E-1,1.5578635E-1,1.0165558E0,2.5025907E-1,1.8827586E-1,-1.6280954E-1,5.0474775E-1,-6.1463416E-2,2.2105263E-1,-1.5671642E-1],"split_indices":[1207,2888,1558,1322,464,1322,1422,447,1157,1322,1445,2467,1322,1030,447,1339,2481,447,1558,1334,2458,1157,1902,1945,1045,1778,2309,1334,2484,2958,1103,2005,464,2124,464,478,419,2106,464,2481,25,859,549,1435,464,533,0,916,2304,0,0,2863,0,2683,0,1223,447,1407,2313,1374,406,0,0,478,540,1902,1404,1241,2265,1030,0,1647,464,769,1212,1866,0,0,0,1322,1499,0,0,909,0,0,0,1339,522,0,0,818,0,2340,0,0,0,0,0,2458,1281,365,1735,1712,2654,2824,2244,2639,1105,2773,0,2276,1054,0,0,0,0,0,0,0,0,0,0,0,0,0,0,0,0,0,0,0,0,0,0,0,0,0,0,0,0,0,0,0,0,0,0,0,0,0,0,0,0,0,0,0,0,0,0,0,0,0,0,0,0,0,0,0,0,0,0,0,0,0,0,0,0],"split_type":[0,0,0,0,0,0,0,0,0,0,0,0,0,0,0,0,0,0,0,0,0,0,0,0,0,0,0,0,0,0,0,0,0,0,0,0,0,0,0,0,0,0,0,0,0,0,0,0,0,0,0,0,0,0,0,0,0,0,0,0,0,0,0,0,0,0,0,0,0,0,0,0,0,0,0,0,0,0,0,0,0,0,0,0,0,0,0,0,0,0,0,0,0,0,0,0,0,0,0,0,0,0,0,0,0,0,0,0,0,0,0,0,0,0,0,0,0,0,0,0,0,0,0,0,0,0,0,0,0,0,0,0,0,0,0,0,0,0,0,0,0,0,0,0,0,0,0,0,0,0,0,0,0,0,0,0,0,0,0,0,0,0,0,0,0,0,0,0,0,0,0,0,0,0,0,0,0],"sum_hessian":[1.045156E5,8.354107E4,2.0974531E4,8.195291E4,1.5881633E3,2.8310205E2,2.069143E4,2.3877554E3,7.956515E4,1.2729797E3,3.151837E2,7.395919E1,2.0914287E2,2.0572164E4,1.1926531E2,1.7500409E3,6.3771436E2,7.944221E4,1.2293878E2,1.217143E3,5.583674E1,2.7379593E2,4.1387756E1,6.710204E1,6.8571434E0,1.3224491E1,1.9591838E2,2.0326043E4,2.4612247E2,1.0995919E2,9.306123E0,1.5761633E3,1.7387756E2,4.751021E1,5.902041E2,7.939568E4,4.6530617E1,2.9632656E1,9.330613E1,1.2041633E3,1.2979592E1,4.212245E1,1.3714287E1,2.642449E2,9.551021E0,3.257143E1,8.816327E0,6.3918373E1,3.1836736E0,5.632653E0,1.2244899E0,6.6122456E0,6.6122456E0,1.937143E2,2.2040818E0,2.0282451E4,4.359184E1,1.4840817E2,9.7714294E1,9.061225E1,1.9346941E1,7.5918374E0,1.7142859E0,1.4664491E3,1.09714294E2,1.4987756E2,2.4000002E1,3.2081635E1,1.5428573E1,5.8579596E2,4.4081635E0,7.927176E4,1.2391837E2,7.1020412E0,3.9428574E1,2.8163267E1,1.4693879E0,9.061225E1,2.6938777E0,1.3714287E1,1.1904491E3,1.7142859E0,1.1265306E1,4.0653065E1,1.4693879E0,1.2489797E1,1.2244899E0,2.6008167E2,4.1632657E0,5.3877554E0,4.1632657E0,3.0122452E1,2.4489799E0,6.2693882E1,1.2244899E0,1.9591838E0,1.2244899E0,4.8979597E0,1.7142859E0,1.9077553E2,2.9387758E0,2.6326532E2,2.0019186E4,3.0857145E1,1.27346945E1,6.514286E1,8.326531E1,3.746939E1,6.0244904E1,8.914286E1,1.4693879E0,9.061225E0,1.0285715E1,1.4338777E3,3.257143E1,7.3224495E1,3.64898E1,1.4302042E2,6.8571434E0,2.2285715E1,1.7142859E0,3.0857145E1,1.2244899E0,1.42040825E1,1.2244899E0,5.811429E2,4.6530614E0,7.308344E4,6.188327E3,3.8693882E1,8.5224495E1,1.2244899E0,5.8775516E0,1.2244899E0,3.8204082E1,2.6938778E1,1.2244899E0,8.326531E0,5.3877554E0,1.1887347E3,1.7142859E0,3.8938778E1,1.7142859E0,2.54449E2,5.632653E0,1.7142859E0,2.4489799E0,2.889796E1,1.2244899E0,6.146939E1,1.2244899E0,1.8955104E2,1.2244899E0,1.7142859E0,1.2244899E0,2.3534695E2,2.791837E1,2.0010123E4,9.061225E0,3.6734695E0,2.7183676E1,1.1510205E1,1.2244899E0,1.1755103E1,5.338776E1,7.444898E1,8.816327E0,3.1591839E1,5.8775516E0,5.7306126E1,2.9387758E0,1.9591838E0,8.718368E1,5.8775516E0,3.1836736E0,1.7142859E0,8.571429E0],"tree_param":{"num_deleted":"0","num_feature":"3000","num_nodes":"177","size_leaf_vector":"1"}},{"base_weights":[-1.5011425E-1,-4.627258E-1,3.3409207E0,-5.349717E-1,2.82778E0,3.37226E0,-1.3797636E-1,-5.553379E-1,1.741891E0,3.2215035E0,5.4528385E-1,6.048932E-1,3.3846633E0,1.6835442E0,-4.4107845E-1,-5.613999E-1,9.7944623E-1,3.2980964E0,-4.6010748E-1,2.1561076E-1,3.322683E0,-3.1990546E-1,2.364845E0,2.4627736E0,-4.085603E-1,3.4010706E0,2.2308464E0,-1.263538E-1,8.916923E-1,-5.414876E-1,5.5999994E-1,-5.683378E-1,-3.2616074E-3,-4.3963945E-1,2.9273734E0,3.3174026E0,2.731707E-1,2.2985075E0,-5.37092E-1,-3.92938E-1,2.1291246E0,3.3737035E0,-1.6733923E-8,-5.215118E-1,1.5083251E0,2.9649498E0,3.339115E-1,2.7552E0,-9.633028E-2,-1.6793075E-1,3.818182E-1,1.9630995E0,3.4073555E0,3.039702E0,1.4819918E0,-1.3548388E-1,1.733945E-1,-1.7208433E-1,1.1052631E-1,1.4696132E0,-1.3056995E-1,-5.698216E-1,9.7253627E-1,2.9623282E0,-5.3717595E-1,1.3752211E0,-5.409059E-1,5.827261E-2,3.3197715E0,2.6542463E0,3.3650842E0,-1.1586207E-1,3.082569E-1,8.4634763E-1,-1.04132235E-1,-5.6066614E-1,5.7159764E-1,-5.457627E-1,1.3419689E0,2.5233967E0,1.6568045E-1,3.3817697E0,1.10671915E-1,-1.6723981E-1,7.304348E-1,-5.531398E-1,1.3254437E0,2.6475036E0,-1.5403423E-1,3.1447253E0,-2.614108E-1,-2.3906083E-1,2.298113E0,9.0379745E-1,1.3884297E-1,2.627938E0,-4.1356674E-1,3.4103603E0,1.0948418E0,3.1583111E0,9.032258E-1,1.152042E0,2.4486344E0,6.2479335E-1,3.8532108E-2,-1.7263062E-1,-8.952047E-2,8.332643E-1,-1.4148633E-1,9.3149537E-1,9.438198E-3,-1.6825019E-1,7.544236E-1,-8.716981E-2,7.3409736E-1,-1.696539E-1,5.7798165E-1,-1.6450429E-1,7.834197E-1,1.0217525E0,-6.1463416E-2,8.430198E-1,2.2536585E-1,4.4140127E-1,1.0113423E0,-1.7087492E-1,3.082569E-1,-1.707232E-1,3.8532108E-2,6.631579E-1,-9.633028E-2,8.3675045E-1,3.8532108E-2,1.733945E-1,-9.633028E-2,1.0167731E0,1.7436823E-1,-1.3056995E-1,3.082569E-1,-1.7238629E-1,1.5365854E-1,5.7798165E-1,3.8532108E-2,9.1273344E-1,-1.04132235E-1,6.6878974E-2,9.702259E-1,-1.2762432E-1,3.8532108E-2,-1.6465622E-1,4.4140127E-1,7.990244E-1,1.733945E-1,8.288313E-1,-9.633028E-2,-1.5340051E-1,3.8532108E-2,1.0254971E0,8.3491147E-1,-1.4651163E-1,6.91977E-1,1.8827586E-1,9.723895E-1,5.5263156E-1,-1.10526316E-1,4.3785673E-1,1.2782608E-1,8.772152E-1,3.0113208E-1],"categories":[],"categories_nodes":[],"categories_segments":[],"categories_sizes":[],"default_left":[0,0,0,0,0,0,0,0,0,0,0,0,0,0,0,0,0,0,0,0,0,0,0,0,0,0,0,0,0,0,0,0,0,0,0,0,0,0,0,0,0,0,0,0,0,0,0,0,0,0,0,0,0,0,0,0,0,0,0,0,0,0,0,0,0,0,0,0,0,0,0,0,0,0,0,0,0,0,0,0,0,0,0,0,0,0,0,0,0,0,0,0,0,0,0,0,0,0,0,0,0,0,0,0,0,0,0,0,0,0,0,0,0,0,0,0,0,0,0,0,0,0,0,0,0,0,0,0,0,0,0,0,0,0,0,0,0,0,0,0,0,0,0,0,0,0,0,0,0,0,0,0,0,0,0,0,0,0,0,0,0,0,0,0,0,0,0,0,0],"id":2,"left_children":[1,3,5,7,9,11,13,15,17,19,21,23,25,27,29,31,33,35,37,39,41,43,45,47,49,51,53,55,-1,57,59,61,63,65,67,69,71,73,75,77,79,81,83,85,87,89,91,93,-1,-1,-1,95,97,99,101,-1,-1,-1,-1,103,-1,105,107,109,111,113,115,117,119,121,123,-1,-1,-1,-1,125,-1,127,129,131,133,135,137,-1,-1,139,141,143,-1,145,147,149,151,-1,-1,153,155,157,159,161,163,165,167,-1,-1,-1,-1,-1,-1,-1,-1,-1,-1,-1,-1,-1,-1,-1,-1,-1,-1,-1,-1,-1,-1,-1,-1,-1,-1,-1,-1,-1,-1,-1,-1,-1,-1,-1,-1,-1,-1,-1,-1,-1,-1,-1,-1,-1,-1,-1,-1,-1,-1,-1,-1,-1,-1,-1,-1,-1,-1,-1,-1,-1,-1,-1,-1,-1,-1],"loss_changes":[1.1406447E5,2.2805938E4,9.370078E2,4.353701E3,1.8504805E3,2.9015625E2,4.3615353E1,8.661465E2,2.8540522E3,5.338496E2,4.8000778E2,7.48226E1,1.5286719E2,2.6699839E1,7.0748243E0,3.588457E2,1.01408374E3,2.758496E1,7.462373E1,6.873215E1,2.8825E2,7.71585E1,1.1872333E2,1.2265167E1,7.3793697E0,6.88125E1,6.923175E1,1.5560924E0,0E0,2.0159912E0,6.6440144E0,2.0983594E2,1.8047277E3,3.985994E1,1.7380481E2,6.3935547E0,2.477808E0,1.4213982E1,2.0472E1,1.2685189E1,1.0593544E1,4.3703125E1,3.761684E1,1.1678314E1,4.9349693E1,4.4726135E1,2.7031523E1,6.133705E0,0E0,0E0,0E0,6.2259277E1,5.40625E1,1.1736267E1,1.7962479E1,0E0,0E0,0E0,0E0,2.7695422E0,0E0,1.3916406E2,2.3181854E2,7.261011E1,7.115051E1,2.1297085E1,1.3373238E1,3.1806969E1,4.193701E1,8.933197E0,1.8359375E-1,0E0,0E0,0E0,0E0,5.323082E0,0E0,7.3552704E-1,6.3992505E0,7.137001E0,8.7780255E-1,3.2996094E1,3.0314968E0,0E0,0E0,4.526104E0,2.234407E0,1.7010368E1,0E0,1.8019165E1,3.6910594E-1,1.0939957E1,1.858902E0,0E0,0E0,1.2970154E1,5.59899E-1,3.1960938E1,2.465693E1,9.336731E0,5.966043E0,1.0643738E1,7.845192E0,0E0,0E0,0E0,0E0,0E0,0E0,0E0,0E0,0E0,0E0,0E0,0E0,0E0,0E0,0E0,0E0,0E0,0E0,0E0,0E0,0E0,0E0,0E0,0E0,0E0,0E0,0E0,0E0,0E0,0E0,0E0,0E0,0E0,0E0,0E0,0E0,0E0,0E0,0E0,0E0,0E0,0E0,0E0,0E0,0E0,0E0,0E0,0E0,0E0,0E0,0E0,0E0,0E0,0E0,0E0,0E0,0E0,0E0,0E0,0E0,0E0,0E0,0E0,0E0,0E0,0E0],"parents":[2147483647,0,0,1,1,2,2,3,3,4,4,5,5,6,6,7,7,8,8,9,9,10,10,11,11,12,12,13,13,14,14,15,15,16,16,17,17,18,18,19,19,20,20,21,21,22,22,23,23,24,24,25,25,26,26,27,27,29,29,30,30,31,31,32,32,33,33,34,34,35,35,36,36,37,37,38,38,39,39,40,40,41,41,42,42,43,43,44,44,45,45,46,46,47,47,51,51,52,52,53,53,54,54,59,59,61,61,62,62,63,63,64,64,65,65,66,66,67,67,68,68,69,69,70,70,75,75,77,77,78,78,79,79,80,80,81,81,82,82,85,85,86,86,87,87,89,89,90,90,91,91,92,92,95,95,96,96,97,97,98,98,99,99,100,100,101,101,102,102],"right_children":[2,4,6,8,10,12,14,16,18,20,22,24,26,28,30,32,34,36,38,40,42,44,46,48,50,52,54,56,-1,58,60,62,64,66,68,70,72,74,76,78,80,82,84,86,88,90,92,94,-1,-1,-1,96,98,100,102,-1,-1,-1,-1,104,-1,106,108,110,112,114,116,118,120,122,124,-1,-1,-1,-1,126,-1,128,130,132,134,136,138,-1,-1,140,142,144,-1,146,148,150,152,-1,-1,154,156,158,160,162,164,166,168,-1,-1,-1,-1,-1,-1,-1,-1,-1,-1,-1,-1,-1,-1,-1,-1,-1,-1,-1,-1,-1,-1,-1,-1,-1,-1,-1,-1,-1,-1,-1,-1,-1,-1,-1,-1,-1,-1,-1,-1,-1,-1,-1,-1,-1,-1,-1,-1,-1,-1,-1,-1,-1,-1,-1,-1,-1,-1,-1,-1,-1,-1,-1,-1,-1,-1],"split_conditions":[1E0,1E0,3E0,1.7E1,2E0,1E0,2E0,1E0,1.2E1,4E0,4E0,2E0,1E0,2E0,3E0,9E0,1.1E1,1E0,3E0,4E0,2E0,4.5E1,2E0,1E0,1E0,5E0,1.7E1,1E0,8.916923E-1,4E0,3E0,1.9E1,8E0,1E1,1E0,7E0,3E0,1.1E1,2E0,4E0,1E0,2E0,8E0,1E0,2E0,1E0,3E0,1E0,-9.633028E-2,-1.6793075E-1,3.818182E-1,4E0,1.9E1,1E0,1E1,-1.3548388E-1,1.733945E-1,-1.7208433E-1,1.1052631E-1,1.8E1,-1.3056995E-1,1E0,4E0,1E0,2E0,1E0,3E0,1E0,1.1E1,2E0,9E0,-1.1586207E-1,3.082569E-1,8.4634763E-1,-1.04132235E-1,2E0,5.7159764E-1,1.7E1,2E0,1E0,1E0,4E0,3E0,-1.6723981E-1,7.304348E-1,8E0,1.3E1,6E0,-1.5403423E-1,1.6E1,2E0,2.7E1,1E0,9.0379745E-1,1.3884297E-1,1E0,1E0,2E0,8E0,2E0,9E0,1.9E1,6E0,6.2479335E-1,3.8532108E-2,-1.7263062E-1,-8.952047E-2,8.332643E-1,-1.4148633E-1,9.3149537E-1,9.438198E-3,-1.6825019E-1,7.544236E-1,-8.716981E-2,7.3409736E-1,-1.696539E-1,5.7798165E-1,-1.6450429E-1,7.834197E-1,1.0217525E0,-6.1463416E-2,8.430198E-1,2.2536585E-1,4.4140127E-1,1.0113423E0,-1.7087492E-1,3.082569E-1,-1.707232E-1,3.8532108E-2,6.631579E-1,-9.633028E-2,8.3675045E-1,3.8532108E-2,1.733945E-1,-9.633028E-2,1.0167731E0,1.7436823E-1,-1.3056995E-1,3.082569E-1,-1.7238629E-1,1.5365854E-1,5.7798165E-1,3.8532108E-2,9.1273344E-1,-1.04132235E-1,6.6878974E-2,9.702259E-1,-1.2762432E-1,3.8532108E-2,-1.6465622E-1,4.4140127E-1,7.990244E-1,1.733945E-1,8.288313E-1,-9.633028E-2,-1.5340051E-1,3.8532108E-2,1.0254971E0,8.3491147E-1,-1.4651163E-1,6.91977E-1,1.8827586E-1,9.723895E-1,5.5263156E-1,-1.10526316E-1,4.3785673E-1,1.2782608E-1,8.772152E-1,3.0113208E-1],"split_indices":[1422,1768,447,2831,769,2255,2458,671,2844,1469,2831,619,541,2609,408,2831,464,261,2053,2124,447,464,581,16,684,2368,1426,2562,0,2328,1564,1735,2844,2230,2124,1469,1027,1562,324,592,48,2517,1334,671,1074,261,1768,2575,0,0,0,155,1442,655,1521,0,0,0,0,512,0,2160,998,2383,1090,464,1081,2371,1431,722,2338,0,0,0,0,2152,0,2644,2820,717,512,2458,523,0,0,1735,5,1570,0,2368,1025,1735,2608,0,0,1800,2567,2458,2036,797,619,2831,1778,0,0,0,0,0,0,0,0,0,0,0,0,0,0,0,0,0,0,0,0,0,0,0,0,0,0,0,0,0,0,0,0,0,0,0,0,0,0,0,0,0,0,0,0,0,0,0,0,0,0,0,0,0,0,0,0,0,0,0,0,0,0,0,0,0,0],"split_type":[0,0,0,0,0,0,0,0,0,0,0,0,0,0,0,0,0,0,0,0,0,0,0,0,0,0,0,0,0,0,0,0,0,0,0,0,0,0,0,0,0,0,0,0,0,0,0,0,0,0,0,0,0,0,0,0,0,0,0,0,0,0,0,0,0,0,0,0,0,0,0,0,0,0,0,0,0,0,0,0,0,0,0,0,0,0,0,0,0,0,0,0,0,0,0,0,0,0,0,0,0,0,0,0,0,0,0,0,0,0,0,0,0,0,0,0,0,0,0,0,0,0,0,0,0,0,0,0,0,0,0,0,0,0,0,0,0,0,0,0,0,0,0,0,0,0,0,0,0,0,0,0,0,0,0,0,0,0,0,0,0,0,0,0,0,0,0,0,0],"sum_hessian":[1.045156E5,9.592654E4,8.589062E3,9.386645E4,2.0600818E3,8.512409E3,7.665307E1,9.303502E4,8.3142865E2,1.7566532E3,3.034286E2,3.8204082E1,8.474205E3,1.0285715E1,6.6367355E1,9.266964E4,3.653878E2,4.8685718E2,3.4457144E2,5.7306126E1,1.699347E3,2.062041E2,9.7224495E1,1.2979592E1,2.5224491E1,8.35347E3,1.207347E2,4.6530614E0,5.632653E0,6.07347E1,5.632653E0,9.153184E4,1.137796E3,2.1183675E2,1.5355103E2,4.836735E2,3.1836736E0,8.571429E0,3.3600003E2,4.4081635E1,1.3224491E1,1.6736328E3,2.5714287E1,1.8636736E2,1.9836737E1,7.4693886E1,2.2530613E1,1.1755103E1,1.2244899E0,2.3755104E1,1.4693879E0,3.7714287E1,8.315756E3,5.6571434E1,6.416327E1,3.4285717E0,1.2244899E0,5.9020412E1,1.7142859E0,2.6938777E0,2.9387758E0,9.1444414E4,8.742858E1,1.7289796E2,9.64898E2,1.0530613E1,2.0130614E2,1.8612246E1,1.3493878E2,3.62449E1,4.474286E2,1.9591838E0,1.2244899E0,7.1020412E0,1.4693879E0,3.3355106E2,2.4489799E0,4.114286E1,2.9387758E0,1.0775511E1,2.4489799E0,1.6694695E3,4.1632657E0,2.1551022E1,4.1632657E0,1.8391838E2,2.4489799E0,1.2489797E1,7.346939E0,7.077551E1,3.9183676E0,1.812245E1,4.4081635E0,1.0285715E1,1.4693879E0,2.9387756E1,8.326531E0,8.30449E3,1.1265306E1,5.314286E1,3.4285717E0,4.946939E1,1.4693878E1,1.4693879E0,1.2244899E0,8.959029E4,1.8541226E3,3.8448982E1,4.8979595E1,1.6481635E2,8.081634E0,9.5828577E2,6.6122456E0,4.4081635E0,6.1224494E0,2.0008165E2,1.2244899E0,1.56734705E1,2.9387758E0,1.3175511E2,3.1836736E0,3.3061226E1,3.1836736E0,2.2040818E0,4.4522452E2,3.3232657E2,1.2244899E0,3.991837E1,1.2244899E0,1.7142859E0,1.2244899E0,9.551021E0,1.2244899E0,1.2244899E0,1.2244899E0,1.6648164E3,4.6530614E0,2.9387758E0,1.2244899E0,1.8073471E2,3.1836736E0,1.2244899E0,1.2244899E0,1.1020409E1,1.4693879E0,2.2040818E0,6.8571434E1,2.6938777E0,1.2244899E0,1.5918368E1,2.2040818E0,3.1836736E0,1.2244899E0,2.8163267E1,1.2244899E0,7.1020412E0,1.2244899E0,8.196001E3,1.0848981E2,5.1428576E0,6.1224494E0,1.9591838E0,5.1183678E1,1.7142859E0,1.7142859E0,3.4040817E1,1.5428573E1,1.0285715E1,4.4081635E0],"tree_param":{"num_deleted":"0","num_feature":"3000","num_nodes":"169","size_leaf_vector":"1"}},{"base_weights":[-3.681179E-1,-5.690678E-1,2.898191E0,-5.763221E-1,2.282298E0,3.4078076E0,-2.4247319E-1,-5.7817185E-1,2.239823E0,3.396103E0,-4.657534E-1,2.5939947E-1,3.4533818E0,-4.9653518E-1,9.440883E-1,-5.7932067E-1,1.2420465E0,3.3550293E0,-2.6738492E-1,-3.293941E-9,3.4291167E0,-5.591264E-1,2.9928738E-1,-1.1575664E-1,2.4584103E0,3.4768338E0,1.609591E0,-5.279923E-1,6.043165E-1,2.3510048E0,-2.9070652E-1,-5.7962614E-1,2.1866913E0,2.649842E0,-2.729676E-1,1.0190454E0,3.082569E-1,1.0355029E0,-4.9722528E-1,1.0354388E0,3.8532108E-2,-1.72263E-1,1.735537E-2,4.846154E-1,-1.4651163E-1,-2.799067E-1,1.8537549E0,9.052517E-1,-1.10526316E-1,3.4823194E0,6.4695007E-1,6.876668E-1,2.762771E0,-5.3665894E-1,1.3254437E0,2.4819944E0,-4.6596065E-1,2.7995057E0,2.1571647E-1,-3.7679198E-1,8.1395346E-1,-5.802459E-1,2.865379E-1,2.6958423E0,-1.10526316E-1,-3.0567698E-2,2.9943058E0,-4.9086922E-1,1.3419689E0,-9.633028E-2,5.7798165E-1,-1.6480382E-1,3.8532108E-2,-3.6931622E-1,1.3254437E0,7.0725393E-1,3.8532108E-2,3.4854667E0,5.05415E-2,-3.8181818E-1,7.2731704E-1,1.2695794E-1,1.5994357E0,2.9992428E0,-2.6751596E-2,-5.4671204E-1,6.038338E-1,5.7798165E-1,3.8532108E-2,8.642599E-1,2.2105263E-1,-1.6073212E-1,3.8532108E-2,8.463476E-1,3.0563378E0,-3.5443038E-1,6.9517237E-1,-4.1380256E-1,3.082569E-1,1.7403314E0,-1.2426036E-1,-1.7411657E-1,3.2009238E-1,6.443405E-1,-1.5949367E-1,9.20403E-1,3.8532108E-2,-1.2426036E-1,1.733945E-1,9.562641E-1,-1.04132235E-1,-1.6832684E-1,1.1052631E-1,6.631579E-1,-9.633028E-2,-1.344489E-1,2.7845305E-1,3.8532108E-2,5.7798165E-1,1.0461127E0,4.970414E-2,-1.3548388E-1,3.082569E-1,-1.4861539E-1,3.8532108E-2,-8.390677E-2,3.3739612E-1,5.7304496E-1,-2.6751596E-2,9.381905E-1,1.3884297E-1,-1.6825886E-1,-3.865031E-2,5.937931E-1,-1.3548388E-1,5.043668E-1,-6.774194E-2,4.5696822E-1,9.842823E-1,-1.576065E-1,1.733945E-1,5.377716E-3,-1.5686747E-1,6.2479335E-1,1.733945E-1],"categories":[],"categories_nodes":[],"categories_segments":[],"categories_sizes":[],"default_left":[0,0,0,0,0,0,0,0,0,0,0,0,0,0,0,0,0,0,0,0,0,0,0,0,0,0,0,0,0,0,0,0,0,0,0,0,0,0,0,0,0,0,0,0,0,0,0,0,0,0,0,0,0,0,0,0,0,0,0,0,0,0,0,0,0,0,0,0,0,0,0,0,0,0,0,0,0,0,0,0,0,0,0,0,0,0,0,0,0,0,0,0,0,0,0,0,0,0,0,0,0,0,0,0,0,0,0,0,0,0,0,0,0,0,0,0,0,0,0,0,0,0,0,0,0,0,0,0,0,0,0,0,0,0,0,0,0,0,0,0,0,0,0,0,0],"id":3,"left_children":[1,3,5,7,9,11,13,15,17,19,21,23,25,27,29,31,33,35,37,-1,39,41,43,45,47,49,51,53,55,57,59,61,63,65,67,-1,-1,69,71,-1,-1,-1,-1,-1,-1,73,75,-1,-1,77,79,81,83,85,87,89,91,93,95,97,99,101,103,105,-1,107,109,111,113,-1,-1,-1,-1,115,117,-1,-1,119,121,123,-1,125,127,129,-1,131,133,-1,-1,-1,-1,-1,-1,135,137,139,-1,141,-1,143,-1,-1,-1,-1,-1,-1,-1,-1,-1,-1,-1,-1,-1,-1,-1,-1,-1,-1,-1,-1,-1,-1,-1,-1,-1,-1,-1,-1,-1,-1,-1,-1,-1,-1,-1,-1,-1,-1,-1,-1,-1,-1,-1,-1,-1],"loss_changes":[6.8602625E4,2.0379141E3,9.696184E3,5.1291016E2,7.6696765E2,7.469453E2,2.5569481E2,2.0595703E2,1.8172763E2,1.9964111E1,5.3820305E0,6.2527897E1,2.1655469E2,2.4489853E1,2.6066876E2,8.414453E1,1.3343762E2,8.70636E-1,6.7545686E0,0E0,1.2563232E1,6.419258E-1,9.695519E0,2.166504E1,1.856137E1,7.6484375E1,6.867993E1,1.1620071E1,4.1062138E1,6.649225E1,7.9705877E0,5.2816406E1,1.5356632E1,2.9957596E1,1.1524457E1,0E0,0E0,4.7880135E0,6.701851E-1,0E0,0E0,0E0,0E0,0E0,0E0,9.280209E0,4.184807E0,0E0,0E0,5.45E1,2.1114624E1,1.933871E1,1.9935287E1,8.0885315E0,2.234407E0,3.0056076E0,6.2860036E-1,2.6415894E1,1.6691044E1,4.3466167E0,7.709793E0,2.3640625E1,1.089538E2,8.517479E0,0E0,1.3304684E0,1.962082E1,1.8925314E0,6.3992505E0,0E0,0E0,0E0,0E0,6.4309807E0,2.234407E0,0E0,0E0,2.5875E1,3.237409E0,5.189351E-1,0E0,1.035795E1,7.762043E0,7.3093567E0,0E0,3.8972626E0,1.0167256E1,0E0,0E0,0E0,0E0,0E0,0E0,7.6318874E0,1.2465393E1,2.102274E0,0E0,3.5051107E0,0E0,2.6601887E-1,0E0,0E0,0E0,0E0,0E0,0E0,0E0,0E0,0E0,0E0,0E0,0E0,0E0,0E0,0E0,0E0,0E0,0E0,0E0,0E0,0E0,0E0,0E0,0E0,0E0,0E0,0E0,0E0,0E0,0E0,0E0,0E0,0E0,0E0,0E0,0E0,0E0,0E0,0E0,0E0,0E0,0E0,0E0,0E0,0E0],"parents":[2147483647,0,0,1,1,2,2,3,3,4,4,5,5,6,6,7,7,8,8,9,9,10,10,11,11,12,12,13,13,14,14,15,15,16,16,17,17,18,18,20,20,21,21,22,22,23,23,24,24,25,25,26,26,27,27,28,28,29,29,30,30,31,31,32,32,33,33,34,34,37,37,38,38,45,45,46,46,49,49,50,50,51,51,52,52,53,53,54,54,55,55,56,56,57,57,58,58,59,59,60,60,61,61,62,62,63,63,65,65,66,66,67,67,68,68,73,73,74,74,77,77,78,78,79,79,81,81,82,82,83,83,85,85,86,86,93,93,94,94,95,95,97,97,99,99],"right_children":[2,4,6,8,10,12,14,16,18,20,22,24,26,28,30,32,34,36,38,-1,40,42,44,46,48,50,52,54,56,58,60,62,64,66,68,-1,-1,70,72,-1,-1,-1,-1,-1,-1,74,76,-1,-1,78,80,82,84,86,88,90,92,94,96,98,100,102,104,106,-1,108,110,112,114,-1,-1,-1,-1,116,118,-1,-1,120,122,124,-1,126,128,130,-1,132,134,-1,-1,-1,-1,-1,-1,136,138,140,-1,142,-1,144,-1,-1,-1,-1,-1,-1,-1,-1,-1,-1,-1,-1,-1,-1,-1,-1,-1,-1,-1,-1,-1,-1,-1,-1,-1,-1,-1,-1,-1,-1,-1,-1,-1,-1,-1,-1,-1,-1,-1,-1,-1,-1,-1,-1,-1],"split_conditions":[1E0,2E0,4E0,2E0,3E0,2E0,2E0,2E0,2E0,1E0,1E0,1E0,1E0,3E0,2.6E1,2E0,1E0,2E0,3E0,-3.293941E-9,1E0,1E0,4E0,3E0,1E0,8E0,1E0,5E0,1.5E1,6E0,1.1E1,2E0,2E0,1E0,1E0,1.0190454E0,3.082569E-1,2E0,2E0,1.0354388E0,3.8532108E-2,-1.72263E-1,1.735537E-2,4.846154E-1,-1.4651163E-1,1E0,1E0,9.052517E-1,-1.10526316E-1,2E0,2E0,7E0,2E0,4E0,6E0,3E0,2E0,2E0,7E0,2E0,1.9E1,2E0,1E0,1E0,-1.10526316E-1,1E0,1E0,1E0,3E0,-9.633028E-2,5.7798165E-1,-1.6480382E-1,3.8532108E-2,1E0,8E0,7.0725393E-1,3.8532108E-2,2E0,3E0,1E0,7.2731704E-1,1E0,1E0,1E0,-2.6751596E-2,3E0,3E0,5.7798165E-1,3.8532108E-2,8.642599E-1,2.2105263E-1,-1.6073212E-1,3.8532108E-2,1E0,4E0,2E0,6.9517237E-1,1E0,3.082569E-1,2E0,-1.2426036E-1,-1.7411657E-1,3.2009238E-1,6.443405E-1,-1.5949367E-1,9.20403E-1,3.8532108E-2,-1.2426036E-1,1.733945E-1,9.562641E-1,-1.04132235E-1,-1.6832684E-1,1.1052631E-1,6.631579E-1,-9.633028E-2,-1.344489E-1,2.7845305E-1,3.8532108E-2,5.7798165E-1,1.0461127E0,4.970414E-2,-1.3548388E-1,3.082569E-1,-1.4861539E-1,3.8532108E-2,-8.390677E-2,3.3739612E-1,5.7304496E-1,-2.6751596E-2,9.381905E-1,1.3884297E-1,-1.6825886E-1,-3.865031E-2,5.937931E-1,-1.3548388E-1,5.043668E-1,-6.774194E-2,4.5696822E-1,9.842823E-1,-1.576065E-1,1.733945E-1,5.377716E-3,-1.5686747E-1,6.2479335E-1,1.733945E-1],"split_indices":[1616,1769,597,1787,597,1762,1769,978,1104,1817,1681,1787,2637,1496,622,215,2368,2637,1215,0,404,26,2053,2259,1833,1104,2002,1805,1215,5,2222,178,2368,818,1112,0,0,1127,2310,0,0,0,0,0,0,1158,259,0,0,399,2501,1434,2201,1137,2053,2974,2821,1039,1616,2479,52,631,1104,1156,0,2057,2987,2560,2820,0,0,0,0,372,1817,0,0,635,539,257,0,1662,2332,1626,0,1127,898,0,0,0,0,0,0,1617,818,1837,0,184,0,1792,0,0,0,0,0,0,0,0,0,0,0,0,0,0,0,0,0,0,0,0,0,0,0,0,0,0,0,0,0,0,0,0,0,0,0,0,0,0,0,0,0,0,0,0,0],"split_type":[0,0,0,0,0,0,0,0,0,0,0,0,0,0,0,0,0,0,0,0,0,0,0,0,0,0,0,0,0,0,0,0,0,0,0,0,0,0,0,0,0,0,0,0,0,0,0,0,0,0,0,0,0,0,0,0,0,0,0,0,0,0,0,0,0,0,0,0,0,0,0,0,0,0,0,0,0,0,0,0,0,0,0,0,0,0,0,0,0,0,0,0,0,0,0,0,0,0,0,0,0,0,0,0,0,0,0,0,0,0,0,0,0,0,0,0,0,0,0,0,0,0,0,0,0,0,0,0,0,0,0,0,0,0,0,0,0,0,0,0,0,0,0,0,0],"sum_hessian":[1.045156E5,9.845903E4,6.056572E3,9.820997E4,2.4906125E2,5.210939E3,8.456327E2,9.814629E4,6.3673473E1,1.7706123E2,7.200001E1,7.444898E1,5.13649E3,6.969796E2,1.4865308E2,9.808507E4,6.1224495E1,4.383674E1,1.9836737E1,1.7142859E0,1.7534695E2,6.4408165E1,7.5918374E0,6.4408165E1,1.0040817E1,5.0711025E3,6.538776E1,6.781225E2,1.8857143E1,6.9061226E1,7.959184E1,9.807503E4,1.0040817E1,3.1346941E1,2.9877554E1,4.2612247E1,1.2244899E0,2.4489799E0,1.7387756E1,1.7412247E2,1.2244899E0,6.293878E1,1.4693879E0,2.4489799E0,5.1428576E0,6.0244904E1,4.1632657E0,8.326531E0,1.7142859E0,5.0610615E3,1.0040817E1,3.722449E1,2.8163267E1,6.756735E2,2.4489799E0,6.3673472E0,1.2489797E1,5.681633E1,1.2244899E1,7.444898E1,5.1428576E0,9.8005234E4,6.979592E1,8.326531E0,1.7142859E0,3.6734695E0,2.7673471E1,2.6938778E1,2.9387758E0,1.2244899E0,1.2244899E0,1.6163267E1,1.2244899E0,5.779592E1,2.4489799E0,2.9387758E0,1.2244899E0,5.0564087E3,4.6530614E0,6.8571434E0,3.1836736E0,2.3755104E1,1.3469389E1,2.5959185E1,2.2040818E0,6.7028577E2,5.3877554E0,1.2244899E0,1.2244899E0,4.6530614E0,1.7142859E0,1.1265306E1,1.2244899E0,7.1020412E0,4.971429E1,1.0285715E1,1.9591838E0,7.3224495E1,1.2244899E0,2.6938777E0,2.4489799E0,9.79974E4,7.8367352E0,2.0816328E1,4.8979595E1,7.1020412E0,1.2244899E0,2.4489799E0,1.2244899E0,2.6204084E1,1.4693879E0,2.5224491E1,1.7142859E0,1.7142859E0,1.2244899E0,5.5102043E1,2.6938777E0,1.2244899E0,1.2244899E0,5.0539595E3,2.4489799E0,3.4285717E0,1.2244899E0,5.632653E0,1.2244899E0,1.7387756E1,6.3673472E0,1.1265306E1,2.2040818E0,2.4489798E1,1.4693879E0,6.4800006E2,2.2285715E1,1.9591838E0,3.4285717E0,3.6734695E0,3.4285717E0,7.346939E0,4.236735E1,9.061225E0,1.2244899E0,1.4938777E1,5.8285717E1,1.4693879E0,1.2244899E0],"tree_param":{"num_deleted":"0","num_feature":"3000","num_nodes":"145","size_leaf_vector":"1"}},{"base_weights":[-3.4723127E-1,-5.3845984E-1,2.8146095E0,-5.5423886E-1,1.9744898E0,3.4085228E0,-3.6645868E-1,-5.664456E-1,2.59409E-1,-4.3314776E-1,3.3408015E0,-3.9278558E-1,3.4625466E0,-5.3487235E-1,2.0655737E0,-5.720366E-1,-3.009496E-1,-4.8061755E-1,2.1239774E0,-5.508705E-1,6.8101025E-1,3.454078E0,-3.7683523E-1,-5.162735E-1,1.8497409E0,3.478199E0,-7.5201444E-2,1.683146E0,-5.573943E-1,3.2717807E0,1.6735364E-1,-5.739297E-1,-1.6244796E-1,2.4826639E0,-5.255441E-1,-5.5457217E-1,1.1693218E0,3.1729803E0,2.3715739E-1,-5.704074E-1,5.803108E-1,2.3741794E0,-1.6202722E-1,1.0393312E0,1.3884297E-1,-1.5949367E-1,1.733945E-1,-5.448464E-1,1.733945E-1,1.733945E-1,6.631579E-1,3.4812205E0,6.038338E-1,1.5806451E0,-4.499473E-1,-1.3317074E-1,8.719723E-1,-5.743815E-1,5.2456267E-2,1.0125213E0,3.8532108E-2,-3.3070865E-1,1.3324395E0,-5.755705E-1,-4.7242415E-1,-5.790205E-1,2.0227206E0,3.2660995E0,-4.4164038E-1,-5.554957E-1,3.1383145E-1,1.634241E-1,-5.7343924E-1,3.4355825E-1,1.9701356E0,3.2788205E0,1.7038538E-1,1.1400057E0,-1.7277446E-1,-1.7411572E-1,8.6896546E-2,4.4311926E-1,-1.10526316E-1,8.4634763E-1,-9.633028E-2,-1.7231445E-1,8.6896546E-2,3.4832366E0,8.8537544E-1,-1.3755459E-1,6.631579E-1,-9.633028E-2,7.22293E-1,-1.6535433E-1,1.733945E-1,-5.767271E-1,8.6896546E-2,-2.710552E-1,1.5806451E0,-1.6418664E-1,2.8965518E-1,-1.2426036E-1,2.2411065E0,-1.7288575E-1,-1.4346927E-1,-1.6068913E-1,1.7147928E-1,-1.7452173E-1,3.8532108E-2,7.109193E-1,-1.2537314E-1,1.0017904E0,-3.7278112E-2,-1.692411E-1,2.8965518E-1,1.21603515E-2,-1.712709E-1,4.96063E-1,-6.286335E-2,-1.5137056E-1,6.0773635E-1,-1.73567E-1,-8.519274E-3,2.9121724E-1,-1.3197783E-1,6.740221E-1,-1.2038217E-1,1.0284992E0,5.523735E-1,-1.163728E-1,4.924138E-1,5.1386446E-1,1.2015257E-1,1.0459948E0,6.7565215E-1,-1.2426036E-1,6.631579E-1,-1.7372325E-1,1.0243898E-2,5.033058E-1,-1.5078044E-1,7.22293E-1,-9.633028E-2,1.733945E-1,7.834197E-1],"categories":[],"categories_nodes":[],"categories_segments":[],"categories_sizes":[],"default_left":[0,0,0,0,0,0,0,0,0,0,0,0,0,0,0,0,0,0,0,0,0,0,0,0,0,0,0,0,0,0,0,0,0,0,0,0,0,0,0,0,0,0,0,0,0,0,0,0,0,0,0,0,0,0,0,0,0,0,0,0,0,0,0,0,0,0,0,0,0,0,0,0,0,0,0,0,0,0,0,0,0,0,0,0,0,0,0,0,0,0,0,0,0,0,0,0,0,0,0,0,0,0,0,0,0,0,0,0,0,0,0,0,0,0,0,0,0,0,0,0,0,0,0,0,0,0,0,0,0,0,0,0,0,0,0,0,0,0,0,0,0,0,0,0,0],"id":4,"left_children":[1,3,5,7,9,11,13,15,17,19,21,23,25,27,29,31,33,35,37,39,41,43,45,47,49,51,53,55,57,59,61,63,65,67,69,71,73,75,77,79,81,83,-1,-1,-1,-1,-1,85,-1,-1,-1,87,89,91,93,-1,-1,95,97,-1,-1,99,101,103,105,107,109,111,113,115,117,119,121,123,125,127,129,131,-1,-1,-1,-1,-1,-1,-1,-1,-1,133,135,-1,-1,-1,-1,-1,-1,137,-1,139,141,-1,-1,-1,143,-1,-1,-1,-1,-1,-1,-1,-1,-1,-1,-1,-1,-1,-1,-1,-1,-1,-1,-1,-1,-1,-1,-1,-1,-1,-1,-1,-1,-1,-1,-1,-1,-1,-1,-1,-1,-1,-1,-1,-1,-1,-1],"loss_changes":[6.319584E4,3.9090586E3,1.1262934E4,9.7290625E2,2.0252124E3,1.0329102E3,3.8559048E2,1.4306445E2,1.9994939E3,2.9704517E1,1.6663037E2,2.0695766E1,2.7452344E2,4.4833603E1,1.3912091E2,7.318555E1,1.246838E3,1.2726352E2,8.1410474E2,4.812763E0,4.6388195E1,1.0205566E1,2.1564837E0,2.4518528E0,5.295925E-1,4.071875E1,1.4856568E1,2.4923286E1,9.049561E0,1.1658966E1,1.4805674E1,1.5394531E1,3.9822104E2,3.42615E2,4.6542328E1,1.3556427E1,2.8972912E1,8.3501465E1,1.0943536E2,1.8832626E0,3.8952072E0,1.2141861E1,0E0,0E0,0E0,0E0,0E0,1.8207397E0,0E0,0E0,0E0,2.2695312E1,1.1916616E1,7.7380905E0,2.333961E0,0E0,0E0,1.8840027E0,1.2545958E1,0E0,0E0,5.621784E0,1.3009778E1,6.1679688E0,9.941986E1,7.8079987E-1,6.0326904E1,2.9593872E1,6.1203923E0,1.6379944E1,4.5350346E1,3.3646603E1,2.6851807E0,1.1869057E1,1.5693726E1,4.8591797E1,8.899468E0,2.9202202E1,0E0,0E0,0E0,0E0,0E0,0E0,0E0,0E0,0E0,1.2828125E1,9.807442E0,0E0,0E0,0E0,0E0,0E0,0E0,1.2332458E0,0E0,1.03557415E1,7.7380905E0,0E0,0E0,0E0,1.6704159E0,0E0,0E0,0E0,0E0,0E0,0E0,0E0,0E0,0E0,0E0,0E0,0E0,0E0,0E0,0E0,0E0,0E0,0E0,0E0,0E0,0E0,0E0,0E0,0E0,0E0,0E0,0E0,0E0,0E0,0E0,0E0,0E0,0E0,0E0,0E0,0E0,0E0,0E0,0E0,0E0,0E0,0E0],"parents":[2147483647,0,0,1,1,2,2,3,3,4,4,5,5,6,6,7,7,8,8,9,9,10,10,11,11,12,12,13,13,14,14,15,15,16,16,17,17,18,18,19,19,20,20,21,21,22,22,23,23,24,24,25,25,26,26,27,27,28,28,29,29,30,30,31,31,32,32,33,33,34,34,35,35,36,36,37,37,38,38,39,39,40,40,41,41,47,47,51,51,52,52,53,53,54,54,57,57,58,58,61,61,62,62,63,63,64,64,65,65,66,66,67,67,68,68,69,69,70,70,71,71,72,72,73,73,74,74,75,75,76,76,77,77,87,87,88,88,95,95,97,97,98,98,102,102],"right_children":[2,4,6,8,10,12,14,16,18,20,22,24,26,28,30,32,34,36,38,40,42,44,46,48,50,52,54,56,58,60,62,64,66,68,70,72,74,76,78,80,82,84,-1,-1,-1,-1,-1,86,-1,-1,-1,88,90,92,94,-1,-1,96,98,-1,-1,100,102,104,106,108,110,112,114,116,118,120,122,124,126,128,130,132,-1,-1,-1,-1,-1,-1,-1,-1,-1,134,136,-1,-1,-1,-1,-1,-1,138,-1,140,142,-1,-1,-1,144,-1,-1,-1,-1,-1,-1,-1,-1,-1,-1,-1,-1,-1,-1,-1,-1,-1,-1,-1,-1,-1,-1,-1,-1,-1,-1,-1,-1,-1,-1,-1,-1,-1,-1,-1,-1,-1,-1,-1,-1,-1,-1],"split_conditions":[1E0,2E0,4E0,4E0,3E0,1E0,1.1E1,7E0,3E0,1E0,4E0,1E0,6E0,4E0,4E0,2E0,5E0,1.4E1,1E0,1E0,1.1E1,2E0,4E0,2E0,1E0,2.7E1,1.2E1,4E0,5E0,1.3E1,3E0,2E0,1E0,2E0,5E0,4E0,5E0,5E0,1E0,1E0,1E0,1E0,-1.6202722E-1,1.0393312E0,1.3884297E-1,-1.5949367E-1,1.733945E-1,1E0,1.733945E-1,1.733945E-1,6.631579E-1,4E0,2.2E1,2E0,2E0,-1.3317074E-1,8.719723E-1,7E0,2.8E1,1.0125213E0,3.8532108E-2,1.4E1,1.1E1,1E0,3E0,9E0,1E0,2E0,2E0,1.1E1,3E0,1E0,1E1,1.1E1,2E0,3E0,2E0,2.2E1,-1.7277446E-1,-1.7411572E-1,8.6896546E-2,4.4311926E-1,-1.10526316E-1,8.4634763E-1,-9.633028E-2,-1.7231445E-1,8.6896546E-2,2E0,5E0,-1.3755459E-1,6.631579E-1,-9.633028E-2,7.22293E-1,-1.6535433E-1,1.733945E-1,1E1,8.6896546E-2,2E0,7E0,-1.6418664E-1,2.8965518E-1,-1.2426036E-1,1E0,-1.7288575E-1,-1.4346927E-1,-1.6068913E-1,1.7147928E-1,-1.7452173E-1,3.8532108E-2,7.109193E-1,-1.2537314E-1,1.0017904E0,-3.7278112E-2,-1.692411E-1,2.8965518E-1,1.21603515E-2,-1.712709E-1,4.96063E-1,-6.286335E-2,-1.5137056E-1,6.0773635E-1,-1.73567E-1,-8.519274E-3,2.9121724E-1,-1.3197783E-1,6.740221E-1,-1.2038217E-1,1.0284992E0,5.523735E-1,-1.163728E-1,4.924138E-1,5.1386446E-1,1.2015257E-1,1.0459948E0,6.7565215E-1,-1.2426036E-1,6.631579E-1,-1.7372325E-1,1.0243898E-2,5.033058E-1,-1.5078044E-1,7.22293E-1,-9.633028E-2,1.733945E-1,7.834197E-1],"split_indices":[1335,150,592,1030,1427,1427,1442,1427,1427,1427,2124,150,1134,2368,2194,657,2338,2501,77,2816,1821,2131,1281,2424,260,1268,2368,1427,1030,1341,1105,1030,1426,1292,2683,1821,1457,2130,1422,1217,1541,1860,0,0,0,0,0,1126,0,0,0,1055,1442,545,2854,0,0,531,1786,0,0,1974,383,1126,1427,2832,1279,2124,726,2338,1341,1788,2501,329,2355,239,2608,239,0,0,0,0,0,0,0,0,0,1570,2860,0,0,0,0,0,0,966,0,2901,895,0,0,0,1580,0,0,0,0,0,0,0,0,0,0,0,0,0,0,0,0,0,0,0,0,0,0,0,0,0,0,0,0,0,0,0,0,0,0,0,0,0,0,0,0,0,0],"split_type":[0,0,0,0,0,0,0,0,0,0,0,0,0,0,0,0,0,0,0,0,0,0,0,0,0,0,0,0,0,0,0,0,0,0,0,0,0,0,0,0,0,0,0,0,0,0,0,0,0,0,0,0,0,0,0,0,0,0,0,0,0,0,0,0,0,0,0,0,0,0,0,0,0,0,0,0,0,0,0,0,0,0,0,0,0,0,0,0,0,0,0,0,0,0,0,0,0,0,0,0,0,0,0,0,0,0,0,0,0,0,0,0,0,0,0,0,0,0,0,0,0,0,0,0,0,0,0,0,0,0,0,0,0,0,0,0,0,0,0,0,0,0,0,0,0],"sum_hessian":[1.045156E5,9.8555766E4,5.959837E3,9.7941555E4,6.142041E2,5.022123E3,9.3771436E2,9.649421E4,1.447347E3,2.2261226E2,3.9159186E2,7.028572E1,4.951837E3,8.7771436E2,6.0000004E1,9.4502945E4,1.9912655E3,1.0366531E3,4.106939E2,2.0179593E2,2.0816328E1,3.8008167E2,1.1510205E1,6.734695E1,2.9387758E0,4.930041E3,2.179592E1,8.081634E0,8.696327E2,3.62449E1,2.3755104E1,9.4067766E4,4.3518372E2,1.4791838E2,1.843347E3,9.928164E2,4.383674E1,2.6351022E2,1.4718369E2,1.9885716E2,2.9387758E0,8.326531E0,1.2489797E1,3.7861227E2,1.4693879E0,1.0285715E1,1.2244899E0,6.612245E1,1.2244899E0,1.2244899E0,1.7142859E0,4.9246533E3,5.3877554E0,3.4285717E0,1.8367348E1,3.1836736E0,4.8979597E0,8.461225E2,2.3510206E1,3.5020412E1,1.2244899E0,1.7142859E1,6.6122456E0,9.256678E4,1.5009797E3,3.6612247E2,6.9061226E1,1.16571434E2,3.1346941E1,1.7801635E3,6.3183678E1,2.5224491E1,9.675919E2,2.2285715E1,2.1551022E1,2.54449E2,9.061225E0,6.9551025E1,7.763266E1,1.9689798E2,1.9591838E0,1.2244899E0,1.7142859E0,7.1020412E0,1.2244899E0,6.416327E1,1.9591838E0,4.92049E3,4.1632657E0,3.6734695E0,1.7142859E0,1.2244899E0,2.2040818E0,1.7142859E1,1.2244899E0,8.441633E2,1.9591838E0,2.0081635E1,3.4285717E0,1.5183675E1,1.9591838E0,2.4489799E0,4.1632657E0,9.18867E4,6.8008167E2,1.4157552E3,8.5224495E1,3.6489798E2,1.2244899E0,6.04898E1,8.571429E0,1.1412246E2,2.4489799E0,2.9387756E1,1.9591838E0,4.481633E1,1.735347E3,1.7142859E1,4.604082E1,1.9102041E1,6.1224494E0,9.585307E2,9.061225E0,1.2244899E1,1.0040817E1,1.9346941E1,2.2040818E0,2.292245E2,2.5224491E1,7.1020412E0,1.9591838E0,3.8448982E1,3.1102043E1,4.9050615E3,1.5428573E1,2.4489799E0,1.7142859E0,8.409797E2,3.1836736E0,1.4693879E0,1.8612246E1,2.2040818E0,1.2244899E0,1.2244899E0,2.9387758E0],"tree_param":{"num_deleted":"0","num_feature":"3000","num_nodes":"145","size_leaf_vector":"1"}},{"base_weights":[1.3281294E0,-4.75417E-1,3.3457646E0,-5.312331E-1,2.7627919E0,3.4462128E0,-1.1469524E-1,-5.4387486E-1,2.7648792E0,3.3724387E0,-4.9181905E-1,3.449244E0,6.8913287E-1,1.4477453E0,-4.2697477E-1,-5.4855394E-1,1.5760478E0,3.4504223E0,-4.8648646E-1,3.4346838E0,9.102729E-2,7.898446E-2,-5.4937243E-1,3.4502919E0,3.6928484E-1,5.9797097E-2,2.0905752E0,2.6314834E-1,2.547938E0,5.4070425E-1,-4.736435E-1,-5.5065686E-1,1.7406646E0,3.2951376E0,-5.358349E-1,1.0402789E0,3.3157894E-1,-5.3907585E-1,1.733945E-1,3.442316E0,-3.293941E-9,1.4682926E0,-3.7683523E-1,-4.4303796E-1,1.4682926E0,-5.6365615E-1,-3.0567698E-2,3.4506412E0,5.192878E-1,-2.4962853E-1,2.1091702E0,5.6937796E-1,-1.6522235E-1,2.7692306E0,-2.4454148E-1,9.9537224E-1,-2.8393134E-1,3.066517E0,8.9573455E-1,2.2829437E-1,2.16152E0,-4.7887194E-1,4.924138E-1,-5.5829436E-1,-1.3755237E-1,9.938931E-1,-5.090909E-1,3.3376458E0,1.733945E-1,-1.7170826E-1,1.733945E-1,-1.6993502E-1,3.8532108E-2,1.0338359E0,1.733945E-1,-9.633028E-2,6.9517237E-1,-1.5949367E-1,1.733945E-1,-1.576065E-1,3.8532108E-2,6.9517237E-1,-9.633028E-2,-5.7115954E-1,3.8532108E-2,1.733945E-1,-1.2426036E-1,3.4508877E0,3.485477E-1,-1.263538E-1,5.7798165E-1,-1.5914972E-1,6.5745854E-1,1.733945E-1,7.4556214E-1,1.1087999E0,-2.0895523E-1,9.3037975E-1,1.1052631E-1,3.8532108E-2,-1.2426036E-1,4.0361091E-1,2.3596613E0,-4.018201E-1,5.994962E-1,3.186409E0,-1.3459113E-8,4.3999997E-1,7.813953E-1,-1.1914895E-1,1.0609212E0,2.6177285E0,-9.633028E-2,-2.1945818E-1,-5.098456E-1,-1.6801722E-1,-1.0710974E-1,6.809858E-1,-1.5530433E-1,-1.6629443E-1,3.8532108E-2,1.0098102E0,3.082569E-1,-1.7361805E-1,-6.774194E-2,1.0270665E0,1.0423936E0,-1.2762432E-1,4.4311926E-1,1.733945E-1,-1.3548388E-1,4.4311926E-1,-1.04132235E-1,1.1787941E-1,7.834197E-1,-1.5272728E-1,2.2105263E-1,9.538224E-3,4.388764E-1,8.5892546E-1,3.4806624E-2,-1.351448E-1,3.082569E-1,4.4017467E-1,-1.3548388E-1,9.871488E-1,2.6561263E-1,1.733945E-1,-1.2038217E-1,2.7814565E-2,6.0967743E-1,9.503649E-2,-1.2279485E-1,4.9290952E-1,4.0255588E-2,8.790698E-1,1.733945E-1,-1.13363214E-1,1.6858274E-1,-1.5383342E-1,2.603306E-1],"categories":[],"categories_nodes":[],"categories_segments":[],"categories_sizes":[],"default_left":[0,0,0,0,0,0,0,0,0,0,0,0,0,0,0,0,0,0,0,0,0,0,0,0,0,0,0,0,0,0,0,0,0,0,0,0,0,0,0,0,0,0,0,0,0,0,0,0,0,0,0,0,0,0,0,0,0,0,0,0,0,0,0,0,0,0,0,0,0,0,0,0,0,0,0,0,0,0,0,0,0,0,0,0,0,0,0,0,0,0,0,0,0,0,0,0,0,0,0,0,0,0,0,0,0,0,0,0,0,0,0,0,0,0,0,0,0,0,0,0,0,0,0,0,0,0,0,0,0,0,0,0,0,0,0,0,0,0,0,0,0,0,0,0,0,0,0,0,0,0,0,0,0,0,0,0,0,0,0,0,0],"id":5,"left_children":[1,3,5,7,9,11,13,15,17,19,21,23,25,27,29,31,33,35,37,39,41,43,45,47,49,51,53,55,57,59,61,63,65,67,69,-1,-1,71,-1,73,-1,75,77,79,81,83,85,87,89,91,93,95,-1,97,99,101,103,105,107,109,111,113,-1,115,117,-1,119,121,-1,-1,-1,-1,-1,-1,-1,-1,-1,-1,-1,-1,-1,-1,-1,123,-1,-1,-1,125,127,129,-1,-1,131,-1,-1,133,135,-1,-1,-1,-1,137,139,141,143,145,147,149,-1,151,153,155,-1,157,159,-1,-1,-1,-1,-1,-1,-1,-1,-1,-1,-1,-1,-1,-1,-1,-1,-1,-1,-1,-1,-1,-1,-1,-1,-1,-1,-1,-1,-1,-1,-1,-1,-1,-1,-1,-1,-1,-1,-1,-1,-1,-1,-1,-1,-1,-1],"loss_changes":[3.8032694E5,9.9762E3,1.7147438E4,2.2621553E3,1.857417E3,3.983125E2,6.800493E2,5.3696387E2,4.6407214E2,1.6060938E2,4.9195137E0,1.533125E2,4.74118E1,3.0193106E2,5.2702026E1,2.6057422E2,4.3483435E2,3.0725098E0,2.3828259E0,2.0268555E1,1.0665982E1,1.1144434E1,9.8288345E-1,4.71875E1,1.927229E1,1.2205931E1,2.7100296E1,4.5516006E1,1.0029639E2,2.679825E1,1.3043289E1,1.6991602E2,1.7761409E2,5.68219E0,2.5434847E0,0E0,0E0,7.2647285E-1,0E0,6.413086E0,0E0,7.0995007E0,2.1564837E0,5.9838367E-1,7.0995007E0,7.551384E-1,1.3304684E0,3.55E1,6.4925346E0,3.8480248E0,1.2545033E0,9.185633E0,0E0,9.220413E0,3.4893724E-1,3.8211536E1,7.0528984E0,3.350116E1,2.2329584E1,1.3522336E1,1.0571606E1,8.77858E0,0E0,1.8570312E1,8.974547E2,0E0,6.860752E-1,7.826538E-1,0E0,0E0,0E0,0E0,0E0,0E0,0E0,0E0,0E0,0E0,0E0,0E0,0E0,0E0,0E0,2.092247E-1,0E0,0E0,0E0,1.91875E1,4.9242086E0,1.5560924E0,0E0,0E0,3.5540466E0,0E0,0E0,1.2694096E1,3.0921373E0,0E0,0E0,0E0,0E0,1.3754995E1,1.6011002E1,4.5183916E0,8.052523E0,1.8090088E1,1.2590429E0,1.3635752E1,0E0,4.376274E0,7.1888847E0,3.0025368E0,0E0,1.5039219E1,4.4349976E0,0E0,0E0,0E0,0E0,0E0,0E0,0E0,0E0,0E0,0E0,0E0,0E0,0E0,0E0,0E0,0E0,0E0,0E0,0E0,0E0,0E0,0E0,0E0,0E0,0E0,0E0,0E0,0E0,0E0,0E0,0E0,0E0,0E0,0E0,0E0,0E0,0E0,0E0,0E0,0E0,0E0,0E0,0E0,0E0,0E0,0E0],"parents":[2147483647,0,0,1,1,2,2,3,3,4,4,5,5,6,6,7,7,8,8,9,9,10,10,11,11,12,12,13,13,14,14,15,15,16,16,17,17,18,18,19,19,20,20,21,21,22,22,23,23,24,24,25,25,26,26,27,27,28,28,29,29,30,30,31,31,32,32,33,33,34,34,37,37,39,39,41,41,42,42,43,43,44,44,45,45,46,46,47,47,48,48,49,49,50,50,51,51,53,53,54,54,55,55,56,56,57,57,58,58,59,59,60,60,61,61,63,63,64,64,66,66,67,67,83,83,87,87,88,88,89,89,92,92,95,95,96,96,101,101,102,102,103,103,104,104,105,105,106,106,107,107,109,109,110,110,111,111,113,113,114,114],"right_children":[2,4,6,8,10,12,14,16,18,20,22,24,26,28,30,32,34,36,38,40,42,44,46,48,50,52,54,56,58,60,62,64,66,68,70,-1,-1,72,-1,74,-1,76,78,80,82,84,86,88,90,92,94,96,-1,98,100,102,104,106,108,110,112,114,-1,116,118,-1,120,122,-1,-1,-1,-1,-1,-1,-1,-1,-1,-1,-1,-1,-1,-1,-1,124,-1,-1,-1,126,128,130,-1,-1,132,-1,-1,134,136,-1,-1,-1,-1,138,140,142,144,146,148,150,-1,152,154,156,-1,158,160,-1,-1,-1,-1,-1,-1,-1,-1,-1,-1,-1,-1,-1,-1,-1,-1,-1,-1,-1,-1,-1,-1,-1,-1,-1,-1,-1,-1,-1,-1,-1,-1,-1,-1,-1,-1,-1,-1,-1,-1,-1,-1,-1,-1,-1,-1],"split_conditions":[2E0,3E0,1E0,2E0,1E0,2E0,3E0,3E0,1E0,2E0,2E0,5E0,4E0,8E0,2E0,2E0,1E0,1E0,4E0,2E0,1E0,1E0,2E0,5E0,3E0,1.3E1,4E0,1E0,1E0,7E0,8E0,1E0,2E0,1E0,1.8E1,1.0402789E0,3.3157894E-1,2E0,1.733945E-1,5E0,-3.293941E-9,1E0,1E0,1E0,1E0,1E0,1E0,3E0,3E0,1E0,2E0,1E0,-1.6522235E-1,2E0,2E0,1.4E1,3E0,3E0,1E1,1.6E1,4E0,1E0,4.924138E-1,1E0,1E0,9.938931E-1,1E0,1E0,1.733945E-1,-1.7170826E-1,1.733945E-1,-1.6993502E-1,3.8532108E-2,1.0338359E0,1.733945E-1,-9.633028E-2,6.9517237E-1,-1.5949367E-1,1.733945E-1,-1.576065E-1,3.8532108E-2,6.9517237E-1,-9.633028E-2,1E0,3.8532108E-2,1.733945E-1,-1.2426036E-1,1E0,2E0,5E0,5.7798165E-1,-1.5914972E-1,1E0,1.733945E-1,7.4556214E-1,8E0,3E0,9.3037975E-1,1.1052631E-1,3.8532108E-2,-1.2426036E-1,2E0,2E0,7E0,1E0,2E0,1E0,1.2E1,7.813953E-1,1E0,1E0,1E1,-9.633028E-2,8E0,5E0,-1.6801722E-1,-1.0710974E-1,6.809858E-1,-1.5530433E-1,-1.6629443E-1,3.8532108E-2,1.0098102E0,3.082569E-1,-1.7361805E-1,-6.774194E-2,1.0270665E0,1.0423936E0,-1.2762432E-1,4.4311926E-1,1.733945E-1,-1.3548388E-1,4.4311926E-1,-1.04132235E-1,1.1787941E-1,7.834197E-1,-1.5272728E-1,2.2105263E-1,9.538224E-3,4.388764E-1,8.5892546E-1,3.4806624E-2,-1.351448E-1,3.082569E-1,4.4017467E-1,-1.3548388E-1,9.871488E-1,2.6561263E-1,1.733945E-1,-1.2038217E-1,2.7814565E-2,6.0967743E-1,9.503649E-2,-1.2279485E-1,4.9290952E-1,4.0255588E-2,8.790698E-1,1.733945E-1,-1.13363214E-1,1.6858274E-1,-1.5383342E-1,2.603306E-1],"split_indices":[1519,2957,1747,1590,1747,1763,2257,549,1747,926,2123,155,549,2957,1821,2704,1821,1099,1557,2153,623,2611,333,573,1945,370,573,2533,1300,438,2634,1519,2123,777,173,0,0,2586,0,2053,0,1637,2564,1803,2534,2859,2818,252,1826,2931,769,1004,0,1775,1793,1802,1254,1127,1287,66,1590,1260,0,407,300,0,28,1330,0,0,0,0,0,0,0,0,0,0,0,0,0,0,0,2638,0,0,0,797,2049,1802,0,0,515,0,0,1626,549,0,0,0,0,2355,1099,2536,87,1493,2817,2736,0,2770,1835,5,0,32,659,0,0,0,0,0,0,0,0,0,0,0,0,0,0,0,0,0,0,0,0,0,0,0,0,0,0,0,0,0,0,0,0,0,0,0,0,0,0,0,0,0,0,0,0,0,0],"split_type":[0,0,0,0,0,0,0,0,0,0,0,0,0,0,0,0,0,0,0,0,0,0,0,0,0,0,0,0,0,0,0,0,0,0,0,0,0,0,0,0,0,0,0,0,0,0,0,0,0,0,0,0,0,0,0,0,0,0,0,0,0,0,0,0,0,0,0,0,0,0,0,0,0,0,0,0,0,0,0,0,0,0,0,0,0,0,0,0,0,0,0,0,0,0,0,0,0,0,0,0,0,0,0,0,0,0,0,0,0,0,0,0,0,0,0,0,0,0,0,0,0,0,0,0,0,0,0,0,0,0,0,0,0,0,0,0,0,0,0,0,0,0,0,0,0,0,0,0,0,0,0,0,0,0,0,0,0,0,0,0,0],"sum_hessian":[1.045156E5,5.5186043E4,4.9329555E4,5.4251758E4,9.3428577E2,4.7938043E4,1.3915103E3,5.404531E4,2.0644899E2,7.868572E2,1.4742859E2,4.7885145E4,5.2897964E1,2.3118369E2,1.1603267E3,5.3927023E4,1.1828572E2,1.7044899E2,3.6000004E1,7.721633E2,1.4693878E1,1.3469389E1,1.339592E2,4.786874E4,1.6408165E1,3.722449E1,1.56734705E1,1.1191837E2,1.1926531E2,5.2897964E1,1.1074286E3,5.387829E4,4.8734695E1,6.4897964E1,5.338776E1,1.6873471E2,1.7142859E0,3.4775513E1,1.2244899E0,7.7044904E2,1.7142859E0,3.1836736E0,1.1510205E1,1.0285715E1,3.1836736E0,1.3028572E2,3.6734695E0,4.786286E4,5.8775516E0,1.27346945E1,3.6734695E0,2.0326532E1,1.689796E1,1.2000001E1,3.6734695E0,4.751021E1,6.4408165E1,9.012245E1,2.9142859E1,4.5306126E1,7.5918374E0,1.1054695E3,1.9591838E0,5.289992E4,9.7836743E2,2.8408165E1,2.0326532E1,6.3673473E1,1.2244899E0,5.216327E1,1.2244899E0,3.355102E1,1.2244899E0,7.6922455E2,1.2244899E0,1.2244899E0,1.9591838E0,1.0285715E1,1.2244899E0,9.061225E0,1.2244899E0,1.9591838E0,1.2244899E0,1.2906123E2,1.2244899E0,1.2244899E0,2.4489799E0,4.785894E4,3.9183676E0,4.6530614E0,1.2244899E0,1.0040817E1,2.6938777E0,1.2244899E0,2.4489799E0,1.1755103E1,8.571429E0,1.0285715E1,1.7142859E0,1.2244899E0,2.4489799E0,3.4040817E1,1.3469389E1,5.7306126E1,7.1020412E0,8.6693886E1,3.4285717E0,2.4000002E1,5.1428576E0,3.257143E1,1.27346945E1,6.3673472E0,1.2244899E0,1.1877552E2,9.86694E2,5.2438777E4,4.6114288E2,1.3273471E2,8.456327E2,1.9102041E1,1.2244899E0,6.2448982E1,1.2244899E0,1.2563266E2,3.4285717E0,2.2322205E4,2.5536736E4,2.6938777E0,1.2244899E0,1.2244899E0,3.4285717E0,1.2244899E0,1.4693879E0,8.816327E0,2.9387758E0,6.8571434E0,1.7142859E0,2.5959185E1,8.081634E0,1.0775511E1,2.6938777E0,5.608164E1,1.2244899E0,3.6734695E0,3.4285717E0,8.253062E1,4.1632657E0,1.2244899E0,2.2040818E0,2.057143E1,3.4285717E0,1.2979592E1,1.9591839E1,7.346939E0,5.3877554E0,5.1428576E0,1.2244899E0,9.918368E1,1.9591839E1,9.8522455E2,1.4693879E0],"tree_param":{"num_deleted":"0","num_feature":"3000","num_nodes":"161","size_leaf_vector":"1"}},{"base_weights":[-5.4144925E-1,-5.6461626E-1,2.7494483E0,-5.7258713E-1,2.6743774E0,3.4335175E0,-2.2312824E-1,-5.760524E-1,1.5410603E0,3.3891847E0,-1.1878134E-1,3.456796E0,-5.8091298E-2,-3.3652806E-1,2.0676923E0,-5.7693076E-1,2.1249244E0,3.324717E0,-3.939995E-1,3.413182E0,1.735537E-2,-3.9894783E-1,1.6675899E0,3.4668653E0,-3.293941E-9,-1.2762432E-1,1.733945E-1,-4.1021442E-1,8.044009E-1,7.885375E-1,1.735537E-2,-5.780307E-1,1.155466E0,3.2686694E0,-1.5914972E-1,3.3901343E0,8.6896546E-2,-4.516129E-1,3.9103448E-1,1.029785E0,3.8532108E-2,-4.816659E-1,3.818182E-1,7.885375E-1,-1.2038217E-1,3.473552E0,1.3254437E0,-4.6969438E-1,8.1395346E-1,6.0331494E-1,-1.263538E-1,-5.783303E-1,1.8012326E0,1.6892608E0,-4.8974666E-1,1.003439E0,3.082569E-1,3.4235291E0,2.603306E-1,-4.990859E-1,2.541401E-1,3.043478E-1,-1.707232E-1,1.043075E0,3.082569E-1,3.8532108E-2,5.7798165E-1,-5.2426296E-1,2.5168535E-1,-2.2580646E-1,6.631579E-1,-1.3548388E-1,1.733945E-1,-1.735484E-1,6.203077E-1,8.409191E-1,-1.394191E-1,5.6873053E-1,-1.4110672E-1,-1.6384916E-1,3.8532108E-2,1.0338855E0,3.082569E-1,-1.6075197E-1,1.16022095E-1,-1.2762432E-1,3.818182E-1,-1.6249768E-1,1.3884297E-1,-9.767442E-2,3.2642484E-1,3.8532108E-2,-1.2038217E-1],"categories":[],"categories_nodes":[],"categories_segments":[],"categories_sizes":[],"default_left":[0,0,0,0,0,0,0,0,0,0,0,0,0,0,0,0,0,0,0,0,0,0,0,0,0,0,0,0,0,0,0,0,0,0,0,0,0,0,0,0,0,0,0,0,0,0,0,0,0,0,0,0,0,0,0,0,0,0,0,0,0,0,0,0,0,0,0,0,0,0,0,0,0,0,0,0,0,0,0,0,0,0,0,0,0,0,0,0,0,0,0,0,0],"id":6,"left_children":[1,3,5,7,9,11,13,15,17,19,21,23,25,27,29,31,33,35,37,39,-1,41,43,45,-1,-1,-1,47,49,-1,-1,51,53,55,-1,57,-1,59,-1,-1,-1,61,-1,-1,-1,63,65,67,69,-1,71,73,75,77,79,-1,-1,81,-1,83,-1,85,-1,-1,-1,-1,-1,87,89,91,-1,-1,-1,-1,-1,-1,-1,-1,-1,-1,-1,-1,-1,-1,-1,-1,-1,-1,-1,-1,-1,-1,-1],"loss_changes":[7.9699316E3,2.6810586E3,1.4868018E3,7.592031E2,5.094463E2,4.8492188E1,3.645516E1,2.4644922E2,5.871463E2,1.6034424E1,2.7149942E1,2.0544434E1,1.39503E0,1.1429056E1,7.3232727E0,1.975625E2,1.0443852E2,1.6575073E1,8.63784E0,1.2427002E1,0E0,7.0500007E0,1.5700321E1,3.822754E0,0E0,0E0,0E0,9.460211E0,9.628502E0,0E0,0E0,7.465625E1,5.8699295E1,6.195221E-1,0E0,4.312805E0,0E0,5.3766155E0,0E0,0E0,0E0,3.2706022E0,0E0,0E0,0E0,1.25E0,2.234407E0,4.8372307E0,9.419196E0,0E0,1.5560924E0,4.610547E1,3.137006E1,2.3181427E1,6.602006E-1,0E0,0E0,1.0933228E0,0E0,2.751377E0,0E0,4.1902475E0,0E0,0E0,0E0,0E0,0E0,2.1643848E0,4.7390943E0,3.268144E-1,0E0,0E0,0E0,0E0,0E0,0E0,0E0,0E0,0E0,0E0,0E0,0E0,0E0,0E0,0E0,0E0,0E0,0E0,0E0,0E0,0E0,0E0,0E0],"parents":[2147483647,0,0,1,1,2,2,3,3,4,4,5,5,6,6,7,7,8,8,9,9,10,10,11,11,12,12,13,13,14,14,15,15,16,16,17,17,18,18,19,19,21,21,22,22,23,23,27,27,28,28,31,31,32,32,33,33,35,35,37,37,41,41,45,45,46,46,47,47,48,48,50,50,51,51,52,52,53,53,54,54,57,57,59,59,61,61,67,67,68,68,69,69],"right_children":[2,4,6,8,10,12,14,16,18,20,22,24,26,28,30,32,34,36,38,40,-1,42,44,46,-1,-1,-1,48,50,-1,-1,52,54,56,-1,58,-1,60,-1,-1,-1,62,-1,-1,-1,64,66,68,70,-1,72,74,76,78,80,-1,-1,82,-1,84,-1,86,-1,-1,-1,-1,-1,88,90,92,-1,-1,-1,-1,-1,-1,-1,-1,-1,-1,-1,-1,-1,-1,-1,-1,-1,-1,-1,-1,-1,-1,-1],"split_conditions":[2E0,2E0,4E0,2E0,2E0,2E0,7E0,8E0,4E0,2E0,2E0,1.4E1,3E0,3E0,1E0,5E0,1E0,1E1,2E0,1E0,1.735537E-2,3E0,1.1E1,5E0,-3.293941E-9,-1.2762432E-1,1.733945E-1,3E0,1.8E1,7.885375E-1,1.735537E-2,3E0,4E0,2E0,-1.5914972E-1,1E0,8.6896546E-2,1E0,3.9103448E-1,1.029785E0,3.8532108E-2,1E0,3.818182E-1,7.885375E-1,-1.2038217E-1,7E0,1E0,1.6E1,3E0,6.0331494E-1,1E0,5E0,1E0,1E0,2E0,1.003439E0,3.082569E-1,8E0,2.603306E-1,5E0,2.541401E-1,1E0,-1.707232E-1,1.043075E0,3.082569E-1,3.8532108E-2,5.7798165E-1,2E0,3E0,2E0,6.631579E-1,-1.3548388E-1,1.733945E-1,-1.735484E-1,6.203077E-1,8.409191E-1,-1.394191E-1,5.6873053E-1,-1.4110672E-1,-1.6384916E-1,3.8532108E-2,1.0338855E0,3.082569E-1,-1.6075197E-1,1.16022095E-1,-1.2762432E-1,3.818182E-1,-1.6249768E-1,1.3884297E-1,-9.767442E-2,3.2642484E-1,3.8532108E-2,-1.2038217E-1],"split_indices":[1126,691,300,657,2919,2131,2187,2187,597,2814,2021,2736,514,1064,1964,1156,1860,2277,493,1192,0,2431,1039,1792,0,0,0,2583,797,0,0,1745,1279,1876,0,1489,0,1156,0,0,0,1995,0,0,0,2070,2060,2201,1485,0,2309,2021,1344,2181,2598,0,0,1104,0,2109,0,291,0,0,0,0,0,137,1517,1792,0,0,0,0,0,0,0,0,0,0,0,0,0,0,0,0,0,0,0,0,0,0,0],"split_type":[0,0,0,0,0,0,0,0,0,0,0,0,0,0,0,0,0,0,0,0,0,0,0,0,0,0,0,0,0,0,0,0,0,0,0,0,0,0,0,0,0,0,0,0,0,0,0,0,0,0,0,0,0,0,0,0,0,0,0,0,0,0,0,0,0,0,0,0,0,0,0,0,0,0,0,0,0,0,0,0,0,0,0,0,0,0,0,0,0,0,0,0,0],"sum_hessian":[1.045156E5,1.03785805E5,7.2979596E2,1.0353184E5,2.539592E2,5.931429E2,1.3665308E2,1.0336311E5,1.6873471E2,2.0204083E2,5.191837E1,5.8922455E2,3.9183676E0,1.3102042E2,5.632653E0,1.033303E5,3.281633E1,8.742858E1,8.130613E1,2.0057144E2,1.4693879E0,4.5551025E1,6.3673472E0,5.8751025E2,1.7142859E0,2.6938777E0,1.2244899E0,1.2367348E2,7.346939E0,4.1632657E0,1.4693879E0,1.032654E5,6.4897964E1,2.2775513E1,1.0040817E1,8.546939E1,1.9591838E0,7.934695E1,1.9591838E0,1.9934695E2,1.2244899E0,4.4081635E1,1.4693879E0,4.1632657E0,2.2040818E0,5.850613E2,2.4489799E0,1.18530624E2,5.1428576E0,2.6938777E0,4.6530614E0,1.0325315E5,1.2244899E1,4.8979595E1,1.5918368E1,2.1551022E1,1.2244899E0,8.400001E1,1.4693879E0,7.714286E1,2.2040818E0,4.1632657E0,3.991837E1,5.838368E2,1.2244899E0,1.2244899E0,1.2244899E0,1.1044899E2,8.081634E0,3.4285717E0,1.7142859E0,3.4285717E0,1.2244899E0,1.03247516E5,5.632653E0,8.326531E0,3.9183676E0,4.481633E1,4.1632657E0,1.4693878E1,1.2244899E0,8.277551E1,1.2244899E0,7.444898E1,2.6938777E0,2.6938777E0,1.4693879E0,1.089796E2,1.4693879E0,5.1428576E0,2.9387758E0,1.2244899E0,2.2040818E0],"tree_param":{"num_deleted":"0","num_feature":"3000","num_nodes":"93","size_leaf_vector":"1"}},{"base_weights":[-2.0168573E-1,-5.0523245E-1,1.2410326E0,-5.278728E-1,8.2483965E-1,1.3737682E0,-4.77102E-1,-5.3548723E-1,8.263448E-1,1.4514943E0,-5.5428714E-1,5.9175342E-2,1.3863713E0,-5.338844E-1,8.393557E-1,-5.3926194E-1,4.5067242E-1,1.423781E0,-4.849539E-1,1.4610425E0,-2.9823112E-1,-1.677008E-1,1.8940541E-1,1.1865146E0,-4.5443428E-1,1.3915914E0,6.885092E-1,-5.4238915E-1,6.916666E-1,1.3773962E0,-1.9256328E-1,-5.414649E-1,3.2795024E-1,1.1972116E0,-5.1173115E-1,1.4469932E0,-2.6621008E-1,-5.2037007E-1,9.4435304E-1,1.5619704E0,1.3884664E0,4.6946723E-2,-1.3118877E-1,1.2906584E0,-1.2003829E-1,-4.933404E-1,6.6506535E-1,1.3926877E0,4.048011E-1,-3.3534336E-1,1.258843E0,-5.508975E-1,-1.2890779E-2,1.2479031E0,-1.2048365E-1,-1.1087207E-1,1.4624816E0,-4.5686826E-1,7.464899E-1,-5.435241E-1,9.8979324E-2,1.1972244E0,-4.6369165E-1,-3.8793167E-1,1.3124691E0,-5.488732E-1,1.1793972E-1,1.7053179E0,1.3931512E0,-1.2883723E-1,5.070413E-2,1.7385094E-1,-1.6704875E-1,4.6847552E-2,3.6355138E-1,1.74753E0,1.393616E0,4.1743436E-1,5.7360506E-1,1.3581744E0,-1.07127324E-1,-5.136667E-1,1.342529E-1,-1.0321428E-1,4.722428E-1,1.4947548E0,1.3810223E0,-4.1273978E-1,1.1486336E0,-5.056413E-1,5.374709E-1,-1.1164486E-1,1.3064961E0,-5.526572E-1,1.0759079E-1,1.0734984E0,-1.5613073E-1,5.4522943E-2,4.341109E-1,1.5193937E0,2.8237544E-2,-1.5583327E-1,5.2540265E-2,4.1345707E-1,-9.665775E-2,-1.631447E-1,2.7542663E-1,4.1081226E-1,-1.6717757E-1,4.4752187E-1,-1.07906215E-1,-1.6421455E-1,7.998239E-2,-1.6297555E-1,1.7087826E-1,4.0445945E-1,-1.3659357E-1,-1.6719557E-1,6.132432E-2,3.0512142E-1,-1.4294125E-1,5.689847E-1,4.0031463E-1,4.190504E-1,1.3034533E-1,-1.3824606E-1,3.2123154E-1,5.849467E-1,4.2484996E-1,4.1966963E-1,1.1661206E-1,1.7167946E-2,2.41897E-1,4.2378506E-1,-1.0179808E-1,-1.5717484E-1,6.2047888E-2,4.516677E-1,2.8103298E-2,4.1453293E-1,5.1116314E-2,-1.516663E-1,4.6815097E-2,1.2501034E-2,3.9852658E-1,-1.6820227E-1,3.832413E-2,3.2005435E-1,-1.22653514E-1,4.0162733E-1,-9.341488E-2,-1.6607463E-1,6.2679514E-2,4.525823E-1,-2.7431212E-3,4.6733242E-1,1.3200185E-1],"categories":[],"categories_nodes":[],"categories_segments":[],"categories_sizes":[],"default_left":[0,0,0,0,0,0,0,0,0,0,0,0,0,0,0,0,0,0,0,0,0,0,0,0,0,0,0,0,0,0,0,0,0,0,0,0,0,0,0,0,0,0,0,0,0,0,0,0,0,0,0,0,0,0,0,0,0,0,0,0,0,0,0,0,0,0,0,0,0,0,0,0,0,0,0,0,0,0,0,0,0,0,0,0,0,0,0,0,0,0,0,0,0,0,0,0,0,0,0,0,0,0,0,0,0,0,0,0,0,0,0,0,0,0,0,0,0,0,0,0,0,0,0,0,0,0,0,0,0,0,0,0,0,0,0,0,0,0,0,0,0,0,0,0,0,0,0,0,0,0,0,0,0,0,0,0,0],"id":7,"left_children":[1,3,5,7,9,11,13,15,17,19,21,23,25,27,29,31,33,35,37,39,41,-1,-1,43,45,47,49,51,53,55,57,59,61,63,65,67,69,71,73,75,77,-1,-1,79,-1,81,83,85,87,89,91,93,95,97,-1,-1,99,101,103,105,107,109,111,113,115,117,119,121,123,-1,-1,125,-1,-1,-1,127,129,-1,131,133,-1,135,-1,-1,-1,137,139,141,143,145,147,-1,149,151,-1,153,-1,-1,-1,155,-1,-1,-1,-1,-1,-1,-1,-1,-1,-1,-1,-1,-1,-1,-1,-1,-1,-1,-1,-1,-1,-1,-1,-1,-1,-1,-1,-1,-1,-1,-1,-1,-1,-1,-1,-1,-1,-1,-1,-1,-1,-1,-1,-1,-1,-1,-1,-1,-1,-1,-1,-1,-1,-1,-1,-1,-1],"loss_changes":[3.9981715E4,2.2717715E3,3.619877E3,7.651953E2,1.092163E3,2.4399414E2,8.5578766E1,2.7477344E2,3.258628E2,1.4946289E1,2.5627441E0,8.214436E1,5.220117E1,1.1760925E1,2.6626366E1,1.4053906E2,2.0304918E2,1.158136E1,7.1056404E0,4.160034E0,4.190338E-1,0E0,0E0,7.8513947E0,4.576868E0,1.5105469E1,6.4842064E1,4.8828125E0,5.346572E0,5.1974792E0,4.597351E0,9.6697266E1,1.2909259E2,2.955371E1,2.9597282E0,1.5422363E0,4.07338E-1,3.3403282E0,5.5174947E-1,8.6050415E0,4.4470215E-1,0E0,0E0,5.1455154E0,0E0,2.0437145E0,3.937777E0,1.5158203E1,1.1105405E1,6.2555823E0,6.009323E0,1.9079285E0,1.0587962E1,9.09894E-1,0E0,0E0,2.199257E0,6.4475346E-1,3.2431169E0,3.1626953E1,1.9727303E2,4.148683E1,6.1648655E0,2.0268216E0,9.988632E0,8.5868835E-1,4.60955E0,6.0014343E-1,2.3556519E-1,0E0,0E0,4.567185E0,0E0,0E0,0E0,8.243744E0,4.66156E-1,0E0,3.8242853E-1,4.2177277E0,0E0,7.973938E-1,0E0,0E0,0E0,2.2135254E1,1.1623047E1,5.574107E-1,1.8190498E0,1.2637539E0,3.9715161E0,0E0,4.0322647E0,8.6691284E-1,0E0,2.8959332E0,0E0,0E0,0E0,5.0811005E-1,0E0,0E0,0E0,0E0,0E0,0E0,0E0,0E0,0E0,0E0,0E0,0E0,0E0,0E0,0E0,0E0,0E0,0E0,0E0,0E0,0E0,0E0,0E0,0E0,0E0,0E0,0E0,0E0,0E0,0E0,0E0,0E0,0E0,0E0,0E0,0E0,0E0,0E0,0E0,0E0,0E0,0E0,0E0,0E0,0E0,0E0,0E0,0E0,0E0,0E0,0E0,0E0,0E0,0E0,0E0,0E0,0E0],"parents":[2147483647,0,0,1,1,2,2,3,3,4,4,5,5,6,6,7,7,8,8,9,9,10,10,11,11,12,12,13,13,14,14,15,15,16,16,17,17,18,18,19,19,20,20,23,23,24,24,25,25,26,26,27,27,28,28,29,29,30,30,31,31,32,32,33,33,34,34,35,35,36,36,37,37,38,38,39,39,40,40,43,43,45,45,46,46,47,47,48,48,49,49,50,50,51,51,52,52,53,53,56,56,57,57,58,58,59,59,60,60,61,61,62,62,63,63,64,64,65,65,66,66,67,67,68,68,71,71,75,75,76,76,78,78,79,79,81,81,85,85,86,86,87,87,88,88,89,89,90,90,92,92,93,93,95,95,99,99],"right_children":[2,4,6,8,10,12,14,16,18,20,22,24,26,28,30,32,34,36,38,40,42,-1,-1,44,46,48,50,52,54,56,58,60,62,64,66,68,70,72,74,76,78,-1,-1,80,-1,82,84,86,88,90,92,94,96,98,-1,-1,100,102,104,106,108,110,112,114,116,118,120,122,124,-1,-1,126,-1,-1,-1,128,130,-1,132,134,-1,136,-1,-1,-1,138,140,142,144,146,148,-1,150,152,-1,154,-1,-1,-1,156,-1,-1,-1,-1,-1,-1,-1,-1,-1,-1,-1,-1,-1,-1,-1,-1,-1,-1,-1,-1,-1,-1,-1,-1,-1,-1,-1,-1,-1,-1,-1,-1,-1,-1,-1,-1,-1,-1,-1,-1,-1,-1,-1,-1,-1,-1,-1,-1,-1,-1,-1,-1,-1,-1,-1,-1,-1],"split_conditions":[1E0,6E0,2E0,2E0,5E0,1E0,1.1E1,1E0,1E0,6E0,2E0,1E0,8E0,7E0,6E0,2E0,1E0,1E0,1.1E1,2E0,1E0,-1.677008E-1,1.8940541E-1,2E0,1E0,9E0,1E1,2E0,1E0,4E0,2.1E1,1.4E1,1E0,1E0,1E0,3E0,2E0,1E0,1E0,2E0,1E0,4.6946723E-2,-1.3118877E-1,4E0,-1.2003829E-1,4E0,2E0,2E0,2E0,7E0,3E0,3E0,4E0,3E0,-1.2048365E-1,-1.1087207E-1,1.8E1,1.2E1,4E0,2E0,3E0,2E0,2E0,1E0,2E0,1.1E1,2E0,1E0,3E0,-1.2883723E-1,5.070413E-2,2E0,-1.6704875E-1,4.6847552E-2,3.6355138E-1,1E0,1E0,4.1743436E-1,3E0,2E0,-1.07127324E-1,1E0,1.342529E-1,-1.0321428E-1,4.722428E-1,6E0,2E0,1E0,1E0,1E0,1E0,-1.1164486E-1,9E0,3.7E1,1.0759079E-1,4E0,-1.5613073E-1,5.4522943E-2,4.341109E-1,5E0,2.8237544E-2,-1.5583327E-1,5.2540265E-2,4.1345707E-1,-9.665775E-2,-1.631447E-1,2.7542663E-1,4.1081226E-1,-1.6717757E-1,4.4752187E-1,-1.07906215E-1,-1.6421455E-1,7.998239E-2,-1.6297555E-1,1.7087826E-1,4.0445945E-1,-1.3659357E-1,-1.6719557E-1,6.132432E-2,3.0512142E-1,-1.4294125E-1,5.689847E-1,4.0031463E-1,4.190504E-1,1.3034533E-1,-1.3824606E-1,3.2123154E-1,5.849467E-1,4.2484996E-1,4.1966963E-1,1.1661206E-1,1.7167946E-2,2.41897E-1,4.2378506E-1,-1.0179808E-1,-1.5717484E-1,6.2047888E-2,4.516677E-1,2.8103298E-2,4.1453293E-1,5.1116314E-2,-1.516663E-1,4.6815097E-2,1.2501034E-2,3.9852658E-1,-1.6820227E-1,3.832413E-2,3.2005435E-1,-1.22653514E-1,4.0162733E-1,-9.341488E-2,-1.6607463E-1,6.2679514E-2,4.525823E-1,-2.7431212E-3,4.6733242E-1,1.3200185E-1],"split_indices":[2239,1041,2297,2395,1795,1821,1041,846,1795,2358,2997,1373,1751,2395,566,2586,1795,2513,2395,2663,565,0,0,446,736,756,2668,1376,93,1763,1661,1921,912,926,1266,2395,2130,2920,1843,2252,2307,0,0,1817,0,1083,1732,2239,2609,1532,52,2048,460,2586,0,0,1334,2474,778,1759,2297,1039,1041,2344,231,1646,364,846,2530,0,0,973,0,0,0,846,2665,0,787,1325,0,2047,0,0,0,1373,2115,1036,66,353,707,0,665,264,0,700,0,0,0,1139,0,0,0,0,0,0,0,0,0,0,0,0,0,0,0,0,0,0,0,0,0,0,0,0,0,0,0,0,0,0,0,0,0,0,0,0,0,0,0,0,0,0,0,0,0,0,0,0,0,0,0,0,0,0,0,0,0],"split_type":[0,0,0,0,0,0,0,0,0,0,0,0,0,0,0,0,0,0,0,0,0,0,0,0,0,0,0,0,0,0,0,0,0,0,0,0,0,0,0,0,0,0,0,0,0,0,0,0,0,0,0,0,0,0,0,0,0,0,0,0,0,0,0,0,0,0,0,0,0,0,0,0,0,0,0,0,0,0,0,0,0,0,0,0,0,0,0,0,0,0,0,0,0,0,0,0,0,0,0,0,0,0,0,0,0,0,0,0,0,0,0,0,0,0,0,0,0,0,0,0,0,0,0,0,0,0,0,0,0,0,0,0,0,0,0,0,0,0,0,0,0,0,0,0,0,0,0,0,0,0,0,0,0,0,0,0,0],"sum_hessian":[9.129409E4,7.542532E4,1.5868775E4,7.416352E4,1.261801E3,1.4730929E4,1.137847E3,7.374945E4,4.1406912E2,8.675478E2,3.9425327E2,1.399386E2,1.4590989E4,1.0913678E3,4.64792E1,7.346869E4,2.8075983E2,2.8440607E2,1.2966304E2,8.630034E2,4.544376E0,3.932179E2,1.0353789E0,4.339008E1,9.6548515E1,1.448167E4,1.0931987E2,1.0844E3,6.967813E0,3.0330267E1,1.6148932E1,7.328291E4,1.8578592E2,1.5797455E2,1.2278527E2,2.806945E2,3.711581E0,1.27148415E2,2.5146232E0,3.5240695E2,5.1059647E2,1.0349507E0,3.5094252E0,4.089253E1,2.4975505E0,9.3846375E1,2.7021356E0,1.44651875E4,1.6482458E1,3.925752E1,7.0062355E1,1.0672109E3,1.7189032E1,4.5244427E0,2.44337E0,1.2533343E0,2.9076933E1,1.3002687E1,3.1462436E0,7.3048195E4,2.347135E2,8.830689E1,9.747903E1,1.0547561E1,1.4742699E2,1.1606721E2,6.7180657E0,4.3123405E1,2.3757109E2,2.7087936E0,1.0027874E0,6.1563525E0,1.20992065E2,1.0384468E0,1.4761765E0,1.6317549E2,1.8923145E2,5.0803012E2,2.5663562E0,3.9451744E1,1.4407848E0,9.230621E1,1.5401627E0,1.5751721E0,1.1269635E0,1.4706301E3,1.2994558E4,8.064234E0,8.418223E0,3.3200356E1,6.057163E0,1.7956154E0,6.826674E1,1.0655417E3,1.6691806E0,5.1183124E0,1.2070719E1,1.0130796E0,3.511363E0,2.7809898E1,1.267034E0,1.1993301E1,1.0093855E0,1.7953768E0,1.3508669E0,7.303425E4,1.3939727E1,7.957654E1,1.5513696E2,7.42947E1,1.4012194E1,8.768146E1,9.7975645E0,9.447701E0,1.0998594E0,1.4473898E2,2.687994E0,1.1503762E2,1.029585E0,2.3907113E0,4.3273544E0,2.5737234E1,1.7386173E1,2.3620647E2,1.3646246E0,3.8899794E0,2.266373E0,9.828799E1,6.4887505E1,1.8785185E2,1.3796017E0,1.1843364E0,1.3820198E0,3.8388374E1,1.063369E0,9.128053E1,1.0256827E0,1.4593024E3,1.1327687E1,1.2986328E4,8.228861E0,7.028506E0,1.035728E0,1.3483223E0,7.0699015E0,3.0651917E1,2.5484378E0,3.802592E0,2.2545707E0,6.710122E1,1.1655209E0,1.0645222E3,1.0196133E0,3.3703377E0,1.7479744E0,2.6427E1,1.3828983E0],"tree_param":{"num_deleted":"0","num_feature":"3000","num_nodes":"157","size_leaf_vector":"1"}},{"base_weights":[2.315879E-1,-4.0683654E-1,1.3530277E0,8.680808E-1,-4.96957E-1,1.3593961E0,-1.5765196E-1,-2.1595769E-1,1.2366608E0,-5.1474416E-1,1.2828821E0,7.437496E-2,1.3647987E0,-3.40637E-1,1.1160764E0,2.6210186E-1,-5.1780856E-1,1.3371389E0,-2.4753037E-1,-5.247212E-1,6.6725224E-1,1.3382534E0,-1.6090396E-1,1.1343867E0,-5.049654E-1,1.3675306E0,6.82688E-1,-4.344159E-1,3.6952302E-1,-1.1810948E-1,1.2846287E0,8.359938E-1,-4.753333E-1,-5.2788293E-1,7.033358E-1,1.3862319E0,-2.6656538E-1,-2.9419374E-1,9.928799E-1,-5.323209E-1,-6.388671E-2,-4.1969338E-1,1.2799176E0,1.3550824E0,-3.356148E-1,1.2048708E0,-1.3058451E-1,-5.304862E-1,2.5691348E-1,1.3697405E0,5.778983E-1,3.3248386E-1,1.2890154E0,-4.636718E-1,3.2478502E-1,1.4552974E0,-1.4029196E-1,1.4000306E0,-9.4129875E-2,1.1824895E0,-4.4097266E-1,-4.9007243E-1,2.4522705E-1,-5.330125E-1,2.4920294E-1,3.375375E-1,-1.15180835E-1,1.4026153E0,-4.1941807E-1,8.6154526E-1,-3.9412522E-1,5.134554E-2,-4.0259778E-1,3.7533793E-1,-1.02472015E-1,-5.336012E-1,7.1981037E-1,-2.2000162E-1,1.3001561E0,-4.7675E-1,3.6495474E-1,1.4402217E0,-4.4226837E-1,-1.0610781E-1,1.3606176E0,-1.3976282E-1,6.285246E-2,1.2549419E0,-1.3441011E-1,-5.493905E-1,1.5046369E-1,1.3706267E0,3.8826588E-1,-4.179635E-1,1.0898035E0,-1.3822797E-2,8.041999E-1,1.3467883E0,-1.12407915E-1,-4.8613423E-1,5.91822E-1,5.915898E-1,-9.370738E-2,-3.5711217E-1,3.514804E-1,4.6598896E-1,3.5636035E-1,3.902723E-1,-8.8126905E-2,-1.6860968E-1,3.1469765E-1,-1.5111314E-1,1.9050771E-1,-1.6110809E-1,1.7800671E-1,4.2308545E-1,-1.629819E-3,-1.6508947E-1,3.295322E-1,4.103752E-1,-6.13264E-2,-1.3969555E-1,3.313688E-1,-1.3341916E-2,4.3947667E-1,-1.2598538E-1,2.2168545E-1,-1.6312385E-1,-1.22813866E-1,-1.4367525E-1,5.247236E-1,-1.4179702E-1,5.3260956E-2,-1.1161459E-1,4.8078087E-1,-1.5054496E-1,2.6039815E-1,4.309326E-1,-1.4867409E-1,4.4203836E-1,-1.0150728E-1,2.385631E-1,-1.6277821E-1,4.772674E-2,-9.13901E-2,4.093034E-1,-1.1158433E-1,3.878448E-1,-1.0544569E-1,-1.6770554E-1,6.357506E-2,4.1144562E-1,1.5274839E-1,-7.413254E-2,4.8610476E-1,-1.6148092E-1,1.2451188E-1,3.5888815E-1,-4.7073968E-2,-7.3103935E-2,1.9125761E-1,2.969274E-1,-6.970421E-2,4.1610882E-1,-9.520743E-2,-1.5931395E-1,-1.0950375E-2,5.77849E-2,2.1165635E-1,-1.5634333E-1,1.9671549E-1,-9.876885E-2,2.6206723E-1],"categories":[],"categories_nodes":[],"categories_segments":[],"categories_sizes":[],"default_left":[0,0,0,0,0,0,0,0,0,0,0,0,0,0,0,0,0,0,0,0,0,0,0,0,0,0,0,0,0,0,0,0,0,0,0,0,0,0,0,0,0,0,0,0,0,0,0,0,0,0,0,0,0,0,0,0,0,0,0,0,0,0,0,0,0,0,0,0,0,0,0,0,0,0,0,0,0,0,0,0,0,0,0,0,0,0,0,0,0,0,0,0,0,0,0,0,0,0,0,0,0,0,0,0,0,0,0,0,0,0,0,0,0,0,0,0,0,0,0,0,0,0,0,0,0,0,0,0,0,0,0,0,0,0,0,0,0,0,0,0,0,0,0,0,0,0,0,0,0,0,0,0,0,0,0,0,0,0,0,0,0,0,0,0,0,0,0,0,0,0,0,0,0],"id":8,"left_children":[1,3,5,7,9,11,13,15,17,19,21,23,25,27,29,31,33,35,37,39,41,43,-1,45,47,49,51,53,55,-1,57,59,61,63,65,67,69,71,73,75,77,79,81,83,85,87,-1,89,-1,91,93,95,97,99,-1,101,103,105,-1,107,109,111,-1,113,-1,-1,-1,115,117,119,121,123,125,-1,-1,127,129,131,133,135,137,139,141,143,145,-1,-1,147,-1,149,-1,151,153,155,157,159,161,163,-1,165,167,-1,-1,169,-1,-1,171,-1,-1,-1,-1,-1,-1,-1,-1,-1,-1,-1,-1,-1,-1,-1,-1,-1,-1,-1,-1,-1,-1,-1,-1,-1,-1,-1,-1,-1,-1,-1,-1,-1,-1,-1,-1,-1,-1,-1,-1,-1,-1,-1,-1,-1,-1,-1,-1,-1,-1,-1,-1,-1,-1,-1,-1,-1,-1,-1,-1,-1,-1,-1,-1,-1,-1],"loss_changes":[7.6579984E4,7.8317295E3,3.7351562E2,1.7983872E3,2.0160391E3,2.6814844E2,3.8554153E1,1.650357E2,5.0119092E2,7.4366797E2,6.41991E1,1.005657E2,7.0765625E1,9.749151E0,5.800829E0,1.878534E2,8.992645E0,2.4803906E2,1.2667132E1,2.1886719E2,3.5216663E2,1.7690796E1,0E0,6.9248276E0,4.136175E0,6.6078125E1,3.2587807E1,6.167017E0,9.799988E0,0E0,3.9352398E0,1.1089549E2,4.106369E0,5.290497E0,3.2583096E0,9.088965E1,1.3906256E1,7.767658E0,3.1773777E0,9.895703E1,2.1646773E2,8.729061E0,9.393109E1,5.04541E0,5.869905E-1,5.1663055E0,0E0,2.3171253E0,0E0,3.2710938E1,5.5861595E1,1.6332169E1,5.9429398E0,3.2733154E0,0E0,5.7548695E0,4.033247E0,2.3032494E0,0E0,3.4730377E1,1.032425E1,3.2800522E0,0E0,3.455017E0,0E0,0E0,0E0,3.2677246E1,6.210029E0,5.6186924E0,9.6674185E0,6.874917E0,3.4312115E0,0E0,0E0,7.719141E1,7.8856964E1,9.166382E1,5.3397354E1,6.4549065E0,1.3177986E1,1.8789429E1,4.099117E0,2.177045E-1,4.406006E0,0E0,0E0,3.7555008E0,0E0,8.751812E-1,0E0,2.7546875E1,2.848226E1,3.9937716E0,9.754936E0,8.928207E0,8.368467E0,4.1165924E0,0E0,2.4816952E0,3.6796331E-3,0E0,0E0,2.2809362E0,0E0,0E0,1.5586493E0,0E0,0E0,0E0,0E0,0E0,0E0,0E0,0E0,0E0,0E0,0E0,0E0,0E0,0E0,0E0,0E0,0E0,0E0,0E0,0E0,0E0,0E0,0E0,0E0,0E0,0E0,0E0,0E0,0E0,0E0,0E0,0E0,0E0,0E0,0E0,0E0,0E0,0E0,0E0,0E0,0E0,0E0,0E0,0E0,0E0,0E0,0E0,0E0,0E0,0E0,0E0,0E0,0E0,0E0,0E0,0E0,0E0,0E0,0E0,0E0,0E0,0E0,0E0,0E0,0E0,0E0],"parents":[2147483647,0,0,1,1,2,2,3,3,4,4,5,5,6,6,7,7,8,8,9,9,10,10,11,11,12,12,13,13,14,14,15,15,16,16,17,17,18,18,19,19,20,20,21,21,23,23,24,24,25,25,26,26,27,27,28,28,30,30,31,31,32,32,33,33,34,34,35,35,36,36,37,37,38,38,39,39,40,40,41,41,42,42,43,43,44,44,45,45,47,47,49,49,50,50,51,51,52,52,53,53,55,55,56,56,57,57,59,59,60,60,61,61,63,63,67,67,68,68,69,69,70,70,71,71,72,72,75,75,76,76,77,77,78,78,79,79,80,80,81,81,82,82,83,83,84,84,87,87,89,89,91,91,92,92,93,93,94,94,95,95,96,96,97,97,99,99,100,100,103,103,106,106],"right_children":[2,4,6,8,10,12,14,16,18,20,22,24,26,28,30,32,34,36,38,40,42,44,-1,46,48,50,52,54,56,-1,58,60,62,64,66,68,70,72,74,76,78,80,82,84,86,88,-1,90,-1,92,94,96,98,100,-1,102,104,106,-1,108,110,112,-1,114,-1,-1,-1,116,118,120,122,124,126,-1,-1,128,130,132,134,136,138,140,142,144,146,-1,-1,148,-1,150,-1,152,154,156,158,160,162,164,-1,166,168,-1,-1,170,-1,-1,172,-1,-1,-1,-1,-1,-1,-1,-1,-1,-1,-1,-1,-1,-1,-1,-1,-1,-1,-1,-1,-1,-1,-1,-1,-1,-1,-1,-1,-1,-1,-1,-1,-1,-1,-1,-1,-1,-1,-1,-1,-1,-1,-1,-1,-1,-1,-1,-1,-1,-1,-1,-1,-1,-1,-1,-1,-1,-1,-1,-1,-1,-1,-1,-1,-1,-1],"split_conditions":[1E0,1E0,2E0,1E0,2E0,1E0,5E0,1E0,2E0,1E0,3E0,1E0,1E1,3E0,1.4E1,2E0,2E0,2E0,1E0,1E0,2E0,5.6E1,-1.6090396E-1,1E0,2E0,5E0,7E0,4E0,1E0,-1.1810948E-1,3E0,1E0,1.3E1,4E0,1E0,8E0,9E0,3E0,1E0,1.2E1,2E0,1.3E1,2E0,1E0,4E0,1E0,-1.3058451E-1,9E0,2.5691348E-1,1.3E1,2E0,1E0,1E0,3E0,3.2478502E-1,3E0,4E0,7E0,-9.4129875E-2,1E0,2E0,1E0,2.4522705E-1,1E0,2.4920294E-1,3.375375E-1,-1.15180835E-1,3E0,5.2E1,3E0,1.1E1,1E0,9E0,3.7533793E-1,-1.02472015E-1,1E0,1E0,2E0,1E0,1E0,1.7E1,3E0,6E0,1E0,1.2E1,-1.3976282E-1,6.285246E-2,3E0,-1.3441011E-1,6E0,1.5046369E-1,1.31E2,6E0,5E0,9E0,3E0,3E0,6E0,-1.12407915E-1,2E0,1E0,5.915898E-1,-9.370738E-2,2E0,3.514804E-1,4.6598896E-1,2E0,3.902723E-1,-8.8126905E-2,-1.6860968E-1,3.1469765E-1,-1.5111314E-1,1.9050771E-1,-1.6110809E-1,1.7800671E-1,4.2308545E-1,-1.629819E-3,-1.6508947E-1,3.295322E-1,4.103752E-1,-6.13264E-2,-1.3969555E-1,3.313688E-1,-1.3341916E-2,4.3947667E-1,-1.2598538E-1,2.2168545E-1,-1.6312385E-1,-1.22813866E-1,-1.4367525E-1,5.247236E-1,-1.4179702E-1,5.3260956E-2,-1.1161459E-1,4.8078087E-1,-1.5054496E-1,2.6039815E-1,4.309326E-1,-1.4867409E-1,4.4203836E-1,-1.0150728E-1,2.385631E-1,-1.6277821E-1,4.772674E-2,-9.13901E-2,4.093034E-1,-1.1158433E-1,3.878448E-1,-1.0544569E-1,-1.6770554E-1,6.357506E-2,4.1144562E-1,1.5274839E-1,-7.413254E-2,4.8610476E-1,-1.6148092E-1,1.2451188E-1,3.5888815E-1,-4.7073968E-2,-7.3103935E-2,1.9125761E-1,2.969274E-1,-6.970421E-2,4.1610882E-1,-9.520743E-2,-1.5931395E-1,-1.0950375E-2,5.77849E-2,2.1165635E-1,-1.5634333E-1,1.9671549E-1,-9.876885E-2,2.6206723E-1],"split_indices":[1207,1322,1422,1558,2888,2124,447,619,1334,478,1902,619,365,142,2901,464,2458,1426,478,1136,1558,464,0,1945,104,1902,77,1157,1026,0,498,1945,1995,642,1578,1735,1241,797,93,1445,2458,1069,408,1821,2888,1200,0,680,0,1735,2458,2755,1081,762,0,1081,1061,1150,0,1334,2644,1639,0,859,0,0,0,1902,1626,1985,285,2868,2958,0,0,1647,642,1558,1475,859,2770,1768,2481,2582,1669,0,0,464,0,534,0,1241,1445,545,2597,2361,2244,2027,0,1380,2598,0,0,164,0,0,1281,0,0,0,0,0,0,0,0,0,0,0,0,0,0,0,0,0,0,0,0,0,0,0,0,0,0,0,0,0,0,0,0,0,0,0,0,0,0,0,0,0,0,0,0,0,0,0,0,0,0,0,0,0,0,0,0,0,0,0,0,0,0,0,0,0,0],"split_type":[0,0,0,0,0,0,0,0,0,0,0,0,0,0,0,0,0,0,0,0,0,0,0,0,0,0,0,0,0,0,0,0,0,0,0,0,0,0,0,0,0,0,0,0,0,0,0,0,0,0,0,0,0,0,0,0,0,0,0,0,0,0,0,0,0,0,0,0,0,0,0,0,0,0,0,0,0,0,0,0,0,0,0,0,0,0,0,0,0,0,0,0,0,0,0,0,0,0,0,0,0,0,0,0,0,0,0,0,0,0,0,0,0,0,0,0,0,0,0,0,0,0,0,0,0,0,0,0,0,0,0,0,0,0,0,0,0,0,0,0,0,0,0,0,0,0,0,0,0,0,0,0,0,0,0,0,0,0,0,0,0,0,0,0,0,0,0,0,0,0,0,0,0],"sum_hessian":[1.069603E5,6.8158805E4,3.880149E4,4.499309E3,6.36595E4,3.8638703E4,1.6278534E2,1.1417368E3,3.357572E3,6.3030305E4,6.291933E2,1.6182631E2,3.8476875E4,1.429776E2,1.9807735E1,4.4194052E2,6.997963E2,3.1447734E3,2.1279861E2,6.250328E4,5.2702454E2,6.10865E2,1.8328314E1,5.685019E1,1.0497612E2,3.8322387E4,1.544895E2,1.2664236E2,1.6335245E1,1.855119E0,1.7952616E1,2.4845357E2,1.9348694E2,6.9463336E2,5.162968E0,3.0514958E3,9.327761E1,2.0581868E2,6.9799304E0,6.1489094E4,1.01418805E3,1.9009212E2,3.3693243E2,6.049731E2,5.891941E0,5.4629513E1,2.220675E0,1.0364346E2,1.3326558E0,3.8214703E4,1.0768483E2,9.890947E1,5.5580032E1,1.249275E2,1.7148626E0,4.6267986E0,1.1708447E1,1.6859488E1,1.0931287E0,1.954843E2,5.296928E1,1.9191971E2,1.5672286E0,6.9262585E2,2.0075111E0,3.694812E0,1.4681559E0,3.0242786E3,2.7217203E1,8.891259E0,8.438635E1,4.9276276E1,1.565424E2,5.9004955E0,1.0794349E0,6.142686E4,6.2234325E1,9.1078705E2,1.0340101E2,1.7757216E2,1.2519964E1,3.0839062E2,2.8541805E1,2.2145412E0,6.0275854E2,4.8728995E0,1.0190417E0,5.3256977E1,1.3725345E0,1.02238365E2,1.4050975E0,3.817983E4,3.4872044E1,3.662261E1,7.106222E1,5.7596294E1,4.1313175E1,5.3898865E1,1.6811662E0,1.2285244E2,2.0750537E0,3.4908686E0,1.1359301E0,1.0672382E1,1.0360652E0,1.4274879E1,2.5846076E0,1.8107779E2,1.44065075E1,4.9564922E1,3.4043593E0,1.9016687E2,1.7528363E0,6.9068744E2,1.9384303E0,3.0078936E3,1.6385103E1,2.5643497E1,1.573706E0,5.835788E0,3.0554717E0,8.120027E1,3.1860828E0,4.7055202E1,2.2210746E0,1.54821E2,1.7214181E0,5.6785914E4,4.6409424E3,2.899743E1,3.3236893E1,5.567537E2,3.5403336E2,1.5802123E1,8.7598885E1,1.7493806E2,2.634084E0,5.2783866E0,7.2415776E0,3.0290134E2,5.4893084E0,1.621007E0,2.6920797E1,1.0331181E0,1.181423E0,6.0167676E2,1.0817382E0,5.222101E1,1.03597E0,1.01223946E2,1.0144194E0,3.814122E4,3.860899E1,2.3534798E1,1.1337246E1,3.231006E1,4.31255E0,6.5507256E1,5.5549674E0,4.303528E1,1.4561016E1,3.5078686E1,6.234489E0,5.278889E1,1.1099755E0,1.1153095E2,1.1321488E1,1.057208E0,1.0178457E0,9.60265E0,1.0697327E0,1.2676551E0,1.3169525E0],"tree_param":{"num_deleted":"0","num_feature":"3000","num_nodes":"173","size_leaf_vector":"1"}},{"base_weights":[-1.238902E-1,-4.2467263E-1,1.3533167E0,-5.03456E-1,1.2407334E0,1.3597795E0,-1.057956E-1,-5.3043526E-1,7.5931627E-1,1.2978538E0,-3.7371376E-1,1.3662012E0,9.8837095E-1,1.0144088E0,-4.018849E-1,-5.37137E-1,6.008567E-1,1.3264469E0,-5.14707E-1,-2.5776027E-2,1.3557187E0,-1.6694488E-1,9.1246104E-1,4.6050555E-1,1.3685807E0,6.8803036E-1,1.2969539E0,-2.4834317E-1,4.307117E-1,-5.1322705E-1,4.1321516E-1,-5.467077E-1,-1.4745389E-1,1.2184069E0,-5.282698E-1,1.346479E0,-2.1710385E-1,8.3696884E-1,-5.491285E-1,8.442274E-1,-4.9284774E-1,9.985505E-1,1.3806702E0,1.2927585E0,-1.4521307E-1,1.1925304E0,-4.853558E-1,1.2923481E0,1.38481E0,4.5387578E-1,1.3217212E0,1.3230034E0,3.758727E-1,-1.24347776E-1,5.078999E-2,-1.6546677E-1,1.02473155E-1,-1.2786034E-1,1.012858E0,-5.5102897E-1,-2.718367E-1,1.1017919E0,-4.5878384E-1,-1.3016187E-1,1.3853364E0,-1.6722447E-1,6.6112643E-1,1.3585209E0,-3.7330794E-1,-1.5765904E-1,3.0080345E-1,1.3517928E0,-1.3219196E-1,-5.572786E-1,3.3423516E-1,1.9593805E-1,1.333089E0,-5.4048234E-1,2.719011E-1,1.1043241E0,-4.9438468E-1,1.383647E0,2.4423578E-1,4.492919E-1,-9.76933E-2,1.3536859E0,-1.199046E-1,-1.5957734E-1,5.229633E-2,1.3507818E0,1.1465697E0,1.3855172E0,3.5042673E-1,2.3325607E-1,9.5433074E-1,8.9880236E-4,1.3701488E0,1.3370849E0,-2.5643385E-3,2.944834E-1,-1.4372571E-1,4.151124E-1,2.1728713E-2,-1.6538937E-1,6.122789E-1,4.341015E-1,-1.6188216E-1,-1.400391E-1,6.665249E-1,-1.5833554E-1,3.1658533E-1,-1.626839E-1,4.2845437E-1,4.1938177E-1,-2.8758526E-2,2.871477E-1,7.3791523E-3,4.0848818E-1,1.1334079E-2,-1.4571203E-1,6.436192E-2,4.177951E-2,4.4713727E-1,-1.6776516E-1,4.904763E-2,-1.20010145E-1,3.774674E-1,-8.110644E-2,3.3788514E-1,4.1776055E-1,9.799079E-3,-1.6803214E-1,1.5329298E-1,3.4757644E-1,3.7235736E-3,-1.6642642E-1,5.0578665E-2,4.1547027E-1,-5.2546635E-2,-1.6073659E-1,3.1594822E-1,4.3424997E-1,3.4468279E-3,4.0601128E-1,-1.4689228E-1,3.6100554E-1,2.270081E-1,3.9770386E-1,4.1893697E-1,-1.6577327E-1,3.3202204E-1,2.2149187E-1,-1.4307675E-2,3.6875433E-1,4.072807E-2,4.2068225E-1,4.2685308E-2,4.0470776E-1,1.5010716E-2],"categories":[],"categories_nodes":[],"categories_segments":[],"categories_sizes":[],"default_left":[0,0,0,0,0,0,0,0,0,0,0,0,0,0,0,0,0,0,0,0,0,0,0,0,0,0,0,0,0,0,0,0,0,0,0,0,0,0,0,0,0,0,0,0,0,0,0,0,0,0,0,0,0,0,0,0,0,0,0,0,0,0,0,0,0,0,0,0,0,0,0,0,0,0,0,0,0,0,0,0,0,0,0,0,0,0,0,0,0,0,0,0,0,0,0,0,0,0,0,0,0,0,0,0,0,0,0,0,0,0,0,0,0,0,0,0,0,0,0,0,0,0,0,0,0,0,0,0,0,0,0,0,0,0,0,0,0,0,0,0,0,0,0,0,0,0,0,0,0,0,0,0,0,0,0,0,0,0,0],"id":9,"left_children":[1,3,5,7,9,11,13,15,17,19,21,23,25,27,29,31,33,35,37,39,41,-1,43,45,47,49,51,53,-1,55,57,59,61,63,65,67,69,71,73,75,77,79,81,83,-1,85,87,89,91,93,95,97,99,-1,-1,-1,-1,-1,101,103,105,107,109,111,113,-1,115,117,119,-1,-1,121,-1,123,125,127,129,131,-1,133,135,137,139,-1,-1,141,-1,-1,-1,143,145,147,149,151,153,-1,155,157,-1,-1,-1,-1,-1,-1,-1,-1,-1,-1,-1,-1,-1,-1,-1,-1,-1,-1,-1,-1,-1,-1,-1,-1,-1,-1,-1,-1,-1,-1,-1,-1,-1,-1,-1,-1,-1,-1,-1,-1,-1,-1,-1,-1,-1,-1,-1,-1,-1,-1,-1,-1,-1,-1,-1,-1,-1,-1,-1,-1,-1],"loss_changes":[4.1677945E4,1.0225958E4,1.4978125E2,2.535584E3,3.2513477E2,3.633008E1,2.3924961E1,5.527031E2,1.1256843E3,2.604756E2,2.8969706E1,3.283203E1,2.4329224E1,8.393249E0,5.3666515E0,2.7004688E2,3.0015594E2,3.3615234E1,2.2807602E1,5.8690746E1,2.7656738E1,0E0,8.827588E0,2.9794117E1,1.736914E1,2.0179413E1,2.6961975E0,3.9157805E-1,0E0,1.8402328E0,4.1463733E0,8.382031E1,6.7630774E2,6.275644E1,5.6571274E0,2.2542358E1,6.0452952E0,8.701881E0,3.5628815E0,1.5732231E1,6.75119E0,3.4710587E1,9.95459E0,4.602764E0,0E0,6.7186127E0,6.800766E-1,2.1733887E1,8.845703E0,1.1235588E1,2.3755035E0,2.4309235E0,3.0894504E0,0E0,0E0,0E0,0E0,0E0,1.5043983E0,4.9640625E1,5.052845E2,6.105261E2,1.4594785E2,2.1025225E1,4.7529907E0,0E0,7.502489E-1,4.2841797E0,6.4487135E-1,0E0,0E0,1.3107452E0,0E0,7.412567E-1,3.8363779E0,1.0224535E1,2.1652565E0,2.1738071E0,0E0,1.197493E1,6.940894E-1,6.17334E0,6.346187E0,0E0,0E0,2.7649307E0,0E0,0E0,0E0,9.933105E0,1.654956E1,6.4921875E0,7.4774213E0,1.0443043E1,6.904047E0,0E0,1.218132E0,1.8950043E0,0E0,0E0,0E0,0E0,0E0,0E0,0E0,0E0,0E0,0E0,0E0,0E0,0E0,0E0,0E0,0E0,0E0,0E0,0E0,0E0,0E0,0E0,0E0,0E0,0E0,0E0,0E0,0E0,0E0,0E0,0E0,0E0,0E0,0E0,0E0,0E0,0E0,0E0,0E0,0E0,0E0,0E0,0E0,0E0,0E0,0E0,0E0,0E0,0E0,0E0,0E0,0E0,0E0,0E0,0E0,0E0,0E0,0E0,0E0,0E0,0E0],"parents":[2147483647,0,0,1,1,2,2,3,3,4,4,5,5,6,6,7,7,8,8,9,9,10,10,11,11,12,12,13,13,14,14,15,15,16,16,17,17,18,18,19,19,20,20,22,22,23,23,24,24,25,25,26,26,27,27,29,29,30,30,31,31,32,32,33,33,34,34,35,35,36,36,37,37,38,38,39,39,40,40,41,41,42,42,43,43,45,45,46,46,47,47,48,48,49,49,50,50,51,51,52,52,58,58,59,59,60,60,61,61,62,62,63,63,64,64,66,66,67,67,68,68,71,71,73,73,74,74,75,75,76,76,77,77,79,79,80,80,81,81,82,82,85,85,89,89,90,90,91,91,92,92,93,93,94,94,96,96,97,97],"right_children":[2,4,6,8,10,12,14,16,18,20,22,24,26,28,30,32,34,36,38,40,42,-1,44,46,48,50,52,54,-1,56,58,60,62,64,66,68,70,72,74,76,78,80,82,84,-1,86,88,90,92,94,96,98,100,-1,-1,-1,-1,-1,102,104,106,108,110,112,114,-1,116,118,120,-1,-1,122,-1,124,126,128,130,132,-1,134,136,138,140,-1,-1,142,-1,-1,-1,144,146,148,150,152,154,-1,156,158,-1,-1,-1,-1,-1,-1,-1,-1,-1,-1,-1,-1,-1,-1,-1,-1,-1,-1,-1,-1,-1,-1,-1,-1,-1,-1,-1,-1,-1,-1,-1,-1,-1,-1,-1,-1,-1,-1,-1,-1,-1,-1,-1,-1,-1,-1,-1,-1,-1,-1,-1,-1,-1,-1,-1,-1,-1,-1,-1,-1,-1],"split_conditions":[1E0,1E0,3E0,1.3E1,2E0,1E0,2E0,1E0,1.7E1,1E0,1.1E1,1E0,4E0,1.5E1,3E0,1E0,1E0,8E0,2E0,3E0,1.3E1,-1.6694488E-1,3E0,1E0,1.3E1,9E0,4E0,1E0,4.307117E-1,4E0,1E0,7E0,1.2E1,1E0,3.2E1,8E0,1.3E1,6E0,1E0,1E0,3E0,1E0,3E0,1.1E1,-1.4521307E-1,1E0,5E0,1E0,5E0,7E0,3E0,5E0,1.9E1,-1.24347776E-1,5.078999E-2,-1.6546677E-1,1.02473155E-1,-1.2786034E-1,1E0,2E0,6E0,3E0,7E0,2E0,2E0,-1.6722447E-1,1E0,1.7E1,1E0,-1.5765904E-1,3.0080345E-1,1E0,-1.3219196E-1,3E0,9E0,8E0,1E0,2.6E1,2.719011E-1,1E0,1E0,9E0,1.1E1,4.492919E-1,-9.76933E-2,1E0,-1.199046E-1,-1.5957734E-1,5.229633E-2,4E0,1E1,3.3E1,5E0,1.4E1,3E0,8.9880236E-4,2E0,3E0,-2.5643385E-3,2.944834E-1,-1.4372571E-1,4.151124E-1,2.1728713E-2,-1.6538937E-1,6.122789E-1,4.341015E-1,-1.6188216E-1,-1.400391E-1,6.665249E-1,-1.5833554E-1,3.1658533E-1,-1.626839E-1,4.2845437E-1,4.1938177E-1,-2.8758526E-2,2.871477E-1,7.3791523E-3,4.0848818E-1,1.1334079E-2,-1.4571203E-1,6.436192E-2,4.177951E-2,4.4713727E-1,-1.6776516E-1,4.904763E-2,-1.20010145E-1,3.774674E-1,-8.110644E-2,3.3788514E-1,4.1776055E-1,9.799079E-3,-1.6803214E-1,1.5329298E-1,3.4757644E-1,3.7235736E-3,-1.6642642E-1,5.0578665E-2,4.1547027E-1,-5.2546635E-2,-1.6073659E-1,3.1594822E-1,4.3424997E-1,3.4468279E-3,4.0601128E-1,-1.4689228E-1,3.6100554E-1,2.270081E-1,3.9770386E-1,4.1893697E-1,-1.6577327E-1,3.3202204E-1,2.2149187E-1,-1.4307675E-2,3.6875433E-1,4.072807E-2,4.2068225E-1,4.2685308E-2,4.0470776E-1,1.5010716E-2],"split_indices":[1422,1768,447,2831,447,261,2458,671,2844,2105,1334,2255,2536,1241,408,2160,447,752,2053,619,1469,0,2501,954,2481,1134,2893,2835,0,2328,2881,2831,2230,2124,464,1442,1334,1562,375,533,2120,973,1666,2592,0,305,1222,273,2888,1422,252,2365,1562,0,0,0,0,0,12,1311,2844,2338,533,239,1435,0,2567,1426,1963,0,0,2736,0,858,2543,1241,2593,592,0,1445,1984,2566,2648,0,0,1826,0,0,0,2252,1558,1469,1054,1334,72,0,331,1538,0,0,0,0,0,0,0,0,0,0,0,0,0,0,0,0,0,0,0,0,0,0,0,0,0,0,0,0,0,0,0,0,0,0,0,0,0,0,0,0,0,0,0,0,0,0,0,0,0,0,0,0,0,0,0,0,0,0,0,0,0],"split_type":[0,0,0,0,0,0,0,0,0,0,0,0,0,0,0,0,0,0,0,0,0,0,0,0,0,0,0,0,0,0,0,0,0,0,0,0,0,0,0,0,0,0,0,0,0,0,0,0,0,0,0,0,0,0,0,0,0,0,0,0,0,0,0,0,0,0,0,0,0,0,0,0,0,0,0,0,0,0,0,0,0,0,0,0,0,0,0,0,0,0,0,0,0,0,0,0,0,0,0,0,0,0,0,0,0,0,0,0,0,0,0,0,0,0,0,0,0,0,0,0,0,0,0,0,0,0,0,0,0,0,0,0,0,0,0,0,0,0,0,0,0,0,0,0,0,0,0,0,0,0,0,0,0,0,0,0,0,0,0],"sum_hessian":[9.37998E4,7.793228E4,1.5867519E4,7.441282E4,3.5194595E3,1.5797615E4,6.990342E1,7.2856805E4,1.5560146E3,3.3993823E3,1.2007699E2,1.55264795E4,2.711359E2,1.4106775E1,5.5796646E1,7.2428266E4,4.2853625E2,1.076687E3,4.7932764E2,1.4240863E2,3.2569739E3,1.056335E2,1.4443489E1,4.1194637E1,1.5485285E4,1.3903966E2,1.3209624E2,3.6317782E0,1.04749975E1,4.941671E1,6.3799386E0,7.0691664E4,1.7366046E3,2.7697305E2,1.5156319E2,1.0630188E3,1.3668182E1,1.1324299E1,4.6800333E2,4.94646E1,9.294402E1,2.1535078E2,3.041623E3,1.1410469E1,3.0330195E0,2.3075312E1,1.8119326E1,2.7322036E3,1.2753081E4,1.0277836E2,3.62613E1,1.2803876E2,4.0574803E0,2.603558E0,1.0282202E0,4.7635525E1,1.7811844E0,2.778987E0,3.6009517E0,6.959652E4,1.0951395E3,3.4594064E2,1.390664E3,3.0532373E1,2.4644069E2,1.4845674E2,3.1064503E0,1.055836E3,7.18284E0,1.1363932E1,2.3042505E0,8.030337E0,3.2939615E0,4.6409064E2,3.9126868E0,2.1867056E1,2.7597544E1,9.047748E1,2.4665468E0,2.0134586E2,1.4004943E1,3.0334597E3,8.163374E0,1.0194516E1,1.2159528E0,2.1090454E1,1.9848576E0,1.7105457E1,1.0138689E0,1.9445049E3,7.876987E2,1.2744028E4,9.05318E0,7.234986E1,3.0428501E1,1.3220685E0,3.493923E1,1.2669478E2,1.3439804E0,2.2881706E0,1.76931E0,2.244496E0,1.3564557E0,6.959009E4,6.4336233E0,1.4701752E2,9.48122E2,1.4435013E2,2.015905E2,1.330672E3,5.9991898E1,2.4662237E1,5.870135E0,2.4441728E2,2.0234084E0,1.7765224E0,1.3299279E0,1.0533278E3,2.5083091E0,6.175763E0,1.0070766E0,1.0297976E0,7.00054E0,4.6306934E2,1.0212973E0,2.4961352E0,1.4165518E0,1.5038904E1,6.8281517E0,2.6323397E1,1.2741469E0,8.9278465E1,1.1990173E0,1.9175526E2,9.590577E0,1.2985723E1,1.0192205E0,3.031133E3,2.3266363E0,4.3278236E0,3.8355503E0,1.9639292E1,1.4511617E0,1.9420375E3,2.467432E0,6.857402E2,1.01958595E2,1.9885808E3,1.0755447E4,4.2492027E0,4.803977E0,2.5278946E1,4.707091E1,2.2404242E1,8.024259E0,3.390998E1,1.0292492E0,1.25482414E2,1.212358E0],"tree_param":{"num_deleted":"0","num_feature":"3000","num_nodes":"159","size_leaf_vector":"1"}},{"base_weights":[-3.289864E-1,-5.432557E-1,1.2579248E0,-5.5156004E-1,1.1001096E0,1.3628572E0,-3.2570904E-1,-5.536964E-1,1.1115407E0,1.36455E0,-4.494856E-1,9.0144485E-2,1.3746687E0,-5.0210464E-1,3.8600832E-1,-5.5503553E-1,7.444054E-1,1.3920943E0,-2.6209757E-1,1.3759407E0,-1.1922642E-1,2.2153449E-1,-1.6494061E-1,-2.0299642E-1,1.1331761E0,1.3786993E0,5.389526E-1,-5.338891E-1,2.681823E-2,1.1747754E0,-1.8020763E-1,-5.5564964E-1,8.3237916E-1,1.1468302E0,-4.0417233E-1,4.2264003E-1,2.6286846E-2,-4.680671E-1,2.8983805E-1,1.3822225E0,-1.02337524E-1,-1.3942705E-1,1.2379363E0,-3.9734495E-1,6.448698E-1,1.3849972E0,-2.2353984E-1,1.3813273E0,3.9142296E-1,-8.1314676E-2,1.2335621E0,-5.397667E-1,1.7388645E-1,9.9842507E-1,-4.066776E-1,1.2832905E0,-2.609683E-1,-2.8153408E-1,7.6433283E-1,-5.563481E-1,1.9093291E-1,1.9671795E0,-1.5813817E-1,-3.522659E-1,1.3058025E0,-1.6099349E-1,2.1742107E-1,5.6619115E-2,-1.5785344E-1,1.3867419E0,1.8839817E-2,4.901284E-2,4.9081486E-1,-1.6645633E-1,3.0556837E-1,1.069368E0,-1.375291E-1,1.5338122E0,3.746413E-1,5.2169885E-2,-1.24876596E-1,1.3830826E0,7.374884E-2,-3.6915485E-2,9.781654E-1,-3.6572763E-1,1.0228658E0,1.375269E0,-8.853936E-2,-5.457296E-1,3.3943376E-1,1.4102174E0,-1.1352598E-1,4.38154E-1,-1.6013321E-1,3.781561E-1,1.4272195E0,-1.278675E-1,4.7455307E-2,5.826107E-1,-3.6209884E-1,1.3213283E0,-1.2030951E-1,-1.6695037E-1,3.1771368E-1,3.0591753E-1,-1.4952697E-1,6.3821036E-1,6.422252E-3,-1.4440396E-1,5.102607E-2,4.1490754E-1,-1.1820601E-1,4.1783768E-1,1.775326E-1,-7.683563E-2,3.4274924E-1,3.9193544E-1,-9.935911E-2,4.8967078E-1,1.7355876E-1,-9.5142074E-2,2.6012272E-1,4.1507483E-1,-5.932579E-2,-1.2885779E-1,3.9061585E-1,-9.62994E-2,2.2976747E-1,-1.2443069E-1,3.862142E-1,4.654196E-2,-1.7143676E-1,4.142503E-1,1.0248298E-2,4.281136E-1,5.578064E-2,-9.174782E-2,5.5900764E-2,-1.6485785E-1,5.6911398E-2,3.5901007E-1,-1.1018754E-1,-1.6930683E-2,5.728272E-1,-9.514817E-2,3.0972356E-1,3.400194E-1,-9.369657E-2,-1.3647393E-2,4.490104E-1,-1.1598005E-1,3.4909654E-1,1.4184606E-1,-1.281014E-1,2.1943666E-2,5.099807E-1],"categories":[],"categories_nodes":[],"categories_segments":[],"categories_sizes":[],"default_left":[0,0,0,0,0,0,0,0,0,0,0,0,0,0,0,0,0,0,0,0,0,0,0,0,0,0,0,0,0,0,0,0,0,0,0,0,0,0,0,0,0,0,0,0,0,0,0,0,0,0,0,0,0,0,0,0,0,0,0,0,0,0,0,0,0,0,0,0,0,0,0,0,0,0,0,0,0,0,0,0,0,0,0,0,0,0,0,0,0,0,0,0,0,0,0,0,0,0,0,0,0,0,0,0,0,0,0,0,0,0,0,0,0,0,0,0,0,0,0,0,0,0,0,0,0,0,0,0,0,0,0,0,0,0,0,0,0,0,0,0,0,0,0,0,0,0,0,0,0,0,0,0,0,0,0,0,0],"id":10,"left_children":[1,3,5,7,9,11,13,15,17,19,21,23,25,27,29,31,33,35,37,39,-1,41,-1,43,45,47,49,51,53,55,57,59,61,63,65,-1,-1,67,-1,69,-1,-1,71,73,75,77,79,81,83,85,87,89,-1,91,93,95,97,99,101,103,105,107,-1,109,111,-1,-1,-1,-1,113,-1,-1,-1,-1,115,117,-1,119,121,-1,-1,123,125,127,129,131,133,135,137,139,141,143,-1,145,-1,147,149,-1,-1,151,153,155,-1,-1,-1,-1,-1,-1,-1,-1,-1,-1,-1,-1,-1,-1,-1,-1,-1,-1,-1,-1,-1,-1,-1,-1,-1,-1,-1,-1,-1,-1,-1,-1,-1,-1,-1,-1,-1,-1,-1,-1,-1,-1,-1,-1,-1,-1,-1,-1,-1,-1,-1,-1,-1,-1,-1],"loss_changes":[2.9801266E4,1.0543867E3,1.7330195E3,2.7358984E2,1.5983868E2,1.4687305E2,8.163713E1,1.3379688E2,3.8478317E1,7.213501E0,3.9853382E0,2.8049309E1,3.1892578E1,8.761536E0,5.8009583E1,6.577539E1,3.721046E1,1.669693E0,4.9083767E0,4.0338745E0,0E0,6.2794495E0,0E0,1.2099477E1,7.1812305E0,2.4472656E1,2.0843279E1,3.525467E0,1.3229783E1,8.781143E0,7.508233E0,4.0060547E1,5.397757E1,1.455265E1,3.5843492E0,0E0,0E0,7.007754E-1,0E0,1.8762207E0,0E0,0E0,1.259491E0,6.71157E0,6.945837E0,1.9969559E0,3.7950742E-1,2.1966797E1,6.819701E0,8.655949E0,4.3883667E0,2.747818E0,0E0,6.023489E0,2.570844E0,6.0485077E0,3.8885885E-1,5.053009E0,5.49672E0,1.9519531E1,4.1848244E1,5.849968E0,0E0,5.172554E-1,7.5908966E0,0E0,0E0,0E0,0E0,7.5372314E-1,0E0,0E0,0E0,0E0,5.6806498E0,3.8375425E0,0E0,4.269638E-1,1.4737318E0,0E0,0E0,7.8652344E0,9.180754E0,4.0237966E0,5.455352E0,2.4147005E0,1.957766E0,1.0049934E0,2.4477503E-1,1.4609222E0,2.8080177E0,5.71982E0,0E0,1.8514129E0,0E0,4.6816087E0,4.496048E0,0E0,0E0,4.0059147E0,3.6828861E0,2.432331E0,0E0,0E0,0E0,0E0,0E0,0E0,0E0,0E0,0E0,0E0,0E0,0E0,0E0,0E0,0E0,0E0,0E0,0E0,0E0,0E0,0E0,0E0,0E0,0E0,0E0,0E0,0E0,0E0,0E0,0E0,0E0,0E0,0E0,0E0,0E0,0E0,0E0,0E0,0E0,0E0,0E0,0E0,0E0,0E0,0E0,0E0,0E0,0E0,0E0,0E0,0E0,0E0,0E0,0E0,0E0],"parents":[2147483647,0,0,1,1,2,2,3,3,4,4,5,5,6,6,7,7,8,8,9,9,10,10,11,11,12,12,13,13,14,14,15,15,16,16,17,17,18,18,19,19,21,21,23,23,24,24,25,25,26,26,27,27,28,28,29,29,30,30,31,31,32,32,33,33,34,34,37,37,39,39,42,42,43,43,44,44,45,45,46,46,47,47,48,48,49,49,50,50,51,51,53,53,54,54,55,55,56,56,57,57,58,58,59,59,60,60,61,61,63,63,64,64,69,69,74,74,75,75,77,77,78,78,81,81,82,82,83,83,84,84,85,85,86,86,87,87,88,88,89,89,90,90,91,91,93,93,95,95,96,96,99,99,100,100,101,101],"right_children":[2,4,6,8,10,12,14,16,18,20,22,24,26,28,30,32,34,36,38,40,-1,42,-1,44,46,48,50,52,54,56,58,60,62,64,66,-1,-1,68,-1,70,-1,-1,72,74,76,78,80,82,84,86,88,90,-1,92,94,96,98,100,102,104,106,108,-1,110,112,-1,-1,-1,-1,114,-1,-1,-1,-1,116,118,-1,120,122,-1,-1,124,126,128,130,132,134,136,138,140,142,144,-1,146,-1,148,150,-1,-1,152,154,156,-1,-1,-1,-1,-1,-1,-1,-1,-1,-1,-1,-1,-1,-1,-1,-1,-1,-1,-1,-1,-1,-1,-1,-1,-1,-1,-1,-1,-1,-1,-1,-1,-1,-1,-1,-1,-1,-1,-1,-1,-1,-1,-1,-1,-1,-1,-1,-1,-1,-1,-1,-1,-1,-1,-1],"split_conditions":[1E0,2E0,8E0,2E0,4E0,2E0,2E0,2E0,1E0,2E0,1E0,1E0,2E0,1E0,4E0,3E0,7E0,1.6E1,1E0,2E0,-1.1922642E-1,1E0,-1.6494061E-1,1E0,1E0,3E0,1.3E1,2E0,3E0,1.7E1,1.1E1,2E0,6E0,1E0,2E0,4.2264003E-1,2.6286846E-2,1E0,2.8983805E-1,3E0,-1.02337524E-1,-1.3942705E-1,3E0,1E0,4E0,6E0,3E0,5E0,2E0,2E0,5E0,2E0,1.7388645E-1,2E0,1E0,1E0,2E0,1E0,1E0,2E0,1E0,1E0,-1.5813817E-1,3E0,1E0,-1.6099349E-1,2.1742107E-1,5.6619115E-2,-1.5785344E-1,2E0,1.8839817E-2,4.901284E-2,4.9081486E-1,-1.6645633E-1,2E0,1E0,-1.375291E-1,1E0,1E0,5.2169885E-2,-1.24876596E-1,2.1E1,1E0,1E0,5E0,1E0,2E0,2E0,1E0,3E0,1E0,1E0,-1.1352598E-1,1E0,-1.6013321E-1,3E0,1E0,-1.278675E-1,4.7455307E-2,2E0,8E0,3E0,-1.2030951E-1,-1.6695037E-1,3.1771368E-1,3.0591753E-1,-1.4952697E-1,6.3821036E-1,6.422252E-3,-1.4440396E-1,5.102607E-2,4.1490754E-1,-1.1820601E-1,4.1783768E-1,1.775326E-1,-7.683563E-2,3.4274924E-1,3.9193544E-1,-9.935911E-2,4.8967078E-1,1.7355876E-1,-9.5142074E-2,2.6012272E-1,4.1507483E-1,-5.932579E-2,-1.2885779E-1,3.9061585E-1,-9.62994E-2,2.2976747E-1,-1.2443069E-1,3.862142E-1,4.654196E-2,-1.7143676E-1,4.142503E-1,1.0248298E-2,4.281136E-1,5.578064E-2,-9.174782E-2,5.5900764E-2,-1.6485785E-1,5.6911398E-2,3.5901007E-1,-1.1018754E-1,-1.6930683E-2,5.728272E-1,-9.514817E-2,3.0972356E-1,3.400194E-1,-9.369657E-2,-1.3647393E-2,4.490104E-1,-1.1598005E-1,3.4909654E-1,1.4184606E-1,-1.281014E-1,2.1943666E-2,5.099807E-1],"split_indices":[1616,1769,597,1787,597,1762,1769,978,2012,700,1260,1496,1778,1785,2257,1496,2230,381,131,1273,0,363,0,2560,2277,981,1434,1614,1431,2820,2222,178,996,1762,1827,0,0,2824,0,75,0,0,2606,978,1300,666,998,80,