{"learner":{"attributes":{"best_iteration":"33","best_score":"0.06189997448630052"},"feature_names":[],"feature_types":[],"gradient_booster":{"model":{"gbtree_model_param":{"num_parallel_tree":"1","num_trees":"308"},"iteration_indptr":[0,7,14,21,28,35,42,49,56,63,70,77,84,91,98,105,112,119,126,133,140,147,154,161,168,175,182,189,196,203,210,217,224,231,238,245,252,259,266,273,280,287,294,301,308],"tree_info":[0,1,2,3,4,5,6,0,1,2,3,4,5,6,0,1,2,3,4,5,6,0,1,2,3,4,5,6,0,1,2,3,4,5,6,0,1,2,3,4,5,6,0,1,2,3,4,5,6,0,1,2,3,4,5,6,0,1,2,3,4,5,6,0,1,2,3,4,5,6,0,1,2,3,4,5,6,0,1,2,3,4,5,6,0,1,2,3,4,5,6,0,1,2,3,4,5,6,0,1,2,3,4,5,6,0,1,2,3,4,5,6,0,1,2,3,4,5,6,0,1,2,3,4,5,6,0,1,2,3,4,5,6,0,1,2,3,4,5,6,0,1,2,3,4,5,6,0,1,2,3,4,5,6,0,1,2,3,4,5,6,0,1,2,3,4,5,6,0,1,2,3,4,5,6,0,1,2,3,4,5,6,0,1,2,3,4,5,6,0,1,2,3,4,5,6,0,1,2,3,4,5,6,0,1,2,3,4,5,6,0,1,2,3,4,5,6,0,1,2,3,4,5,6,0,1,2,3,4,5,6,0,1,2,3,4,5,6,0,1,2,3,4,5,6,0,1,2,3,4,5,6,0,1,2,3,4,5,6,0,1,2,3,4,5,6,0,1,2,3,4,5,6,0,1,2,3,4,5,6,0,1,2,3,4,5,6,0,1,2,3,4,5,6,0,1,2,3,4,5,6,0,1,2,3,4,5,6],"trees":[{"base_weights":[-2.3762187E-1,-5.7017356E-1,3.483381E0,-5.721886E-1,2.593802E0,3.4841938E0,-1.4482763E-2,-3.5340637E-1,-5.7597435E-1,-6.231455E-2,2.876889E0,3.4848886E0,1.0880828E0,-5.1290137E-1,-9.059396E-2,-5.766357E-1,5.1334266E-2,3.082569E-1,-1.4404333E-1,2.9712229E0,-1.04132235E-1,3.486503E0,2.1787364E0,-1.04132235E-1,6.2479335E-1,-5.661951E-1,-3.7288257E-1,-4.7537902E-1,4.6965137E-2,-5.777254E-1,-4.4665405E-1,-3.7590712E-1,1.0224718E0,6.5745854E-1,3.0801115E0,3.4868515E0,1.733945E-1,2.5696201E0,-1.4482763E-2,-5.688949E-1,1.733945E-1,-5.2469623E-1,-2.4363877E-1,3.043478E-1,-4.9774978E-1,1.3116983E-1,-4.4107845E-1,-5.8098066E-1,-5.5792737E-1,-2.2261484E-1,-5.4890543E-1,-4.9829033E-1,1.1119133E0,2.9816067E-1,2.342155E0,4.4311926E-1,-1.04132235E-1,3.1498568E0,3.8532108E-2,3.4872E0,2.603306E-1,2.541401E-1,8.6831456E-1,-9.710983E-2,-1.7224295E-1,-1.6192448E-1,1.733945E-1,1.420026E-1,-9.666424E-2,4.4311926E-1,-1.3056995E-1,-1.5455383E-1,6.774193E-2,5.9303377E-2,-8.746657E-2,-1.4849855E-1,9.130435E-2,-1.7430915E-1,1.7409325E-1,-1.7186362E-1,-1.5821683E-1,-1.3839304E-1,-1.5826942E-2,5.8131482E-2,-1.6682057E-1,-1.673362E-1,1.1921397E-1,-1.2038217E-1,6.585799E-1,-2.056304E-2,4.120755E-1,1.735537E-2,8.087527E-1,1.733945E-1,9.6077853E-1,1.0464026E0,6.6120905E-1],"categories":[],"categories_nodes":[],"categories_segments":[],"categories_sizes":[],"default_left":[0,0,0,0,0,0,0,0,0,0,0,0,0,0,0,0,0,0,0,0,0,0,0,0,0,0,0,0,0,0,0,0,0,0,0,0,0,0,0,0,0,0,0,0,0,0,0,0,0,0,0,0,0,0,0,0,0,0,0,0,0,0,0,0,0,0,0,0,0,0,0,0,0,0,0,0,0,0,0,0,0,0,0,0,0,0,0,0,0,0,0,0,0,0,0,0,0],"id":0,"left_children":[1,3,5,7,9,11,-1,13,15,17,19,21,23,25,27,29,31,-1,-1,33,-1,35,37,-1,-1,39,41,43,45,47,49,51,53,55,57,59,-1,61,-1,63,-1,65,67,69,71,73,75,77,79,81,83,85,87,89,91,-1,-1,93,-1,95,-1,-1,-1,-1,-1,-1,-1,-1,-1,-1,-1,-1,-1,-1,-1,-1,-1,-1,-1,-1,-1,-1,-1,-1,-1,-1,-1,-1,-1,-1,-1,-1,-1,-1,-1,-1,-1],"loss_changes":[1.2933352E5,6.1316797E2,2.4789062E1,7.921094E1,4.623001E1,1.0484375E1,0E0,6.842494E1,3.9132812E1,3.625167E0,1.787033E1,1.04765625E1,6.345053E0,7.372986E0,3.2741055E1,1.3080078E1,4.195158E1,0E0,0E0,1.1554108E1,0E0,6.6640625E0,1.165377E1,0E0,0E0,2.596939E0,5.4273033E0,2.9925728E0,1.8808334E1,5.6953125E0,1.7909454E1,1.3355694E1,2.8816315E1,3.5540466E0,1.0136566E1,4.78125E0,0E0,3.8612747E0,0E0,7.574005E-1,0E0,2.4584694E0,8.87326E0,5.1210637E0,2.1179237E0,1.1019472E1,2.8582077E0,4.9746094E0,5.729004E0,1.004474E1,2.9792938E0,3.7202835E0,1.0148055E1,8.407955E0,8.566383E0,0E0,0E0,4.928009E0,0E0,1.1875E0,0E0,0E0,0E0,0E0,0E0,0E0,0E0,0E0,0E0,0E0,0E0,0E0,0E0,0E0,0E0,0E0,0E0,0E0,0E0,0E0,0E0,0E0,0E0,0E0,0E0,0E0,0E0,0E0,0E0,0E0,0E0,0E0,0E0,0E0,0E0,0E0,0E0],"parents":[2147483647,0,0,1,1,2,2,3,3,4,4,5,5,7,7,8,8,9,9,10,10,11,11,12,12,13,13,14,14,15,15,16,16,19,19,21,21,22,22,25,25,26,26,27,27,28,28,29,29,30,30,31,31,32,32,33,33,34,34,35,35,37,37,39,39,41,41,42,42,43,43,44,44,45,45,46,46,47,47,48,48,49,49,50,50,51,51,52,52,53,53,54,54,57,57,59,59],"right_children":[2,4,6,8,10,12,-1,14,16,18,20,22,24,26,28,30,32,-1,-1,34,-1,36,38,-1,-1,40,42,44,46,48,50,52,54,56,58,60,-1,62,-1,64,-1,66,68,70,72,74,76,78,80,82,84,86,88,90,92,-1,-1,94,-1,96,-1,-1,-1,-1,-1,-1,-1,-1,-1,-1,-1,-1,-1,-1,-1,-1,-1,-1,-1,-1,-1,-1,-1,-1,-1,-1,-1,-1,-1,-1,-1,-1,-1,-1,-1,-1,-1],"split_conditions":[5.99656E0,9.908767E-1,1.4704144E1,7.989324E-3,4.0410976E0,1.5543506E0,-1.4482763E-2,9.283278E0,3.4117439E0,1.4355772E0,7.9811068E0,3.6919665E-1,7.956622E-2,3.062686E-1,1.5075272E-1,1.5560275E0,2.0636046E0,3.082569E-1,-1.4404333E-1,3.493209E0,-1.04132235E-1,1.1286514E1,1.1651514E0,-1.04132235E-1,6.2479335E-1,4.6070927E-1,1.0666719E-1,7.5375566E0,6.331506E0,4.019756E0,7.101788E-2,4.822575E-1,2.4788725E0,1.5874108E0,2.2247782E0,8.836334E0,1.733945E-1,6.8487364E-1,-1.4482763E-2,4.6707854E-2,1.733945E-1,1.99168E-1,5.628581E-3,4.5181248E-1,3.9803573E-1,7.490686E-1,1.2142424E-2,2.1243567E0,3.8614282E-1,3.531982E-1,7.160627E-2,7.070862E-1,9.656972E-1,1.5050297E0,1.9767715E-1,4.4311926E-1,-1.04132235E-1,2.9692945E0,3.8532108E-2,1.4111449E1,2.603306E-1,2.541401E-1,8.6831456E-1,-9.710983E-2,-1.7224295E-1,-1.6192448E-1,1.733945E-1,1.420026E-1,-9.666424E-2,4.4311926E-1,-1.3056995E-1,-1.5455383E-1,6.774193E-2,5.9303377E-2,-8.746657E-2,-1.4849855E-1,9.130435E-2,-1.7430915E-1,1.7409325E-1,-1.7186362E-1,-1.5821683E-1,-1.3839304E-1,-1.5826942E-2,5.8131482E-2,-1.6682057E-1,-1.673362E-1,1.1921397E-1,-1.2038217E-1,6.585799E-1,-2.056304E-2,4.120755E-1,1.735537E-2,8.087527E-1,1.733945E-1,9.6077853E-1,1.0464026E0,6.6120905E-1],"split_indices":[670,1910,522,897,1898,311,0,988,2734,2071,2679,365,1108,105,1512,1797,1622,0,0,184,0,38,1043,0,0,2100,229,2179,2832,1947,2549,1984,786,1025,643,1374,0,1929,0,1228,0,1435,96,259,2827,2947,345,846,838,2218,2610,938,1834,341,2096,0,0,2099,0,1951,0,0,0,0,0,0,0,0,0,0,0,0,0,0,0,0,0,0,0,0,0,0,0,0,0,0,0,0,0,0,0,0,0,0,0,0,0],"split_type":[0,0,0,0,0,0,0,0,0,0,0,0,0,0,0,0,0,0,0,0,0,0,0,0,0,0,0,0,0,0,0,0,0,0,0,0,0,0,0,0,0,0,0,0,0,0,0,0,0,0,0,0,0,0,0,0,0,0,0,0,0,0,0,0,0,0,0,0,0,0,0,0,0,0,0,0,0,0,0,0,0,0,0,0,0,0,0,0,0,0,0,0,0,0,0,0,0],"sum_hessian":[1.045156E5,9.594197E4,8.573633E3,9.588172E4,6.0244904E1,8.571674E3,1.9591838E0,1.6324899E3,9.4249234E4,5.8775516E0,5.436735E1,8.568735E3,2.9387758E0,1.015347E3,6.171429E2,9.415005E4,9.918368E1,1.2244899E0,4.6530614E0,5.2897964E1,1.4693879E0,8.55649E3,1.2244899E1,1.4693879E0,1.4693879E0,7.3322455E2,2.8212247E2,1.6187756E2,4.5526535E2,9.336392E4,7.861225E2,6.930613E1,2.9877554E1,2.6938777E0,5.0204086E1,8.555266E3,1.2244899E0,1.0285715E1,1.9591838E0,7.3200006E2,1.2244899E0,1.2832654E2,1.5379593E2,4.1632657E0,1.577143E2,3.8889798E2,6.6367355E1,8.0156086E4,1.3207838E4,2.4734695E2,5.387756E2,6.465307E1,4.6530614E0,2.0081635E1,9.795919E0,1.2244899E0,1.4693879E0,4.8979595E1,1.2244899E0,8.553797E3,1.4693879E0,2.2040818E0,8.081634E0,1.6653063E1,7.15347E2,1.2710205E2,1.2244899E0,1.4693878E1,1.3910205E2,1.2244899E0,2.9387758E0,1.5428572E2,3.4285717E0,3.364898E2,5.240817E1,6.2204086E1,4.1632657E0,8.015315E4,2.9387758E0,8.854776E3,4.3530615E3,1.0212246E2,1.452245E2,4.8979597E0,5.3387756E2,6.0979595E1,3.6734695E0,2.2040818E0,2.4489799E0,1.56734705E1,4.4081635E0,1.4693879E0,8.326531E0,1.2244899E0,4.7755104E1,8.546694E3,7.1020412E0],"tree_param":{"num_deleted":"0","num_feature":"3000","num_nodes":"97","size_leaf_vector":"1"}},{"base_weights":[3.137738E-1,-5.5793864E-1,3.4269793E0,-5.658095E-1,4.2947358E-1,3.4430716E0,1.8334364E0,-5.7029486E-1,-3.9233142E-1,1.400101E0,-3.239689E-1,3.4466147E0,1.0428152E0,7.76399E-1,2.38501E0,6.298811E-1,-5.7047033E-1,-8.055838E-2,-4.6391183E-1,6.5580446E-1,1.8651288E0,3.6990982E-1,-4.747296E-1,3.465647E0,3.1992073E0,2.202723E0,2.9460198E-1,-6.742211E-2,1.4263322E0,3.2522867E0,2.0282683E0,1.8951964E0,-1.5403424E-1,-5.728822E-1,-4.9486932E-1,-1.8032375E-1,4.593675E-1,8.615384E-1,-4.6893662E-1,-4.2090657E-1,9.148546E-1,1.5887083E0,2.563761E0,8.6690384E-1,-1.504569E-2,-4.940725E-1,4.4140127E-1,2.2463138E0,3.466851E0,1.6436301E0,3.220985E0,-1.04132235E-1,2.5432935E0,-1.5463182E-1,7.475728E-1,-3.14265E-1,7.274826E-1,4.8695648E-1,1.8909951E0,1.0026276E0,3.8532108E-2,2.1375608E0,-1.627907E-1,3.8532108E-2,7.4556214E-1,-1.504298E-1,3.082569E-1,-2.7037412E-1,-5.732742E-1,-4.563725E-1,-5.528908E-1,-2.1173815E-1,9.9762464E-1,1.7554857E-1,1.2668427E0,-1.2038217E-1,1.5806451E0,-4.844662E-1,-1.3236505E-1,1.733945E-1,-5.0734574E-1,1.6587675E-1,1.2757565E0,1.9358716E0,1.123332E0,1.3630831E0,2.8111403E0,3.6035046E-1,1.6432531E0,-2.1390055E-1,1.3651452E0,8.3419687E-1,-5.101391E-1,-1.1586207E-1,2.5033112E0,3.4671345E0,8.6896546E-2,-1.263538E-1,2.064748E0,3.2587864E0,2.4308383E0,1.1052631E-1,8.607921E-1,-3.255814E-1,1.3582089E0,-5.160451E-1,5.812274E-1,1.660079E0,-1.3755459E-1,6.3108814E-1,-2.1180045E-2,4.813753E-1,2.2302463E0,1.6346875E0,2.746993E0,1.733945E-1,-1.394191E-1,-9.744277E-2,4.924138E-1,-1.7201713E-1,4.206471E-2,-1.21012844E-1,-1.527569E-1,1.3668638E-1,-1.6677265E-1,7.9357974E-2,-9.013978E-2,5.7849056E-1,-1.3317074E-1,2.197384E-1,-4.6634287E-2,-1.2038217E-1,4.724191E-1,6.9517237E-1,1.735537E-2,-1.1900238E-1,-1.5474266E-1,-9.2746854E-2,1.2420591E-1,-1.66077E-1,3.8532108E-2,4.0954357E-1,-1.96109E-2,1.10785455E-1,4.824988E-1,-6.774194E-2,6.145263E-1,1.6884421E-1,4.893632E-1,-2.6751596E-2,5.345454E-1,3.8532108E-2,8.687671E-1,-2.8649436E-3,4.4017467E-1,6.157549E-1,-1.10526316E-1,3.2642484E-1,-1.1154099E-1,6.585799E-1,-1.04132235E-1,5.033058E-1,-1.04132235E-1,2.6481666E-3,-1.615031E-1,3.2204473E-1,8.7389654E-1,1.0402111E0,1.8827586E-1,-1.3548388E-1,1.733945E-1,7.638926E-1,1.2129963E-1,9.794641E-1,2.1761654E-2,7.624543E-1,1.7436823E-1,3.8532108E-2,-1.394191E-1,-3.7278112E-2,5.65616E-1,3.8532108E-2,-1.6715463E-1,-1.3317074E-1,6.2479335E-1,6.845304E-1,1.735537E-2,-1.5201074E-1,1.5578635E-1,3.3870968E-1,-1.2762432E-1,-9.633028E-2,7.1441364E-1,6.972576E-1,3.702095E-1,8.618892E-1,-1.4482763E-2],"categories":[],"categories_nodes":[],"categories_segments":[],"categories_sizes":[],"default_left":[0,0,0,0,0,0,0,0,0,0,0,0,0,0,0,0,0,0,0,0,0,0,0,0,0,0,0,0,0,0,0,0,0,0,0,0,0,0,0,0,0,0,0,0,0,0,0,0,0,0,0,0,0,0,0,0,0,0,0,0,0,0,0,0,0,0,0,0,0,0,0,0,0,0,0,0,0,0,0,0,0,0,0,0,0,0,0,0,0,0,0,0,0,0,0,0,0,0,0,0,0,0,0,0,0,0,0,0,0,0,0,0,0,0,0,0,0,0,0,0,0,0,0,0,0,0,0,0,0,0,0,0,0,0,0,0,0,0,0,0,0,0,0,0,0,0,0,0,0,0,0,0,0,0,0,0,0,0,0,0,0,0,0,0,0,0,0,0,0,0,0,0,0,0,0,0,0,0,0,0,0,0,0,0,0,0,0,0,0,0,0,0,0,0,0,0,0],"id":1,"left_children":[1,3,5,7,9,11,13,15,17,19,21,23,25,27,29,31,33,35,37,39,41,43,45,47,49,51,53,55,57,59,61,63,65,67,69,71,73,75,77,79,81,83,85,87,89,91,-1,93,95,97,99,-1,101,-1,103,105,107,109,111,-1,-1,113,115,-1,-1,-1,-1,117,119,121,123,125,127,129,131,-1,133,135,137,-1,139,141,143,145,147,149,151,153,155,157,159,161,163,-1,165,167,-1,169,171,173,175,-1,-1,177,179,181,183,185,-1,-1,187,189,191,193,195,-1,-1,-1,-1,-1,-1,-1,-1,-1,-1,-1,-1,-1,-1,-1,-1,-1,-1,-1,-1,-1,-1,-1,-1,-1,-1,-1,-1,-1,-1,-1,-1,-1,-1,-1,-1,-1,-1,-1,-1,-1,-1,-1,-1,-1,-1,-1,-1,-1,-1,-1,-1,-1,-1,-1,-1,-1,-1,-1,-1,-1,-1,-1,-1,-1,-1,-1,-1,-1,-1,-1,-1,-1,-1,-1,-1,-1,-1,-1,-1,-1,-1],"loss_changes":[2.8364112E5,6.3484375E2,5.7996875E2,6.28125E1,4.7310498E2,1.8890625E2,1.3266254E2,1.6990234E1,4.5598785E1,9.660126E1,3.8323975E1,9.534375E1,2.9549004E1,4.429494E1,4.015979E1,1.221497E1,1.4113281E1,2.071568E1,1.1479004E1,3.1129124E1,2.9414917E1,1.2573827E1,1.2020493E1,2.3E1,4.9835938E1,1.2597305E1,8.570004E0,7.2964253E0,1.897078E1,1.1462097E1,2.6625732E1,4.5524464E0,3.9414108E0,8.917969E0,5.2162476E0,1.22014675E1,1.3532892E1,6.657362E0,8.597961E0,2.19807E0,2.3889893E1,1.8323914E1,1.0285889E1,1.06840515E1,1.0715796E1,6.7811966E0,0E0,1.6886444E1,1.784375E1,1.8530106E1,3.9984375E1,0E0,7.4658127E0,0E0,1.00845785E1,5.39252E0,1.0535108E1,1.354045E1,1.3341187E1,0E0,0E0,2.7563507E1,1.6425693E0,0E0,0E0,0E0,0E0,1.103536E1,6.4140625E0,3.9302979E0,3.21109E0,1.3451089E1,1.2382754E1,8.514315E0,8.566376E0,0E0,4.8334036E0,4.153351E0,7.321441E0,0E0,6.8373394E-1,8.448654E0,1.7500298E1,1.7806E1,1.5192215E1,6.2772217E0,8.37439E0,7.6430044E0,9.84614E0,7.407089E0,7.7528467E0,4.507002E0,4.3209305E0,0E0,9.50882E0,1.1859375E1,0E0,1.5560924E0,1.4848038E1,2.9421875E1,1.4318726E1,0E0,0E0,4.477752E-1,7.714592E0,6.954131E-1,9.625388E0,5.0110607E0,0E0,0E0,3.8029714E0,4.6632395E0,1.0026718E1,1.3645096E1,1.6271637E1,0E0,0E0,0E0,0E0,0E0,0E0,0E0,0E0,0E0,0E0,0E0,0E0,0E0,0E0,0E0,0E0,0E0,0E0,0E0,0E0,0E0,0E0,0E0,0E0,0E0,0E0,0E0,0E0,0E0,0E0,0E0,0E0,0E0,0E0,0E0,0E0,0E0,0E0,0E0,0E0,0E0,0E0,0E0,0E0,0E0,0E0,0E0,0E0,0E0,0E0,0E0,0E0,0E0,0E0,0E0,0E0,0E0,0E0,0E0,0E0,0E0,0E0,0E0,0E0,0E0,0E0,0E0,0E0,0E0,0E0,0E0,0E0,0E0,0E0,0E0,0E0,0E0,0E0,0E0,0E0,0E0,0E0],"parents":[2147483647,0,0,1,1,2,2,3,3,4,4,5,5,6,6,7,7,8,8,9,9,10,10,11,11,12,12,13,13,14,14,15,15,16,16,17,17,18,18,19,19,20,20,21,21,22,22,23,23,24,24,25,25,26,26,27,27,28,28,29,29,30,30,31,31,32,32,33,33,34,34,35,35,36,36,37,37,38,38,39,39,40,40,41,41,42,42,43,43,44,44,45,45,47,47,48,48,49,49,50,50,52,52,54,54,55,55,56,56,57,57,58,58,61,61,62,62,67,67,68,68,69,69,70,70,71,71,72,72,73,73,74,74,76,76,77,77,78,78,80,80,81,81,82,82,83,83,84,84,85,85,86,86,87,87,88,88,89,89,90,90,91,91,92,92,94,94,95,95,97,97,98,98,99,99,100,100,103,103,104,104,105,105,106,106,107,107,110,110,111,111,112,112,113,113,114,114],"right_children":[2,4,6,8,10,12,14,16,18,20,22,24,26,28,30,32,34,36,38,40,42,44,46,48,50,52,54,56,58,60,62,64,66,68,70,72,74,76,78,80,82,84,86,88,90,92,-1,94,96,98,100,-1,102,-1,104,106,108,110,112,-1,-1,114,116,-1,-1,-1,-1,118,120,122,124,126,128,130,132,-1,134,136,138,-1,140,142,144,146,148,150,152,154,156,158,160,162,164,-1,166,168,-1,170,172,174,176,-1,-1,178,180,182,184,186,-1,-1,188,190,192,194,196,-1,-1,-1,-1,-1,-1,-1,-1,-1,-1,-1,-1,-1,-1,-1,-1,-1,-1,-1,-1,-1,-1,-1,-1,-1,-1,-1,-1,-1,-1,-1,-1,-1,-1,-1,-1,-1,-1,-1,-1,-1,-1,-1,-1,-1,-1,-1,-1,-1,-1,-1,-1,-1,-1,-1,-1,-1,-1,-1,-1,-1,-1,-1,-1,-1,-1,-1,-1,-1,-1,-1,-1,-1,-1,-1,-1,-1,-1,-1,-1,-1,-1],"split_conditions":[2.396235E0,2.616428E0,5.6584036E-1,4.449591E0,3.1895876E-1,2.108596E-1,1.5782424E0,2.8272493E-2,1.2721473E-1,2.9452474E0,3.7903687E-1,1.5964648E-1,2.5416915E0,1.2488028E1,2.1998337E-1,5.4437226E-1,2.5010065E1,1.930762E0,5.123037E-2,2.1233202E1,1.4808163E-1,6.775231E-1,3.5891792E1,2.356348E-2,2.0698331E-2,6.3744724E-1,1.1112704E0,3.3503494E-1,1.9232063E-2,1.6048929E-1,8.413885E-1,8.861603E-1,1.5396587E0,3.8224164E-1,1.5468012E0,2.2164764E-1,5.9046993E0,1.8092839E0,1.9927146E0,9.5526105E-1,4.2656592E-1,7.5500894E-1,1.0845829E0,3.2894945E0,1.19132395E1,3.1929508E-2,4.4140127E-1,1.9479576E-2,1.2232302E1,6.235949E-1,3.2252314E0,-1.04132235E-1,6.657386E1,-1.5463182E-1,1.6758134E0,6.756989E0,3.9931157E-1,1.1149642E0,2.045478E0,1.0026276E0,3.8532108E-2,3.797828E-1,1.461169E0,3.8532108E-2,7.4556214E-1,-1.504298E-1,3.082569E-1,8.1430036E-1,3.312756E1,1.2937565E0,3.6856478E-1,5.2453023E-1,1.4612461E0,6.9674075E-1,4.0943906E-1,-1.2038217E-1,2.7053046E-1,1.6013004E0,5.994645E-1,1.733945E-1,5.164709E-1,7.4075475E-2,1.1193925E0,4.8510548E-1,3.4637797E-1,7.6547537E0,1.7939295E-1,8.739455E-1,2.1304771E-1,6.7260194E-1,2.3152342E-1,4.5175888E-2,1.6713089E-1,-1.1586207E-1,1.8753384E1,1.4540231E0,8.6896546E-2,6.936191E-1,7.0058146E0,1.9312479E-1,1.7494532E-1,1.1052631E-1,8.607921E-1,3.3145936E0,8.3768374E-1,2.511865E-1,1.3968399E0,1.1556956E1,-1.3755459E-1,6.3108814E-1,1.1605303E0,1.2482022E0,2.5106416E0,1.1757227E-1,8.603469E-1,1.733945E-1,-1.394191E-1,-9.744277E-2,4.924138E-1,-1.7201713E-1,4.206471E-2,-1.21012844E-1,-1.527569E-1,1.3668638E-1,-1.6677265E-1,7.9357974E-2,-9.013978E-2,5.7849056E-1,-1.3317074E-1,2.197384E-1,-4.6634287E-2,-1.2038217E-1,4.724191E-1,6.9517237E-1,1.735537E-2,-1.1900238E-1,-1.5474266E-1,-9.2746854E-2,1.2420591E-1,-1.66077E-1,3.8532108E-2,4.0954357E-1,-1.96109E-2,1.10785455E-1,4.824988E-1,-6.774194E-2,6.145263E-1,1.6884421E-1,4.893632E-1,-2.6751596E-2,5.345454E-1,3.8532108E-2,8.687671E-1,-2.8649436E-3,4.4017467E-1,6.157549E-1,-1.10526316E-1,3.2642484E-1,-1.1154099E-1,6.585799E-1,-1.04132235E-1,5.033058E-1,-1.04132235E-1,2.6481666E-3,-1.615031E-1,3.2204473E-1,8.7389654E-1,1.0402111E0,1.8827586E-1,-1.3548388E-1,1.733945E-1,7.638926E-1,1.2129963E-1,9.794641E-1,2.1761654E-2,7.624543E-1,1.7436823E-1,3.8532108E-2,-1.394191E-1,-3.7278112E-2,5.65616E-1,3.8532108E-2,-1.6715463E-1,-1.3317074E-1,6.2479335E-1,6.845304E-1,1.735537E-2,-1.5201074E-1,1.5578635E-1,3.3870968E-1,-1.2762432E-1,-9.633028E-2,7.1441364E-1,6.972576E-1,3.702095E-1,8.618892E-1,-1.4482763E-2],"split_indices":[2888,1207,1159,2798,987,2406,2137,776,4,2383,2432,2529,444,73,2412,2052,1248,1331,1487,2358,2215,2983,239,1869,1869,294,2137,672,2518,2466,211,1117,130,1659,1465,873,894,2969,130,2054,2636,108,2258,478,2860,2739,0,2518,107,2755,2636,0,2230,0,2917,308,2932,2689,439,0,0,234,256,0,0,0,0,2187,2184,1169,2298,1929,2678,706,1969,0,1613,1257,2029,0,27,2766,447,357,2172,1985,2267,2236,634,2722,782,2576,2416,0,2777,2908,0,513,1366,2709,486,0,0,1792,2649,2309,2621,1849,0,0,2246,2347,155,2206,2376,0,0,0,0,0,0,0,0,0,0,0,0,0,0,0,0,0,0,0,0,0,0,0,0,0,0,0,0,0,0,0,0,0,0,0,0,0,0,0,0,0,0,0,0,0,0,0,0,0,0,0,0,0,0,0,0,0,0,0,0,0,0,0,0,0,0,0,0,0,0,0,0,0,0,0,0,0,0,0,0,0,0],"split_type":[0,0,0,0,0,0,0,0,0,0,0,0,0,0,0,0,0,0,0,0,0,0,0,0,0,0,0,0,0,0,0,0,0,0,0,0,0,0,0,0,0,0,0,0,0,0,0,0,0,0,0,0,0,0,0,0,0,0,0,0,0,0,0,0,0,0,0,0,0,0,0,0,0,0,0,0,0,0,0,0,0,0,0,0,0,0,0,0,0,0,0,0,0,0,0,0,0,0,0,0,0,0,0,0,0,0,0,0,0,0,0,0,0,0,0,0,0,0,0,0,0,0,0,0,0,0,0,0,0,0,0,0,0,0,0,0,0,0,0,0,0,0,0,0,0,0,0,0,0,0,0,0,0,0,0,0,0,0,0,0,0,0,0,0,0,0,0,0,0,0,0,0,0,0,0,0,0,0,0,0,0,0,0,0,0,0,0,0,0,0,0,0,0,0,0,0,0],"sum_hessian":[1.045156E5,8.165315E4,2.2862451E4,8.100784E4,6.4530615E2,2.2632736E4,2.297143E2,7.896392E4,2.0439185E3,2.8163266E2,3.636735E2,2.259894E4,3.379592E1,7.959184E1,1.5012247E2,1.1020409E1,7.895291E4,3.8204083E2,1.6618777E3,1.09224495E2,1.7240817E2,6.465307E1,2.9902042E2,2.0972572E4,1.6263674E3,1.2489797E1,2.1306124E1,3.5020412E1,4.457143E1,4.1387756E1,1.087347E2,3.6734695E0,7.346939E0,7.650564E4,2.4472654E3,3.2302042E2,5.9020412E1,5.632653E0,1.656245E3,2.1061226E1,8.816327E1,1.2587756E2,4.6530617E1,2.7673471E1,3.6979595E1,2.9681635E2,2.2040818E0,2.2530613E1,2.0950043E4,2.3510206E1,1.6028573E3,1.4693879E0,1.1020409E1,7.5918374E0,1.3714287E1,2.7183676E1,7.8367352E0,1.5428573E1,2.9142859E1,4.016327E1,1.2244899E0,1.0359184E2,5.1428576E0,1.2244899E0,2.4489799E0,6.1224494E0,1.2244899E0,9.991837E1,7.640572E4,1.4764899E3,9.707756E2,3.154286E2,7.5918374E0,4.457143E1,1.444898E1,2.2040818E0,3.4285717E0,1.5827756E3,7.346939E1,1.2244899E0,1.9836737E1,2.9142859E1,5.9020412E1,7.028572E1,5.559184E1,9.061225E0,3.746939E1,1.7632654E1,1.0040817E1,3.3061226E1,3.9183676E0,2.9387758E0,2.9387756E2,1.9591838E0,2.057143E1,2.0948084E4,1.9591838E0,4.6530614E0,1.8857143E1,1.526694E3,7.616327E1,1.7142859E0,9.306123E0,5.1428576E0,8.571429E0,2.2530613E1,4.6530614E0,4.1632657E0,3.6734695E0,2.9387758E0,1.2489797E1,6.1224494E0,2.302041E1,5.8775513E1,4.481633E1,1.2244899E0,3.9183676E0,9.795919E1,1.9591838E0,7.639348E4,1.2244899E1,7.4130615E2,7.351837E2,2.4489799E0,9.683266E2,4.9224495E1,2.662041E2,4.4081635E0,3.1836736E0,1.6163267E1,2.8408165E1,2.2040818E0,1.2244899E1,1.9591838E0,1.4693879E0,4.2000003E2,1.1627756E3,5.583674E1,1.7632654E1,1.8612246E1,1.2244899E0,3.9183676E0,2.5224491E1,1.6408165E1,4.2612247E1,3.4285717E0,6.685715E1,2.7428574E1,2.8163267E1,2.2040818E0,6.8571434E0,1.2244899E0,3.62449E1,1.3959185E1,3.6734695E0,8.326531E0,1.7142859E0,2.9387758E0,3.0122452E1,2.4489799E0,1.4693879E0,1.4693879E0,1.4693879E0,1.5183675E1,2.786939E2,5.3877554E0,1.5183675E1,2.0946123E4,1.9591838E0,3.4285717E0,1.2244899E0,1.42040825E1,4.6530614E0,1.5237552E3,2.9387758E0,7.151021E1,4.6530614E0,1.2244899E0,3.9183676E0,2.4489799E0,6.1224494E0,1.2244899E0,2.1306124E1,3.1836736E0,1.4693879E0,2.6938777E0,1.4693879E0,6.6122456E0,5.8775516E0,3.4285717E0,2.6938777E0,1.2244899E0,2.179592E1,1.9836737E1,3.8938778E1,4.2857147E1,1.9591838E0],"tree_param":{"num_deleted":"0","num_feature":"3000","num_nodes":"197","size_leaf_vector":"1"}},{"base_weights":[-1.4903308E-1,-5.7753676E-1,3.3404758E0,-5.808647E-1,3.0392761E0,3.3928006E0,-4.02962E-1,-5.8176756E-1,2.9024389E0,3.317305E0,-3.6842105E-1,3.4134762E0,1.3678728E0,-5.517774E-1,1.1449066E0,-5.820037E-1,1.2015255E-1,6.6878974E-2,3.1600368E0,2.2105263E-1,3.364783E0,-1.4651163E-1,3.8532108E-2,3.424961E0,2.5205498E0,9.4563895E-1,1.1865542E0,3.867403E-1,-5.7222617E-1,2.290909E0,-2.3268698E-1,-5.8201444E-1,1.735537E-2,1.4682926E0,-7.904024E-2,3.082569E-1,3.236043E0,1.733945E-1,3.401869E0,3.444889E0,3.126265E0,1.6550273E0,2.9233491E0,8.599456E-1,1.7097597E0,3.082569E-1,-1.04132235E-1,-1.7375958E-1,1.735537E-2,1.1052631E-1,8.3023256E-1,-1.4651163E-1,1.733945E-1,-5.82214E-1,-5.351639E-1,6.9517237E-1,-9.633028E-2,-2.8865978E-1,1.2292682E0,3.082569E-1,9.96462E-1,1.0280597E0,3.082569E-1,3.4462974E0,1.6153846E0,2.697382E0,3.2244203E0,5.741857E-1,2.16531E0,2.96502E0,1.1052631E-1,1.6972255E0,5.692854E-1,2.4221437E-2,1.9446708E0,-1.7467067E-1,-8.7297924E-2,1.733945E-1,-1.619858E-1,1.598616E-1,-1.5220372E-1,-9.633028E-2,5.937931E-1,1.0340034E0,1.3884297E-1,1.0243898E-2,7.1076924E-1,8.181283E-1,-9.633028E-2,9.698104E-1,-9.633028E-2,-1.08309455E-1,3.4139886E-1,3.3870965E-1,7.9271525E-1,6.5063584E-1,9.312996E-1,5.8131482E-2,6.881155E-1,2.580664E-1,-1.2138733E-2,3.082569E-1,-1.3755459E-1,6.631579E-1,2.3773579E-2],"categories":[],"categories_nodes":[],"categories_segments":[],"categories_sizes":[],"default_left":[0,0,0,0,0,0,0,0,0,0,0,0,0,0,0,0,0,0,0,0,0,0,0,0,0,0,0,0,0,0,0,0,0,0,0,0,0,0,0,0,0,0,0,0,0,0,0,0,0,0,0,0,0,0,0,0,0,0,0,0,0,0,0,0,0,0,0,0,0,0,0,0,0,0,0,0,0,0,0,0,0,0,0,0,0,0,0,0,0,0,0,0,0,0,0,0,0,0,0,0,0,0,0,0,0],"id":2,"left_children":[1,3,5,7,9,11,13,15,17,19,21,23,25,27,29,31,33,-1,35,-1,37,-1,-1,39,41,-1,43,45,47,49,51,53,-1,55,57,-1,59,-1,61,63,65,67,69,71,73,-1,-1,-1,-1,-1,-1,-1,-1,75,77,-1,-1,79,81,-1,-1,-1,-1,83,85,87,89,91,93,95,-1,97,99,101,103,-1,-1,-1,-1,-1,-1,-1,-1,-1,-1,-1,-1,-1,-1,-1,-1,-1,-1,-1,-1,-1,-1,-1,-1,-1,-1,-1,-1,-1,-1],"loss_changes":[1.562822E5,1.1222227E3,2.2403984E3,2.941621E2,8.245044E1,4.673125E2,3.7134636E1,1.5486328E1,1.6044327E1,7.244385E0,5.0181365E-1,1.0580469E2,3.3662582E1,3.0087738E0,2.2989632E1,6.71875E-1,8.73673E0,0E0,2.5064087E-1,0E0,6.059326E0,0E0,0E0,5.4796875E1,4.5884216E1,0E0,1.6737503E1,2.0936582E0,6.597519E-1,6.178566E0,1.8093437E0,5.546875E-1,0E0,7.0995007E0,8.285618E0,0E0,5.214691E-1,0E0,1.0148926E0,2.1015625E1,2.0757812E1,2.551178E1,9.33905E0,1.5488174E1,1.5766739E1,0E0,0E0,0E0,0E0,0E0,0E0,0E0,0E0,4.1015625E-1,2.4792328E0,0E0,0E0,4.8937793E0,5.50051E0,0E0,0E0,0E0,0E0,1.01015625E1,1.1620266E1,1.311145E1,1.760498E1,9.331657E0,1.3129471E1,3.9456177E0,0E0,1.4727924E1,9.2051735E0,3.3276963E0,1.7202744E1,0E0,0E0,0E0,0E0,0E0,0E0,0E0,0E0,0E0,0E0,0E0,0E0,0E0,0E0,0E0,0E0,0E0,0E0,0E0,0E0,0E0,0E0,0E0,0E0,0E0,0E0,0E0,0E0,0E0,0E0],"parents":[2147483647,0,0,1,1,2,2,3,3,4,4,5,5,6,6,7,7,8,8,9,9,10,10,11,11,12,12,13,13,14,14,15,15,16,16,18,18,20,20,23,23,24,24,26,26,27,27,28,28,29,29,30,30,31,31,33,33,34,34,36,36,38,38,39,39,40,40,41,41,42,42,43,43,44,44,53,53,54,54,57,57,58,58,63,63,64,64,65,65,66,66,67,67,68,68,69,69,71,71,72,72,73,73,74,74],"right_children":[2,4,6,8,10,12,14,16,18,20,22,24,26,28,30,32,34,-1,36,-1,38,-1,-1,40,42,-1,44,46,48,50,52,54,-1,56,58,-1,60,-1,62,64,66,68,70,72,74,-1,-1,-1,-1,-1,-1,-1,-1,76,78,-1,-1,80,82,-1,-1,-1,-1,84,86,88,90,92,94,96,-1,98,100,102,104,-1,-1,-1,-1,-1,-1,-1,-1,-1,-1,-1,-1,-1,-1,-1,-1,-1,-1,-1,-1,-1,-1,-1,-1,-1,-1,-1,-1,-1,-1],"split_conditions":[9.6440685E-1,2.0744038E0,1.3578539E-1,5.0982845E1,2.7663605E0,3.5717936E0,1.46425E1,8.913895E-1,2.0302191E-1,8.554439E-3,2.495235E0,2.5217245E0,4.355202E-1,3.5241685E0,8.983467E-2,1.317047E1,1.8726617E-1,6.6878974E-2,1.4432287E-1,2.2105263E-1,4.1871715E0,-1.4651163E-1,3.8532108E-2,3.7636962E0,9.486275E-1,9.4563895E-1,2.75053E0,3.7348756E-1,5.8385105E0,2.3870652E0,3.9171646E0,8.3379525E-1,1.735537E-2,2.9092225E-1,1.3665569E0,3.082569E-1,2.8453696E-1,1.733945E-1,7.177496E1,1.4603132E0,7.503939E-1,8.833664E0,2.550615E0,7.619292E-3,9.5603716E-1,3.082569E-1,-1.04132235E-1,-1.7375958E-1,1.735537E-2,1.1052631E-1,8.3023256E-1,-1.4651163E-1,1.733945E-1,3.8609116E0,1.9104833E-2,6.9517237E-1,-9.633028E-2,4.66268E-1,1.2955222E0,3.082569E-1,9.96462E-1,1.0280597E0,3.082569E-1,5.37942E0,8.328638E-1,1.6957468E0,7.7979714E-1,6.953252E-1,3.8356644E-1,2.6042563E-1,1.1052631E-1,6.0930985E-1,1.0050835E1,1.5931702E-1,5.679668E0,-1.7467067E-1,-8.7297924E-2,1.733945E-1,-1.619858E-1,1.598616E-1,-1.5220372E-1,-9.633028E-2,5.937931E-1,1.0340034E0,1.3884297E-1,1.0243898E-2,7.1076924E-1,8.181283E-1,-9.633028E-2,9.698104E-1,-9.633028E-2,-1.08309455E-1,3.4139886E-1,3.3870965E-1,7.9271525E-1,6.5063584E-1,9.312996E-1,5.8131482E-2,6.881155E-1,2.580664E-1,-1.2138733E-2,3.082569E-1,-1.3755459E-1,6.631579E-1,2.3773579E-2],"split_indices":[1422,1768,1884,2831,2566,2305,2120,4,630,2396,256,2458,897,415,663,1643,343,0,1794,0,1027,0,0,2795,2658,0,440,0,2651,2814,2307,838,0,1336,205,0,430,0,1334,1811,706,1532,1355,1008,358,0,0,0,0,0,0,0,0,570,356,0,0,2003,1295,0,0,0,0,2617,1754,1219,1239,2935,1513,2100,0,2103,362,4,2695,0,0,0,0,0,0,0,0,0,0,0,0,0,0,0,0,0,0,0,0,0,0,0,0,0,0,0,0,0,0],"split_type":[0,0,0,0,0,0,0,0,0,0,0,0,0,0,0,0,0,0,0,0,0,0,0,0,0,0,0,0,0,0,0,0,0,0,0,0,0,0,0,0,0,0,0,0,0,0,0,0,0,0,0,0,0,0,0,0,0,0,0,0,0,0,0,0,0,0,0,0,0,0,0,0,0,0,0,0,0,0,0,0,0,0,0,0,0,0,0,0,0,0,0,0,0,0,0,0,0,0,0,0,0,0,0,0,0],"sum_hessian":[1.045156E5,9.308572E4,1.1429878E4,9.3000984E4,8.47347E1,1.1272409E4,1.574694E2,9.297772E4,2.3265308E1,7.8367355E1,6.3673472E0,1.1157797E4,1.1461225E2,1.442449E2,1.3224491E1,9.294662E4,3.1102043E1,2.2040818E0,2.1061226E1,1.7142859E0,7.665307E1,5.1428576E0,1.2244899E0,1.1013307E4,1.444898E2,9.061225E0,1.05551025E2,2.6938777E0,1.4155103E2,6.8571434E0,6.3673472E0,9.294515E4,1.4693879E0,3.1836736E0,2.791837E1,1.2244899E0,1.9836737E1,1.2244899E0,7.542857E1,1.0314613E4,6.986939E2,4.751021E1,9.69796E1,6.661225E1,3.8938778E1,1.2244899E0,1.4693879E0,1.4008165E2,1.4693879E0,1.7142859E0,5.1428576E0,5.1428576E0,1.2244899E0,9.25396E4,4.0555106E2,1.9591838E0,1.2244899E0,2.4734695E1,3.1836736E0,1.2244899E0,1.8612246E1,7.420409E1,1.2244899E0,1.0305797E4,8.816327E0,1.3542857E2,5.632653E2,1.5918368E1,3.1591839E1,9.526531E1,1.7142859E0,1.5918368E1,5.0693882E1,4.8979597E0,3.4040817E1,9.253176E4,7.8367352E0,1.2244899E0,4.0432657E2,4.8979597E0,1.9836737E1,1.2244899E0,1.9591838E0,1.0304327E4,1.4693879E0,3.1836736E0,5.632653E0,1.3420409E2,1.2244899E0,5.6204083E2,1.2244899E0,6.1224494E0,9.795919E0,1.1020409E1,2.057143E1,1.6653063E1,7.861225E1,4.8979597E0,1.1020409E1,3.4040817E1,1.6653063E1,1.2244899E0,3.6734695E0,2.9632656E1,4.4081635E0],"tree_param":{"num_deleted":"0","num_feature":"3000","num_nodes":"105","size_leaf_vector":"1"}},{"base_weights":[-3.676969E-1,-5.7442695E-1,3.4948208E0,-5.792292E-1,2.7842853E0,1.733945E-1,3.4953847E0,-5.8068997E-1,7.644058E-1,-2.514178E-1,3.011439E0,3.9103448E-1,3.4959483E0,-5.808413E-1,6.8718797E-1,4.1979006E-1,3.099554E0,-1.5463182E-1,1.6050954E-1,3.2627442E0,1.5540669E0,4.4140127E-1,1.0489537E0,-5.8131164E-1,-3.746532E-1,1.8194945E0,-2.4396783E-1,1.3313687E-1,1.4852791E0,3.082569E-1,9.660685E-1,3.3040726E0,1.8827586E-1,-5.8091298E-2,1.9202813E0,-5.8148223E-1,-3.7765577E-1,-4.126425E-1,6.1431867E-1,1.735537E-2,7.2731704E-1,1.733945E-1,-1.4760384E-1,9.830949E-1,-8.596085E-2,2.153846E0,2.2921912E-1,3.3551953E0,9.2817676E-1,1.733945E-1,-1.2762432E-1,2.2377806E0,-1.1586207E-1,-1.7449233E-1,-1.5007669E-1,-1.323993E-1,2.2655602E-1,-7.397174E-2,-1.6153845E-1,-2.4068773E-2,6.631579E-1,5.9198815E-1,5.6756753E-2,5.033058E-1,-4.712683E-2,7.247788E-1,1.735537E-2,3.9763314E-1,-1.4404333E-1,1.0145612E0,1.733945E-1,5.7798165E-1,-1.04132235E-1,2.9302326E-1,8.3168316E-1],"categories":[],"categories_nodes":[],"categories_segments":[],"categories_sizes":[],"default_left":[0,0,0,0,0,0,0,0,0,0,0,0,0,0,0,0,0,0,0,0,0,0,0,0,0,0,0,0,0,0,0,0,0,0,0,0,0,0,0,0,0,0,0,0,0,0,0,0,0,0,0,0,0,0,0,0,0,0,0,0,0,0,0,0,0,0,0,0,0,0,0,0,0,0,0],"id":3,"left_children":[1,3,5,7,9,-1,11,13,15,17,19,-1,21,23,25,27,29,-1,-1,31,33,-1,-1,35,37,39,41,43,45,-1,-1,47,-1,49,51,53,55,57,59,-1,-1,-1,-1,61,63,65,67,69,71,-1,-1,73,-1,-1,-1,-1,-1,-1,-1,-1,-1,-1,-1,-1,-1,-1,-1,-1,-1,-1,-1,-1,-1,-1,-1],"loss_changes":[8.3458336E4,1.6017754E3,6.7109375E0,1.9488672E2,9.854944E1,0E0,1.9960938E0,1.9382812E1,8.562598E1,2.5174382E0,4.3281372E1,0E0,9.140625E-1,9.3828125E0,1.3375872E1,2.8904976E1,1.2536621E-1,0E0,0E0,1.0090576E1,1.2702629E1,0E0,0E0,3.2109375E0,8.820305E0,5.883707E0,1.836362E0,1.4271727E1,1.6387192E1,0E0,0E0,1.0214355E1,0E0,1.39503E0,1.3612389E1,9.765625E-1,6.5000095E0,4.4679184E0,9.974129E0,0E0,0E0,0E0,0E0,1.1964014E1,7.9771786E0,7.001461E0,6.936728E0,5.975342E0,5.372081E0,0E0,0E0,7.7051086E0,0E0,0E0,0E0,0E0,0E0,0E0,0E0,0E0,0E0,0E0,0E0,0E0,0E0,0E0,0E0,0E0,0E0,0E0,0E0,0E0,0E0,0E0,0E0],"parents":[2147483647,0,0,1,1,2,2,3,3,4,4,6,6,7,7,8,8,9,9,10,10,12,12,13,13,14,14,15,15,16,16,19,19,20,20,23,23,24,24,25,25,26,26,27,27,28,28,31,31,33,33,34,34,35,35,36,36,37,37,38,38,43,43,44,44,45,45,46,46,47,47,48,48,51,51],"right_children":[2,4,6,8,10,-1,12,14,16,18,20,-1,22,24,26,28,30,-1,-1,32,34,-1,-1,36,38,40,42,44,46,-1,-1,48,-1,50,52,54,56,58,60,-1,-1,-1,-1,62,64,66,68,70,72,-1,-1,74,-1,-1,-1,-1,-1,-1,-1,-1,-1,-1,-1,-1,-1,-1,-1,-1,-1,-1,-1,-1,-1,-1,-1],"split_conditions":[2.9154142E1,2.5067072E0,2.2809505E-1,1.4800565E0,8.9175284E-1,1.733945E-1,9.740847E-1,1.0205956E1,5.0796533E0,2.0328588E1,1.3128066E0,3.9103448E-1,1.2284698E-1,5.755749E0,1.0321794E0,1.393708E0,1.0531394E0,-1.5463182E-1,1.6050954E-1,1.3998451E1,3.560116E-1,4.4140127E-1,1.0489537E0,3.0593882E0,1.374121E-1,2.3330605E0,1.3718738E-2,1.0627582E1,2.3931801E0,3.082569E-1,9.660685E-1,3.199513E0,1.8827586E-1,3.8559943E-2,4.4801852E-1,6.331666E0,6.583521E-1,4.097733E0,7.005874E-1,1.735537E-2,7.2731704E-1,1.733945E-1,-1.4760384E-1,1.9883186E-1,1.6352984E0,1.0792377E0,1.332011E0,4.6101513E0,2.6319926E0,1.733945E-1,-1.2762432E-1,8.565191E0,-1.1586207E-1,-1.7449233E-1,-1.5007669E-1,-1.323993E-1,2.2655602E-1,-7.397174E-2,-1.6153845E-1,-2.4068773E-2,6.631579E-1,5.9198815E-1,5.6756753E-2,5.033058E-1,-4.712683E-2,7.247788E-1,1.735537E-2,3.9763314E-1,-1.4404333E-1,1.0145612E0,1.733945E-1,5.7798165E-1,-1.04132235E-1,2.9302326E-1,8.3168316E-1],"split_indices":[193,1,1583,2889,2193,0,1896,1987,2697,285,2443,0,2720,534,1783,1014,69,0,0,1726,1265,0,0,2513,1490,2232,0,996,2908,0,0,618,0,2048,659,1723,9,2524,116,0,0,0,0,1502,1204,2599,2674,2076,2078,0,0,996,0,0,0,0,0,0,0,0,0,0,0,0,0,0,0,0,0,0,0,0,0,0,0],"split_type":[0,0,0,0,0,0,0,0,0,0,0,0,0,0,0,0,0,0,0,0,0,0,0,0,0,0,0,0,0,0,0,0,0,0,0,0,0,0,0,0,0,0,0,0,0,0,0,0,0,0,0,0,0,0,0,0,0,0,0,0,0,0,0,0,0,0,0,0,0,0,0,0,0,0,0],"sum_hessian":[1.045156E5,9.92067E4,5.3088984E3,9.906588E4,1.4081633E2,1.2244899E0,5.307674E3,9.895887E4,1.0702042E2,9.795919E0,1.3102042E2,1.9591838E0,5.305715E3,9.89476E4,1.1265306E1,9.428572E1,1.27346945E1,7.5918374E0,2.2040818E0,1.10693886E2,2.0326532E1,2.2040818E0,5.3035107E3,9.872058E4,2.2702043E2,4.6530614E0,6.6122456E0,7.518368E1,1.9102041E1,1.2244899E0,1.1510205E1,1.087347E2,1.9591838E0,3.9183676E0,1.6408165E1,9.8636086E4,8.44898E1,2.1918369E2,7.8367352E0,1.4693879E0,3.1836736E0,1.2244899E0,5.3877554E0,1.4693878E1,6.04898E1,1.2000001E1,7.1020412E0,1.06040825E2,2.6938777E0,1.2244899E0,2.6938777E0,1.444898E1,1.9591838E0,9.843748E4,1.9861226E2,8.0571434E1,3.9183676E0,9.575511E1,1.2342858E2,6.1224494E0,1.7142859E0,5.8775516E0,8.816327E0,1.4693879E0,5.9020412E1,1.0530613E1,1.4693879E0,2.4489799E0,4.6530614E0,1.0481634E2,1.2244899E0,1.2244899E0,1.4693879E0,5.1428576E0,9.306123E0],"tree_param":{"num_deleted":"0","num_feature":"3000","num_nodes":"75","size_leaf_vector":"1"}},{"base_weights":[-3.4728867E-1,-5.692887E-1,3.4876733E0,-5.7472473E-1,1.0011963E0,3.4883697E0,1.3884297E-1,-5.75282E-1,2.5222347E0,2.2740357E0,-4.4277912E-1,3.4888918E0,1.733945E-1,-5.7764083E-1,1.5858772E-1,9.5343065E-1,1.4522819E-1,2.4118438E0,6.644993E-1,1.463476E0,-5.404651E-1,1.0467719E0,3.082569E-1,-5.777629E-1,2.1091702E0,-3.73402E-1,1.395802E0,3.082569E-1,-1.2762432E-1,7.274826E-1,2.4903066E0,5.5445526E-2,1.5431309E0,-1.2038217E-1,2.2283735E0,7.455621E-1,-5.66239E-1,-5.071368E-1,-5.7865214E-1,1.733945E-1,7.4556214E-1,2.9470345E-1,-5.406863E-1,1.906854E0,5.830218E-1,-1.3755459E-1,1.660079E0,2.5510447E0,7.107692E-1,1.0880828E0,-1.5124653E-1,-1.4482763E-2,6.7741936E-1,1.3884297E-1,8.129032E-1,-9.633028E-2,4.4311926E-1,6.6878974E-2,-1.7382485E-1,3.082569E-1,-1.5285175E-1,-1.736049E-1,3.082569E-1,1.2404012E-2,3.0849558E-1,-1.7053078E-1,1.3471697E-1,6.059662E-1,5.5021834E-2,7.1606554E-2,5.501259E-1,3.8532108E-2,6.3108814E-1,7.8244984E-1,2.8664687E-1,-1.3056995E-1,5.2209944E-1,5.5263156E-1,-9.633028E-2],"categories":[],"categories_nodes":[],"categories_segments":[],"categories_sizes":[],"default_left":[0,0,0,0,0,0,0,0,0,0,0,0,0,0,0,0,0,0,0,0,0,0,0,0,0,0,0,0,0,0,0,0,0,0,0,0,0,0,0,0,0,0,0,0,0,0,0,0,0,0,0,0,0,0,0,0,0,0,0,0,0,0,0,0,0,0,0,0,0,0,0,0,0,0,0,0,0,0,0],"id":4,"left_children":[1,3,5,7,9,11,-1,13,15,17,19,21,-1,23,25,-1,27,29,31,33,35,-1,-1,37,39,41,43,-1,-1,45,47,49,51,-1,53,55,57,59,61,-1,-1,63,65,67,69,-1,71,73,75,77,-1,-1,-1,-1,-1,-1,-1,-1,-1,-1,-1,-1,-1,-1,-1,-1,-1,-1,-1,-1,-1,-1,-1,-1,-1,-1,-1,-1,-1],"loss_changes":[8.8983414E4,8.440371E2,1.04296875E1,1.7136133E2,6.2804755E2,6.671875E0,0E0,1.7050195E2,2.7441376E1,3.8653015E1,3.0710678E1,1.3125E0,0E0,3.340625E1,2.0862865E2,0E0,2.9133976E0,2.0231995E1,8.312767E0,1.2450474E1,5.5124397E0,0E0,0E0,5.8652344E0,1.2545033E0,2.4959448E1,3.8467392E1,0E0,0E0,1.0535108E1,1.5367981E1,6.5041056E0,7.3766775E0,0E0,3.7578564E0,3.165409E0,1.7006912E0,4.9888E0,5.4023438E0,0E0,0E0,8.336641E0,5.138977E0,1.0940277E1,1.6024387E1,0E0,3.2374992E0,1.1482117E1,8.583189E0,4.776671E0,0E0,0E0,0E0,0E0,0E0,0E0,0E0,0E0,0E0,0E0,0E0,0E0,0E0,0E0,0E0,0E0,0E0,0E0,0E0,0E0,0E0,0E0,0E0,0E0,0E0,0E0,0E0,0E0,0E0],"parents":[2147483647,0,0,1,1,2,2,3,3,4,4,5,5,7,7,8,8,9,9,10,10,11,11,13,13,14,14,16,16,17,17,18,18,19,19,20,20,23,23,24,24,25,25,26,26,29,29,30,30,31,31,32,32,34,34,35,35,36,36,37,37,38,38,41,41,42,42,43,43,44,44,46,46,47,47,48,48,49,49],"right_children":[2,4,6,8,10,12,-1,14,16,18,20,22,-1,24,26,-1,28,30,32,34,36,-1,-1,38,40,42,44,-1,-1,46,48,50,52,-1,54,56,58,60,62,-1,-1,64,66,68,70,-1,72,74,76,78,-1,-1,-1,-1,-1,-1,-1,-1,-1,-1,-1,-1,-1,-1,-1,-1,-1,-1,-1,-1,-1,-1,-1,-1,-1,-1,-1,-1,-1],"split_conditions":[4.8572315E1,1.840646E1,5.988046E0,4.0061913E1,4.0582113E0,6.466439E-1,1.3884297E-1,1.8688398E1,2.753555E0,2.6536584E-1,1.6772379E1,1.5270039E0,1.733945E-1,8.63889E0,1.9053017E1,9.5343065E-1,1.7459047E0,9.103661E-1,4.3149215E-1,3.652501E0,3.446589E-2,1.0467719E0,3.082569E-1,7.437045E-3,1.1948894E0,8.375727E0,9.1828525E-1,3.082569E-1,-1.2762432E-1,2.7172859E0,1.4874818E-2,1.6577945E0,2.54853E0,-1.2038217E-1,7.001492E0,5.8225714E-2,1.5223378E-1,3.342416E0,2.63055E0,1.733945E-1,7.4556214E-1,4.035642E0,2.297542E0,7.1373343E-1,1.1387919E0,-1.3755459E-1,1.5182027E-1,3.836663E-1,2.9679585E-1,6.361309E-1,-1.5124653E-1,-1.4482763E-2,6.7741936E-1,1.3884297E-1,8.129032E-1,-9.633028E-2,4.4311926E-1,6.6878974E-2,-1.7382485E-1,3.082569E-1,-1.5285175E-1,-1.736049E-1,3.082569E-1,1.2404012E-2,3.0849558E-1,-1.7053078E-1,1.3471697E-1,6.059662E-1,5.5021834E-2,7.1606554E-2,5.501259E-1,3.8532108E-2,6.3108814E-1,7.8244984E-1,2.8664687E-1,-1.3056995E-1,5.2209944E-1,5.5263156E-1,-9.633028E-2],"split_indices":[1427,1767,522,155,2277,2797,0,100,1871,2944,622,1178,0,1335,1593,0,1028,1862,970,2319,624,0,0,897,2574,2484,237,0,0,2910,1200,88,1308,0,769,776,2565,2795,2816,0,0,1978,2562,2735,2465,0,2567,1834,521,974,0,0,0,0,0,0,0,0,0,0,0,0,0,0,0,0,0,0,0,0,0,0,0,0,0,0,0,0,0],"split_type":[0,0,0,0,0,0,0,0,0,0,0,0,0,0,0,0,0,0,0,0,0,0,0,0,0,0,0,0,0,0,0,0,0,0,0,0,0,0,0,0,0,0,0,0,0,0,0,0,0,0,0,0,0,0,0,0,0,0,0,0,0,0,0,0,0,0,0,0,0,0,0,0,0,0,0,0,0,0,0],"sum_hessian":[1.045156E5,9.8797234E4,5.7183677E3,9.845707E4,3.401633E2,5.7168984E3,1.4693879E0,9.844017E4,1.689796E1,1.804898E2,1.5967348E2,5.715674E3,1.2244899E0,9.8124984E4,3.151837E2,1.2979592E1,3.9183676E0,1.6579593E2,1.4693878E1,7.1020412E0,1.5257144E2,5.714449E3,1.2244899E0,9.812131E4,3.6734695E0,2.2089798E2,9.428572E1,1.2244899E0,2.6938777E0,7.8367352E0,1.579592E2,9.306123E0,5.3877554E0,2.2040818E0,4.8979597E0,2.4489799E0,1.5012247E2,1.2271837E3,9.689413E4,1.2244899E0,2.4489799E0,4.4081635E1,1.7681635E2,5.706123E1,3.722449E1,3.6734695E0,4.1632657E0,1.5232654E2,5.632653E0,2.9387758E0,6.3673472E0,1.9591838E0,3.4285717E0,1.4693879E0,3.4285717E0,1.2244899E0,1.2244899E0,2.2040818E0,1.4791838E2,1.2244899E0,1.2259592E3,9.689291E4,1.2244899E0,3.355102E1,1.0530613E1,1.7240817E2,4.4081635E0,5.338776E1,3.6734695E0,3.0122452E1,7.1020412E0,1.2244899E0,2.9387758E0,1.4644899E2,5.8775516E0,2.9387758E0,2.6938777E0,1.7142859E0,1.2244899E0],"tree_param":{"num_deleted":"0","num_feature":"3000","num_nodes":"79","size_leaf_vector":"1"}},{"base_weights":[1.3292392E0,-5.5944616E-1,3.436428E0,-5.671823E-1,-3.5580993E-1,3.4504871E0,1.6347907E-1,-5.6749946E-1,1.009242E0,-4.086317E-1,-2.2652071E-2,3.1160996E0,3.458978E0,-7.516376E-2,2.1042943E0,-5.677612E-1,1.2727273E0,-1.3548388E-1,1.7265414E0,-4.693E-1,-2.4217966E-1,-2.839089E-1,2.3739216E-1,3.366138E0,2.8656774E0,3.4709854E0,3.3942723E0,-1.6419078E-1,1.8826405E0,2.6551723E0,4.813753E-1,-5.7282495E-1,-5.250285E-1,2.032258E0,2.2580643E-1,1.6568045E-1,7.304348E-1,-4.7853717E-1,7.770581E-2,-3.0262953E-1,6.196301E-2,-3.7934688E-1,1.8250628E-1,1.2793461E0,1.2272798E-1,3.3708055E0,1.733945E-1,3.2672024E0,2.6746848E0,1.0415096E0,2.7096772E0,-1.4482763E-2,3.3951719E0,-2.5517812E-1,1.2405063E0,2.482428E0,-1.4482763E-2,3.8532108E-2,2.841229E0,5.3503186E-1,-1.394191E-1,-5.729088E-1,2.8965518E-1,-5.3319496E-1,6.183745E-1,7.22293E-1,1.733945E-1,3.082569E-1,-1.2038217E-1,1.733945E-1,-9.633028E-2,-5.376358E-1,-4.1920775E-1,1.0037736E0,-2.1040463E-1,2.4277453E-1,-3.275815E-1,-3.7345478E-1,3.4509134E-1,-4.0914866E-1,5.121951E-1,-2.818792E-1,8.661257E-1,-2.0487805E-1,1.7466149E0,-3.9829317E-2,7.130111E-1,1.0126175E0,3.3157894E-1,3.2852464E0,3.477707E-1,3.0515947E0,2.523615E0,9.032258E-1,2.8454688E0,3.3959396E0,8.6896546E-2,-3.43587E-1,4.0450534E-1,7.990244E-1,3.526448E-1,8.466403E-1,1.733945E-1,2.990291E0,1.733945E-1,-1.724028E-1,-1.4848812E-1,-1.6046914E-1,1.1909262E-1,4.69545E-2,4.1828105E-1,-1.626959E-1,2.2105263E-1,-1.2837923E-1,2.9707316E-1,5.937931E-1,-3.7278112E-2,-1.2402685E-1,2.2366863E-1,-8.370884E-2,3.3026707E-1,-1.0466143E-1,7.357664E-2,-1.3904437E-1,2.603306E-1,1.0845701E-2,2.658851E-1,-1.377742E-1,1.4261455E-2,4.4311926E-1,-1.1586207E-1,-1.6178736E-1,2.8965518E-1,-2.4901189E-2,4.650519E-1,3.8532108E-2,-1.1586207E-1,-1.1586207E-1,6.8337286E-1,2.4067415E-1,-3.666299E-2,1.350371E-1,6.845304E-1,9.8828775E-1,3.082569E-1,3.8532108E-2,9.244143E-1,7.633065E-1,3.4806624E-2,-1.1586207E-1,6.2479335E-1,8.8487667E-1,1.1052631E-1,1.0220704E0,9.1901696E-1,3.9103448E-1,-1.1209864E-1,-5.1088355E-2,5.66782E-1,-1.4110672E-1,4.025907E-1,3.3157894E-1,9.461538E-1],"categories":[],"categories_nodes":[],"categories_segments":[],"categories_sizes":[],"default_left":[0,0,0,0,0,0,0,0,0,0,0,0,0,0,0,0,0,0,0,0,0,0,0,0,0,0,0,0,0,0,0,0,0,0,0,0,0,0,0,0,0,0,0,0,0,0,0,0,0,0,0,0,0,0,0,0,0,0,0,0,0,0,0,0,0,0,0,0,0,0,0,0,0,0,0,0,0,0,0,0,0,0,0,0,0,0,0,0,0,0,0,0,0,0,0,0,0,0,0,0,0,0,0,0,0,0,0,0,0,0,0,0,0,0,0,0,0,0,0,0,0,0,0,0,0,0,0,0,0,0,0,0,0,0,0,0,0,0,0,0,0,0,0,0,0,0,0,0,0,0,0,0,0,0,0,0,0,0,0,0,0,0,0],"id":5,"left_children":[1,3,5,7,9,11,13,15,17,19,21,23,25,27,29,31,33,-1,35,37,39,41,43,45,47,49,51,53,55,57,59,61,63,65,67,69,-1,71,73,75,77,79,81,83,85,87,-1,89,91,-1,93,-1,95,97,99,101,-1,-1,103,-1,-1,105,-1,107,109,-1,-1,-1,-1,-1,-1,111,113,115,117,119,121,123,125,127,129,131,133,135,137,139,141,-1,-1,143,-1,145,147,149,151,153,-1,155,157,-1,159,-1,-1,161,-1,-1,-1,-1,-1,-1,-1,-1,-1,-1,-1,-1,-1,-1,-1,-1,-1,-1,-1,-1,-1,-1,-1,-1,-1,-1,-1,-1,-1,-1,-1,-1,-1,-1,-1,-1,-1,-1,-1,-1,-1,-1,-1,-1,-1,-1,-1,-1,-1,-1,-1,-1,-1,-1,-1,-1,-1,-1,-1],"loss_changes":[4.159588E5,8.662695E1,2.272625E3,2.7123047E1,3.5537643E1,1.28875E2,9.850914E1,2.628711E1,1.23490715E1,1.749228E1,1.8919592E1,6.7256836E1,2.55E1,3.343631E1,1.9539993E1,1.11875E1,5.7888565E0,0E0,8.011681E0,6.4879456E0,8.618982E0,6.251191E0,1.6523132E1,5.9750977E0,3.883496E1,1.253125E1,2.3554688E1,2.36692E1,9.786762E0,7.7037888E0,9.602893E0,6.6748047E0,5.295276E1,1.0260468E0,2.6387408E0,8.7780255E-1,0E0,4.1771545E0,6.0973496E0,5.3922844E0,9.792448E0,3.28133E0,7.9474792E0,9.883293E0,1.2202912E1,2.5820312E0,0E0,3.6254883E0,1.6549316E1,0E0,7.8276367E0,0E0,1.7015625E1,1.0195341E1,1.3318516E1,2.5014305E0,0E0,0E0,3.6488342E0,0E0,0E0,6.2509766E0,0E0,9.072754E0,1.4269548E1,0E0,0E0,0E0,0E0,0E0,0E0,4.133423E0,8.183136E0,6.1973014E0,3.7343147E0,8.211659E0,4.6435013E0,3.9072747E0,7.9967513E0,2.5941296E0,4.1970296E0,5.402647E0,6.660914E0,3.024668E-1,1.2835709E1,7.064853E0,1.0293061E1,0E0,0E0,5.617676E-1,0E0,9.798462E0,1.5175049E1,7.5392213E0,8.961304E0,1.7078125E1,0E0,8.045649E0,1.8104727E1,0E0,7.227999E0,0E0,0E0,1.0506592E0,0E0,0E0,0E0,0E0,0E0,0E0,0E0,0E0,0E0,0E0,0E0,0E0,0E0,0E0,0E0,0E0,0E0,0E0,0E0,0E0,0E0,0E0,0E0,0E0,0E0,0E0,0E0,0E0,0E0,0E0,0E0,0E0,0E0,0E0,0E0,0E0,0E0,0E0,0E0,0E0,0E0,0E0,0E0,0E0,0E0,0E0,0E0,0E0,0E0,0E0,0E0,0E0,0E0,0E0,0E0,0E0,0E0,0E0,0E0],"parents":[2147483647,0,0,1,1,2,2,3,3,4,4,5,5,6,6,7,7,8,8,9,9,10,10,11,11,12,12,13,13,14,14,15,15,16,16,18,18,19,19,20,20,21,21,22,22,23,23,24,24,25,25,26,26,27,27,28,28,29,29,30,30,31,31,32,32,33,33,34,34,35,35,37,37,38,38,39,39,40,40,41,41,42,42,43,43,44,44,45,45,47,47,48,48,50,50,52,52,53,53,54,54,55,55,58,58,61,61,63,63,64,64,71,71,72,72,73,73,74,74,75,75,76,76,77,77,78,78,79,79,80,80,81,81,82,82,83,83,84,84,85,85,86,86,89,89,91,91,92,92,93,93,94,94,95,95,97,97,98,98,100,100,103,103],"right_children":[2,4,6,8,10,12,14,16,18,20,22,24,26,28,30,32,34,-1,36,38,40,42,44,46,48,50,52,54,56,58,60,62,64,66,68,70,-1,72,74,76,78,80,82,84,86,88,-1,90,92,-1,94,-1,96,98,100,102,-1,-1,104,-1,-1,106,-1,108,110,-1,-1,-1,-1,-1,-1,112,114,116,118,120,122,124,126,128,130,132,134,136,138,140,142,-1,-1,144,-1,146,148,150,152,154,-1,156,158,-1,160,-1,-1,162,-1,-1,-1,-1,-1,-1,-1,-1,-1,-1,-1,-1,-1,-1,-1,-1,-1,-1,-1,-1,-1,-1,-1,-1,-1,-1,-1,-1,-1,-1,-1,-1,-1,-1,-1,-1,-1,-1,-1,-1,-1,-1,-1,-1,-1,-1,-1,-1,-1,-1,-1,-1,-1,-1,-1,-1,-1,-1,-1],"split_conditions":[2.5285692E1,4.5298478E-1,7.226437E-1,4.0628924E0,3.3703592E0,7.437045E-3,1.0768772E1,5.9206023E0,6.26495E-2,1.0243418E0,1.9227703E1,1.7796004E0,3.5097501E0,8.596775E0,3.4648142E0,1.6843273E1,4.3954315E0,-1.3548388E-1,7.4919814E-1,6.388234E-1,1.4565736E0,3.913121E-1,3.1006742E-1,7.8205113E0,1.8956038E1,2.116306E-1,1.502425E-1,3.060815E-1,5.8419695E0,1.5036807E0,2.3972456E0,2.5068684E0,7.276083E-1,1.7831077E-1,1.1644661E0,3.768396E1,7.304348E-1,6.621222E-1,9.780789E-1,1.4309934E-1,3.8118308E0,1.0307006E1,9.404226E0,5.8396804E-1,3.1593509E0,5.9497256E-2,1.733945E-1,1.4177406E0,3.393164E-1,1.0415096E0,2.2627972E-1,-1.4482763E-2,1.418547E0,1.2157843E0,6.4937186E-1,2.878045E0,-1.4482763E-2,3.8532108E-2,9.265927E-1,5.3503186E-1,-1.394191E-1,6.994638E-1,2.8965518E-1,4.454227E0,2.679453E0,7.22293E-1,1.733945E-1,3.082569E-1,-1.2038217E-1,1.733945E-1,-9.633028E-2,1.3249938E0,3.3615118E-1,2.0693126E0,1.1311466E0,9.348922E-1,2.1354988E0,5.977698E0,3.7085363E-1,2.3756297E0,7.6978974E-2,4.5561442E-1,1.1427708E0,7.4952374E0,1.2371408E0,9.286543E-2,6.2163866E-1,1.0126175E0,3.3157894E-1,5.754488E-1,3.477707E-1,3.9073712E-1,1.8047497E1,2.6901167E1,7.671387E-1,1.6965601E1,8.6896546E-2,1.1725339E-1,1.5084565E-1,7.990244E-1,2.2303622E0,8.466403E-1,1.733945E-1,2.2659525E-1,1.733945E-1,-1.724028E-1,-1.4848812E-1,-1.6046914E-1,1.1909262E-1,4.69545E-2,4.1828105E-1,-1.626959E-1,2.2105263E-1,-1.2837923E-1,2.9707316E-1,5.937931E-1,-3.7278112E-2,-1.2402685E-1,2.2366863E-1,-8.370884E-2,3.3026707E-1,-1.0466143E-1,7.357664E-2,-1.3904437E-1,2.603306E-1,1.0845701E-2,2.658851E-1,-1.377742E-1,1.4261455E-2,4.4311926E-1,-1.1586207E-1,-1.6178736E-1,2.8965518E-1,-2.4901189E-2,4.650519E-1,3.8532108E-2,-1.1586207E-1,-1.1586207E-1,6.8337286E-1,2.4067415E-1,-3.666299E-2,1.350371E-1,6.845304E-1,9.8828775E-1,3.082569E-1,3.8532108E-2,9.244143E-1,7.633065E-1,3.4806624E-2,-1.1586207E-1,6.2479335E-1,8.8487667E-1,1.1052631E-1,1.0220704E0,9.1901696E-1,3.9103448E-1,-1.1209864E-1,-5.1088355E-2,5.66782E-1,-1.4110672E-1,4.025907E-1,3.3157894E-1,9.461538E-1],"split_indices":[1519,715,2069,1896,2987,897,855,2875,1549,2749,2271,1247,534,2974,611,2699,590,0,1929,143,767,1376,2426,2189,1590,1064,1005,1008,1628,2163,2318,2833,2898,772,2613,512,0,2308,489,2482,330,1563,104,2305,1898,480,0,849,2850,0,2052,0,1489,49,2833,1077,0,0,1066,0,0,2500,0,1041,1275,0,0,0,0,0,0,1144,1371,2524,2956,886,247,1092,93,2193,1794,2086,22,769,2311,1604,2434,0,0,1052,0,2735,2820,2820,2452,2119,0,2632,1494,0,2597,0,0,571,0,0,0,0,0,0,0,0,0,0,0,0,0,0,0,0,0,0,0,0,0,0,0,0,0,0,0,0,0,0,0,0,0,0,0,0,0,0,0,0,0,0,0,0,0,0,0,0,0,0,0,0,0,0,0,0,0,0,0],"split_type":[0,0,0,0,0,0,0,0,0,0,0,0,0,0,0,0,0,0,0,0,0,0,0,0,0,0,0,0,0,0,0,0,0,0,0,0,0,0,0,0,0,0,0,0,0,0,0,0,0,0,0,0,0,0,0,0,0,0,0,0,0,0,0,0,0,0,0,0,0,0,0,0,0,0,0,0,0,0,0,0,0,0,0,0,0,0,0,0,0,0,0,0,0,0,0,0,0,0,0,0,0,0,0,0,0,0,0,0,0,0,0,0,0,0,0,0,0,0,0,0,0,0,0,0,0,0,0,0,0,0,0,0,0,0,0,0,0,0,0,0,0,0,0,0,0,0,0,0,0,0,0,0,0,0,0,0,0,0,0,0,0,0,0],"sum_hessian":[1.045156E5,5.5115758E4,4.939984E4,5.309682E4,2.018939E3,4.9188492E4,2.1134695E2,5.3086777E4,1.0040817E1,1.7424491E3,2.764898E2,1.2271837E3,4.796131E4,1.8906123E2,2.2285715E1,5.307992E4,6.8571434E0,3.4285717E0,6.6122456E0,1.2756736E3,4.6677554E2,1.3787756E2,1.3861226E2,6.078368E2,6.19347E2,4.040988E4,7.551429E3,1.817143E2,7.346939E0,1.6163267E1,6.1224494E0,4.744531E4,5.634613E3,3.4285717E0,3.4285717E0,2.4489799E0,4.1632657E0,1.2546123E3,2.1061226E1,3.893878E2,7.7387764E1,1.1461225E2,2.3265308E1,1.27346945E1,1.2587756E2,6.066123E2,1.2244899E0,1.9444899E2,4.2489798E2,4.0368492E4,4.1387756E1,1.9591838E0,7.5494697E3,1.7142859E2,1.0285715E1,5.3877554E0,1.9591838E0,1.2244899E0,1.4938777E1,2.2040818E0,3.9183676E0,4.744335E4,1.9591838E0,5.595184E3,3.9428574E1,2.2040818E0,1.2244899E0,1.2244899E0,2.2040818E0,1.2244899E0,1.2244899E0,6.2448987E2,6.301225E2,4.4081635E0,1.6653063E1,1.6653063E1,3.727347E2,3.036735E1,4.7020412E1,1.1142858E2,3.1836736E0,1.42040825E1,9.061225E0,3.1836736E0,9.551021E0,9.942858E1,2.6448982E1,6.04898E2,1.7142859E0,1.9224492E2,2.2040818E0,1.1608164E2,3.0881635E2,3.4285717E0,3.7959187E1,7.5475107E3,1.9591838E0,1.5159184E2,1.9836737E1,3.1836736E0,7.1020412E0,4.1632657E0,1.2244899E0,1.3714287E1,1.2244899E0,4.638539E4,1.0579592E3,5.585388E3,9.795919E0,2.5469389E1,1.3959185E1,6.227756E2,1.7142859E0,6.2693884E2,3.1836736E0,1.9591838E0,2.4489799E0,1.42040825E1,2.4489799E0,1.0775511E1,5.8775516E0,3.5975513E2,1.2979592E1,2.889796E1,1.4693879E0,3.0612247E1,1.6408165E1,1.0040817E2,1.1020409E1,1.2244899E0,1.9591838E0,1.2244899E1,1.9591838E0,4.1632657E0,4.8979597E0,1.2244899E0,1.9591838E0,1.9591838E0,7.5918374E0,8.081634E0,9.134695E1,2.3755104E1,2.6938777E0,1.9102042E2,1.2244899E0,1.2244899E0,1.1485715E2,3.0612247E2,2.6938777E0,1.9591838E0,1.4693879E0,3.62449E1,1.7142859E0,7.297715E3,2.4979593E2,1.9591838E0,1.4963266E2,1.4938777E1,4.8979597E0,4.1632657E0,2.9387758E0,1.7142859E0,1.2000001E1],"tree_param":{"num_deleted":"0","num_feature":"3000","num_nodes":"163","size_leaf_vector":"1"}},{"base_weights":[-5.4137266E-1,-5.731733E-1,1.0457873E0,-5.7791966E-1,2.7094622E0,-5.800702E-1,1.7392409E0,3.2995489E0,9.964411E-2,-5.802537E-1,8.2110727E-1,2.4867597E0,-1.0960855E-1,3.3452277E0,9.2817676E-1,-4.3063933E-1,7.9519993E-1,-5.8044684E-1,1.8826405E0,-1.24260366E-1,2.585313E0,-4.2944786E-1,1.0734824E0,3.3846955E0,1.0355029E0,5.7798165E-1,-1.04132235E-1,1.733945E-1,-1.6384916E-1,1.8951964E0,1.4157301E-1,-5.806494E-1,5.4535747E-1,2.52E0,-1.10526316E-1,3.8532108E-2,-9.633028E-2,2.856045E0,1.6107711E0,4.5562127E-1,-1.6660137E-1,-1.10526316E-1,1.6812227E0,2.603306E-1,3.409179E0,-9.633028E-2,5.7798165E-1,7.4556214E-1,3.8532108E-2,-1.4861539E-1,1.3254437E0,-1.7420933E-1,5.033058E-1,4.719101E-1,-1.0480592E-1,1.733945E-1,8.558491E-1,2.5025907E-1,8.89051E-1,-1.1586207E-1,5.708738E-1,3.082569E-1,-9.633028E-2,1.735537E-2,7.22293E-1,3.3157894E-1,1.0302454E0,5.7798165E-1,3.8532108E-2],"categories":[],"categories_nodes":[],"categories_segments":[],"categories_sizes":[],"default_left":[0,0,0,0,0,0,0,0,0,0,0,0,0,0,0,0,0,0,0,0,0,0,0,0,0,0,0,0,0,0,0,0,0,0,0,0,0,0,0,0,0,0,0,0,0,0,0,0,0,0,0,0,0,0,0,0,0,0,0,0,0,0,0,0,0,0,0,0,0],"id":6,"left_children":[1,3,-1,5,7,9,11,13,15,17,-1,19,21,23,25,27,29,31,33,35,37,39,41,43,45,-1,-1,-1,-1,47,49,51,53,55,-1,-1,-1,57,59,61,-1,-1,63,-1,65,-1,-1,-1,-1,-1,67,-1,-1,-1,-1,-1,-1,-1,-1,-1,-1,-1,-1,-1,-1,-1,-1,-1,-1],"loss_changes":[1.3387592E4,1.6172617E3,0E0,5.170156E2,2.3051697E2,6.45625E1,1.3331601E2,1.01345215E1,1.0918417E1,5.030078E1,0E0,1.7971619E1,1.1311016E1,7.3916016E0,5.372081E0,2.2870085E0,8.902449E0,2.390625E1,1.2904068E1,2.1280059E-1,1.2850708E1,2.84755E0,6.2170057E0,4.256592E0,4.7880135E0,0E0,0E0,0E0,0E0,4.5524464E0,7.5048413E0,1.22578125E1,1.8132114E1,2.6382103E0,0E0,0E0,0E0,8.493042E0,1.0462219E1,1.8620052E0,0E0,0E0,5.3719063E0,0E0,2.856079E0,0E0,0E0,0E0,0E0,0E0,2.234407E0,0E0,0E0,0E0,0E0,0E0,0E0,0E0,0E0,0E0,0E0,0E0,0E0,0E0,0E0,0E0,0E0,0E0,0E0],"parents":[2147483647,0,0,1,1,3,3,4,4,5,5,6,6,7,7,8,8,9,9,11,11,12,12,13,13,14,14,15,15,16,16,17,17,18,18,19,19,20,20,21,21,22,22,23,23,24,24,29,29,30,30,31,31,32,32,33,33,37,37,38,38,39,39,42,42,44,44,50,50],"right_children":[2,4,-1,6,8,10,12,14,16,18,-1,20,22,24,26,28,30,32,34,36,38,40,42,44,46,-1,-1,-1,-1,48,50,52,54,56,-1,-1,-1,58,60,62,-1,-1,64,-1,66,-1,-1,-1,-1,-1,68,-1,-1,-1,-1,-1,-1,-1,-1,-1,-1,-1,-1,-1,-1,-1,-1,-1,-1],"split_conditions":[2.0604078E1,3.3786001E0,1.0457873E0,1.5231633E1,4.248187E0,4.6612005E0,3.2058744E0,7.563408E-1,1.4971379E0,7.625072E0,8.2110727E-1,1.229142E0,6.4554768E0,2.411644E0,2.4365728E0,4.8294E-1,1.4915377E0,4.6005096E0,3.6663914E0,4.450789E0,7.502258E0,1.7523998E0,6.4403045E-1,2.3349724E0,1.0451209E1,5.7798165E-1,-1.04132235E-1,1.733945E-1,-1.6384916E-1,2.5014591E1,4.4753194E0,2.3633687E0,8.738544E-1,1.231391E0,-1.10526316E-1,3.8532108E-2,-9.633028E-2,2.1224113E0,3.221278E0,4.30395E-3,-1.6660137E-1,-1.10526316E-1,4.8354125E-1,2.603306E-1,5.185551E-1,-9.633028E-2,5.7798165E-1,7.4556214E-1,3.8532108E-2,-1.4861539E-1,1.3906991E0,-1.7420933E-1,5.033058E-1,4.719101E-1,-1.0480592E-1,1.733945E-1,8.558491E-1,2.5025907E-1,8.89051E-1,-1.1586207E-1,5.708738E-1,3.082569E-1,-9.633028E-2,1.735537E-2,7.22293E-1,3.3157894E-1,1.0302454E0,5.7798165E-1,3.8532108E-2],"split_indices":[94,691,0,393,2131,1745,283,771,2686,2315,0,1408,1325,2854,1366,12,1842,168,1027,1280,1881,2332,2083,2950,2597,0,0,0,0,5,2443,2851,2553,512,0,0,0,2656,747,768,0,0,1051,0,2931,0,0,0,0,0,518,0,0,0,0,0,0,0,0,0,0,0,0,0,0,0,0,0,0],"split_type":[0,0,0,0,0,0,0,0,0,0,0,0,0,0,0,0,0,0,0,0,0,0,0,0,0,0,0,0,0,0,0,0,0,0,0,0,0,0,0,0,0,0,0,0,0,0,0,0,0,0,0,0,0,0,0,0,0,0,0,0,0,0,0,0,0,0,0,0,0],"sum_hessian":[1.045156E5,1.0369764E5,8.179592E2,1.0354874E5,1.4889796E2,1.0345348E5,9.526531E1,1.21224495E2,2.7673471E1,1.0344858E5,4.8979597E0,6.759184E1,2.7673471E1,1.18530624E2,2.6938777E0,1.5918368E1,1.1755103E1,1.03441234E5,7.346939E0,2.4489799E0,6.514286E1,2.2285715E1,5.3877554E0,1.1608164E2,2.4489799E0,1.2244899E0,1.4693879E0,1.2244899E0,1.4693878E1,3.6734695E0,8.081634E0,1.0342311E5,1.812245E1,5.632653E0,1.7142859E0,1.2244899E0,1.2244899E0,4.946939E1,1.56734705E1,2.4489799E0,1.9836737E1,1.7142859E0,3.6734695E0,1.4693879E0,1.1461225E2,1.2244899E0,1.2244899E0,2.4489799E0,1.2244899E0,5.632653E0,2.4489799E0,1.0342164E5,1.4693879E0,8.081634E0,1.0040817E1,1.2244899E0,4.4081635E0,2.9387758E0,4.6530617E1,1.9591838E0,1.3714287E1,1.2244899E0,1.2244899E0,1.4693879E0,2.2040818E0,1.7142859E0,1.12897964E2,1.2244899E0,1.2244899E0],"tree_param":{"num_deleted":"0","num_feature":"3000","num_nodes":"69","size_leaf_vector":"1"}},{"base_weights":[-2.0319995E-1,-5.434998E-1,1.378852E0,-5.4583436E-1,1.1944963E0,1.3790346E0,-1.7792547E-2,-2.945276E-1,-5.505315E-1,1.2742264E0,-8.41973E-2,1.379163E0,-5.6728004E-3,-4.7442895E-1,-3.3742465E-2,-5.513286E-1,6.836045E-2,1.3026116E0,-1.0930613E-1,3.1487933E-1,-1.4739731E-1,9.84415E-3,1.3792651E0,-5.389055E-1,-3.1548142E-1,-4.3092817E-1,8.8160194E-2,-5.5269474E-1,-3.9448124E-1,-4.6804768E-1,5.6248516E-1,-9.692789E-2,1.3287827E0,1.379387E0,6.007029E-2,-5.4227334E-1,1.7072475E-1,-5.305484E-1,-2.0282415E-1,-1.606357E-2,-4.816747E-1,-4.3020764E-1,1.6034596E-1,-5.568154E-1,-5.2775675E-1,-1.3643357E-1,-5.1630306E-1,-5.286641E-1,3.3987838E-1,2.9991591E-2,1.1254114E0,1.3537503E0,-1.6729372E-2,1.3794847E0,2.3338549E-2,-7.777096E-2,-1.6464147E-1,-1.6278702E-1,6.522645E-2,1.9096974E-1,-7.79561E-2,2.0262994E-1,-1.24877E-1,-1.4934094E-1,1.9007413E-1,-1.4536811E-1,3.1286928E-1,8.1025176E-2,-4.6150554E-2,-1.67063E-1,1.2710159E-1,-1.6394518E-1,-1.4699225E-1,-1.151982E-1,5.0065894E-2,-1.9733269E-2,-1.6072609E-1,5.6564648E-2,-1.6502005E-1,-1.0901742E-1,3.42674E-1,-7.786857E-2,2.400533E-1,-1.3055466E-1,4.0833473E-1,-2.5360382E-3,4.1230354E-1,4.1387284E-1,2.4000058E-2],"categories":[],"categories_nodes":[],"categories_segments":[],"categories_sizes":[],"default_left":[0,0,0,0,0,0,0,0,0,0,0,0,0,0,0,0,0,0,0,0,0,0,0,0,0,0,0,0,0,0,0,0,0,0,0,0,0,0,0,0,0,0,0,0,0,0,0,0,0,0,0,0,0,0,0,0,0,0,0,0,0,0,0,0,0,0,0,0,0,0,0,0,0,0,0,0,0,0,0,0,0,0,0,0,0,0,0,0,0],"id":7,"left_children":[1,3,5,7,9,11,-1,13,15,17,19,21,-1,23,25,27,29,31,-1,-1,-1,-1,33,35,37,39,41,43,45,47,49,-1,51,53,-1,55,-1,57,59,61,63,65,67,69,71,73,75,77,79,81,83,85,-1,87,-1,-1,-1,-1,-1,-1,-1,-1,-1,-1,-1,-1,-1,-1,-1,-1,-1,-1,-1,-1,-1,-1,-1,-1,-1,-1,-1,-1,-1,-1,-1,-1,-1,-1,-1],"loss_changes":[4.90793E4,3.050625E2,4.3203125E0,8.828125E1,1.0399689E1,2.9199219E0,0E0,6.457992E1,3.6320312E1,4.897461E0,3.683818E0,2.1699219E0,0E0,8.179367E0,2.730456E1,1.5519531E1,2.5573994E1,4.4155273E0,0E0,0E0,0E0,0E0,2.0449219E0,2.4661102E0,5.647295E0,2.7800884E0,1.6223778E1,7.1875E0,1.9977623E1,2.4487944E0,1.5001901E1,0E0,3.2697449E0,1.9414062E0,0E0,9.2430115E-1,0E0,8.498287E-1,7.7045364E0,4.5613184E0,2.4370518E0,4.7523994E0,1.3132211E1,3.9882812E0,7.051758E0,1.5523628E1,3.7579422E0,7.713156E-1,2.5832386E0,6.185276E0,9.551342E0,2.5590973E0,0E0,1.8066406E0,0E0,0E0,0E0,0E0,0E0,0E0,0E0,0E0,0E0,0E0,0E0,0E0,0E0,0E0,0E0,0E0,0E0,0E0,0E0,0E0,0E0,0E0,0E0,0E0,0E0,0E0,0E0,0E0,0E0,0E0,0E0,0E0,0E0,0E0,0E0],"parents":[2147483647,0,0,1,1,2,2,3,3,4,4,5,5,7,7,8,8,9,9,10,10,11,11,13,13,14,14,15,15,16,16,17,17,22,22,23,23,24,24,25,25,26,26,27,27,28,28,29,29,30,30,32,32,33,33,35,35,37,37,38,38,39,39,40,40,41,41,42,42,43,43,44,44,45,45,46,46,47,47,48,48,49,49,50,50,51,51,53,53],"right_children":[2,4,6,8,10,12,-1,14,16,18,20,22,-1,24,26,28,30,32,-1,-1,-1,-1,34,36,38,40,42,44,46,48,50,-1,52,54,-1,56,-1,58,60,62,64,66,68,70,72,74,76,78,80,82,84,86,-1,88,-1,-1,-1,-1,-1,-1,-1,-1,-1,-1,-1,-1,-1,-1,-1,-1,-1,-1,-1,-1,-1,-1,-1,-1,-1,-1,-1,-1,-1,-1,-1,-1,-1,-1,-1],"split_conditions":[5.99656E0,9.908767E-1,1.4704144E1,7.989324E-3,7.6958734E-1,2.8173568E0,-1.7792547E-2,9.283278E0,3.4117439E0,2.977013E0,2.5250046E0,5.368607E-1,-5.6728004E-3,3.062686E-1,1.5075272E-1,1.5560275E0,9.052406E-1,4.0186973E0,-1.0930613E-1,3.1487933E-1,-1.4739731E-1,9.84415E-3,2.7098093E0,4.6070927E-1,3.7617132E-2,2.249141E-1,8.067407E-1,4.019756E0,4.328845E0,4.5747423E0,1.1910255E0,-9.692789E-2,2.6495318E0,1.8100115E0,6.007029E-2,4.6707854E-2,1.7072475E-1,1.4177406E0,5.2673267E-3,1.595113E-1,1.6999737E1,1.2225759E0,6.6775055E0,2.1243567E0,3.8614282E-1,1.1650134E0,5.742481E-2,5.371448E-1,4.923673E-1,1.7488543E0,1.9497579E-2,2.397873E0,-1.6729372E-2,3.684421E0,2.3338549E-2,-7.777096E-2,-1.6464147E-1,-1.6278702E-1,6.522645E-2,1.9096974E-1,-7.79561E-2,2.0262994E-1,-1.24877E-1,-1.4934094E-1,1.9007413E-1,-1.4536811E-1,3.1286928E-1,8.1025176E-2,-4.6150554E-2,-1.67063E-1,1.2710159E-1,-1.6394518E-1,-1.4699225E-1,-1.151982E-1,5.0065894E-2,-1.9733269E-2,-1.6072609E-1,5.6564648E-2,-1.6502005E-1,-1.0901742E-1,3.42674E-1,-7.786857E-2,2.400533E-1,-1.3055466E-1,4.0833473E-1,-2.5360382E-3,4.1230354E-1,4.1387284E-1,2.4000058E-2],"split_indices":[670,1910,522,897,761,1058,0,988,2734,2953,2095,2849,0,105,1512,1797,1991,2201,0,0,0,0,2979,2100,1185,1863,1202,1947,414,941,2782,0,2253,744,0,1228,0,849,96,1219,1026,219,2517,846,838,2061,2549,2436,1064,1111,862,415,0,1785,0,0,0,0,0,0,0,0,0,0,0,0,0,0,0,0,0,0,0,0,0,0,0,0,0,0,0,0,0,0,0,0,0,0,0],"split_type":[0,0,0,0,0,0,0,0,0,0,0,0,0,0,0,0,0,0,0,0,0,0,0,0,0,0,0,0,0,0,0,0,0,0,0,0,0,0,0,0,0,0,0,0,0,0,0,0,0,0,0,0,0,0,0,0,0,0,0,0,0,0,0,0,0,0,0,0,0,0,0,0,0,0,0,0,0,0,0,0,0,0,0,0,0,0,0,0,0],"sum_hessian":[9.116003E4,7.502318E4,1.6136853E4,7.492323E4,9.995499E1,1.6134845E4,2.0069067E0,1.3758542E3,7.354737E4,9.409161E1,5.863377E0,1.6133377E4,1.4684002E0,8.137047E2,5.6214954E2,7.3452875E4,9.449325E1,9.2690956E1,1.4006546E0,1.1322238E0,4.731153E0,1.247983E0,1.6132129E4,5.771822E2,2.3652257E2,1.3141982E2,4.307297E2,7.281613E4,6.3674536E2,4.533337E1,4.915988E1,1.2887751E0,9.140218E1,1.613029E4,1.8384542E0,5.759421E2,1.2400604E0,8.003099E1,1.5649158E2,1.4466813E1,1.16952995E2,5.204359E1,3.7868613E2,6.2472145E4,1.0343986E4,2.0488023E2,4.318651E2,4.249104E1,2.8423321E0,2.5804083E1,2.3355797E1,8.9804955E1,1.5972245E0,1.61290205E4,1.2695993E0,1.3908775E1,5.620333E2,7.90297E1,1.0012935E0,9.309375E0,1.471822E2,5.051141E0,9.415672E0,1.1583153E2,1.1214712E0,5.0838867E1,1.2047231E0,2.8076144E2,9.7924675E1,6.2468676E4,3.4693391E0,6.9070146E3,3.4369717E3,1.1266254E2,9.22177E1,1.8054598E1,4.1381052E2,1.0049571E0,4.148608E1,1.8062601E0,1.036072E0,1.9235453E1,6.5686316E0,2.953622E0,2.0402174E1,1.3462913E0,8.8458664E1,1.6127825E4,1.1956435E0],"tree_param":{"num_deleted":"0","num_feature":"3000","num_nodes":"89","size_leaf_vector":"1"}},{"base_weights":[2.3017283E-1,-5.283272E-1,1.3660119E0,-5.3773934E-1,3.4692982E-1,1.3685474E0,7.241931E-1,-5.4332E-1,-3.3273113E-1,7.7261955E-1,-3.9088586E-1,1.3702371E0,9.2458445E-1,-1.3913004E-1,8.722106E-1,-5.463383E-1,-4.5070055E-1,-1.5336811E-2,-4.1416588E-1,9.788817E-1,4.2631206E-1,-3.620995E-2,-5.2498555E-1,1.375624E0,1.261417E0,9.742355E-1,-3.7230417E-1,3.179019E-1,-3.012599E-1,1.0635079E0,5.063328E-2,5.237937E-1,-5.465588E-1,-4.0471983E-1,-5.2174234E-1,-3.1919292E-1,1.5194067E-1,7.680452E-1,-4.2005682E-1,1.0619118E0,4.430011E-1,5.633652E-1,-2.4098149E-1,4.1082522E-1,-9.486337E-2,4.8528835E-1,-5.409555E-1,1.2514514E-1,1.3759059E0,1.2937639E0,9.980381E-1,-1.9776532E-1,1.0101871E0,5.0542757E-2,-1.495936E-1,-4.503567E-1,5.6911707E-1,5.1480097E-1,1.2022302E0,4.584661E-1,-1.6196778E-1,1.0856098E0,-3.080725E-1,-3.8923448E-1,-5.4776156E-1,-3.425474E-1,-4.6824157E-1,4.6598783E-1,-5.254921E-1,1.4787544E0,-3.643363E-1,9.7201043E-1,7.854824E-2,-1.0882695E-1,1.2316967E0,-4.3839556E-1,-5.9716225E-2,9.2948425E-1,1.4820987E0,7.527212E-1,-1.8617587E-1,6.651497E-1,-1.9525565E-1,-4.558702E-1,4.6755344E-1,6.1683714E-1,-1.9705395E-1,-9.6737035E-2,3.4396505E-1,-5.5193925E-1,-1.2897506E-2,-3.8361984E-1,3.1934032E-1,1.3766577E0,1.0691274E0,1.2972019E0,-1.4548011E-1,1.2099444E0,7.1707207E-1,-1.5653719E-1,1.6551274E-1,1.0973308E0,4.5028335E-1,1.4654046E-1,-1.6345832E-1,-9.9208355E-2,3.350557E-1,6.8454725E-1,-1.4127725E-1,3.0582592E-1,1.2596251E0,-1.7508937E-1,1.1145742E0,4.462574E-1,-1.0413133E-1,6.145771E-2,-1.3600683E-1,-1.3648623E-1,-1.3851008E-2,-1.6437246E-1,5.956951E-2,-1.0490703E-1,2.301729E-1,1.4826377E-1,-1.4284754E-1,3.124941E-1,-9.568283E-2,-3.486383E-2,-1.5911345E-1,5.9564686E-1,6.1920077E-2,2.5885782E-1,-1.2050912E-1,6.205615E-1,1.1221651E-1,6.4777057E-3,3.15966E-1,5.0992393E-1,1.3518525E-2,-1.0091212E-1,-1.4282526E-1,4.8728168E-1,-3.3924E-2,-7.61351E-2,2.927421E-1,-2.3492344E-3,4.5808503E-1,3.7932304E-1,-2.7064765E-2,2.5801474E-1,-1.3774122E-1,2.2995596E-1,-7.049819E-2,1.712067E-1,-1.1987813E-1,5.3879473E-2,-1.6277894E-1,3.1302944E-1,-1.2809585E-1,3.7721696E-1,-7.07209E-2,9.541843E-2,-1.0810114E-1,-1.672858E-1,4.8842147E-2,1.8783051E-1,-1.20411016E-1,6.07473E-2,-1.5234473E-1,4.133139E-1,3.5581246E-1,3.330901E-1,-1.5049514E-1,3.8977277E-1,-1.4440511E-1,-2.0368213E-2,3.726552E-1,3.472773E-2,2.587979E-1,3.5163698E-1,1.3081056E-1,2.60743E-1,-7.797216E-2,-1.2645929E-1,2.5632653E-1,-9.4946064E-2,3.6375114E-1,-9.082724E-2,3.8441694E-1,-1.6861415E-1,3.2930773E-1,-1.1570226E-1,4.184638E-1],"categories":[],"categories_nodes":[],"categories_segments":[],"categories_sizes":[],"default_left":[0,0,0,0,0,0,0,0,0,0,0,0,0,0,0,0,0,0,0,0,0,0,0,0,0,0,0,0,0,0,0,0,0,0,0,0,0,0,0,0,0,0,0,0,0,0,0,0,0,0,0,0,0,0,0,0,0,0,0,0,0,0,0,0,0,0,0,0,0,0,0,0,0,0,0,0,0,0,0,0,0,0,0,0,0,0,0,0,0,0,0,0,0,0,0,0,0,0,0,0,0,0,0,0,0,0,0,0,0,0,0,0,0,0,0,0,0,0,0,0,0,0,0,0,0,0,0,0,0,0,0,0,0,0,0,0,0,0,0,0,0,0,0,0,0,0,0,0,0,0,0,0,0,0,0,0,0,0,0,0,0,0,0,0,0,0,0,0,0,0,0,0,0,0,0,0,0,0,0,0,0,0,0,0,0,0,0,0,0,0,0,0,0],"id":8,"left_children":[1,3,5,7,9,11,13,15,17,19,21,23,25,27,29,31,33,35,37,39,41,43,45,47,49,51,53,-1,55,57,59,61,63,65,67,69,71,73,75,77,79,81,83,-1,85,87,89,91,93,95,97,99,101,-1,-1,103,105,107,109,111,-1,113,115,117,119,121,123,125,127,129,131,133,135,-1,137,139,141,143,145,147,149,151,153,155,157,159,161,-1,-1,163,165,167,-1,169,171,173,-1,175,177,-1,-1,179,181,-1,-1,-1,-1,183,-1,185,187,189,191,-1,-1,-1,-1,-1,-1,-1,-1,-1,-1,-1,-1,-1,-1,-1,-1,-1,-1,-1,-1,-1,-1,-1,-1,-1,-1,-1,-1,-1,-1,-1,-1,-1,-1,-1,-1,-1,-1,-1,-1,-1,-1,-1,-1,-1,-1,-1,-1,-1,-1,-1,-1,-1,-1,-1,-1,-1,-1,-1,-1,-1,-1,-1,-1,-1,-1,-1,-1,-1,-1,-1,-1,-1,-1,-1,-1,-1,-1,-1,-1],"loss_changes":[9.202248E4,5.277871E2,6.8609375E1,7.23125E1,2.1450095E2,3.0679688E1,2.1899086E1,1.7E1,4.3461304E1,3.0498047E1,1.1880112E1,2.3132812E1,1.0960083E1,5.334749E0,2.2832146E1,1.4378906E1,6.1664734E0,1.7554907E1,9.643051E0,1.15642395E1,1.507291E1,5.8774266E0,3.1903343E0,1.40703125E1,1.586377E1,6.8902283E0,5.48054E-1,0E0,3.3071408E0,8.367966E0,7.1238837E0,6.32243E0,1.1087891E1,4.5381927E0,3.07341E0,1.0490526E1,1.3334002E1,4.1112623E0,8.778061E0,1.1614014E1,7.545488E0,1.0615662E1,4.5570188E0,0E0,5.0566745E0,2.159613E0,1.0317764E0,5.288442E0,7.8515625E0,1.1575195E1,1.2506302E1,1.6386254E0,7.030716E0,0E0,0E0,2.096458E0,2.2816215E0,4.6015344E0,4.424774E0,7.4401493E0,0E0,5.0472984E0,5.3581434E-1,1.0272781E1,6.59375E0,5.063858E0,4.698532E0,1.8767743E0,1.4606934E0,1.653913E0,5.867279E0,1.1169172E1,1.1390628E1,0E0,2.802825E0,4.714035E0,6.085899E0,1.0125259E1,3.63842E0,1.1183562E1,4.2038164E0,1.1126263E1,2.8633537E0,1.3317986E0,4.119994E0,5.0815077E0,5.169116E0,0E0,0E0,8.030472E-1,1.411467E0,6.3851E-1,0E0,6.46875E0,7.2362213E0,7.1101074E0,0E0,5.299698E0,8.5696945E0,0E0,0E0,6.055023E0,6.9089775E0,0E0,0E0,0E0,0E0,4.5360804E0,0E0,4.3031874E0,3.3648682E0,5.4097185E0,4.195709E0,0E0,0E0,0E0,0E0,0E0,0E0,0E0,0E0,0E0,0E0,0E0,0E0,0E0,0E0,0E0,0E0,0E0,0E0,0E0,0E0,0E0,0E0,0E0,0E0,0E0,0E0,0E0,0E0,0E0,0E0,0E0,0E0,0E0,0E0,0E0,0E0,0E0,0E0,0E0,0E0,0E0,0E0,0E0,0E0,0E0,0E0,0E0,0E0,0E0,0E0,0E0,0E0,0E0,0E0,0E0,0E0,0E0,0E0,0E0,0E0,0E0,0E0,0E0,0E0,0E0,0E0,0E0,0E0,0E0,0E0,0E0,0E0,0E0,0E0,0E0,0E0,0E0,0E0,0E0,0E0],"parents":[2147483647,0,0,1,1,2,2,3,3,4,4,5,5,6,6,7,7,8,8,9,9,10,10,11,11,12,12,13,13,14,14,15,15,16,16,17,17,18,18,19,19,20,20,21,21,22,22,23,23,24,24,25,25,26,26,28,28,29,29,30,30,31,31,32,32,33,33,34,34,35,35,36,36,37,37,38,38,39,39,40,40,41,41,42,42,44,44,45,45,46,46,47,47,48,48,49,49,50,50,51,51,52,52,55,55,56,56,57,57,58,58,59,59,61,61,62,62,63,63,64,64,65,65,66,66,67,67,68,68,69,69,70,70,71,71,72,72,74,74,75,75,76,76,77,77,78,78,79,79,80,80,81,81,82,82,83,83,84,84,85,85,86,86,89,89,90,90,91,91,93,93,94,94,95,95,97,97,98,98,101,101,102,102,107,107,109,109,110,110,111,111,112,112],"right_children":[2,4,6,8,10,12,14,16,18,20,22,24,26,28,30,32,34,36,38,40,42,44,46,48,50,52,54,-1,56,58,60,62,64,66,68,70,72,74,76,78,80,82,84,-1,86,88,90,92,94,96,98,100,102,-1,-1,104,106,108,110,112,-1,114,116,118,120,122,124,126,128,130,132,134,136,-1,138,140,142,144,146,148,150,152,154,156,158,160,162,-1,-1,164,166,168,-1,170,172,174,-1,176,178,-1,-1,180,182,-1,-1,-1,-1,184,-1,186,188,190,192,-1,-1,-1,-1,-1,-1,-1,-1,-1,-1,-1,-1,-1,-1,-1,-1,-1,-1,-1,-1,-1,-1,-1,-1,-1,-1,-1,-1,-1,-1,-1,-1,-1,-1,-1,-1,-1,-1,-1,-1,-1,-1,-1,-1,-1,-1,-1,-1,-1,-1,-1,-1,-1,-1,-1,-1,-1,-1,-1,-1,-1,-1,-1,-1,-1,-1,-1,-1,-1,-1,-1,-1,-1,-1,-1,-1,-1,-1,-1,-1],"split_conditions":[2.396235E0,2.616428E0,6.6454995E-1,4.449591E0,3.7515047E-1,9.38932E-1,4.0386033E0,2.5010065E1,1.2721473E-1,3.16998E1,1.673484E0,5.4154116E-1,1.2897065E0,5.5576246E-2,4.0026706E-1,2.8272493E-2,1.5468012E0,1.10095404E-1,5.123037E-2,2.4849325E-1,4.1753654E0,9.335311E0,2.860057E-2,4.866082E0,2.8045805E0,2.0801115E-1,9.894151E-1,3.179019E-1,1.7074486E1,2.0507623E-1,7.120967E-1,1.7133694E1,7.3395014E-2,1.2937565E0,3.6856478E-1,9.444454E-1,6.623741E-2,1.8092839E0,1.9927146E0,2.3713243E0,7.527159E0,2.0111445E-1,6.786401E0,4.1082522E-1,1.6349798E-1,3.078083E1,6.0252566E0,1.3466056E1,1.4085288E0,7.707811E-1,1.856191E-1,3.948152E-1,1.3095176E1,5.0542757E-2,-1.495936E-1,2.2272207E-1,3.2812288E-1,5.2220637E-1,2.9155927E-2,1.2835675E-1,-1.6196778E-1,2.0963949E-1,2.4996776E-2,2.560304E-1,3.312756E1,1.7701751E0,1.9115519E1,1.73925E-2,2.0895123E-3,1.5872365E1,5.1045664E-2,4.4290832E-1,1.373861E0,-1.0882695E-1,5.656148E-1,1.6013004E0,5.1491905E-2,3.5845008E-1,5.296362E-1,2.7799065E0,5.9344953E-1,1.3790295E-1,2.112772E-2,3.6046836E-1,8.955116E-2,5.134402E-1,2.1888873E-1,-9.6737035E-2,3.4396505E-1,3.3011814E1,7.299807E-2,1.8043671E0,3.1934032E-1,1.5971072E-1,6.5867627E-1,5.0129123E0,-1.4548011E-1,3.276586E-2,3.5284242E-1,-1.5653719E-1,1.6551274E-1,3.0592123E-1,3.1504405E-1,1.4654046E-1,-1.6345832E-1,-9.9208355E-2,3.350557E-1,1.3361853E-1,-1.4127725E-1,2.2841532E0,4.8197523E-1,7.0267326E-1,1.5775241E0,4.462574E-1,-1.0413133E-1,6.145771E-2,-1.3600683E-1,-1.3648623E-1,-1.3851008E-2,-1.6437246E-1,5.956951E-2,-1.0490703E-1,2.301729E-1,1.4826377E-1,-1.4284754E-1,3.124941E-1,-9.568283E-2,-3.486383E-2,-1.5911345E-1,5.9564686E-1,6.1920077E-2,2.5885782E-1,-1.2050912E-1,6.205615E-1,1.1221651E-1,6.4777057E-3,3.15966E-1,5.0992393E-1,1.3518525E-2,-1.0091212E-1,-1.4282526E-1,4.8728168E-1,-3.3924E-2,-7.61351E-2,2.927421E-1,-2.3492344E-3,4.5808503E-1,3.7932304E-1,-2.7064765E-2,2.5801474E-1,-1.3774122E-1,2.2995596E-1,-7.049819E-2,1.712067E-1,-1.1987813E-1,5.3879473E-2,-1.6277894E-1,3.1302944E-1,-1.2809585E-1,3.7721696E-1,-7.07209E-2,9.541843E-2,-1.0810114E-1,-1.672858E-1,4.8842147E-2,1.8783051E-1,-1.20411016E-1,6.07473E-2,-1.5234473E-1,4.133139E-1,3.5581246E-1,3.330901E-1,-1.5049514E-1,3.8977277E-1,-1.4440511E-1,-2.0368213E-2,3.726552E-1,3.472773E-2,2.587979E-1,3.5163698E-1,1.3081056E-1,2.60743E-1,-7.797216E-2,-1.2645929E-1,2.5632653E-1,-9.4946064E-2,3.6375114E-1,-9.082724E-2,3.8441694E-1,-1.6861415E-1,3.2930773E-1,-1.1570226E-1,4.184638E-1],"split_indices":[2888,1207,158,2798,987,790,2472,1248,4,885,209,715,2248,1791,2336,776,1465,1064,1487,2048,584,2012,1953,752,29,2289,273,0,1403,2817,2698,1085,119,1169,2298,647,560,2969,130,1592,684,2406,1581,0,686,2820,1484,2367,618,525,1925,1024,1119,0,0,2142,1568,2403,1003,30,0,1893,2638,2433,2184,674,529,2567,170,794,2769,629,22,0,2949,1257,1560,97,426,2227,1398,81,2384,494,955,1074,142,0,0,1092,0,2581,0,2101,1143,1191,0,1975,689,0,0,119,27,0,0,0,0,924,0,1914,420,1167,1298,0,0,0,0,0,0,0,0,0,0,0,0,0,0,0,0,0,0,0,0,0,0,0,0,0,0,0,0,0,0,0,0,0,0,0,0,0,0,0,0,0,0,0,0,0,0,0,0,0,0,0,0,0,0,0,0,0,0,0,0,0,0,0,0,0,0,0,0,0,0,0,0,0,0,0,0,0,0,0,0],"split_type":[0,0,0,0,0,0,0,0,0,0,0,0,0,0,0,0,0,0,0,0,0,0,0,0,0,0,0,0,0,0,0,0,0,0,0,0,0,0,0,0,0,0,0,0,0,0,0,0,0,0,0,0,0,0,0,0,0,0,0,0,0,0,0,0,0,0,0,0,0,0,0,0,0,0,0,0,0,0,0,0,0,0,0,0,0,0,0,0,0,0,0,0,0,0,0,0,0,0,0,0,0,0,0,0,0,0,0,0,0,0,0,0,0,0,0,0,0,0,0,0,0,0,0,0,0,0,0,0,0,0,0,0,0,0,0,0,0,0,0,0,0,0,0,0,0,0,0,0,0,0,0,0,0,0,0,0,0,0,0,0,0,0,0,0,0,0,0,0,0,0,0,0,0,0,0,0,0,0,0,0,0,0,0,0,0,0,0,0,0,0,0,0,0],"sum_hessian":[1.0681051E5,6.4043523E4,4.2766984E4,6.336254E4,6.8098737E2,4.2597562E4,1.6942216E2,6.1681805E4,1.6807338E3,4.318058E2,2.491816E2,4.2433984E4,1.6357628E2,2.4805037E1,1.4461714E2,5.973039E4,1.9514119E3,3.4342258E2,1.3373113E3,2.6947733E2,1.6232846E2,6.87135E1,1.804681E2,4.042137E4,2.0126158E3,1.5778433E2,5.7919397E0,2.2955537E0,2.2509483E1,1.1706506E2,2.7552069E1,1.1812473E1,5.971858E4,1.1887249E3,7.626871E2,1.2161084E2,2.2181174E2,5.989264E0,1.331322E3,2.324756E2,3.7001724E1,1.3479842E2,2.7530043E1,1.8572383E0,6.685626E1,2.3510504E0,1.7811705E2,9.211651E0,4.041216E4,1.7889891E3,2.2362663E2,4.562099E0,1.5322224E2,1.0337338E0,4.758206E0,1.9629496E1,2.8799865E0,2.4574259E1,9.249081E1,1.6429235E1,1.1122834E1,6.868605E0,4.943868E0,4.5556708E2,5.926301E4,6.039733E2,5.847515E2,2.4182577E0,7.602688E2,2.2008226E0,1.1941002E2,1.7214705E1,2.0459703E2,1.8048987E0,4.1843653E0,1.2666425E3,6.4679565E1,1.7920789E2,5.326772E1,2.466414E1,1.23375845E1,1.18960625E2,1.5837788E1,2.1397179E1,6.132863E0,7.762013E0,5.9094246E1,1.2889421E0,1.0621082E0,1.7444334E2,3.6736963E0,6.3590174E0,2.852633E0,4.0309883E4,1.0227642E2,1.7858081E3,3.1810973E0,1.2559546E2,9.803118E1,3.3971694E0,1.1649299E0,1.3175586E2,2.1466375E1,1.4139816E0,1.8215515E1,1.239691E0,1.6402956E0,2.1224794E1,3.3494642E0,5.94645E0,8.654436E1,8.731248E0,7.6979866E0,5.3340144E0,1.5345906E0,1.0007175E0,3.9431505E0,3.8205252E2,7.3514565E1,5.925164E4,1.1373455E1,6.0079144E2,3.181837E0,4.2696176E0,5.8048193E2,1.2064239E0,1.2118338E0,9.261555E0,7.5100726E2,1.173123E0,1.0276997E0,2.8751163E0,1.165349E2,5.2069225E0,1.2007782E1,1.9426701E2,1.0330026E1,2.6906655E0,1.4936996E0,3.4436984E2,9.222726E2,1.082473E0,6.3597088E1,6.582636E0,1.7262524E2,1.5807779E0,5.168694E1,1.50365095E1,9.627631E0,2.1078131E0,1.0229772E1,1.07053215E2,1.1907407E1,2.9578104E0,1.2879977E1,2.4409277E0,1.8956251E1,3.629715E0,2.5031478E0,4.1609817E0,3.6010318E0,1.3995191E1,4.5099056E1,1.7328609E2,1.157259E0,1.1576971E0,2.515999E0,1.0016365E0,5.357381E0,4.0081773E4,2.2811E2,9.9949715E1,2.326703E0,1.7840306E3,1.777436E0,3.063559E0,1.225319E2,1.9458374E1,7.857281E1,1.1767443E2,1.4081429E1,1.3361905E1,8.104471E0,2.6285412E0,1.8596254E1,3.9121923E0,2.0342577E0,1.0116563E0,8.55327E1,7.1238337E0,1.6074145E0,1.152684E0,6.545303E0],"tree_param":{"num_deleted":"0","num_feature":"3000","num_nodes":"193","size_leaf_vector":"1"}},{"base_weights":[-1.2418359E-1,-5.5287385E-1,1.3484305E0,-5.569909E-1,1.2172514E0,1.3592322E0,-4.199325E-1,-5.577982E-1,1.2708224E0,1.3618329E0,-4.6010184E-1,1.3638595E0,8.5817593E-1,-5.1223785E-1,1.0402381E0,-5.5808914E-1,8.5337445E-2,-1.0515107E-1,1.3588234E0,3.6079166E-3,1.3743356E0,6.1629366E-2,-1.5793988E-1,1.3643007E0,-1.5324773E-1,5.941598E-1,1.0645143E0,2.402542E-1,-5.354011E-1,4.6340394E-1,-1.2692408E-1,-5.5835193E-1,-4.9786207E-1,3.8885534E-1,-7.412033E-2,5.1303964E-2,1.4416491E0,1.3867588E0,1.5745889E-3,1.3781258E0,1.3037815E0,7.079222E-1,-2.156698E-1,1.1160098E0,-1.4543481E-1,1.8044302E-1,-5.507028E-1,-9.855677E-2,4.633332E-2,-6.9270305E-2,-5.5836564E-1,-5.065829E-1,3.42394E-1,9.017938E-1,-2.2945416E-1,4.5543205E-2,4.4519156E-1,3.6478333E-2,1.3950297E0,1.3784146E0,3.441977E-2,8.667837E-1,1.3116475E0,-1.4731362E-1,7.897667E-1,2.7345255E-1,-1.6337767E-1,2.3467952E-1,1.226886E0,-1.6764098E-1,2.220752E-2,6.449427E-2,-9.035515E-2,-1.6751385E-1,-3.34129E-2,1.7059022E-1,-1.537618E-1,3.5502118E-1,-1.1122599E-1,4.2386273E-1,-9.1962606E-2,-9.670645E-2,2.4497575E-1,1.3284422E-1,4.2185405E-1,3.8682348E-1,4.150057E-1,2.4314432E-1,-1.6139609E-1,8.5079715E-2,3.0305627E-1,2.4368913E-1,3.9529148E-1,-1.4776646E-1,2.5428706E-1,3.0721125E-1,-1.2943467E-1,1.801287E-1,3.9707705E-1],"categories":[],"categories_nodes":[],"categories_segments":[],"categories_sizes":[],"default_left":[0,0,0,0,0,0,0,0,0,0,0,0,0,0,0,0,0,0,0,0,0,0,0,0,0,0,0,0,0,0,0,0,0,0,0,0,0,0,0,0,0,0,0,0,0,0,0,0,0,0,0,0,0,0,0,0,0,0,0,0,0,0,0,0,0,0,0,0,0,0,0,0,0,0,0,0,0,0,0,0,0,0,0,0,0,0,0,0,0,0,0,0,0,0,0,0,0,0,0],"id":9,"left_children":[1,3,5,7,9,11,13,15,17,19,21,23,25,27,29,31,33,-1,35,-1,37,-1,-1,39,-1,41,43,-1,45,-1,47,49,51,-1,53,-1,55,57,-1,59,61,63,65,67,-1,-1,69,-1,-1,71,73,75,77,79,81,-1,-1,-1,83,85,87,89,91,-1,93,-1,-1,95,97,-1,-1,-1,-1,-1,-1,-1,-1,-1,-1,-1,-1,-1,-1,-1,-1,-1,-1,-1,-1,-1,-1,-1,-1,-1,-1,-1,-1,-1,-1],"loss_changes":[5.9178496E4,5.2980273E2,4.0430078E2,1.0759961E2,4.1560684E1,4.7535156E1,1.7931316E1,1.3595703E1,5.0826454E0,2.61026E0,7.3277354E-1,1.7910156E1,9.986862E0,4.141922E0,4.909136E0,8.671875E-1,6.584654E0,0E0,2.786354E0,0E0,2.6156006E0,0E0,0E0,1.5613281E1,0E0,8.239523E0,9.169891E0,0E0,2.4285927E0,0E0,2.4018085E-1,4.453125E-1,2.5448303E0,0E0,4.8518877E0,0E0,1.3405685E0,1.4295044E0,0E0,6.5214844E0,1.2228516E1,7.9633408E0,4.7891665E0,9.9704895E0,0E0,0E0,6.460304E-1,0E0,0E0,2.734633E-1,3.8476562E-1,2.345337E0,2.7903895E0,3.1566792E0,2.9094713E0,0E0,0E0,0E0,9.883728E-1,5.6503906E0,2.5072672E0,5.7098465E0,1.0349121E1,0E0,5.807476E0,0E0,0E0,7.2603965E0,4.8400116E0,0E0,0E0,0E0,0E0,0E0,0E0,0E0,0E0,0E0,0E0,0E0,0E0,0E0,0E0,0E0,0E0,0E0,0E0,0E0,0E0,0E0,0E0,0E0,0E0,0E0,0E0,0E0,0E0,0E0,0E0],"parents":[2147483647,0,0,1,1,2,2,3,3,4,4,5,5,6,6,7,7,8,8,9,9,10,10,11,11,12,12,13,13,14,14,15,15,16,16,18,18,20,20,23,23,25,25,26,26,28,28,30,30,31,31,32,32,34,34,36,36,37,37,39,39,40,40,41,41,42,42,43,43,46,46,49,49,50,50,51,51,52,52,53,53,54,54,58,58,59,59,60,60,61,61,62,62,64,64,67,67,68,68],"right_children":[2,4,6,8,10,12,14,16,18,20,22,24,26,28,30,32,34,-1,36,-1,38,-1,-1,40,-1,42,44,-1,46,-1,48,50,52,-1,54,-1,56,58,-1,60,62,64,66,68,-1,-1,70,-1,-1,72,74,76,78,80,82,-1,-1,-1,84,86,88,90,92,-1,94,-1,-1,96,98,-1,-1,-1,-1,-1,-1,-1,-1,-1,-1,-1,-1,-1,-1,-1,-1,-1,-1,-1,-1,-1,-1,-1,-1,-1,-1,-1,-1,-1,-1],"split_conditions":[9.6440685E-1,1.8640963E0,1.5495494E-1,4.25441E0,2.7663605E0,4.0249243E0,2.9033117E0,9.5681614E-1,3.5621354E-1,7.043578E-1,6.5993667E0,1.6674341E-1,1.0689332E0,2.4688609E-1,8.783357E-1,8.3379525E-1,1.2204716E0,-1.0515107E-1,7.592614E-2,3.6079166E-3,2.9715598E0,6.1629366E-2,-1.5793988E-1,9.7755335E-2,-1.5324773E-1,4.2572246E0,1.4365973E0,2.402542E-1,8.6086996E-2,4.6340394E-1,6.88136E1,1.8363932E-1,3.3014069E0,3.8885534E-1,4.448113E-1,5.1303964E-2,5.885919E-1,6.5414387E-1,1.5745889E-3,1.5424613E0,1.031329E0,6.902308E-1,7.8708464E-1,7.265333E-2,-1.4543481E-1,1.8044302E-1,8.892473E-1,-9.855677E-2,4.633332E-2,1.4027648E0,4.4459106E1,1.9104833E-2,1.9770472E-1,4.1497907E-1,4.7048416E0,4.5543205E-2,4.4519156E-1,3.6478333E-2,1.4852227E0,9.195004E-3,6.4380556E-1,3.8145866E0,1.3329163E-1,-1.4731362E-1,3.256379E-2,2.7345255E-1,-1.6337767E-1,2.1614998E1,1.8850453E0,-1.6764098E-1,2.220752E-2,6.449427E-2,-9.035515E-2,-1.6751385E-1,-3.34129E-2,1.7059022E-1,-1.537618E-1,3.5502118E-1,-1.1122599E-1,4.2386273E-1,-9.1962606E-2,-9.670645E-2,2.4497575E-1,1.3284422E-1,4.2185405E-1,3.8682348E-1,4.150057E-1,2.4314432E-1,-1.6139609E-1,8.5079715E-2,3.0305627E-1,2.4368913E-1,3.9529148E-1,-1.4776646E-1,2.5428706E-1,3.0721125E-1,-1.2943467E-1,1.801287E-1,3.9707705E-1],"split_indices":[1422,1768,1884,1343,2566,1916,1514,2874,389,1069,1630,2784,2951,1096,2726,838,1871,0,487,0,1428,0,0,1549,0,340,501,0,905,0,2338,2426,1297,0,599,0,729,832,0,1379,165,1580,654,543,0,0,588,0,0,1777,239,356,1284,2904,1083,0,0,0,2177,1883,1569,1654,761,0,508,0,0,66,909,0,0,0,0,0,0,0,0,0,0,0,0,0,0,0,0,0,0,0,0,0,0,0,0,0,0,0,0,0,0],"split_type":[0,0,0,0,0,0,0,0,0,0,0,0,0,0,0,0,0,0,0,0,0,0,0,0,0,0,0,0,0,0,0,0,0,0,0,0,0,0,0,0,0,0,0,0,0,0,0,0,0,0,0,0,0,0,0,0,0,0,0,0,0,0,0,0,0,0,0,0,0,0,0,0,0,0,0,0,0,0,0,0,0,0,0,0,0,0,0,0,0,0,0,0,0,0,0,0,0,0,0],"sum_hessian":[9.3739195E4,7.260414E4,2.1135049E4,7.243635E4,1.6779074E2,2.1006963E4,1.2808644E2,7.240507E4,3.128506E1,1.5464873E2,1.3142018E1,2.081303E4,1.9393394E2,1.2108141E2,7.0050216E0,7.237246E4,3.2605835E1,1.457073E0,2.9827988E1,1.4373168E0,1.5321141E2,1.0016373E0,1.2140381E1,2.0808404E4,4.6246896E0,8.677819E1,1.07155754E2,1.5169009E0,1.19564514E2,4.6652675E0,2.339754E0,7.204984E4,3.2261664E2,2.964689E0,2.9641148E1,2.1440928E0,2.7683893E1,1.5182088E2,1.3905346E0,1.6921148E4,3.8872551E3,7.6199715E1,1.057847E1,1.03979355E2,3.1763985E0,1.0791397E0,1.18485374E2,1.2654674E0,1.0742867E0,2.1660979E0,7.204768E4,3.196957E2,2.9209404E0,3.4102275E0,2.6230919E1,1.0252467E0,2.6658648E1,1.088052E0,1.5073282E2,1.6917486E4,3.662614E0,7.069999E1,3.8165552E3,4.549712E0,7.165E1,1.9894983E0,8.588972E0,1.1967664E1,9.2011696E1,1.1707288E2,1.4124913E0,1.0060356E0,1.1600623E0,7.20452E4,2.4787295E0,1.2408507E0,3.1845486E2,1.0377356E0,1.8832049E0,2.2776084E0,1.1326191E0,2.4726728E1,1.5041915E0,2.2158787E0,1.4851694E2,9.0297125E2,1.6014516E4,1.3781793E0,2.2844348E0,1.4541451E1,5.6158535E1,4.6863018E1,3.7696921E3,2.7688394E0,6.8881165E1,5.2313037E0,6.73636E0,1.3268187E1,7.874351E1],"tree_param":{"num_deleted":"0","num_feature":"3000","num_nodes":"99","size_leaf_vector":"1"}},{"base_weights":[-3.2838905E-1,-5.5706114E-1,1.3489162E0,-5.57539E-1,-4.0438533E-1,1.37921E0,8.746056E-2,-5.5761266E-1,3.162024E-1,-4.1596234E-1,3.1786332E-1,1.3804721E0,-2.8245285E-1,-3.0949622E-1,6.072997E-1,-5.5765E-1,-5.2795503E-2,-1.3543494E-1,1.1206568E0,-4.856156E-1,-1.5765911E-1,-1.1643878E-1,1.3808444E0,-1.5055119E-1,2.0425332E-1,-3.6696368E-1,5.630516E-1,9.3760204E-1,2.6380518E-2,-5.5843186E-1,-5.3108895E-1,-1.3967025E-1,3.0225188E-1,4.4537157E-1,3.9220057E-2,-5.004719E-1,3.923232E-1,-2.420792E-1,4.674203E-1,1.3810712E0,-1.10625185E-1,-3.987932E-1,6.109009E-1,1.230484E0,-1.3173339E-1,-2.8539303E-1,1.020303E0,-4.8723537E-1,3.5337982E-1,-5.5847186E-1,-2.1376394E-1,-5.340796E-1,-7.3031224E-2,8.981452E-2,-5.105677E-1,-1.02757625E-1,3.2382068E-1,6.207304E-1,-3.565647E-1,1.3813465E0,-3.089117E-2,-4.7018784E-1,3.1244794E-2,-1.09435655E-1,4.0426227E-1,1.657705E0,-8.974831E-2,5.778938E-2,-1.3468654E-1,1.0861487E0,-1.2768608E-1,5.3843774E-2,-1.634922E-1,-1.513167E-1,7.478656E-1,-1.6754557E-1,1.6458638E-3,2.7573466E-1,-1.4907706E-1,-1.3234556E-1,-1.636987E-1,-1.3361305E-1,5.083258E-1,-1.5622897E-1,4.8593562E-2,5.8210886E-1,-7.049853E-2,4.5490474E-2,-1.4817268E-1,4.1446742E-1,-9.0430476E-2,-1.4625047E-1,2.1001579E-1,-1.2776184E-1,1.7674813E-1,5.7437164E-1,1.5806623E-1,1.5978892E-1,3.881578E-1,-1.3332121E-1,3.1040052E-1],"categories":[],"categories_nodes":[],"categories_segments":[],"categories_sizes":[],"default_left":[0,0,0,0,0,0,0,0,0,0,0,0,0,0,0,0,0,0,0,0,0,0,0,0,0,0,0,0,0,0,0,0,0,0,0,0,0,0,0,0,0,0,0,0,0,0,0,0,0,0,0,0,0,0,0,0,0,0,0,0,0,0,0,0,0,0,0,0,0,0,0,0,0,0,0,0,0,0,0,0,0,0,0,0,0,0,0,0,0,0,0,0,0,0,0,0,0,0,0,0,0],"id":10,"left_children":[1,3,5,7,9,11,13,15,17,19,-1,21,23,25,27,29,31,-1,33,35,37,-1,39,-1,-1,41,43,45,47,49,51,-1,-1,-1,-1,53,55,57,-1,59,-1,61,63,65,-1,67,69,71,73,75,77,79,81,-1,83,-1,-1,85,87,89,-1,91,93,-1,-1,95,-1,-1,-1,97,-1,-1,-1,-1,99,-1,-1,-1,-1,-1,-1,-1,-1,-1,-1,-1,-1,-1,-1,-1,-1,-1,-1,-1,-1,-1,-1,-1,-1,-1,-1],"loss_changes":[3.3561984E4,5.392578E0,4.0106445E2,5.1171875E0,4.5746155E0,2.1890625E1,5.12135E1,1.4179688E0,4.8949227E0,4.290394E0,0E0,7.283203E0,2.1613283E0,7.27028E0,2.0583488E1,1.296875E0,3.4387035E0,0E0,1.1595788E0,2.6835022E0,8.058305E0,0E0,4.5722656E0,0E0,0E0,4.37611E0,6.626566E0,7.2135735E0,6.8836136E0,9.0625E-1,2.9953613E0,0E0,0E0,0E0,0E0,1.6706276E0,2.2548578E0,5.2995424E0,0E0,4.3242188E0,0E0,3.9811497E0,3.7836475E0,4.2370186E0,0E0,4.8651934E-1,6.5865707E0,7.1238637E-1,8.835112E0,5.644531E-1,3.747927E0,2.1279297E0,1.0972863E1,0E0,1.3596268E0,0E0,0E0,7.6687384E0,3.2871823E0,4.064453E0,0E0,2.5873985E0,5.1812053E0,0E0,0E0,3.35474E-1,0E0,0E0,0E0,6.4166946E0,0E0,0E0,0E0,0E0,6.4521275E0,0E0,0E0,0E0,0E0,0E0,0E0,0E0,0E0,0E0,0E0,0E0,0E0,0E0,0E0,0E0,0E0,0E0,0E0,0E0,0E0,0E0,0E0,0E0,0E0,0E0,0E0],"parents":[2147483647,0,0,1,1,2,2,3,3,4,4,5,5,6,6,7,7,8,8,9,9,11,11,12,12,13,13,14,14,15,15,16,16,18,18,19,19,20,20,22,22,25,25,26,26,27,27,28,28,29,29,30,30,35,35,36,36,37,37,39,39,41,41,42,42,43,43,45,45,46,46,47,47,48,48,49,49,50,50,51,51,52,52,54,54,57,57,58,58,59,59,61,61,62,62,65,65,69,69,74,74],"right_children":[2,4,6,8,10,12,14,16,18,20,-1,22,24,26,28,30,32,-1,34,36,38,-1,40,-1,-1,42,44,46,48,50,52,-1,-1,-1,-1,54,56,58,-1,60,-1,62,64,66,-1,68,70,72,74,76,78,80,82,-1,84,-1,-1,86,88,90,-1,92,94,-1,-1,96,-1,-1,-1,98,-1,-1,-1,-1,100,-1,-1,-1,-1,-1,-1,-1,-1,-1,-1,-1,-1,-1,-1,-1,-1,-1,-1,-1,-1,-1,-1,-1,-1,-1,-1],"split_conditions":[3.0593882E0,6.331666E0,2.9797604E0,3.4591994E0,1.5100232E0,4.6571404E-1,6.825387E-1,7.171265E0,8.949252E-1,1.823895E1,3.1786332E-1,1.9288786E-1,2.62261E0,1.3288254E0,7.6812463E0,1.0300863E1,1.0069971E1,-1.3543494E-1,4.093211E0,1.3270741E1,3.5203798E0,-1.1643878E-1,4.2743716E0,-1.5055119E-1,2.0425332E-1,3.8506805E1,7.612948E0,1.4253296E-1,1.7678045E1,3.2115664E0,2.2295225E0,-1.3967025E-1,3.0225188E-1,4.4537157E-1,3.9220057E-2,3.0774888E-1,4.4499702E1,1.9787568E0,4.674203E-1,6.3709555E0,-1.10625185E-1,2.7679205E0,8.3263534E-1,6.6646324E1,-1.3173339E-1,9.653733E-1,4.221976E0,3.784302E-2,2.2576454E0,5.0451183E0,4.912524E-1,2.7318327E-3,3.705494E1,8.981452E-2,2.002279E0,-1.02757625E-1,3.2382068E-1,1.6818138E-2,8.141027E-3,6.87385E1,-3.089117E-2,1.1019818E2,8.859047E0,-1.09435655E-1,4.0426227E-1,2.3572824E0,-8.974831E-2,5.778938E-2,-1.3468654E-1,9.2243665E-1,-1.2768608E-1,5.3843774E-2,-1.634922E-1,-1.513167E-1,4.0980812E-2,-1.6754557E-1,1.6458638E-3,2.7573466E-1,-1.4907706E-1,-1.3234556E-1,-1.636987E-1,-1.3361305E-1,5.083258E-1,-1.5622897E-1,4.8593562E-2,5.8210886E-1,-7.049853E-2,4.5490474E-2,-1.4817268E-1,4.1446742E-1,-9.0430476E-2,-1.4625047E-1,2.1001579E-1,-1.2776184E-1,1.7674813E-1,5.7437164E-1,1.5806623E-1,1.5978892E-1,3.881578E-1,-1.3332121E-1,3.1040052E-1],"split_indices":[2513,1723,1850,35,2865,1236,2052,870,12,2611,0,2414,1333,2833,2098,1733,391,0,256,1191,1721,0,1598,0,0,1751,1722,639,2976,665,660,0,0,0,0,545,2338,387,0,1317,0,2212,2225,1747,0,1566,2524,684,2722,1014,2160,2152,2283,0,2416,0,0,2684,1600,329,0,926,2500,0,0,1366,0,0,0,2744,0,0,0,0,2050,0,0,0,0,0,0,0,0,0,0,0,0,0,0,0,0,0,0,0,0,0,0,0,0,0,0],"split_type":[0,0,0,0,0,0,0,0,0,0,0,0,0,0,0,0,0,0,0,0,0,0,0,0,0,0,0,0,0,0,0,0,0,0,0,0,0,0,0,0,0,0,0,0,0,0,0,0,0,0,0,0,0,0,0,0,0,0,0,0,0,0,0,0,0,0,0,0,0,0,0,0,0,0,0,0,0,0,0,0,0,0,0,0,0,0,0,0,0,0,0,0,0,0,0,0,0,0,0,0,0],"sum_hessian":[8.7499945E4,7.700261E4,1.0497329E4,7.6759695E4,2.4291656E2,1.0251057E4,2.4627226E2,7.6753586E4,6.107223E0,2.4172086E2,1.1957132E0,1.0243446E4,7.6103945E0,1.3987006E2,1.064022E2,7.6747805E4,5.785226E0,3.3496375E0,2.7575855E0,1.8968968E2,5.2031162E1,1.9368935E0,1.0241509E4,6.588867E0,1.0215276E0,1.3177084E2,8.099214E0,6.744177E1,3.8960423E1,7.453373E4,2.2140789E3,4.567877E0,1.217349E0,1.6509724E0,1.1066132E0,1.86956E2,2.7336874E0,5.0409725E1,1.6214386E0,1.0240393E4,1.1168084E0,1.2819043E2,3.5804214E0,4.7247434E0,3.37447E0,4.11643E0,6.3325344E1,1.4964986E1,2.3995438E1,7.452447E4,9.259801E0,2.1995522E3,1.4526775E1,1.973187E0,1.8498282E2,1.5632391E0,1.1704483E0,5.387255E0,4.502247E1,1.02385625E4,1.8299233E0,1.0985843E2,1.8331997E1,1.7574548E0,1.8229667E0,3.6278012E0,1.0969422E0,1.0041093E0,3.1123204E0,6.080516E1,2.5201824E0,1.0246577E0,1.3940329E1,7.471289E0,1.6524149E1,7.452271E4,1.7537494E0,1.4025354E0,7.8572655E0,2.4810483E2,1.9514474E3,1.2616824E1,1.9099513E0,1.8244273E2,2.5400703E0,1.6205952E0,3.76666E0,9.556724E0,3.5465744E1,1.0237454E4,1.1086841E0,1.0883169E2,1.0267457E0,1.0206316E1,8.12568E0,2.3914843E0,1.2363168E0,1.7563974E1,4.3241188E1,3.0975971E0,1.3426552E1],"tree_param":{"num_deleted":"0","num_feature":"3000","num_nodes":"101","size_leaf_vector":"1"}},{"base_weights":[-3.075849E-1,-5.4267794E-1,1.3796033E0,-5.490863E-1,6.3477874E-1,1.3798323E0,4.134913E-2,-5.519827E-1,1.6420113E-1,1.0712147E0,-5.469737E-1,1.380017E0,5.865028E-2,-5.5270016E-1,1.1231896E0,-4.482513E-1,8.118921E-1,1.1379279E0,5.517974E-1,-1.66545E-1,5.5462725E-2,1.345121E-2,1.3801639E0,-5.528346E-1,1.1839882E0,-1.4388958E-1,1.3879164E0,1.3772598E-1,-5.2856773E-1,9.5533836E-1,3.3946525E-2,-1.35385E-1,1.1556113E0,-1.7606792E-1,7.399813E-1,1.3802729E0,4.1139174E-2,-4.7956985E-1,-5.541056E-1,2.1589464E-2,4.368498E-1,9.835655E-3,1.4634933E0,1.3622411E0,-1.9021402E-1,-5.4238164E-1,1.7574447E-1,1.189607E0,5.396185E-1,9.455532E-1,-2.1430558E-1,8.5197335E-1,1.25855E0,3.0155978E-1,-1.5289667E-1,-3.0082294E-1,9.35217E-1,1.3803706E0,1.1727254E-1,-1.6048689E-1,-1.1407944E-1,-1.1415868E-1,-1.6634825E-1,1.20687984E-1,4.522976E-1,5.4238427E-1,3.701789E-2,1.2230787E-1,-1.3628437E-1,-1.670086E-1,3.1648707E-2,-9.601341E-2,1.9005562E-1,-1.3866122E-1,3.792525E-1,-3.5158582E-2,2.3465653E-1,4.6623853E-1,-1.13259114E-1,-1.0408915E-1,3.1447768E-1,2.839889E-1,-1.6151508E-2,-6.1612584E-2,3.8362718E-1,-1.3655841E-1,5.4236475E-2,-7.556984E-2,3.3804932E-1,4.1413888E-1,1.15420125E-1],"categories":[],"categories_nodes":[],"categories_segments":[],"categories_sizes":[],"default_left":[0,0,0,0,0,0,0,0,0,0,0,0,0,0,0,0,0,0,0,0,0,0,0,0,0,0,0,0,0,0,0,0,0,0,0,0,0,0,0,0,0,0,0,0,0,0,0,0,0,0,0,0,0,0,0,0,0,0,0,0,0,0,0,0,0,0,0,0,0,0,0,0,0,0,0,0,0,0,0,0,0,0,0,0,0,0,0,0,0,0,0],"id":11,"left_children":[1,3,5,7,9,11,-1,13,15,17,19,21,-1,23,25,27,29,31,33,-1,-1,-1,35,37,39,-1,41,43,45,47,49,-1,51,53,55,57,-1,59,61,-1,-1,-1,63,65,67,69,71,73,75,77,79,81,83,-1,-1,85,87,89,-1,-1,-1,-1,-1,-1,-1,-1,-1,-1,-1,-1,-1,-1,-1,-1,-1,-1,-1,-1,-1,-1,-1,-1,-1,-1,-1,-1,-1,-1,-1,-1,-1],"loss_changes":[3.492986E4,5.835547E2,2.8710938E0,1.5891211E2,2.1661151E2,2.0878906E0,0E0,9.263867E1,1.2399787E2,9.983246E0,7.825661E-1,2.0488281E0,0E0,1.8521484E1,1.4712982E1,7.642414E0,1.6911217E1,8.121155E0,5.170253E0,0E0,0E0,0E0,1.2695312E0,6.859375E0,1.7842808E0,0E0,2.8883247E0,8.363168E0,1.4735413E0,1.1839462E1,5.786791E0,0E0,7.2959595E0,3.8092463E0,6.261324E0,5E-1,0E0,7.0147095E0,4.861328E0,0E0,0E0,0E0,6.6514206E-1,2.198454E0,2.8370051E0,1.3493843E0,9.9261653E-1,1.0578209E1,7.7425585E0,4.988025E0,3.7484834E0,6.12833E0,6.115387E0,0E0,0E0,4.841384E-1,5.9759655E0,4.5898438E-1,0E0,0E0,0E0,0E0,0E0,0E0,0E0,0E0,0E0,0E0,0E0,0E0,0E0,0E0,0E0,0E0,0E0,0E0,0E0,0E0,0E0,0E0,0E0,0E0,0E0,0E0,0E0,0E0,0E0,0E0,0E0,0E0,0E0],"parents":[2147483647,0,0,1,1,2,2,3,3,4,4,5,5,7,7,8,8,9,9,10,10,11,11,13,13,14,14,15,15,16,16,17,17,18,18,22,22,23,23,24,24,26,26,27,27,28,28,29,29,30,30,32,32,33,33,34,34,35,35,37,37,38,38,42,42,43,43,44,44,45,45,46,46,47,47,48,48,49,49,50,50,51,51,52,52,55,55,56,56,57,57],"right_children":[2,4,6,8,10,12,-1,14,16,18,20,22,-1,24,26,28,30,32,34,-1,-1,-1,36,38,40,-1,42,44,46,48,50,-1,52,54,56,58,-1,60,62,-1,-1,-1,64,66,68,70,72,74,76,78,80,82,84,-1,-1,86,88,90,-1,-1,-1,-1,-1,-1,-1,-1,-1,-1,-1,-1,-1,-1,-1,-1,-1,-1,-1,-1,-1,-1,-1,-1,-1,-1,-1,-1,-1,-1,-1,-1,-1],"split_conditions":[4.8572315E1,1.840646E1,4.6766496E0,8.591809E0,4.9308715E0,1.316975E0,4.134913E-2,6.720179E1,1.4085288E0,3.9914525E0,3.1632557E0,2.1646176E-1,5.865028E-2,8.63889E0,4.2264423E-1,3.205502E-2,1.2520562E1,8.575428E-1,2.9472224E-2,-1.66545E-1,5.5462725E-2,1.345121E-2,8.518481E0,7.989324E-3,6.552937E-1,-1.4388958E-1,1.1869617E0,4.1062155E0,6.2574253E0,4.6810925E-1,5.7968423E-2,-1.35385E-1,7.107426E-2,1.488574E-1,3.9759607E0,6.375726E0,4.1139174E-2,2.8505433E-1,1.8959256E-1,2.1589464E-2,4.368498E-1,9.835655E-3,2.800809E-1,2.9847205E-1,7.7169573E-1,2.3756297E0,1.3406892E0,6.717151E0,1.8471682E-1,1.1648139E0,1.3314648E0,2.5672948E-1,2.050559E0,3.0155978E-1,-1.5289667E-1,3.930449E-1,1.3473411E-1,9.6054494E-1,1.1727254E-1,-1.6048689E-1,-1.1407944E-1,-1.1415868E-1,-1.6634825E-1,1.20687984E-1,4.522976E-1,5.4238427E-1,3.701789E-2,1.2230787E-1,-1.3628437E-1,-1.670086E-1,3.1648707E-2,-9.601341E-2,1.9005562E-1,-1.3866122E-1,3.792525E-1,-3.5158582E-2,2.3465653E-1,4.6623853E-1,-1.13259114E-1,-1.0408915E-1,3.1447768E-1,2.839889E-1,-1.6151508E-2,-6.1612584E-2,3.8362718E-1,-1.3655841E-1,5.4236475E-2,-7.556984E-2,3.3804932E-1,4.1413888E-1,1.15420125E-1],"split_indices":[1427,1767,737,2683,2277,1413,0,2844,618,2903,1697,2059,0,1335,188,376,1546,1414,711,0,0,0,140,897,1548,0,1872,1856,705,1124,411,0,1603,2599,1177,1656,0,386,2474,0,0,0,468,808,2193,2193,539,989,1504,1761,2873,665,1424,0,0,921,2086,690,0,0,0,0,0,0,0,0,0,0,0,0,0,0,0,0,0,0,0,0,0,0,0,0,0,0,0,0,0,0,0,0,0],"split_type":[0,0,0,0,0,0,0,0,0,0,0,0,0,0,0,0,0,0,0,0,0,0,0,0,0,0,0,0,0,0,0,0,0,0,0,0,0,0,0,0,0,0,0,0,0,0,0,0,0,0,0,0,0,0,0,0,0,0,0,0,0,0,0,0,0,0,0,0,0,0,0,0,0,0,0,0,0,0,0,0,0,0,0,0,0,0,0,0,0,0,0],"sum_hessian":[8.806012E4,7.729105E4,1.0769067E4,7.68732E4,4.1784964E2,1.0766972E4,2.0958254E0,7.656253E4,3.1067178E2,3.052212E2,1.1262845E2,1.0765126E4,1.8452893E0,7.653042E4,3.210622E1,1.5983797E2,1.5083383E2,2.6942575E2,3.5795437E1,1.1162283E2,1.005617E0,1.217644E0,1.0763908E4,7.652518E4,5.2414103E0,4.436015E0,2.7670204E1,1.918104E1,1.4065692E2,1.27158844E2,2.3674988E1,2.695108E0,2.6673065E2,7.3666787E0,2.8428759E1,1.07628545E4,1.0539569E0,1.3113511E3,7.521383E4,1.2792485E0,3.9621615E0,1.537414E0,2.613279E1,3.3855593E0,1.5795481E1,1.3817674E2,2.4801903E0,8.0137665E1,4.702118E1,4.4661164E0,1.9208872E1,6.9880684E1,1.9684996E2,1.1788731E0,6.1878057E0,4.4049726E0,2.4023787E1,1.0761396E4,1.458113E0,8.3901276E2,4.723383E2,1.7020427E2,7.5043625E4,1.4480473E0,2.4684742E1,2.1519604E0,1.2335987E0,4.6723475E0,1.1123134E1,1.3532765E2,2.8490806E0,1.335094E0,1.1450964E0,3.2368674E0,7.6900795E1,1.2821333E1,3.4199844E1,2.9394429E0,1.5266737E0,1.8038725E1,1.1701461E0,6.3228336E1,6.652349E0,2.555442E0,1.9429451E2,3.3772926E0,1.02768E0,3.295068E0,2.0728718E1,1.0760013E4,1.383967E0],"tree_param":{"num_deleted":"0","num_feature":"3000","num_nodes":"91","size_leaf_vector":"1"}},{"base_weights":[7.636849E-1,-5.299455E-1,1.3678491E0,-5.395869E-1,-2.9233572E-1,1.3704399E0,7.99922E-2,-5.4013014E-1,5.030409E-1,-3.9864624E-1,-1.1246491E-1,1.373808E0,1.3091978E0,-1.8032835E-1,7.5894386E-1,-5.468803E-1,-4.9072734E-1,-4.0434793E-1,1.1170961E0,-5.114701E-1,-3.148601E-1,-3.5874647E-1,-1.9686457E-2,1.3738445E0,-1.1489641E-1,1.2367498E0,1.3696023E0,-4.2118683E-1,1.4578715E-1,2.8335133E-1,1.2379531E0,-5.4703635E-1,8.124104E-1,-4.9844033E-1,5.87983E-1,-1.5032777E-1,6.375115E-2,-1.769373E-1,1.496263E0,1.6362415E-1,-5.177533E-1,-2.1970572E-1,-4.4746608E-1,-3.9718705E-1,3.7960592E-1,1.0196852E-1,-2.6894617E-1,-1.5121318E-1,1.373885E0,1.3866948E0,1.2002335E0,1.3718805E0,-2.8074482E-1,-5.013971E-1,2.9445082E-1,1.0493124E0,-2.7801976E-2,-4.2465886E-1,6.425185E-1,-7.6165292E-3,1.4074119E0,-5.492292E-1,-4.5309013E-1,3.9429647E-1,-9.349396E-2,-5.008686E-1,5.235246E-1,-2.662502E-1,9.346078E-1,-1.1274608E-1,6.0347106E-2,1.7222688E0,-9.687432E-2,2.8409863E-1,-1.2108657E-1,-5.220725E-1,1.071852E-1,-2.3926869E-1,1.5579937E0,5.9434503E-1,-4.6557218E-1,-4.2368582E-1,4.6758062E-1,1.306333E0,-1.3846008E-1,1.413225E-2,7.598981E-1,2.781808E-1,-3.5312846E-1,-1.0891068E-1,4.7915805E-2,1.3818737E0,1.3632692E0,1.3947874E0,-1.2682052E-1,1.2869766E0,1.1113708E0,-9.410971E-3,1.3726306E0,-1.4284042E-1,5.8535073E-2,-5.279584E-1,1.3643613E-1,4.6696517E-1,-2.1394667E-1,6.1732277E-2,5.9070855E-1,9.592913E-1,-2.2987817E-1,-1.5433033E-1,5.1991977E-2,9.6842915E-1,-1.3562523E-1,-1.2914658E-1,1.8331866E-1,-9.6548945E-2,1.5128256E0,-1.6480166E-1,2.9563046E-1,-1.4733212E-1,-6.0067147E-2,-1.5207994E-1,-5.3417254E-2,8.598584E-3,4.4956216E-1,-1.5657264E-1,1.9601312E-1,5.966904E-1,1.6663998E-1,5.507914E-1,1.5919757E-1,2.145789E-2,-1.5853456E-1,7.628853E-2,-8.3365045E-2,3.2944996E-2,6.638762E-1,4.656417E-1,-1.1541838E-1,1.91166E-1,-1.4306363E-1,1.8317534E-1,-1.3218749E-1,-1.2750538E-1,5.4907376E-1,-8.472685E-2,5.5069786E-1,-4.246574E-2,9.9877074E-2,3.9683454E-2,4.1661856E-1,-6.3548526E-3,4.343401E-1,-1.17450066E-1,1.6047487E-1,4.145715E-1,8.476163E-2,4.1118726E-1,3.9886335E-1,7.419559E-2,4.1974935E-1,-3.8234007E-2,3.8703224E-1,3.863698E-1,3.1879762E-1,-4.968127E-3,4.12007E-1,5.6345556E-2,-1.6256383E-1,1.8322319E-1,-1.4250462E-1,-1.3246393E-1,3.1244338E-1,-2.4176838E-2,5.582017E-1,1.9551595E-1,-1.111301E-1,4.1860893E-1,3.8042594E-2,3.265037E-2,4.7703686E-1],"categories":[],"categories_nodes":[],"categories_segments":[],"categories_sizes":[],"default_left":[0,0,0,0,0,0,0,0,0,0,0,0,0,0,0,0,0,0,0,0,0,0,0,0,0,0,0,0,0,0,0,0,0,0,0,0,0,0,0,0,0,0,0,0,0,0,0,0,0,0,0,0,0,0,0,0,0,0,0,0,0,0,0,0,0,0,0,0,0,0,0,0,0,0,0,0,0,0,0,0,0,0,0,0,0,0,0,0,0,0,0,0,0,0,0,0,0,0,0,0,0,0,0,0,0,0,0,0,0,0,0,0,0,0,0,0,0,0,0,0,0,0,0,0,0,0,0,0,0,0,0,0,0,0,0,0,0,0,0,0,0,0,0,0,0,0,0,0,0,0,0,0,0,0,0,0,0,0,0,0,0,0,0,0,0,0,0,0,0,0,0,0,0,0,0,0,0,0,0,0,0],"id":12,"left_children":[1,3,5,7,9,11,13,15,17,19,21,23,25,27,29,31,33,35,37,39,41,43,45,47,-1,49,51,53,55,57,59,61,63,65,67,-1,-1,69,71,73,75,77,79,81,83,85,87,89,91,93,95,97,99,101,103,105,107,109,111,113,115,117,119,-1,-1,121,123,125,127,-1,-1,129,-1,-1,-1,131,-1,133,135,137,139,141,143,145,-1,147,149,151,153,-1,-1,155,157,159,-1,161,163,-1,165,-1,-1,167,-1,-1,169,171,-1,173,175,-1,-1,177,-1,-1,-1,-1,179,-1,-1,-1,-1,-1,-1,-1,-1,-1,-1,-1,-1,-1,-1,-1,-1,-1,-1,-1,-1,-1,-1,-1,-1,-1,-1,-1,-1,-1,-1,-1,-1,-1,-1,-1,-1,-1,-1,-1,-1,-1,-1,-1,-1,-1,-1,-1,-1,-1,-1,-1,-1,-1,-1,-1,-1,-1,-1,-1,-1,-1,-1,-1,-1],"loss_changes":[1.0607538E5,9.8825195E1,3.0857812E2,2.3788086E1,3.221486E1,1.7234375E1,3.3152763E1,1.3571289E1,1.27883415E1,9.858658E0,1.4344573E1,6.125E0,1.9461914E1,1.0730993E1,1.1487249E1,8.18457E0,4.188098E1,6.8358064E-1,6.8741703E0,1.993927E0,7.6093445E0,5.0271797E0,1.3893887E1,5.625E0,0E0,1.042749E1,1.0262207E1,4.6472254E0,9.196256E0,7.2333093E0,5.412506E0,7.270508E0,3.0000925E0,1.2580078E1,1.0892201E1,0E0,0E0,3.7238854E-1,4.8829346E0,2.5642288E0,1.8728485E0,1.2809362E1,5.0723877E0,3.9515266E0,7.6290045E0,1.7790022E1,7.018832E0,2.7056816E-1,5.53125E0,6.828247E0,1.2315918E1,2.8046875E0,5.067956E-1,2.0397186E0,5.8065486E0,8.457584E0,1.0194419E1,6.160091E-1,7.0580444E0,1.3250918E0,4.594246E0,6.540039E0,7.959793E0,0E0,0E0,9.604736E0,5.870081E0,2.963385E0,9.205395E0,0E0,0E0,3.154087E-1,0E0,0E0,0E0,1.7197723E0,0E0,6.8286076E0,3.5751152E0,5.081703E0,3.426735E0,3.0625458E0,7.2794147E0,4.344542E0,0E0,1.3584677E1,1.4126972E1,7.2419963E0,4.6618214E0,0E0,0E0,1.3125E0,7.515625E0,1.7854004E0,0E0,4.1325684E0,6.269409E0,0E0,2.6669922E0,0E0,0E0,7.933502E-1,0E0,0E0,1.7886231E0,3.2147257E0,0E0,8.295581E0,5.484473E0,0E0,0E0,5.0755577E0,0E0,0E0,0E0,0E0,2.1508179E0,0E0,0E0,0E0,0E0,0E0,0E0,0E0,0E0,0E0,0E0,0E0,0E0,0E0,0E0,0E0,0E0,0E0,0E0,0E0,0E0,0E0,0E0,0E0,0E0,0E0,0E0,0E0,0E0,0E0,0E0,0E0,0E0,0E0,0E0,0E0,0E0,0E0,0E0,0E0,0E0,0E0,0E0,0E0,0E0,0E0,0E0,0E0,0E0,0E0,0E0,0E0,0E0,0E0,0E0,0E0,0E0,0E0,0E0,0E0,0E0,0E0,0E0,0E0,0E0],"parents":[2147483647,0,0,1,1,2,2,3,3,4,4,5,5,6,6,7,7,8,8,9,9,10,10,11,11,12,12,13,13,14,14,15,15,16,16,17,17,18,18,19,19,20,20,21,21,22,22,23,23,25,25,26,26,27,27,28,28,29,29,30,30,31,31,32,32,33,33,34,34,37,37,38,38,39,39,40,40,41,41,42,42,43,43,44,44,45,45,46,46,47,47,48,48,49,49,50,50,51,51,52,52,53,53,54,54,55,55,56,56,57,57,58,58,59,59,60,60,61,61,62,62,65,65,66,66,67,67,68,68,71,71,75,75,77,77,78,78,79,79,80,80,81,81,82,82,83,83,85,85,86,86,87,87,88,88,91,91,92,92,93,93,95,95,96,96,98,98,101,101,104,104,105,105,107,107,108,108,111,111,116,116],"right_children":[2,4,6,8,10,12,14,16,18,20,22,24,26,28,30,32,34,36,38,40,42,44,46,48,-1,50,52,54,56,58,60,62,64,66,68,-1,-1,70,72,74,76,78,80,82,84,86,88,90,92,94,96,98,100,102,104,106,108,110,112,114,116,118,120,-1,-1,122,124,126,128,-1,-1,130,-1,-1,-1,132,-1,134,136,138,140,142,144,146,-1,148,150,152,154,-1,-1,156,158,160,-1,162,164,-1,166,-1,-1,168,-1,-1,170,172,-1,174,176,-1,-1,178,-1,-1,-1,-1,180,-1,-1,-1,-1,-1,-1,-1,-1,-1,-1,-1,-1,-1,-1,-1,-1,-1,-1,-1,-1,-1,-1,-1,-1,-1,-1,-1,-1,-1,-1,-1,-1,-1,-1,-1,-1,-1,-1,-1,-1,-1,-1,-1,-1,-1,-1,-1,-1,-1,-1,-1,-1,-1,-1,-1,-1,-1,-1,-1,-1,-1,-1,-1,-1],"split_conditions":[6.226401E0,4.5298478E-1,4.7594115E-1,1.7017741E0,8.81849E-1,3.6060122E-1,1.2802991E0,1.5241491E1,6.26495E-2,1.3644303E-1,8.963864E-1,2.4584966E0,6.376184E0,5.3126425E-1,1.8555274E0,4.1164804E0,9.022567E-1,2.184139E-2,7.46078E-1,8.712856E-2,1.4810227E-1,8.3693457E-1,8.108666E-1,4.5150965E-1,-1.1489641E-1,1.5075272E-1,4.0994167E0,7.221017E-1,2.2733896E0,3.598391E-1,4.0905997E-1,6.994638E-1,6.984285E-1,4.454227E0,5.6841736E0,-1.5032777E-1,6.375115E-2,2.789414E-2,3.877167E1,1.2101911E1,7.700502E-1,3.9104888E-1,6.4484376E-1,3.1591694E1,6.5425873E0,3.8039693E-1,5.178657E-1,2.4546333E-1,8.569766E-1,1.4403189E-2,2.8130255E0,1.8797995E-1,5.8001246E0,2.1416277E1,4.910598E-1,8.2888657E-1,2.2853665E-1,4.250457E0,4.398553E0,2.1124477E0,2.0702963E-1,2.5068684E0,9.38932E-1,3.9429647E-1,-9.349396E-2,2.1560628E0,4.28759E0,4.288382E0,5.2842066E-2,-1.1274608E-1,6.0347106E-2,1.3121518E1,-9.687432E-2,2.8409863E-1,-1.2108657E-1,2.8082645E-1,1.071852E-1,2.9298598E-1,9.3537444E-1,2.0181033E-1,1.5619136E-1,1.2511929E0,5.011917E-2,1.3226818E-1,-1.3846008E-1,3.589719E0,2.115672E1,2.7417915E0,8.036736E-1,-1.0891068E-1,4.7915805E-2,2.9989052E0,3.4473348E-1,1.9117013E-1,-1.2682052E-1,1.45348E-1,6.732627E-1,-9.410971E-3,6.2174242E-2,-1.4284042E-1,5.8535073E-2,4.5924943E-2,1.3643613E-1,4.6696517E-1,4.8182893E-1,1.2109579E1,5.9070855E-1,1.0663517E0,2.8771107E0,-1.5433033E-1,5.1991977E-2,1.0107784E0,-1.3562523E-1,-1.2914658E-1,1.8331866E-1,-9.6548945E-2,1.2099862E-1,-1.6480166E-1,2.9563046E-1,-1.4733212E-1,-6.0067147E-2,-1.5207994E-1,-5.3417254E-2,8.598584E-3,4.4956216E-1,-1.5657264E-1,1.9601312E-1,5.966904E-1,1.6663998E-1,5.507914E-1,1.5919757E-1,2.145789E-2,-1.5853456E-1,7.628853E-2,-8.3365045E-2,3.2944996E-2,6.638762E-1,4.656417E-1,-1.1541838E-1,1.91166E-1,-1.4306363E-1,1.8317534E-1,-1.3218749E-1,-1.2750538E-1,5.4907376E-1,-8.472685E-2,5.5069786E-1,-4.246574E-2,9.9877074E-2,3.9683454E-2,4.1661856E-1,-6.3548526E-3,4.343401E-1,-1.17450066E-1,1.6047487E-1,4.145715E-1,8.476163E-2,4.1118726E-1,3.9886335E-1,7.419559E-2,4.1974935E-1,-3.8234007E-2,3.8703224E-1,3.863698E-1,3.1879762E-1,-4.968127E-3,4.12007E-1,5.6345556E-2,-1.6256383E-1,1.8322319E-1,-1.4250462E-1,-1.3246393E-1,3.1244338E-1,-2.4176838E-2,5.582017E-1,1.9551595E-1,-1.111301E-1,4.1860893E-1,3.8042594E-2,3.265037E-2,4.7703686E-1],"split_indices":[568,715,524,1806,578,1713,1706,2699,1549,318,133,892,755,2285,205,935,1199,2843,1929,319,2828,742,2870,2534,0,1512,1017,2763,1697,1594,1514,2500,1169,1041,326,0,0,1536,1092,170,178,2659,739,2070,2666,2948,1038,1538,2786,596,1587,263,514,2319,212,135,330,1028,117,1315,157,2833,790,0,0,1072,1248,2524,162,0,0,2920,0,0,0,2287,0,874,729,2673,414,2397,2638,923,0,2987,1039,79,2198,0,0,321,412,2052,0,2587,2478,0,1875,0,0,2922,0,0,399,817,0,1588,306,0,0,2398,0,0,0,0,1278,0,0,0,0,0,0,0,0,0,0,0,0,0,0,0,0,0,0,0,0,0,0,0,0,0,0,0,0,0,0,0,0,0,0,0,0,0,0,0,0,0,0,0,0,0,0,0,0,0,0,0,0,0,0,0,0,0,0,0,0,0,0,0,0],"split_type":[0,0,0,0,0,0,0,0,0,0,0,0,0,0,0,0,0,0,0,0,0,0,0,0,0,0,0,0,0,0,0,0,0,0,0,0,0,0,0,0,0,0,0,0,0,0,0,0,0,0,0,0,0,0,0,0,0,0,0,0,0,0,0,0,0,0,0,0,0,0,0,0,0,0,0,0,0,0,0,0,0,0,0,0,0,0,0,0,0,0,0,0,0,0,0,0,0,0,0,0,0,0,0,0,0,0,0,0,0,0,0,0,0,0,0,0,0,0,0,0,0,0,0,0,0,0,0,0,0,0,0,0,0,0,0,0,0,0,0,0,0,0,0,0,0,0,0,0,0,0,0,0,0,0,0,0,0,0,0,0,0,0,0,0,0,0,0,0,0,0,0,0,0,0,0,0,0,0,0,0,0],"sum_hessian":[1.3571981E5,4.3206535E4,9.251329E4,4.1520504E4,1.6860311E3,9.2327484E4,1.8579958E2,4.1499363E4,2.1140947E1,1.0589406E3,6.2709064E2,8.749407E4,4.8334185E3,1.3483583E2,5.096374E1,3.650185E4,4.9975093E3,8.670325E0,1.2470622E1,4.4909653E2,6.09844E2,1.7080908E2,4.5628156E2,8.749247E4,1.5957917E0,2.2073933E3,2.626025E3,7.738801E1,5.744783E1,2.6371693E1,2.4592049E1,3.649826E4,3.5916276E0,4.962564E3,3.494536E1,7.65708E0,1.0132451E0,2.9468546E0,9.523767E0,3.9103878E0,4.4518616E2,3.566085E2,2.5323552E2,1.6279558E2,8.013504E0,3.070245E2,1.4925705E2,2.2277007E0,8.749024E4,4.250526E2,1.7823407E3,2.6225735E3,3.4514952E0,6.985758E1,7.530421E0,8.445338E0,4.900249E1,8.814238E0,1.7557455E1,3.0594323E0,2.1532618E1,3.5661023E4,8.372354E2,2.3659317E0,1.2256958E0,4.9513086E3,1.1255016E1,1.0153825E1,2.4791533E1,1.9350209E0,1.0118337E0,8.518715E0,1.005053E0,1.3611574E0,2.5492303E0,4.434009E2,1.7852365E0,3.5358282E2,3.0256531E0,3.7822464E0,2.4945328E2,1.584503E2,4.3452754E0,3.5496354E0,4.463869E0,2.7176434E2,3.5260162E1,1.9595469E1,1.2966158E2,1.2253574E0,1.0023433E0,4.984845E4,3.7641797E4,4.2338818E2,1.6644464E0,8.951038E2,8.872369E2,1.3793539E0,2.621194E3,2.4464173E0,1.0050778E0,6.8405235E1,1.4523457E0,1.5703465E0,5.960074E0,4.5869966E0,3.8583415E0,7.69026E0,4.1312233E1,7.7851124E0,1.0291256E0,1.3618043E1,3.939412E0,1.9979782E0,1.061454E0,1.1192381E0,2.0413378E1,3.565912E4,1.9050174E0,7.2699414E2,1.10241295E2,4.8594463E3,9.186233E1,8.14863E0,3.1063855E0,8.283476E0,1.8703482E0,5.434012E0,1.9357521E1,7.2830257E0,1.2356887E0,4.603501E0,4.387974E2,2.5250622E1,3.283322E2,1.3058436E0,1.7198095E0,1.6160271E0,2.1662192E0,1.9697995E0,2.4748347E2,1.9885317E0,1.5646178E2,3.0412421E0,1.3040335E0,1.003653E0,2.5459824E0,1.8296678E2,8.879757E1,1.8252827E1,1.7007336E1,1.6383904E1,3.211565E0,1.24827034E2,4.8345385E0,4.9846777E4,1.6702521E0,3.0869799E4,6.7719976E3,1.8273803E0,4.215608E2,1.889259E0,8.932146E2,1.8637851E2,7.008584E2,1.3576905E0,2.6198364E3,1.0667034E0,6.733854E1,1.1110322E0,4.849042E0,3.3932612E0,1.1937355E0,3.9936113E0,3.6966484E0,5.1807256E0,3.6131504E1,8.598355E0,5.0196877E0,1.1908746E0,1.9222504E1],"tree_param":{"num_deleted":"0",