{"learner":{"attributes":{"best_iteration":"35","best_score":"0.06340393772271151"},"feature_names":[],"feature_types":[],"gradient_booster":{"model":{"gbtree_model_param":{"num_parallel_tree":"1","num_trees":"322"},"iteration_indptr":[0,7,14,21,28,35,42,49,56,63,70,77,84,91,98,105,112,119,126,133,140,147,154,161,168,175,182,189,196,203,210,217,224,231,238,245,252,259,266,273,280,287,294,301,308,315,322],"tree_info":[0,1,2,3,4,5,6,0,1,2,3,4,5,6,0,1,2,3,4,5,6,0,1,2,3,4,5,6,0,1,2,3,4,5,6,0,1,2,3,4,5,6,0,1,2,3,4,5,6,0,1,2,3,4,5,6,0,1,2,3,4,5,6,0,1,2,3,4,5,6,0,1,2,3,4,5,6,0,1,2,3,4,5,6,0,1,2,3,4,5,6,0,1,2,3,4,5,6,0,1,2,3,4,5,6,0,1,2,3,4,5,6,0,1,2,3,4,5,6,0,1,2,3,4,5,6,0,1,2,3,4,5,6,0,1,2,3,4,5,6,0,1,2,3,4,5,6,0,1,2,3,4,5,6,0,1,2,3,4,5,6,0,1,2,3,4,5,6,0,1,2,3,4,5,6,0,1,2,3,4,5,6,0,1,2,3,4,5,6,0,1,2,3,4,5,6,0,1,2,3,4,5,6,0,1,2,3,4,5,6,0,1,2,3,4,5,6,0,1,2,3,4,5,6,0,1,2,3,4,5,6,0,1,2,3,4,5,6,0,1,2,3,4,5,6,0,1,2,3,4,5,6,0,1,2,3,4,5,6,0,1,2,3,4,5,6,0,1,2,3,4,5,6,0,1,2,3,4,5,6,0,1,2,3,4,5,6,0,1,2,3,4,5,6,0,1,2,3,4,5,6,0,1,2,3,4,5,6,0,1,2,3,4,5,6,0,1,2,3,4,5,6],"trees":[{"base_weights":[-2.3785152E-1,-5.703505E-1,3.481752E0,-5.7238674E-1,2.6919413E0,3.483373E0,9.554896E-1,-5.7277054E-1,1.3093524E0,3.2518333E-1,3.015885E0,3.4843023E0,-2.6751596E-2,1.8064516E0,-1.2426036E-1,-5.755922E-1,-3.549705E-1,-6.466514E-2,2.2105262E0,5.3503186E-1,-1.4651163E-1,-3.293941E-9,3.1173406E0,1.735537E-2,3.4848833E0,7.22293E-1,3.8532108E-2,-5.7701397E-1,-4.7603288E-1,-9.152221E-2,-5.3094083E-1,-1.4861539E-1,2.541401E-1,2.7359667E0,-2.6751596E-2,3.1868038E0,1.3884297E-1,3.486266E0,2.2362728E0,-5.772047E-1,-4.9266875E-2,-3.16739E-1,-5.479394E-1,9.796493E-2,-4.3258882E-1,-5.660547E-1,-3.5451722E-1,1.733945E-1,8.9287406E-1,1.733945E-1,3.2410147E0,3.4866147E0,1.733945E-1,2.5489833E0,-9.633028E-2,-1.7418511E-1,-1.6515063E-1,-1.2352942E-1,3.067416E-1,-4.4622812E-2,-1.5007669E-1,-8.9043155E-2,-1.6891724E-1,7.9756156E-2,-1.0686391E-1,-1.3776553E-1,3.106509E-1,8.6896546E-2,-1.7078249E-1,-2.7500914E-2,-1.6819644E-1,9.9463886E-1,3.477707E-1,1.0461235E0,4.4088396E-1,3.8532108E-2,8.513513E-1],"categories":[],"categories_nodes":[],"categories_segments":[],"categories_sizes":[],"default_left":[0,0,0,0,0,0,0,0,0,0,0,0,0,0,0,0,0,0,0,0,0,0,0,0,0,0,0,0,0,0,0,0,0,0,0,0,0,0,0,0,0,0,0,0,0,0,0,0,0,0,0,0,0,0,0,0,0,0,0,0,0,0,0,0,0,0,0,0,0,0,0,0,0,0,0,0,0],"id":0,"left_children":[1,3,5,7,9,11,13,15,17,19,21,23,-1,25,-1,27,29,31,33,-1,-1,-1,35,-1,37,-1,-1,39,41,43,45,-1,-1,47,-1,49,-1,51,53,55,57,59,61,63,65,67,69,-1,-1,-1,71,73,-1,75,-1,-1,-1,-1,-1,-1,-1,-1,-1,-1,-1,-1,-1,-1,-1,-1,-1,-1,-1,-1,-1,-1,-1],"loss_changes":[1.29264414E5,6.388418E2,3.1796875E1,7E1,4.5036682E1,2.8765625E1,8.764397E0,5.8710938E1,2.4730633E1,1.0773558E1,1.6116943E1,1.6851562E1,0E0,4.158333E0,0E0,1.3123047E1,5.6911575E1,3.8901038E0,1.4768883E1,0E0,0E0,0E0,7.9216003E0,0E0,6.9921875E0,0E0,0E0,9.363281E0,1.51539E1,3.191968E1,4.36145E0,0E0,0E0,3.369751E0,0E0,5.1259155E0,0E0,6.6640625E0,1.0627258E1,8.177734E0,1.3939336E1,1.2829563E1,3.3279724E0,2.433488E1,7.369751E0,1.8527374E0,6.7170258E0,0E0,0E0,0E0,3.6369934E0,2.875E0,0E0,7.3550797E0,0E0,0E0,0E0,0E0,0E0,0E0,0E0,0E0,0E0,0E0,0E0,0E0,0E0,0E0,0E0,0E0,0E0,0E0,0E0,0E0,0E0,0E0,0E0],"parents":[2147483647,0,0,1,1,2,2,3,3,4,4,5,5,6,6,7,7,8,8,9,9,10,10,11,11,13,13,15,15,16,16,17,17,18,18,22,22,24,24,27,27,28,28,29,29,30,30,33,33,35,35,37,37,38,38,39,39,40,40,41,41,42,42,43,43,44,44,45,45,46,46,50,50,51,51,53,53],"right_children":[2,4,6,8,10,12,14,16,18,20,22,24,-1,26,-1,28,30,32,34,-1,-1,-1,36,-1,38,-1,-1,40,42,44,46,-1,-1,48,-1,50,-1,52,54,56,58,60,62,64,66,68,70,-1,-1,-1,72,74,-1,76,-1,-1,-1,-1,-1,-1,-1,-1,-1,-1,-1,-1,-1,-1,-1,-1,-1,-1,-1,-1,-1,-1,-1],"split_conditions":[4.1147697E1,9.054587E0,3.3109756E0,4.1126776E0,8.5670555E-1,6.71474E0,2.9554775E0,5.1918156E1,1.1628239E0,3.4128158E0,4.0253603E-1,5.1205873E0,-2.6751596E-2,3.042842E0,-1.2426036E-1,3.6020093E0,1.24769874E-1,1.1885053E0,7.3829055E0,5.3503186E-1,-1.4651163E-1,-3.293941E-9,2.2929842E0,1.735537E-2,2.4320197E0,7.22293E-1,3.8532108E-2,4.8946643E0,2.977153E-1,5.750887E-1,4.318014E-1,-1.4861539E-1,2.541401E-1,1.3571528E0,-2.6751596E-2,1.4743464E0,1.3884297E-1,1.2600348E0,1.2667077E0,1.1434023E0,2.0587614E0,8.762272E0,7.2233756E-3,4.705865E0,9.638536E-1,6.104729E1,2.9141095E-1,1.733945E-1,8.9287406E-1,1.733945E-1,5.8714145E-1,1.6289673E0,1.733945E-1,1.2597004E-1,-9.633028E-2,-1.7418511E-1,-1.6515063E-1,-1.2352942E-1,3.067416E-1,-4.4622812E-2,-1.5007669E-1,-8.9043155E-2,-1.6891724E-1,7.9756156E-2,-1.0686391E-1,-1.3776553E-1,3.106509E-1,8.6896546E-2,-1.7078249E-1,-2.7500914E-2,-1.6819644E-1,9.9463886E-1,3.477707E-1,1.0461235E0,4.4088396E-1,3.8532108E-2,8.513513E-1],"split_indices":[2668,2795,778,1658,1088,1573,56,1369,1673,2885,1406,2666,0,2570,0,1125,2070,288,1585,0,0,0,2103,0,2340,0,0,2395,2884,1931,2862,0,0,1283,0,331,0,2225,1073,2880,2530,652,1679,237,2364,1104,636,0,0,0,1148,2480,0,899,0,0,0,0,0,0,0,0,0,0,0,0,0,0,0,0,0,0,0,0,0,0,0],"split_type":[0,0,0,0,0,0,0,0,0,0,0,0,0,0,0,0,0,0,0,0,0,0,0,0,0,0,0,0,0,0,0,0,0,0,0,0,0,0,0,0,0,0,0,0,0,0,0,0,0,0,0,0,0,0,0,0,0,0,0,0,0,0,0,0,0,0,0,0,0,0,0,0,0,0,0,0,0],"sum_hessian":[1.045156E5,9.594025E4,8.575348E3,9.5881234E4,5.9020412E1,8.56947E3,5.8775516E0,9.5862375E4,1.8857143E1,7.346939E0,5.1673473E1,8.567266E3,2.2040818E0,3.4285717E0,2.4489799E0,9.46347E4,1.2276736E3,7.8367352E0,1.1020409E1,2.2040818E0,5.1428576E0,1.7142859E0,4.9959187E1,1.4693879E0,8.565797E3,2.2040818E0,1.2244899E0,9.3297555E4,1.337143E3,4.9224493E2,7.3542865E2,5.632653E0,2.2040818E0,8.816327E0,2.2040818E0,4.84898E1,1.4693879E0,8.554531E3,1.1265306E1,9.326376E4,3.379592E1,4.1755106E2,9.195919E2,3.1689798E2,1.7534695E2,6.1151025E2,1.2391837E2,1.2244899E0,7.5918374E0,1.2244899E0,4.726531E1,8.553307E3,1.2244899E0,1.0040817E1,1.2244899E0,8.2677805E4,1.058596E4,2.5714287E1,8.081634E0,2.189388E2,1.9861226E2,5.338776E1,8.6620416E2,2.316735E2,8.5224495E1,1.7289796E2,2.4489799E0,1.9591838E0,6.095511E2,5.5102043E1,6.881633E1,4.5061226E1,2.2040818E0,8.550613E3,2.6938777E0,1.2244899E0,8.816327E0],"tree_param":{"num_deleted":"0","num_feature":"3000","num_nodes":"77","size_leaf_vector":"1"}},{"base_weights":[3.1523767E-1,-5.56456E-1,3.4279923E0,-5.60418E-1,2.3861568E0,3.4459302E0,2.0386083E0,-5.6452674E-1,7.030756E-1,1.3014009E0,3.368609E0,3.452048E0,2.475862E0,1.326891E0,2.861383E0,-3.1613603E-1,-5.690331E-1,-1.2128975E-1,1.5545809E0,1.7944046E0,5.888985E-1,1.3254437E0,1.0307807E0,3.4651635E0,3.217549E0,2.7281802E0,1.2959107E0,-1.6000001E-1,1.5915322E0,1.9657843E0,3.1041462E0,-3.7634867E-1,4.176981E-1,-5.718236E-1,-4.945069E-1,6.7957556E-1,-4.344928E-1,2.0086956E0,9.6375036E-1,2.3017688E0,8.7359995E-1,1.2727273E0,3.0656917E-2,5.7798165E-1,3.8532108E-2,1.6575999E0,3.4660866E0,3.0679026E0,3.344397E0,1.3017944E0,2.8693993E0,1.8751625E0,4.8159996E-1,1.0880828E0,-3.7557817E-1,1.7439723E0,-1.1884551E-1,2.2066913E0,3.043478E-1,-1.04132235E-1,3.1565645E0,-4.3223456E-1,3.8348816E-2,1.9290586E0,1.791076E-1,-4.9042356E-1,-5.7403344E-1,-5.021963E-1,4.836138E-1,9.6551716E-1,-1.5340051E-1,-4.6361527E-1,3.082569E-1,2.1517177E0,2.584615E-1,1.1436619E0,-1.778291E-1,2.4395115E0,3.8532108E-2,-1.3755459E-1,1.4629213E0,-1.2038217E-1,1.7628361E0,9.2817676E-1,-2.658228E-1,2.0309477E0,-2.6751596E-2,3.4676971E0,2.8168018E0,6.5745854E-1,3.0783083E0,3.348799E0,1.733945E-1,-1.2762432E-1,1.8191267E0,2.9093537E0,-9.633028E-2,2.2542372E0,-1.24260366E-1,1.1454545E0,-1.4532873E-1,6.2479335E-1,-1.04132235E-1,1.733945E-1,-4.5935357E-1,2.532663E0,1.4948453E0,2.541401E-1,-4.2203742E-1,1.1602208E-1,2.4295135E0,4.4311926E-1,-1.3056995E-1,3.199235E0,1.8827586E-1,3.2642484E-1,-1.3108414E-1,5.8447074E-2,-1.06070004E-1,7.0896E-1,-1.2038217E-1,1.5682608E-2,3.791075E-1,-1.5356216E-1,-1.1879174E-1,-1.7222999E-1,3.9103448E-1,-1.5260468E-1,1.3597122E-1,3.9873418E-1,-9.072E-2,-8.519274E-3,4.1116193E-1,9.197076E-3,-1.621681E-1,6.7516625E-1,-4.6408843E-2,5.7798165E-1,-1.4264151E-1,6.0636216E-1,2.5033835E-1,-1.4955491E-1,1.8827586E-1,1.1052631E-1,7.891065E-1,6.348837E-1,2.1761654E-2,6.356083E-1,1.735537E-2,-1.04132235E-1,5.7798165E-1,1.733945E-1,-1.2778905E-1,7.0314604E-1,1.735537E-2,6.963589E-1,1.0405153E0,8.700767E-1,8.6896546E-2,4.4311926E-1,-1.04132235E-1,9.257875E-1,1.1052631E-1,1.0059485E0,2.603306E-1,-1.04132235E-1,6.726161E-1,3.8532108E-2,8.8220483E-1,-9.633028E-2,7.629881E-1,3.8532108E-2,-9.633028E-2,-9.17031E-3,6.556097E-1,-1.66077E-1,1.733945E-1,8.107494E-1,-1.04132235E-1,4.8078573E-1,5.6300224E-3,3.8532108E-2,-1.5463182E-1,-1.04132235E-1,1.733945E-1,3.8532108E-2,7.6313967E-1,1.3884297E-1,9.704513E-1],"categories":[],"categories_nodes":[],"categories_segments":[],"categories_sizes":[],"default_left":[0,0,0,0,0,0,0,0,0,0,0,0,0,0,0,0,0,0,0,0,0,0,0,0,0,0,0,0,0,0,0,0,0,0,0,0,0,0,0,0,0,0,0,0,0,0,0,0,0,0,0,0,0,0,0,0,0,0,0,0,0,0,0,0,0,0,0,0,0,0,0,0,0,0,0,0,0,0,0,0,0,0,0,0,0,0,0,0,0,0,0,0,0,0,0,0,0,0,0,0,0,0,0,0,0,0,0,0,0,0,0,0,0,0,0,0,0,0,0,0,0,0,0,0,0,0,0,0,0,0,0,0,0,0,0,0,0,0,0,0,0,0,0,0,0,0,0,0,0,0,0,0,0,0,0,0,0,0,0,0,0,0,0,0,0,0,0,0,0,0,0,0,0,0,0,0,0,0,0,0,0,0,0,0,0,0,0,0,0],"id":1,"left_children":[1,3,5,7,9,11,13,15,17,19,21,23,25,27,29,31,33,35,37,39,41,43,-1,45,47,49,51,53,55,57,59,61,63,65,67,69,71,73,75,77,79,81,83,-1,-1,85,87,89,91,93,95,97,99,101,103,105,107,109,111,-1,113,115,117,119,121,123,125,127,129,131,-1,133,-1,135,137,139,141,143,-1,-1,145,-1,147,149,151,153,-1,155,157,159,161,163,-1,-1,165,167,-1,169,171,173,-1,-1,-1,-1,175,177,179,-1,181,183,185,-1,-1,187,-1,-1,-1,-1,-1,-1,-1,-1,-1,-1,-1,-1,-1,-1,-1,-1,-1,-1,-1,-1,-1,-1,-1,-1,-1,-1,-1,-1,-1,-1,-1,-1,-1,-1,-1,-1,-1,-1,-1,-1,-1,-1,-1,-1,-1,-1,-1,-1,-1,-1,-1,-1,-1,-1,-1,-1,-1,-1,-1,-1,-1,-1,-1,-1,-1,-1,-1,-1,-1,-1,-1,-1,-1,-1,-1],"loss_changes":[2.8359397E5,9.532793E2,5.62875E2,4.237168E2,1.1282361E2,1.254375E2,1.6830481E2,9.079883E1,1.8603378E2,1.7875824E1,3.2979126E0,5.78125E1,3.963452E1,6.2996674E1,2.3347046E1,6.425136E1,1.631836E1,3.4270412E1,3.302588E1,1.2643478E1,8.943598E0,2.234407E0,0E0,2.96875E1,1.2555664E1,2.0144653E1,1.2044365E1,7.135145E0,3.5522858E1,1.1981247E1,2.0061523E1,3.1097122E1,3.948934E1,1.3560547E1,2.1968567E1,1.3593716E1,4.648098E0,1.7656097E1,1.2228783E1,5.5577927E0,1.0684089E1,9.363892E0,3.96665E0,0E0,0E0,8.49939E0,1.240625E1,1.211084E1,5.8515625E0,1.1952261E1,1.4579224E1,1.2174976E1,8.734774E0,6.345053E0,2.0278556E0,2.0662323E1,3.8780246E0,1.2505173E1,5.1210637E0,0E0,9.146851E0,8.943314E0,9.89213E0,1.6082401E1,1.3209908E1,3.931366E0,1.0105469E1,1.7994324E1,1.5714268E1,1.2666094E1,0E0,3.6963425E0,0E0,1.5649231E1,9.036446E0,1.2074074E1,2.5952702E0,6.2987595E0,0E0,0E0,8.096397E0,0E0,4.9417934E0,5.372081E0,1.7712088E0,6.377842E0,0E0,8.640625E0,1.1353394E1,3.5540466E0,1.0489258E1,3.9985352E0,0E0,0E0,9.771549E0,8.84137E0,0E0,1.0676392E1,2.1280059E-1,9.675761E0,0E0,0E0,0E0,0E0,2.3568554E0,1.4842072E1,1.5400925E1,0E0,5.709168E-1,9.9091613E-1,6.1833496E0,0E0,0E0,8.382446E0,0E0,0E0,0E0,0E0,0E0,0E0,0E0,0E0,0E0,0E0,0E0,0E0,0E0,0E0,0E0,0E0,0E0,0E0,0E0,0E0,0E0,0E0,0E0,0E0,0E0,0E0,0E0,0E0,0E0,0E0,0E0,0E0,0E0,0E0,0E0,0E0,0E0,0E0,0E0,0E0,0E0,0E0,0E0,0E0,0E0,0E0,0E0,0E0,0E0,0E0,0E0,0E0,0E0,0E0,0E0,0E0,0E0,0E0,0E0,0E0,0E0,0E0,0E0,0E0,0E0,0E0,0E0,0E0,0E0,0E0,0E0,0E0,0E0,0E0,0E0],"parents":[2147483647,0,0,1,1,2,2,3,3,4,4,5,5,6,6,7,7,8,8,9,9,10,10,11,11,12,12,13,13,14,14,15,15,16,16,17,17,18,18,19,19,20,20,21,21,23,23,24,24,25,25,26,26,27,27,28,28,29,29,30,30,31,31,32,32,33,33,34,34,35,35,36,36,37,37,38,38,39,39,40,40,41,41,42,42,45,45,46,46,47,47,48,48,49,49,50,50,51,51,52,52,53,53,54,54,55,55,56,56,57,57,58,58,60,60,61,61,62,62,63,63,64,64,65,65,66,66,67,67,68,68,69,69,71,71,73,73,74,74,75,75,76,76,77,77,80,80,82,82,83,83,84,84,85,85,87,87,88,88,89,89,90,90,91,91,94,94,95,95,97,97,98,98,99,99,104,104,105,105,106,106,108,108,109,109,110,110,113,113],"right_children":[2,4,6,8,10,12,14,16,18,20,22,24,26,28,30,32,34,36,38,40,42,44,-1,46,48,50,52,54,56,58,60,62,64,66,68,70,72,74,76,78,80,82,84,-1,-1,86,88,90,92,94,96,98,100,102,104,106,108,110,112,-1,114,116,118,120,122,124,126,128,130,132,-1,134,-1,136,138,140,142,144,-1,-1,146,-1,148,150,152,154,-1,156,158,160,162,164,-1,-1,166,168,-1,170,172,174,-1,-1,-1,-1,176,178,180,-1,182,184,186,-1,-1,188,-1,-1,-1,-1,-1,-1,-1,-1,-1,-1,-1,-1,-1,-1,-1,-1,-1,-1,-1,-1,-1,-1,-1,-1,-1,-1,-1,-1,-1,-1,-1,-1,-1,-1,-1,-1,-1,-1,-1,-1,-1,-1,-1,-1,-1,-1,-1,-1,-1,-1,-1,-1,-1,-1,-1,-1,-1,-1,-1,-1,-1,-1,-1,-1,-1,-1,-1,-1,-1,-1,-1,-1,-1,-1,-1],"split_conditions":[2.4546473E0,2.2388687E0,7.0187044E-1,2.3126934E0,1.5561795E0,2.755703E-1,1.3358339E1,6.21575E-1,5.5715723E0,6.053695E-1,2.5629622E-1,5.522629E-1,2.4658817E-1,2.0331727E-2,5.377964E-1,7.67487E-1,9.483776E0,1.309613E-1,8.0453776E-2,4.4682825E-1,4.1000686E0,1.0061557E0,1.0307807E0,2.2965262E-2,8.402629E0,2.899318E-1,7.021479E-1,3.1089395E-1,7.835142E-1,9.094301E1,3.3463192E-1,1.6314646E0,8.169188E0,1.3144938E-3,6.6333375E0,6.683652E-2,1.467904E0,5.4281544E-2,2.769718E0,1.9243656E0,1.2708039E1,1.3217161E0,1.3342545E0,5.7798165E-1,3.8532108E-2,4.0107684E0,2.2561731E0,1.4552376E0,2.1320696E0,1.4361782E1,2.606558E0,8.8715017E-1,1.3988642E1,6.7952853E-1,7.906142E-1,3.1090903E0,6.9322973E-1,3.3425995E1,2.2840881E-1,-1.04132235E-1,2.4181447E0,2.1547494E0,1.6787647E-1,1.6295989E0,1.5243815E-1,1.7088394E-1,4.823985E0,7.4478304E-1,4.1242156E-2,1.2637271E0,-1.5340051E-1,6.5547034E-2,3.082569E-1,6.9163413E0,1.6621485E-1,1.17976226E-1,1.9587684E0,2.9812515E-1,3.8532108E-2,-1.3755459E-1,8.612273E-2,-1.2038217E-1,2.7927312E-1,5.79509E-1,9.737496E-1,2.576692E0,-2.6751596E-2,5.09248E0,2.5469E0,9.5246606E-2,8.254293E0,2.1994127E-1,1.733945E-1,-1.2762432E-1,1.7405097E-1,7.553168E-1,-9.633028E-2,1.1191908E0,7.4497175E-1,5.029803E-1,-1.4532873E-1,6.2479335E-1,-1.04132235E-1,1.733945E-1,8.438416E-1,2.0019062E0,7.3489857E0,2.541401E-1,3.1367335E0,4.0636566E-1,9.293798E-2,4.4311926E-1,-1.3056995E-1,1.6870074E0,1.8827586E-1,3.2642484E-1,-1.3108414E-1,5.8447074E-2,-1.06070004E-1,7.0896E-1,-1.2038217E-1,1.5682608E-2,3.791075E-1,-1.5356216E-1,-1.1879174E-1,-1.7222999E-1,3.9103448E-1,-1.5260468E-1,1.3597122E-1,3.9873418E-1,-9.072E-2,-8.519274E-3,4.1116193E-1,9.197076E-3,-1.621681E-1,6.7516625E-1,-4.6408843E-2,5.7798165E-1,-1.4264151E-1,6.0636216E-1,2.5033835E-1,-1.4955491E-1,1.8827586E-1,1.1052631E-1,7.891065E-1,6.348837E-1,2.1761654E-2,6.356083E-1,1.735537E-2,-1.04132235E-1,5.7798165E-1,1.733945E-1,-1.2778905E-1,7.0314604E-1,1.735537E-2,6.963589E-1,1.0405153E0,8.700767E-1,8.6896546E-2,4.4311926E-1,-1.04132235E-1,9.257875E-1,1.1052631E-1,1.0059485E0,2.603306E-1,-1.04132235E-1,6.726161E-1,3.8532108E-2,8.8220483E-1,-9.633028E-2,7.629881E-1,3.8532108E-2,-9.633028E-2,-9.17031E-3,6.556097E-1,-1.66077E-1,1.733945E-1,8.107494E-1,-1.04132235E-1,4.8078573E-1,5.6300224E-3,3.8532108E-2,-1.5463182E-1,-1.04132235E-1,1.733945E-1,3.8532108E-2,7.6313967E-1,1.3884297E-1,9.704513E-1],"split_indices":[2888,1157,2676,270,995,2786,1486,594,998,385,1906,2663,2811,401,2649,1848,2404,1556,556,2003,2145,1554,0,771,962,2714,2345,2185,1575,2257,2149,130,572,1106,2046,2806,25,2707,2001,2462,1473,726,1077,0,0,1045,1902,747,2720,1678,2074,1865,460,2119,819,2562,2624,1751,2142,0,1188,2062,2757,2924,2373,2817,447,1703,2350,2966,0,2356,0,2946,525,1886,769,2401,0,0,2396,0,2326,344,1093,1253,0,1055,2299,0,2688,663,0,0,2659,1427,0,79,768,1771,0,0,0,0,2109,1010,684,0,2304,1024,177,0,0,956,0,0,0,0,0,0,0,0,0,0,0,0,0,0,0,0,0,0,0,0,0,0,0,0,0,0,0,0,0,0,0,0,0,0,0,0,0,0,0,0,0,0,0,0,0,0,0,0,0,0,0,0,0,0,0,0,0,0,0,0,0,0,0,0,0,0,0,0,0,0,0,0,0,0,0],"split_type":[0,0,0,0,0,0,0,0,0,0,0,0,0,0,0,0,0,0,0,0,0,0,0,0,0,0,0,0,0,0,0,0,0,0,0,0,0,0,0,0,0,0,0,0,0,0,0,0,0,0,0,0,0,0,0,0,0,0,0,0,0,0,0,0,0,0,0,0,0,0,0,0,0,0,0,0,0,0,0,0,0,0,0,0,0,0,0,0,0,0,0,0,0,0,0,0,0,0,0,0,0,0,0,0,0,0,0,0,0,0,0,0,0,0,0,0,0,0,0,0,0,0,0,0,0,0,0,0,0,0,0,0,0,0,0,0,0,0,0,0,0,0,0,0,0,0,0,0,0,0,0,0,0,0,0,0,0,0,0,0,0,0,0,0,0,0,0,0,0,0,0,0,0,0,0,0,0,0,0,0,0,0,0,0,0,0,0,0,0],"sum_hessian":[1.045156E5,8.1650945E4,2.2864654E4,8.154197E4,1.089796E2,2.2571756E4,2.9289798E2,8.127821E4,2.6375513E2,5.2897964E1,5.608164E1,2.2427756E4,1.4400002E2,1.5844899E2,1.3444899E2,1.4495511E3,7.982866E4,1.3444899E2,1.2930614E2,3.036735E1,2.2530613E1,2.4489799E0,5.3632656E1,2.1226777E4,1.2009797E3,1.17551025E2,2.6448982E1,2.4000002E1,1.3444899E2,3.0612247E1,1.0383674E2,1.3400818E3,1.094694E2,7.694107E4,2.887592E3,3.746939E1,9.69796E1,7.1755104E1,5.7551025E1,1.8612246E1,1.1755103E1,9.551021E0,1.2979592E1,1.2244899E0,1.2244899E0,1.1755103E1,2.1215021E4,5.6253064E2,6.3844904E2,1.1510205E1,1.06040825E2,1.4693878E1,1.1755103E1,2.9387758E0,2.1061226E1,1.2342858E2,1.1020409E1,2.6448982E1,4.1632657E0,1.4693879E0,1.02367355E2,1.1808981E3,1.5918369E2,1.3959185E1,9.551021E1,2.0395104E3,7.4901555E4,2.8655513E3,2.2040817E1,3.036735E1,7.1020412E0,9.575511E1,1.2244899E0,6.612245E1,5.632653E0,4.971429E1,7.8367352E0,1.7387756E1,1.2244899E0,3.6734695E0,8.081634E0,2.2040818E0,7.346939E0,2.6938777E0,1.0285715E1,9.551021E0,2.2040818E0,2.1158205E4,5.681633E1,2.6938777E0,5.598368E2,6.3722455E2,1.2244899E0,2.6938777E0,8.816327E0,1.0481634E2,1.2244899E0,1.2244899E1,2.4489799E0,6.8571434E0,4.8979597E0,1.4693879E0,1.4693879E0,1.2244899E0,1.9836737E1,2.7428574E1,9.600001E1,2.2040818E0,8.816327E0,2.6938777E0,2.3755104E1,1.2244899E0,2.9387758E0,1.0040817E2,1.9591838E0,2.9387758E0,1.1779592E3,1.1412246E2,4.5061226E1,1.1755103E1,2.2040818E0,8.644898E1,9.061225E0,1.6584491E3,3.8106125E2,7.489959E4,1.9591838E0,2.846694E3,1.8857143E1,1.0285715E1,1.1755103E1,9.061225E0,2.1306124E1,1.2979592E1,8.277551E1,6.3428577E1,2.6938777E0,1.2244899E0,4.4081635E0,1.1510205E1,3.8204082E1,5.8775516E0,1.9591838E0,1.7142859E0,1.56734705E1,5.1428576E0,2.9387758E0,5.8775516E0,1.4693879E0,1.4693879E0,1.2244899E0,1.2244899E0,9.061225E0,8.081634E0,1.4693879E0,1.4693878E1,2.1143512E4,5.4857147E1,1.9591838E0,1.2244899E0,1.4693879E0,5.581225E2,1.7142859E0,6.357551E2,1.4693879E0,1.4693879E0,7.346939E0,1.2244899E0,1.0359184E2,1.2244899E0,1.1020409E1,1.2244899E0,1.2244899E0,3.6734695E0,3.1836736E0,1.8612246E1,1.2244899E0,2.5959185E1,1.4693879E0,8.9387764E1,6.6122456E0,1.2244899E0,7.5918374E0,1.4693879E0,1.2244899E0,1.2244899E0,2.2530613E1,1.4693879E0,9.893878E1],"tree_param":{"num_deleted":"0","num_feature":"3000","num_nodes":"189","size_leaf_vector":"1"}},{"base_weights":[-1.4887999E-1,-5.7993233E-1,3.360877E0,-5.8195126E-1,1.027679E0,3.388828E0,-9.018699E-3,-5.8200496E-1,8.3419687E-1,3.4143472E0,1.5894923E0,-2.3123634E-1,1.5449914E0,-5.820264E-1,-1.0566039E-1,-1.04132235E-1,5.033058E-1,2.1614337E0,3.4233596E0,1.0441419E0,2.7569752E0,2.1918719E-1,-4.806754E-1,2.2337077E0,-1.3056995E-1,-5.446988E-1,-5.82351E-1,-1.3317074E-1,1.733945E-1,2.7133548E0,1.4971721E0,3.4504733E0,3.2325318E0,4.646934E-1,1.4668374E0,-1.3459113E-8,2.9579175E0,5.3503186E-1,3.517586E-2,1.8827586E-1,-5.3405994E-1,2.6461124E0,1.735537E-2,-5.4823184E-1,2.731707E-1,-5.824262E-1,-4.797994E-1,8.6896546E-2,2.8197758E0,4.0319997E-1,1.943024E0,3.4508796E0,3.8532108E-2,3.358549E0,2.9751754E0,6.8141586E-1,-4.259635E-1,1.8273937E0,3.828775E-1,-1.2038217E-1,1.733945E-1,8.6896546E-2,3.0674512E0,4.93653E-1,-4.106412E-1,-5.524113E-1,3.8532108E-2,8.85623E-1,1.733945E-1,1.3884297E-1,-1.6518867E-1,3.082569E-1,-1.1586207E-1,-1.7473112E-1,-4.6408843E-2,-1.5938334E-1,7.924528E-2,2.9707316E-1,8.833948E-1,-1.9399542E-2,3.485477E-1,6.249807E-1,-1.04132235E-1,1.3884297E-1,1.0353854E0,1.0097494E0,-1.10526316E-1,8.985037E-1,3.2204473E-1,1.4854534E-1,6.0967743E-1,-1.5519631E-1,3.8532108E-2,5.994384E-1,-1.742739E-2,4.9802372E-1,-4.615385E-2,9.427765E-1,2.2105263E-1,-1.4404333E-1,3.012474E-1,1.733945E-1,-1.6225854E-1,3.8532108E-2,-1.7149857E-1],"categories":[],"categories_nodes":[],"categories_segments":[],"categories_sizes":[],"default_left":[0,0,0,0,0,0,0,0,0,0,0,0,0,0,0,0,0,0,0,0,0,0,0,0,0,0,0,0,0,0,0,0,0,0,0,0,0,0,0,0,0,0,0,0,0,0,0,0,0,0,0,0,0,0,0,0,0,0,0,0,0,0,0,0,0,0,0,0,0,0,0,0,0,0,0,0,0,0,0,0,0,0,0,0,0,0,0,0,0,0,0,0,0,0,0,0,0,0,0,0,0,0,0,0,0],"id":2,"left_children":[1,3,5,7,-1,9,11,13,15,17,19,21,23,25,27,-1,-1,29,31,33,35,37,39,41,-1,43,45,-1,-1,47,49,51,53,55,57,59,61,-1,63,-1,65,67,-1,69,71,73,75,-1,77,79,81,83,-1,85,87,89,91,93,95,-1,-1,-1,97,99,101,103,-1,-1,-1,-1,-1,-1,-1,-1,-1,-1,-1,-1,-1,-1,-1,-1,-1,-1,-1,-1,-1,-1,-1,-1,-1,-1,-1,-1,-1,-1,-1,-1,-1,-1,-1,-1,-1,-1,-1],"loss_changes":[1.5812395E5,7.5477734E2,1.0768672E3,7.560547E0,0E0,5.1521094E2,3.3177563E1,8.8671875E-1,4.507002E0,1.18828125E2,9.926416E1,9.545322E0,1.7365774E1,8.105469E-1,1.507132E0,0E0,0E0,2.6202484E1,4.6273438E1,2.6495636E1,2.7959656E1,8.754573E0,3.552967E0,7.99617E0,0E0,2.5119781E0,4.2773438E-1,0E0,0E0,1.0495453E1,1.8577232E1,1.265625E1,3.529492E1,9.606688E0,2.419371E1,1.2590429E0,1.2859894E1,0E0,6.0134273E0,0E0,7.0836735E-1,3.1105843E0,0E0,2.2283478E0,2.477808E0,3.359375E-1,2.9454231E0,0E0,6.6560974E0,4.602356E0,9.696487E0,1.0140625E1,0E0,2.6470703E1,1.4431152E1,8.85803E0,5.760356E-1,1.5417007E1,1.2020889E1,0E0,0E0,0E0,5.5788574E0,7.6752844E0,2.2384398E0,7.445469E-1,0E0,0E0,0E0,0E0,0E0,0E0,0E0,0E0,0E0,0E0,0E0,0E0,0E0,0E0,0E0,0E0,0E0,0E0,0E0,0E0,0E0,0E0,0E0,0E0,0E0,0E0,0E0,0E0,0E0,0E0,0E0,0E0,0E0,0E0,0E0,0E0,0E0,0E0,0E0],"parents":[2147483647,0,0,1,1,2,2,3,3,5,5,6,6,7,7,8,8,9,9,10,10,11,11,12,12,13,13,14,14,17,17,18,18,19,19,20,20,21,21,22,22,23,23,25,25,26,26,29,29,30,30,31,31,32,32,33,33,34,34,35,35,36,36,38,38,40,40,41,41,43,43,44,44,45,45,46,46,48,48,49,49,50,50,51,51,53,53,54,54,55,55,56,56,57,57,58,58,62,62,63,63,64,64,65,65],"right_children":[2,4,6,8,-1,10,12,14,16,18,20,22,24,26,28,-1,-1,30,32,34,36,38,40,42,-1,44,46,-1,-1,48,50,52,54,56,58,60,62,-1,64,-1,66,68,-1,70,72,74,76,-1,78,80,82,84,-1,86,88,90,92,94,96,-1,-1,-1,98,100,102,104,-1,-1,-1,-1,-1,-1,-1,-1,-1,-1,-1,-1,-1,-1,-1,-1,-1,-1,-1,-1,-1,-1,-1,-1,-1,-1,-1,-1,-1,-1,-1,-1,-1,-1,-1,-1,-1,-1,-1],"split_conditions":[1.072307E0,7.7463636E0,2.362377E-1,2.4348476E0,1.027679E0,3.6524174E0,8.009198E0,5.497226E0,5.5242515E-1,4.1988924E-2,5.5291045E-1,6.433763E0,1.4822793E0,4.3315478E-4,2.0834293E0,-1.04132235E-1,5.033058E-1,4.4689856E0,8.651963E-1,1.5423608E0,2.2393918E0,2.8625278E0,4.384237E-1,6.0760927E0,-1.3056995E-1,1.9842432E0,2.431662E1,-1.3317074E-1,1.733945E-1,1.1478282E-1,1.801219E1,4.6298943E0,3.0013233E-1,1.9601617E-2,1.7434084E-1,4.5608883E0,7.7529335E-1,5.3503186E-1,5.770868E-1,1.8827586E-1,3.3296695E0,4.7468754E1,1.735537E-2,4.9041042E1,1.3832578E1,1.4695199E1,1.0736596E1,8.6896546E-2,2.4845038E-2,3.2437057E0,2.1013978E0,1.2768586E-3,3.8532108E-2,4.6698513E0,2.7039697E0,3.0084372E-1,8.332334E0,4.5204854E0,1.2840905E0,-1.2038217E-1,1.733945E-1,8.6896546E-2,7.66722E-1,7.817465E-2,2.1269363E-1,1.3527652E0,3.8532108E-2,8.85623E-1,1.733945E-1,1.3884297E-1,-1.6518867E-1,3.082569E-1,-1.1586207E-1,-1.7473112E-1,-4.6408843E-2,-1.5938334E-1,7.924528E-2,2.9707316E-1,8.833948E-1,-1.9399542E-2,3.485477E-1,6.249807E-1,-1.04132235E-1,1.3884297E-1,1.0353854E0,1.0097494E0,-1.10526316E-1,8.985037E-1,3.2204473E-1,1.4854534E-1,6.0967743E-1,-1.5519631E-1,3.8532108E-2,5.994384E-1,-1.742739E-2,4.9802372E-1,-4.615385E-2,9.427765E-1,2.2105263E-1,-1.4404333E-1,3.012474E-1,1.733945E-1,-1.6225854E-1,3.8532108E-2,-1.7149857E-1],"split_indices":[1768,794,420,2874,0,1916,575,1642,2579,1494,854,98,804,2468,1882,0,0,607,2745,2540,1687,1970,309,652,0,273,2953,0,0,291,2070,2746,162,2030,776,512,2683,0,1991,0,12,827,0,1104,1027,2258,2543,0,18,67,648,1744,0,2393,8,733,1792,1916,1301,0,0,0,1282,663,1612,281,0,0,0,0,0,0,0,0,0,0,0,0,0,0,0,0,0,0,0,0,0,0,0,0,0,0,0,0,0,0,0,0,0,0,0,0,0,0,0],"split_type":[0,0,0,0,0,0,0,0,0,0,0,0,0,0,0,0,0,0,0,0,0,0,0,0,0,0,0,0,0,0,0,0,0,0,0,0,0,0,0,0,0,0,0,0,0,0,0,0,0,0,0,0,0,0,0,0,0,0,0,0,0,0,0,0,0,0,0,0,0,0,0,0,0,0,0,0,0,0,0,0,0,0,0,0,0,0,0,0,0,0,0,0,0,0,0,0,0,0,0,0,0,0,0,0,0],"sum_hessian":[1.045156E5,9.308425E4,1.1431348E4,9.303821E4,4.604082E1,1.1337307E4,9.4040825E1,9.303527E4,2.9387758E0,1.1177878E4,1.5942859E2,8.302042E1,1.1020409E1,9.303087E4,4.4081635E0,1.4693879E0,1.4693879E0,8.1551025E1,1.1096327E4,1.0995919E2,4.946939E1,2.9632656E1,5.338776E1,8.081634E0,2.9387758E0,8.1648987E2,9.2214375E4,3.1836736E0,1.2244899E0,4.2857147E1,3.8693882E1,9.700898E3,1.3954287E3,4.726531E1,6.2693882E1,3.4285717E0,4.604082E1,2.2040818E0,2.7428574E1,1.9591838E0,5.1428574E1,6.6122456E0,1.4693879E0,8.1330615E2,3.1836736E0,9.214213E4,7.22449E1,1.9591838E0,4.089796E1,1.1755103E1,2.6938778E1,9.699674E3,1.2244899E0,9.2865314E2,4.6677554E2,3.8204082E1,9.061225E0,4.6530617E1,1.6163267E1,2.2040818E0,1.2244899E0,1.9591838E0,4.4081635E1,1.3469389E1,1.3959185E1,5.0204086E1,1.2244899E0,5.3877554E0,1.2244899E0,1.4693879E0,8.118368E2,1.2244899E0,1.9591838E0,9.213944E4,2.6938777E0,6.783674E1,4.4081635E0,3.1836736E0,3.7714287E1,7.8367352E0,3.9183676E0,2.5469389E1,1.4693879E0,1.4693879E0,9.698205E3,9.2693884E2,1.7142859E0,4.613878E2,5.3877554E0,3.4775513E1,3.4285717E0,7.8367352E0,1.2244899E0,4.2612247E1,3.9183676E0,4.1632657E0,1.2000001E1,4.236735E1,1.7142859E0,4.6530614E0,8.816327E0,1.2244899E0,1.27346945E1,1.2244899E0,4.8979595E1],"tree_param":{"num_deleted":"0","num_feature":"3000","num_nodes":"105","size_leaf_vector":"1"}},{"base_weights":[-3.683571E-1,-5.750217E-1,3.4936895E0,-5.7976437E-1,2.8609328E0,3.4946299E0,1.735537E-2,-5.810032E-1,4.7219798E-1,1.038914E0,3.192287E0,1.733945E-1,3.4951942E0,-5.8112425E-1,6.092843E-1,1.9999999E0,2.7869487E-1,-1.778291E-1,1.699029E0,3.2548661E0,7.5121945E-1,2.8965518E-1,3.4959464E0,-4.0555507E-1,-5.815444E-1,-2.4396783E-1,6.3108814E-1,2.392405E0,-1.10526316E-1,5.6436423E-2,8.2938385E-1,3.082569E-1,-1.5201074E-1,2.2495272E0,1.4522819E-1,3.2963235E0,1.1052631E-1,5.033058E-1,-1.10526316E-1,1.0489534E0,1.733945E-1,-5.336516E-1,-2.4466276E-1,-5.81605E-1,8.731807E-2,1.733945E-1,-1.4760384E-1,2.7545638E0,-9.633028E-2,-5.4294758E-2,1.3806227E0,3.6014965E-1,1.8380743E0,6.5745854E-1,2.697733E0,3.082569E-1,-1.2762432E-1,1.2292682E0,3.3462048E0,-1.6903003E-1,1.9723757E-1,-1.2363233E-1,3.2567482E-2,-1.7448758E-1,-9.17031E-3,4.924138E-1,-1.5272728E-1,8.9287406E-1,2.603306E-1,-3.832794E-2,5.5263156E-1,6.845304E-1,-2.6751596E-2,-1.5340051E-1,2.4466018E-1,-9.633028E-2,6.6120905E-1,-1.04132235E-1,4.4311926E-1,1.733945E-1,8.9732933E-1,5.5263156E-1,1.735537E-2,1.0118145E0,1.733945E-1],"categories":[],"categories_nodes":[],"categories_segments":[],"categories_sizes":[],"default_left":[0,0,0,0,0,0,0,0,0,0,0,0,0,0,0,0,0,0,0,0,0,0,0,0,0,0,0,0,0,0,0,0,0,0,0,0,0,0,0,0,0,0,0,0,0,0,0,0,0,0,0,0,0,0,0,0,0,0,0,0,0,0,0,0,0,0,0,0,0,0,0,0,0,0,0,0,0,0,0,0,0,0,0,0,0],"id":3,"left_children":[1,3,5,7,9,11,-1,13,15,17,19,-1,21,23,25,27,29,31,33,35,37,-1,39,41,43,45,-1,47,-1,49,51,-1,-1,53,55,57,-1,-1,-1,-1,-1,59,61,63,65,-1,-1,67,-1,69,71,73,75,77,79,-1,-1,81,83,-1,-1,-1,-1,-1,-1,-1,-1,-1,-1,-1,-1,-1,-1,-1,-1,-1,-1,-1,-1,-1,-1,-1,-1,-1,-1],"loss_changes":[8.3421766E4,1.6183242E3,1.6953125E1,1.2938281E2,7.93457E1,6.7148438E0,0E0,1.4613281E1,3.4055973E1,1.84149E1,1.5178467E1,0E0,6.7226562E0,7.0664062E0,1.3966306E1,1.296336E1,1.281469E1,4.0236015E0,1.2259377E1,1.2209839E1,4.957859E0,0E0,6.7265625E0,4.8061028E0,4.0507812E0,1.836362E0,0E0,1.1975189E1,0E0,1.1209766E1,1.3604996E1,0E0,0E0,5.9300385E0,2.9133976E0,7.2767334E0,0E0,0E0,0E0,0E0,0E0,5.071022E0,6.433616E0,1.0820312E0,9.933933E0,0E0,0E0,1.625618E0,0E0,1.0132689E1,8.015308E0,9.0750475E0,8.077194E0,3.5540466E0,3.3095398E0,0E0,0E0,2.8968391E0,5.92395E0,0E0,0E0,0E0,0E0,0E0,0E0,0E0,0E0,0E0,0E0,0E0,0E0,0E0,0E0,0E0,0E0,0E0,0E0,0E0,0E0,0E0,0E0,0E0,0E0,0E0,0E0],"parents":[2147483647,0,0,1,1,2,2,3,3,4,4,5,5,7,7,8,8,9,9,10,10,12,12,13,13,14,14,15,15,16,16,17,17,18,18,19,19,20,20,22,22,23,23,24,24,25,25,27,27,29,29,30,30,33,33,34,34,35,35,41,41,42,42,43,43,44,44,47,47,49,49,50,50,51,51,52,52,53,53,54,54,57,57,58,58],"right_children":[2,4,6,8,10,12,-1,14,16,18,20,-1,22,24,26,28,30,32,34,36,38,-1,40,42,44,46,-1,48,-1,50,52,-1,-1,54,56,58,-1,-1,-1,-1,-1,60,62,64,66,-1,-1,68,-1,70,72,74,76,78,80,-1,-1,82,84,-1,-1,-1,-1,-1,-1,-1,-1,-1,-1,-1,-1,-1,-1,-1,-1,-1,-1,-1,-1,-1,-1,-1,-1,-1,-1],"split_conditions":[1.0816148E2,2.501504E0,7.7716827E0,1.8511766E0,5.8434415E0,1.2642733E-2,1.735537E-2,1.8149292E0,1.7647095E0,9.187779E-2,5.733158E-1,1.733945E-1,5.994065E-1,2.5748493E-2,8.78454E-1,6.285804E-1,1.8822845E1,4.031485E-1,3.4330676E0,4.275682E-1,4.448707E0,2.8965518E-1,5.333241E-2,1.8031228E-1,1.2147092E0,2.5651067E-1,6.3108814E-1,1.0742488E1,-1.10526316E-1,2.2706506E0,5.7332013E-3,3.082569E-1,-1.5201074E-1,4.026985E0,1.987238E-2,2.0270969E-1,1.1052631E-1,5.033058E-1,-1.10526316E-1,1.0489534E0,1.733945E-1,2.0599116E-1,9.229255E-1,4.442451E0,1.5025679E0,1.733945E-1,-1.4760384E-1,1.4211812E0,-9.633028E-2,6.601665E0,8.19575E-1,1.9739698E0,3.876719E-1,5.214181E0,3.7881088E-1,3.082569E-1,-1.2762432E-1,1.6992565E0,9.608806E0,-1.6903003E-1,1.9723757E-1,-1.2363233E-1,3.2567482E-2,-1.7448758E-1,-9.17031E-3,4.924138E-1,-1.5272728E-1,8.9287406E-1,2.603306E-1,-3.832794E-2,5.5263156E-1,6.845304E-1,-2.6751596E-2,-1.5340051E-1,2.4466018E-1,-9.633028E-2,6.6120905E-1,-1.04132235E-1,4.4311926E-1,1.733945E-1,8.9732933E-1,5.5263156E-1,1.735537E-2,1.0118145E0,1.733945E-1],"split_indices":[1762,1,2802,1758,2844,2073,0,2889,1054,586,2210,0,2891,324,2403,1729,2099,2543,2901,2948,1026,0,862,1497,1744,2816,0,1470,0,11,2470,0,0,428,822,2586,0,0,0,0,0,1836,2878,2280,1880,0,0,276,0,1714,1388,805,322,2305,1188,0,0,1598,2435,0,0,0,0,0,0,0,0,0,0,0,0,0,0,0,0,0,0,0,0,0,0,0,0,0,0],"split_type":[0,0,0,0,0,0,0,0,0,0,0,0,0,0,0,0,0,0,0,0,0,0,0,0,0,0,0,0,0,0,0,0,0,0,0,0,0,0,0,0,0,0,0,0,0,0,0,0,0,0,0,0,0,0,0,0,0,0,0,0,0,0,0,0,0,0,0,0,0,0,0,0,0,0,0,0,0,0,0,0,0,0,0,0,0],"sum_hessian":[1.045156E5,9.920768E4,5.307919E3,9.9071766E4,1.3591838E2,5.306449E3,1.4693879E0,9.895568E4,1.1608164E2,2.1551022E1,1.14367355E2,1.2244899E0,5.305225E3,9.894613E4,9.551021E0,1.2000001E1,1.0408164E2,7.8367352E0,1.3714287E1,1.1118368E2,3.1836736E0,1.9591838E0,5.3032656E3,2.3853062E2,9.87076E4,6.6122456E0,2.9387758E0,1.0285715E1,1.7142859E0,7.493878E1,2.9142859E1,1.2244899E0,6.6122456E0,9.795919E0,3.9183676E0,1.094694E2,1.7142859E0,1.4693879E0,1.7142859E0,5.302041E3,1.2244899E0,1.3151021E2,1.0702042E2,9.869878E4,8.816327E0,1.2244899E0,5.3877554E0,9.061225E0,1.2244899E0,7.0040825E1,4.8979597E0,2.0816328E1,8.326531E0,2.6938777E0,7.1020412E0,1.2244899E0,2.6938777E0,3.1836736E0,1.0628572E2,1.2881633E2,2.6938777E0,7.24898E1,3.4530613E1,9.869511E4,3.6734695E0,1.9591838E0,6.8571434E0,7.5918374E0,1.4693879E0,6.832654E1,1.7142859E0,2.6938777E0,2.2040818E0,7.1020412E0,1.3714287E1,1.2244899E0,7.1020412E0,1.4693879E0,1.2244899E0,1.2244899E0,5.8775516E0,1.7142859E0,1.4693879E0,1.0506123E2,1.2244899E0],"tree_param":{"num_deleted":"0","num_feature":"3000","num_nodes":"85","size_leaf_vector":"1"}},{"base_weights":[-3.480828E-1,-5.69876E-1,3.4845214E0,-5.756067E-1,9.8066676E-1,3.4860902E0,-1.2038217E-1,1.0682691E-1,-5.777025E-1,-4.3040136E-1,2.1685057E0,3.4876568E0,8.2532746E-1,1.2789128E0,-4.955689E-1,-5.778144E-1,2.032258E0,6.8428E-1,-5.4025906E-1,2.4758842E0,1.2795988E0,3.4883537E0,2.2105263E-1,-1.1586207E-1,5.5263156E-1,1.743231E0,3.4008095E-1,-5.6340104E-1,9.271521E-2,-5.7841563E-1,-4.3212909E-1,7.22293E-1,1.733945E-1,-1.394191E-1,1.1150441E0,-5.6601447E-1,3.9737988E-1,2.553739E0,1.937716E-1,-2.9056603E-1,1.4282708E0,3.082569E-1,1.0466105E0,1.9002894E0,-1.627907E-1,-2.5179857E-1,1.0347825E0,8.6896546E-2,-5.74429E-1,7.6586425E-1,-3.8828966E-1,-5.787035E-1,-4.2606053E-1,-5.413114E-1,1.936021E-1,1.7103274E0,-2.2580646E-1,1.3884297E-1,-1.7381513E-1,4.4311926E-1,-1.2426036E-1,2.6251316E0,7.107692E-1,-1.3548388E-1,3.818182E-1,-1.3317074E-1,3.8532108E-2,1.6525381E0,1.0579343E-1,2.9492846E-1,6.469652E-1,1.733945E-1,-1.394191E-1,1.6556016E-1,-1.4519846E-1,6.631579E-1,2.1298168E-2,3.8532108E-2,-1.7400901E-1,-6.1463416E-2,3.9069766E-1,1.3884297E-1,-1.6013865E-1,-1.5627111E-1,-1.738301E-1,2.3124199E-1,-1.6012964E-1,-1.6495132E-1,3.082569E-1,-8.042554E-2,2.1822064E-1,7.1937716E-1,-2.6751596E-2,3.8532108E-2,-1.2038217E-1,-1.04132235E-1,7.98096E-1,-7.336245E-2,5.937931E-1,6.794842E-1,3.48E-1,-1.4760384E-1,4.4210526E-1],"categories":[],"categories_nodes":[],"categories_segments":[],"categories_sizes":[],"default_left":[0,0,0,0,0,0,0,0,0,0,0,0,0,0,0,0,0,0,0,0,0,0,0,0,0,0,0,0,0,0,0,0,0,0,0,0,0,0,0,0,0,0,0,0,0,0,0,0,0,0,0,0,0,0,0,0,0,0,0,0,0,0,0,0,0,0,0,0,0,0,0,0,0,0,0,0,0,0,0,0,0,0,0,0,0,0,0,0,0,0,0,0,0,0,0,0,0,0,0,0,0,0,0],"id":4,"left_children":[1,3,5,7,9,11,-1,13,15,17,19,21,23,25,27,29,31,33,35,37,39,41,-1,-1,-1,43,45,47,49,51,53,-1,-1,-1,55,57,59,61,63,65,67,-1,-1,69,71,73,75,-1,77,79,81,83,85,87,89,91,93,-1,-1,-1,-1,95,97,-1,-1,-1,-1,99,101,-1,-1,-1,-1,-1,-1,-1,-1,-1,-1,-1,-1,-1,-1,-1,-1,-1,-1,-1,-1,-1,-1,-1,-1,-1,-1,-1,-1,-1,-1,-1,-1,-1,-1],"loss_changes":[8.884584E4,8.7846875E2,3.625E1,1.4085156E2,6.1134937E2,2.0945312E1,0E0,2.1402232E2,2.9833984E1,2.0854881E1,5.0903748E1,8.3828125E0,6.468499E0,4.425322E1,8.046989E0,8.347656E0,1.0260468E0,8.164706E0,3.9158287E0,2.5441833E1,1.27682495E1,1.3046875E0,0E0,0E0,0E0,2.0842773E1,1.4769325E1,1.8576126E0,7.281947E0,4.0410156E0,2.7930061E1,0E0,0E0,0E0,9.589775E0,2.3198242E0,4.7069354E0,1.6696777E1,4.6817727E0,4.044837E-1,1.4212738E1,0E0,0E0,1.279306E1,1.6425693E0,3.972607E0,1.8459406E1,0E0,7.745285E-1,5.1237545E0,1.8872933E0,3.8125E0,2.4659378E1,5.207123E0,1.5288728E1,1.0238718E1,3.268144E-1,0E0,0E0,0E0,0E0,1.5089722E1,8.521811E0,0E0,0E0,0E0,0E0,9.862801E0,7.350382E0,0E0,0E0,0E0,0E0,0E0,0E0,0E0,0E0,0E0,0E0,0E0,0E0,0E0,0E0,0E0,0E0,0E0,0E0,0E0,0E0,0E0,0E0,0E0,0E0,0E0,0E0,0E0,0E0,0E0,0E0,0E0,0E0,0E0,0E0],"parents":[2147483647,0,0,1,1,2,2,3,3,4,4,5,5,7,7,8,8,9,9,10,10,11,11,12,12,13,13,14,14,15,15,16,16,17,17,18,18,19,19,20,20,21,21,25,25,26,26,27,27,28,28,29,29,30,30,34,34,35,35,36,36,37,37,38,38,39,39,40,40,43,43,44,44,45,45,46,46,48,48,49,49,50,50,51,51,52,52,53,53,54,54,55,55,56,56,61,61,62,62,67,67,68,68],"right_children":[2,4,6,8,10,12,-1,14,16,18,20,22,24,26,28,30,32,34,36,38,40,42,-1,-1,-1,44,46,48,50,52,54,-1,-1,-1,56,58,60,62,64,66,68,-1,-1,70,72,74,76,-1,78,80,82,84,86,88,90,92,94,-1,-1,-1,-1,96,98,-1,-1,-1,-1,100,102,-1,-1,-1,-1,-1,-1,-1,-1,-1,-1,-1,-1,-1,-1,-1,-1,-1,-1,-1,-1,-1,-1,-1,-1,-1,-1,-1,-1,-1,-1,-1,-1,-1,-1],"split_conditions":[6.7985654E0,1.9190714E1,7.6996384E0,3.099748E-1,6.935389E-1,6.388869E-1,-1.2038217E-1,7.613586E0,5.3168707E0,6.946059E-3,2.0331727E-2,3.2103643E0,1.0938796E0,5.036549E-1,2.4615917E-1,6.1638135E-1,5.1208425E0,5.2041954E-1,1.3422499E0,4.3968508E-1,1.4252213E0,1.4516755E0,2.2105263E-1,-1.1586207E-1,5.5263156E-1,1.5797423E-2,6.823177E-1,7.8801936E-1,5.5814497E-2,7.368967E1,1.81983E0,7.22293E-1,1.733945E-1,-1.394191E-1,2.505102E0,5.411037E-1,3.7567754E0,1.4792783E0,2.6086078E0,2.4061042E-1,3.165712E-1,3.082569E-1,1.0466105E0,3.4239594E-2,4.5044854E-1,1.2688255E0,2.3461E0,8.6896546E-2,7.9126554E0,8.8995956E-2,2.1207996E-1,2.66423E-3,3.246151E-1,8.4573074E1,5.728605E-1,3.9827132E-1,1.3571337E0,1.3884297E-1,-1.7381513E-1,4.4311926E-1,-1.2426036E-1,1.4326496E0,5.581721E-2,-1.3548388E-1,3.818182E-1,-1.3317074E-1,3.8532108E-2,1.1207181E0,6.416104E-1,2.9492846E-1,6.469652E-1,1.733945E-1,-1.394191E-1,1.6556016E-1,-1.4519846E-1,6.631579E-1,2.1298168E-2,3.8532108E-2,-1.7400901E-1,-6.1463416E-2,3.9069766E-1,1.3884297E-1,-1.6013865E-1,-1.5627111E-1,-1.738301E-1,2.3124199E-1,-1.6012964E-1,-1.6495132E-1,3.082569E-1,-8.042554E-2,2.1822064E-1,7.1937716E-1,-2.6751596E-2,3.8532108E-2,-1.2038217E-1,-1.04132235E-1,7.98096E-1,-7.336245E-2,5.937931E-1,6.794842E-1,3.48E-1,-1.4760384E-1,4.4210526E-1],"split_indices":[1335,1767,2375,2985,2027,589,0,2484,359,1861,401,1314,2352,2649,1604,2769,514,536,1875,2333,641,2951,0,0,0,1324,1160,1298,2619,2901,2734,0,0,0,601,2076,92,2789,1308,768,53,0,0,235,768,1287,2189,0,2484,838,1082,956,1411,700,571,1296,256,0,0,0,0,2677,1603,0,0,0,0,2350,2408,0,0,0,0,0,0,0,0,0,0,0,0,0,0,0,0,0,0,0,0,0,0,0,0,0,0,0,0,0,0,0,0,0,0],"split_type":[0,0,0,0,0,0,0,0,0,0,0,0,0,0,0,0,0,0,0,0,0,0,0,0,0,0,0,0,0,0,0,0,0,0,0,0,0,0,0,0,0,0,0,0,0,0,0,0,0,0,0,0,0,0,0,0,0,0,0,0,0,0,0,0,0,0,0,0,0,0,0,0,0,0,0,0,0,0,0,0,0,0,0,0,0,0,0,0,0,0,0,0,0,0,0,0,0,0,0,0,0,0,0],"sum_hessian":[1.045156E5,9.8798945E4,5.7166533E3,9.8435766E4,3.631837E2,5.714449E3,2.2040818E0,3.0122452E2,9.813454E4,1.6628572E2,1.9689798E2,5.710776E3,3.6734695E0,1.01877556E2,1.9934695E2,9.813111E4,3.4285717E0,1.444898E1,1.5183675E2,1.449796E2,5.191837E1,5.7090615E3,1.7142859E0,1.9591838E0,1.7142859E0,6.759184E1,3.4285717E1,1.7877553E2,2.057143E1,9.772482E4,4.0628574E2,2.2040818E0,1.2244899E0,3.9183676E0,1.0530613E1,1.4816327E2,3.6734695E0,1.4008165E2,4.8979597E0,4.4081635E0,4.751021E1,1.2244899E0,5.707837E3,6.2448982E1,5.1428576E0,1.8857143E1,1.5428573E1,1.9591838E0,1.7681635E2,8.326531E0,1.2244899E1,9.753772E4,1.8710205E2,3.4604083E2,6.0244904E1,7.1020412E0,3.4285717E0,1.4693879E0,1.466939E2,1.2244899E0,2.4489799E0,1.3444899E2,5.632653E0,3.4285717E0,1.4693879E0,3.1836736E0,1.2244899E0,4.0408165E1,7.1020412E0,1.4693878E1,4.7755104E1,1.2244899E0,3.9183676E0,3.9183676E0,1.4938777E1,6.3673472E0,9.061225E0,1.2244899E0,1.7559184E2,3.1836736E0,5.1428576E0,1.4693879E0,1.0775511E1,1.2257144E3,9.631201E4,1.4938777E1,1.7216328E2,3.4481635E2,1.2244899E0,3.257143E1,2.7673471E1,4.8979597E0,2.2040818E0,1.2244899E0,2.2040818E0,1.4693879E0,1.329796E2,3.6734695E0,1.9591838E0,1.6408165E1,2.4000002E1,5.3877554E0,1.7142859E0],"tree_param":{"num_deleted":"0","num_feature":"3000","num_nodes":"103","size_leaf_vector":"1"}},{"base_weights":[1.3292297E0,-5.5939174E-1,3.436347E0,-5.6726515E-1,-3.7362787E-1,3.4516475E0,1.7097256E-1,-5.6761664E-1,1.301115E-1,-4.0361303E-1,3.6187395E-1,3.214569E0,3.461895E0,-1.5920764E-1,1.8702E0,-5.726039E-1,-5.232745E-1,-2.3178808E-1,1.2462907E0,-5.2909976E-1,-3.0086064E-1,-6.202941E-3,7.4447054E-1,2.974947E0,3.3913343E0,9.554896E-1,3.4621875E0,-2.1243969E-1,1.7433962E0,-9.695292E-2,2.2726088E0,-5.7332456E-1,-3.7759668E-1,-5.302341E-1,-1.8348625E-1,-3.5807422E-1,3.082569E-1,-1.5469614E-1,6.556097E-1,-5.3313655E-1,3.3157894E-1,-3.5289845E-1,-5.068943E-2,-1.1137109E-1,1.3254437E0,3.329368E-2,1.1657914E0,3.3051722E0,2.7987676E0,3.393736E0,3.3157894E-1,1.5684646E0,-1.1586207E-1,3.3806145E0,3.4694328E0,-2.548412E-1,9.554896E-1,7.4556214E-1,8.6896546E-2,-1.4532873E-1,2.603306E-1,-1.04132235E-1,2.412969E0,-5.7448477E-1,-4.7846973E-1,-5.5946714E-1,5.879003E-1,-5.321708E-1,8.206329E-2,-2.55751E-1,1.5806451E0,1.733945E-1,-4.4823906E-1,-1.04132235E-1,3.8532108E-2,-5.371525E-1,7.455621E-1,-3.6936608E-1,7.240063E-2,7.5150776E-1,-1.2192238E-1,-2.2693267E-1,1.198895E0,3.8532108E-2,5.7798165E-1,-4.3992606E-1,7.621776E-1,1.4602431E0,-2.236423E-2,9.9024385E-1,3.3266468E0,2.6159291E0,3.0848994E0,3.396123E0,3.9103448E-1,-1.04132235E-1,7.4556214E-1,3.0326505E0,1.0188191E0,3.4701014E0,2.6122227E0,-2.9561752E-1,9.767441E-1,-5.8091298E-2,6.9517237E-1,-1.04132235E-1,2.5678391E0,-1.723582E-1,1.733945E-1,1.0194174E-1,-1.4969063E-1,-1.7180508E-1,1.3884297E-1,2.7305892E-1,-1.1454546E-1,-1.608298E-1,-9.4452776E-2,4.025907E-1,-7.99718E-2,1.3256814E-1,-1.081326E-1,-9.633028E-2,7.22293E-1,8.6896546E-2,-1.6480382E-1,2.2105263E-1,-1.6205502E-1,4.4311926E-1,-9.633028E-2,-1.16759874E-1,-9.585398E-3,-1.2627198E-1,2.1913043E-1,1.9414477E-2,7.6113534E-1,-5.941734E-2,1.5401386E-1,2.2655602E-1,-1.0540541E-1,-9.633028E-2,6.2479335E-1,3.8532108E-2,-1.5717256E-1,4.7419354E-1,-1.2762432E-1,2.3773579E-2,5.416178E-1,3.082569E-1,-1.4110672E-1,-1.4482763E-2,5.7798165E-1,1.733945E-1,1.0008209E0,7.9616666E-1,3.886248E-1,9.3148476E-1,1.735537E-2,1.0193177E0,3.082569E-1,1.1052631E-1,9.170901E-1,1.0410647E0,1.1052631E-1,1.9723757E-1,8.231217E-1,-1.2248144E-1,1.3166139E-2,6.0331494E-1,-1.2426036E-1,1.733945E-1,-1.2762432E-1,-9.633028E-2,8.129032E-1],"categories":[],"categories_nodes":[],"categories_segments":[],"categories_sizes":[],"default_left":[0,0,0,0,0,0,0,0,0,0,0,0,0,0,0,0,0,0,0,0,0,0,0,0,0,0,0,0,0,0,0,0,0,0,0,0,0,0,0,0,0,0,0,0,0,0,0,0,0,0,0,0,0,0,0,0,0,0,0,0,0,0,0,0,0,0,0,0,0,0,0,0,0,0,0,0,0,0,0,0,0,0,0,0,0,0,0,0,0,0,0,0,0,0,0,0,0,0,0,0,0,0,0,0,0,0,0,0,0,0,0,0,0,0,0,0,0,0,0,0,0,0,0,0,0,0,0,0,0,0,0,0,0,0,0,0,0,0,0,0,0,0,0,0,0,0,0,0,0,0,0,0,0,0,0,0,0,0,0,0,0,0,0,0,0,0,0,0,0,0,0,0,0],"id":5,"left_children":[1,3,5,7,9,11,13,15,17,19,21,23,25,27,29,31,33,35,37,39,41,43,45,47,49,51,53,55,57,59,61,63,65,67,69,71,-1,73,-1,75,-1,77,79,81,83,85,87,89,91,93,-1,95,-1,97,99,101,103,-1,-1,-1,-1,-1,105,107,109,111,113,115,117,119,121,-1,123,-1,-1,125,127,129,131,133,135,137,139,-1,-1,141,143,145,147,149,151,153,155,157,-1,-1,-1,159,-1,161,163,165,167,169,-1,-1,171,-1,-1,-1,-1,-1,-1,-1,-1,-1,-1,-1,-1,-1,-1,-1,-1,-1,-1,-1,-1,-1,-1,-1,-1,-1,-1,-1,-1,-1,-1,-1,-1,-1,-1,-1,-1,-1,-1,-1,-1,-1,-1,-1,-1,-1,-1,-1,-1,-1,-1,-1,-1,-1,-1,-1,-1,-1,-1,-1,-1,-1,-1,-1,-1,-1,-1],"loss_changes":[4.1593062E5,8.040039E1,2.4675625E3,1.3033203E1,4.9635986E1,1.083125E2,1.3015251E2,1.1388672E1,1.1376749E1,2.764804E1,1.2457566E1,7.6796875E1,3.125E1,2.009093E1,3.0091125E1,6.4589844E0,1.2564941E1,3.7985098E0,9.386392E0,6.9860535E0,1.5448189E1,6.5983443E0,1.2955502E1,4.188672E1,2.6904297E0,6.262034E0,1.6125E1,9.667836E0,5.112316E0,3.1743355E0,1.237146E1,4.932617E0,3.155264E1,6.2648926E0,1.4300068E1,1.9763422E0,0E0,2.4582013E-1,0E0,5.3706665E0,0E0,6.9133453E0,1.1847898E1,6.8756785E0,2.234407E0,6.255295E0,9.550129E0,1.16328125E1,2.2257324E1,1.4179688E0,0E0,9.499712E0,0E0,1.05703125E1,1.56875E1,9.550658E0,9.627321E0,0E0,0E0,0E0,0E0,0E0,1.367128E1,2.6269531E0,9.860397E0,2.293602E0,9.309035E0,4.296509E0,8.004239E0,7.8699102E0,7.7380905E0,0E0,1.5857744E0,0E0,0E0,4.1257324E0,3.165409E0,6.323639E0,1.2477119E1,2.0583553E1,9.2829E0,5.2653146E0,5.6307106E0,0E0,0E0,5.9430003E-1,7.595488E0,1.0255699E1,3.4877214E0,4.161339E0,5.765869E0,1.4620605E1,1.3198486E1,9.482422E-1,0E0,0E0,0E0,1.0171387E1,0E0,1.40625E1,7.8970947E0,6.874975E0,9.670477E0,1.39503E0,0E0,0E0,1.2519012E1,0E0,0E0,0E0,0E0,0E0,0E0,0E0,0E0,0E0,0E0,0E0,0E0,0E0,0E0,0E0,0E0,0E0,0E0,0E0,0E0,0E0,0E0,0E0,0E0,0E0,0E0,0E0,0E0,0E0,0E0,0E0,0E0,0E0,0E0,0E0,0E0,0E0,0E0,0E0,0E0,0E0,0E0,0E0,0E0,0E0,0E0,0E0,0E0,0E0,0E0,0E0,0E0,0E0,0E0,0E0,0E0,0E0,0E0,0E0,0E0,0E0,0E0,0E0,0E0,0E0,0E0],"parents":[2147483647,0,0,1,1,2,2,3,3,4,4,5,5,6,6,7,7,8,8,9,9,10,10,11,11,12,12,13,13,14,14,15,15,16,16,17,17,18,18,19,19,20,20,21,21,22,22,23,23,24,24,25,25,26,26,27,27,28,28,29,29,30,30,31,31,32,32,33,33,34,34,35,35,37,37,39,39,41,41,42,42,43,43,44,44,45,45,46,46,47,47,48,48,49,49,51,51,53,53,54,54,55,55,56,56,62,62,63,63,64,64,65,65,66,66,67,67,68,68,69,69,70,70,72,72,75,75,76,76,77,77,78,78,79,79,80,80,81,81,82,82,85,85,86,86,87,87,88,88,89,89,90,90,91,91,92,92,93,93,97,97,99,99,100,100,101,101,102,102,103,103,106,106],"right_children":[2,4,6,8,10,12,14,16,18,20,22,24,26,28,30,32,34,36,38,40,42,44,46,48,50,52,54,56,58,60,62,64,66,68,70,72,-1,74,-1,76,-1,78,80,82,84,86,88,90,92,94,-1,96,-1,98,100,102,104,-1,-1,-1,-1,-1,106,108,110,112,114,116,118,120,122,-1,124,-1,-1,126,128,130,132,134,136,138,140,-1,-1,142,144,146,148,150,152,154,156,158,-1,-1,-1,160,-1,162,164,166,168,170,-1,-1,172,-1,-1,-1,-1,-1,-1,-1,-1,-1,-1,-1,-1,-1,-1,-1,-1,-1,-1,-1,-1,-1,-1,-1,-1,-1,-1,-1,-1,-1,-1,-1,-1,-1,-1,-1,-1,-1,-1,-1,-1,-1,-1,-1,-1,-1,-1,-1,-1,-1,-1,-1,-1,-1,-1,-1,-1,-1,-1,-1,-1,-1,-1,-1,-1,-1,-1],"split_conditions":[4.300699E0,4.4443923E-1,2.4437907E0,4.457894E0,9.036306E-1,6.255871E0,1.4128897E0,8.8674426E-1,3.8238305E-1,1.1617762E0,2.997572E0,7.165202E-2,4.0844383E0,2.465737E0,9.671676E-2,4.345181E0,1.2739073E-1,4.39454E-1,2.991016E-1,1.8291895E-1,5.7354474E-1,1.234211E0,5.030097E-1,5.548163E-1,2.6517317E-1,6.6071135E-1,9.640406E-3,6.9843783E0,8.989709E-1,2.1272862E0,1.3900006E0,8.0637515E-1,1.2570348E0,2.1274056E0,1.6344407E0,8.729393E-1,3.082569E-1,2.6272565E-2,6.556097E-1,2.8299248E0,3.3157894E-1,1.1523324E0,8.94441E-2,6.1611755E1,4.4322437E-1,5.064968E-1,3.44175E-1,1.343199E1,5.474277E0,3.0068054E0,3.3157894E-1,7.844508E-1,-1.1586207E-1,3.195231E-1,5.966979E-1,4.071746E1,7.002582E0,7.4556214E-1,8.6896546E-2,-1.4532873E-1,2.603306E-1,-1.04132235E-1,7.073253E-1,4.7954135E0,4.710517E-1,2.0742157E0,7.7008826E-1,6.6599214E-1,1.5422116E-1,7.383459E-2,4.1976017E-1,1.733945E-1,2.0788333E0,-1.04132235E-1,3.8532108E-2,2.7461264E-2,1.2632897E0,2.1116514E0,4.7964388E-1,2.9449878E0,2.4462736E0,2.915109E0,3.9887447E1,3.8532108E-2,5.7798165E-1,1.9001123E-2,3.7093464E-1,8.9557126E-2,2.6362789E0,1.6992029E0,1.395901E1,6.929062E1,1.40633E0,1.6949714E0,3.9103448E-1,-1.04132235E-1,7.4556214E-1,1.3135524E1,1.0188191E0,1.1872102E0,1.7589555E0,6.341268E-1,1.372441E0,9.0555105E0,6.9517237E-1,-1.04132235E-1,4.4677022E-1,-1.723582E-1,1.733945E-1,1.0194174E-1,-1.4969063E-1,-1.7180508E-1,1.3884297E-1,2.7305892E-1,-1.1454546E-1,-1.608298E-1,-9.4452776E-2,4.025907E-1,-7.99718E-2,1.3256814E-1,-1.081326E-1,-9.633028E-2,7.22293E-1,8.6896546E-2,-1.6480382E-1,2.2105263E-1,-1.6205502E-1,4.4311926E-1,-9.633028E-2,-1.16759874E-1,-9.585398E-3,-1.2627198E-1,2.1913043E-1,1.9414477E-2,7.6113534E-1,-5.941734E-2,1.5401386E-1,2.2655602E-1,-1.0540541E-1,-9.633028E-2,6.2479335E-1,3.8532108E-2,-1.5717256E-1,4.7419354E-1,-1.2762432E-1,2.3773579E-2,5.416178E-1,3.082569E-1,-1.4110672E-1,-1.4482763E-2,5.7798165E-1,1.733945E-1,1.0008209E0,7.9616666E-1,3.886248E-1,9.3148476E-1,1.735537E-2,1.0193177E0,3.082569E-1,1.1052631E-1,9.170901E-1,1.0410647E0,1.1052631E-1,1.9723757E-1,8.231217E-1,-1.2248144E-1,1.3166139E-2,6.0331494E-1,-1.2426036E-1,1.733945E-1,-1.2762432E-1,-9.633028E-2,8.129032E-1],"split_indices":[2322,715,1749,2538,1515,1470,604,389,1841,2772,113,1228,1570,2635,425,814,1014,1121,2813,296,1928,2410,739,2959,326,2423,1562,480,935,1074,1468,2704,346,997,1315,1380,0,0,0,90,0,1579,1753,1661,1024,2341,1574,2367,1951,154,0,970,0,2884,1283,1996,1960,0,0,0,0,0,980,1249,494,29,1672,47,1197,1887,1797,0,490,0,0,2317,271,2895,2979,1530,1516,783,1795,0,0,2563,304,947,1047,2054,1486,2824,1082,588,0,0,0,2459,0,1611,644,2836,2852,512,0,0,1194,0,0,0,0,0,0,0,0,0,0,0,0,0,0,0,0,0,0,0,0,0,0,0,0,0,0,0,0,0,0,0,0,0,0,0,0,0,0,0,0,0,0,0,0,0,0,0,0,0,0,0,0,0,0,0,0,0,0,0,0,0,0,0,0,0,0],"split_type":[0,0,0,0,0,0,0,0,0,0,0,0,0,0,0,0,0,0,0,0,0,0,0,0,0,0,0,0,0,0,0,0,0,0,0,0,0,0,0,0,0,0,0,0,0,0,0,0,0,0,0,0,0,0,0,0,0,0,0,0,0,0,0,0,0,0,0,0,0,0,0,0,0,0,0,0,0,0,0,0,0,0,0,0,0,0,0,0,0,0,0,0,0,0,0,0,0,0,0,0,0,0,0,0,0,0,0,0,0,0,0,0,0,0,0,0,0,0,0,0,0,0,0,0,0,0,0,0,0,0,0,0,0,0,0,0,0,0,0,0,0,0,0,0,0,0,0,0,0,0,0,0,0,0,0,0,0,0,0,0,0,0,0,0,0,0,0,0,0,0,0,0,0],"sum_hessian":[1.045156E5,5.5115758E4,4.939984E4,5.287274E4,2.2430205E3,4.916939E4,2.3044899E2,5.284629E4,2.6448982E1,2.155592E3,8.742858E1,2.050286E3,4.7119105E4,1.937143E2,3.6734695E1,4.749282E4,5.3534697E3,2.057143E1,5.8775516E0,9.685715E2,1.1870205E3,4.5061226E1,4.236735E1,8.779592E2,1.1723267E3,5.8775516E0,4.7113227E4,1.8930614E2,4.4081635E0,6.3673472E0,3.036735E1,4.7316004E4,1.7681635E2,5.2454697E3,1.0800001E2,1.9346941E1,1.2244899E0,2.6938777E0,3.1836736E0,9.6685724E2,1.7142859E0,9.8228577E2,2.0473471E2,4.2612247E1,2.4489799E0,1.6163267E1,2.6204084E1,2.9926532E2,5.786939E2,1.1706123E3,1.7142859E0,3.9183676E0,1.9591838E0,3.881388E3,4.323184E4,1.8342859E2,5.8775516E0,2.4489799E0,1.9591838E0,4.8979597E0,1.4693879E0,1.4693879E0,2.889796E1,4.673927E4,5.7673474E2,1.4914287E2,2.7673471E1,5.2290615E3,1.6408165E1,1.04571434E2,3.4285717E0,1.2244899E0,1.812245E1,1.4693879E0,1.2244899E0,9.644082E2,2.4489799E0,9.4579596E2,3.64898E1,1.5918368E1,1.8881635E2,3.991837E1,2.6938777E0,1.2244899E0,1.2244899E0,1.0040817E1,6.1224494E0,2.0816328E1,5.3877554E0,3.1836736E0,2.9608167E2,3.5926532E2,2.1942859E2,1.1686532E3,1.9591838E0,1.4693879E0,2.4489799E0,1.7338777E2,3.7080002E3,4.3195105E4,3.6734695E1,1.7828572E2,5.1428576E0,3.9183676E0,1.9591838E0,1.4693879E0,2.7428574E1,4.6738043E4,1.2244899E0,1.3714287E1,5.6302045E2,1.4767348E2,1.4693879E0,2.0816328E1,6.8571434E0,5.134776E3,9.428572E1,2.9387758E0,1.3469389E1,1.3224491E1,9.134695E1,1.2244899E0,2.2040818E0,1.9591838E0,1.6163267E1,1.7142859E0,9.62694E2,1.2244899E0,1.2244899E0,8.9314294E2,5.2653065E1,2.1061226E1,1.5428573E1,1.2244899E1,3.6734695E0,1.692245E2,1.9591839E1,3.9183676E0,3.6000004E1,1.2244899E0,1.4693879E0,1.2244899E0,8.816327E0,3.4285717E0,2.6938777E0,4.4081635E0,1.6408165E1,1.2244899E0,4.1632657E0,1.9591838E0,1.2244899E0,1.2244899E0,2.9485718E2,3.4824493E2,1.1020409E1,2.179592E2,1.4693879E0,1.1674287E3,1.2244899E0,1.7142859E0,1.7167348E2,4.319339E4,1.7142859E0,2.6938777E0,3.4040817E1,1.337143E2,4.457143E1,2.6938777E0,2.4489799E0,1.2244899E0,2.6938777E0,1.2244899E0,2.6204084E1],"tree_param":{"num_deleted":"0","num_feature":"3000","num_nodes":"173","size_leaf_vector":"1"}},{"base_weights":[-5.412961E-1,-5.804524E-1,2.7634926E0,-5.8072275E-1,4.4878405E-1,-4.686496E-1,3.3798754E0,-5.808871E-1,7.692307E-1,-7.5201444E-2,2.3979237E0,-5.642087E-1,1.2727273E0,3.4759932E0,2.3623638E0,-5.810125E-1,-1.2017183E-2,2.116279E0,-3.8181818E-1,-3.935135E-1,1.1618257E0,1.733945E-1,8.2532746E-1,-1.7405738E-1,2.2105263E-1,1.803324E0,3.4146328E-2,3.4802248E0,2.2105263E-1,2.4430494E0,-1.2426036E-1,-5.81223E-1,-4.0636495E-1,-4.113614E-1,6.3108814E-1,7.7551866E-1,3.8532108E-2,-1.4861539E-1,3.8532108E-2,2.603306E-1,-1.6494724E-1,5.7159764E-1,-1.04132235E-1,2.3501804E0,-3.293941E-9,1.733945E-1,-1.1586207E-1,3.082569E-1,1.0447019E0,1.362416E0,2.6290364E0,-5.8125204E-1,2.2580643E-1,-4.5735025E-1,9.5850617E-1,-1.6596417E-1,2.603306E-1,8.129032E-1,1.733945E-1,4.9480245E-1,2.482428E0,2.7390418E0,8.7197226E-1,-1.7440161E-1,-9.178973E-2,3.082569E-1,-1.2038217E-1,1.733945E-1,-1.4172639E-1,-1.1586207E-1,5.937931E-1,4.064516E-1,-5.3674124E-2,1.733945E-1,8.466403E-1,8.3503693E-1,3.8532108E-2,5.2209944E-1,-1.2038217E-1],"categories":[],"categories_nodes":[],"categories_segments":[],"categories_sizes":[],"default_left":[0,0,0,0,0,0,0,0,0,0,0,0,0,0,0,0,0,0,0,0,0,0,0,0,0,0,0,0,0,0,0,0,0,0,0,0,0,0,0,0,0,0,0,0,0,0,0,0,0,0,0,0,0,0,0,0,0,0,0,0,0,0,0,0,0,0,0,0,0,0,0,0,0,0,0,0,0,0,0],"id":6,"left_children":[1,3,5,7,9,11,13,15,17,19,21,23,25,27,29,31,33,35,37,39,41,-1,-1,-1,-1,43,45,47,-1,49,-1,51,53,55,-1,-1,-1,-1,-1,-1,-1,-1,-1,57,-1,-1,-1,-1,-1,59,61,63,65,67,69,-1,-1,-1,-1,71,73,75,77,-1,-1,-1,-1,-1,-1,-1,-1,-1,-1,-1,-1,-1,-1,-1,-1],"loss_changes":[1.3526373E4,2.9011719E1,2.440123E3,2.3355469E1,2.8464664E1,3.348616E1,9.233789E1,7.359375E0,2.0964773E1,9.4333315E0,2.2008018E0,4.3236504E0,6.8724194E0,8.298828E0,2.1590576E1,3.5585938E0,2.0952572E1,5.392292E0,5.189351E-1,4.198863E0,6.179226E0,0E0,0E0,0E0,0E0,7.265379E0,1.1796205E0,1.2734375E0,0E0,1.4387756E1,0E0,2.5429688E0,9.318703E0,4.260841E0,0E0,0E0,0E0,0E0,0E0,0E0,0E0,0E0,0E0,2.0354176E0,0E0,0E0,0E0,0E0,0E0,1.3546064E1,1.2147522E1,2.28125E0,2.6387408E0,2.203106E0,7.515811E0,0E0,0E0,0E0,0E0,5.9301777E0,2.5014305E0,7.7943726E0,7.219339E0,0E0,0E0,0E0,0E0,0E0,0E0,0E0,0E0,0E0,0E0,0E0,0E0,0E0,0E0,0E0,0E0],"parents":[2147483647,0,0,1,1,2,2,3,3,4,4,5,5,6,6,7,7,8,8,9,9,10,10,11,11,12,12,13,13,14,14,15,15,16,16,17,17,18,18,19,19,20,20,25,25,26,26,27,27,29,29,31,31,32,32,33,33,43,43,49,49,50,50,51,51,52,52,53,53,54,54,59,59,60,60,61,61,62,62],"right_children":[2,4,6,8,10,12,14,16,18,20,22,24,26,28,30,32,34,36,38,40,42,-1,-1,-1,-1,44,46,48,-1,50,-1,52,54,56,-1,-1,-1,-1,-1,-1,-1,-1,-1,58,-1,-1,-1,-1,-1,60,62,64,66,68,70,-1,-1,-1,-1,72,74,76,78,-1,-1,-1,-1,-1,-1,-1,-1,-1,-1,-1,-1,-1,-1,-1,-1],"split_conditions":[4.008763E0,3.0596592E0,4.7062615E-1,1.4230249E1,4.2668415E1,1.5039277E1,3.6501822E-1,2.779924E0,6.720211E0,8.341223E-1,8.059058E-1,1.9999221E-2,1.0306987E0,1.845851E0,5.765277E0,8.650914E0,2.2969182E-1,3.2436774E0,7.224638E-1,2.6347762E-1,1.917538E0,1.733945E-1,8.2532746E-1,-1.7405738E-1,2.2105263E-1,1.4239495E0,2.306807E-1,2.1036375E0,2.2105263E-1,4.940627E-1,-1.2426036E-1,7.2783084E0,4.4560164E-1,1.2380248E0,6.3108814E-1,7.7551866E-1,3.8532108E-2,-1.4861539E-1,3.8532108E-2,2.603306E-1,-1.6494724E-1,5.7159764E-1,-1.04132235E-1,6.3838696E-1,-3.293941E-9,1.733945E-1,-1.1586207E-1,3.082569E-1,1.0447019E0,7.5422564E0,6.814744E-1,7.830112E0,1.74326E-1,3.5303935E-1,7.784292E0,-1.6596417E-1,2.603306E-1,8.129032E-1,1.733945E-1,1.5091099E-1,8.173678E-2,7.1805863E0,4.32009E0,-1.7440161E-1,-9.178973E-2,3.082569E-1,-1.2038217E-1,1.733945E-1,-1.4172639E-1,-1.1586207E-1,5.937931E-1,4.064516E-1,-5.3674124E-2,1.733945E-1,8.466403E-1,8.3503693E-1,3.8532108E-2,5.2209944E-1,-1.2038217E-1],"split_indices":[2429,691,1160,393,797,820,2813,2010,850,2148,35,803,2403,1635,1704,1916,971,1484,256,2357,2341,0,0,0,0,679,256,1296,0,1685,0,657,2210,1601,0,0,0,0,0,0,0,0,0,436,0,0,0,0,0,1620,1081,2515,1543,1201,2300,0,0,0,0,396,1024,1143,1287,0,0,0,0,0,0,0,0,0,0,0,0,0,0,0,0],"split_type":[0,0,0,0,0,0,0,0,0,0,0,0,0,0,0,0,0,0,0,0,0,0,0,0,0,0,0,0,0,0,0,0,0,0,0,0,0,0,0,0,0,0,0,0,0,0,0,0,0,0,0,0,0,0,0,0,0,0,0,0,0,0,0,0,0,0,0,0,0,0,0,0,0,0,0,0,0,0,0],"sum_hessian":[1.045156E5,1.0329258E5,1.2230205E3,1.0326588E5,2.669388E1,1.9591838E2,1.0271022E3,1.0325388E5,1.2000001E1,2.179592E1,4.8979597E0,1.8636736E2,9.551021E0,9.3624493E2,9.085715E1,1.0323111E5,2.2775513E1,5.1428576E0,6.8571434E0,1.7877552E1,3.9183676E0,1.2244899E0,3.6734695E0,1.8465308E2,1.7142859E0,6.3673472E0,3.1836736E0,9.345307E2,1.7142859E0,8.840817E1,2.4489799E0,1.031045E5,1.2661225E2,1.9836737E1,2.9387758E0,3.9183676E0,1.2244899E0,5.632653E0,1.2244899E0,1.4693879E0,1.6408165E1,2.4489799E0,1.4693879E0,4.6530614E0,1.7142859E0,1.2244899E0,1.9591838E0,1.2244899E0,9.333062E2,1.42040825E1,7.420409E1,1.0310107E5,3.4285717E0,1.22693886E2,3.9183676E0,1.8367348E1,1.4693879E0,3.4285717E0,1.2244899E0,8.816327E0,5.3877554E0,6.930613E1,4.8979597E0,1.03067516E5,3.355102E1,1.2244899E0,2.2040818E0,1.2244899E0,1.214694E2,1.9591838E0,1.9591838E0,3.4285717E0,5.3877554E0,1.2244899E0,4.1632657E0,6.8081635E1,1.2244899E0,2.6938777E0,2.2040818E0],"tree_param":{"num_deleted":"0","num_feature":"3000","num_nodes":"79","size_leaf_vector":"1"}},{"base_weights":[-2.0340063E-1,-5.437109E-1,1.37844E0,-5.465125E-1,9.544251E-1,1.3786453E0,-1.1336725E-1,-5.500162E-1,-2.9544207E-1,-4.3062055E-1,1.2636139E0,1.3797139E0,9.8867315E-1,-5.522233E-1,-4.530211E-1,-3.5287425E-2,-4.9526694E-1,-5.0248206E-1,1.9449867E-1,1.3057226E0,-1.2336554E-1,-1.0923763E-2,1.3798795E0,-1.6612047E-1,1.1071883E0,-5.5239314E-1,2.642319E-1,-5.454247E-1,-3.2258433E-1,-3.9313564E-1,1.3752702E-1,-5.4388946E-1,-3.1385607E-1,6.1203733E-2,-1.6228443E-1,1.3407062E0,-1.1749839E-1,1.3800032E0,-1.0254249E-2,-2.0811556E-1,1.1913834E0,-5.5648386E-1,-5.2024746E-1,-2.641393E-1,1.2951944E0,-5.464467E-1,5.013709E-2,-4.6923235E-1,-1.4965262E-1,-4.2352405E-1,7.808076E-1,-4.095096E-1,2.5549123E-1,4.975886E-2,-5.481394E-1,3.6844268E-1,-3.779829E-1,1.3777392E0,-1.681798E-1,1.3800985E0,1.6069686E-2,-1.2352474E-1,3.5161972E-2,-1.19838275E-1,1.2467883E0,-1.6696696E-1,1.0874048E-1,-1.5645063E-1,3.522088E-2,-1.5614799E-1,2.3353443E-1,1.8319163E-2,5.118503E-1,3.253014E-2,-1.6424067E-1,3.6178235E-2,-1.5027098E-1,-1.5082347E-1,-1.1884479E-2,-1.3469033E-1,2.0531508E-1,5.077181E-1,-1.1036712E-1,3.7802884E-1,-1.4420971E-1,-6.8246454E-2,1.0036559E-1,2.1509749E-1,-1.1578182E-1,4.82433E-2,-1.6509154E-1,3.8556966E-1,-6.899656E-2,1.5691787E-1,-1.2950331E-1,-1.021472E-1,4.1921583E-1,4.7846977E-2,-1.0838437E-1,4.1405705E-1,3.448536E-2,-4.6600956E-2,3.951154E-1],"categories":[],"categories_nodes":[],"categories_segments":[],"categories_sizes":[],"default_left":[0,0,0,0,0,0,0,0,0,0,0,0,0,0,0,0,0,0,0,0,0,0,0,0,0,0,0,0,0,0,0,0,0,0,0,0,0,0,0,0,0,0,0,0,0,0,0,0,0,0,0,0,0,0,0,0,0,0,0,0,0,0,0,0,0,0,0,0,0,0,0,0,0,0,0,0,0,0,0,0,0,0,0,0,0,0,0,0,0,0,0,0,0,0,0,0,0,0,0,0,0,0,0],"id":7,"left_children":[1,3,5,7,9,11,-1,13,15,17,19,21,23,25,27,29,31,33,-1,35,-1,-1,37,-1,39,41,43,45,47,49,51,53,55,-1,-1,57,-1,59,-1,61,63,65,67,69,71,73,-1,75,77,79,81,83,85,87,89,91,93,95,97,99,-1,-1,-1,-1,101,-1,-1,-1,-1,-1,-1,-1,-1,-1,-1,-1,-1,-1,-1,-1,-1,-1,-1,-1,-1,-1,-1,-1,-1,-1,-1,-1,-1,-1,-1,-1,-1,-1,-1,-1,-1,-1,-1],"loss_changes":[4.906842E4,3.1536914E2,6.341797E0,6.570508E1,6.066192E1,5.359375E0,0E0,1.5560547E1,5.3665276E1,2.3699832E0,8.648575E0,3.8222656E0,9.319023E0,1.0158203E1,1.969223E1,2.7863016E1,4.9802856E0,7.974272E-1,0E0,7.2016754E0,0E0,0E0,2.8613281E0,0E0,5.1826973E0,9.203125E0,8.88922E0,7.9296875E-1,1.7326538E1,5.564169E0,1.9720718E1,1.1857605E0,5.643424E0,0E0,0E0,6.400284E0,0E0,1.9550781E0,0E0,2.8224957E-1,4.202484E0,4.4785156E0,6.592285E0,3.399815E0,2.6783009E0,7.0355225E-1,0E0,6.9858856E0,1.2267624E1,4.3566E0,4.8670106E0,7.060586E0,9.647997E0,1.4920717E0,7.8862E-1,6.5028524E0,5.8130913E0,4.1168213E0,2.8133622E-1,1.7070312E0,0E0,0E0,0E0,0E0,4.229706E0,0E0,0E0,0E0,0E0,0E0,0E0,0E0,0E0,0E0,0E0,0E0,0E0,0E0,0E0,0E0,0E0,0E0,0E0,0E0,0E0,0E0,0E0,0E0,0E0,0E0,0E0,0E0,0E0,0E0,0E0,0E0,0E0,0E0,0E0,0E0,0E0,0E0,0E0],"parents":[2147483647,0,0,1,1,2,2,3,3,4,4,5,5,7,7,8,8,9,9,10,10,11,11,12,12,13,13,14,14,15,15,16,16,17,17,19,19,22,22,24,24,25,25,26,26,27,27,28,28,29,29,30,30,31,31,32,32,35,35,37,37,39,39,40,40,41,41,42,42,43,43,44,44,45,45,47,47,48,48,49,49,50,50,51,51,52,52,53,53,54,54,55,55,56,56,57,57,58,58,59,59,64,64],"right_children":[2,4,6,8,10,12,-1,14,16,18,20,22,24,26,28,30,32,34,-1,36,-1,-1,38,-1,40,42,44,46,48,50,52,54,56,-1,-1,58,-1,60,-1,62,64,66,68,70,72,74,-1,76,78,80,82,84,86,88,90,92,94,96,98,100,-1,-1,-1,-1,102,-1,-1,-1,-1,-1,-1,-1,-1,-1,-1,-1,-1,-1,-1,-1,-1,-1,-1,-1,-1,-1,-1,-1,-1,-1,-1,-1,-1,-1,-1,-1,-1,-1,-1,-1,-1,-1,-1],"split_conditions":[4.1147697E1,2.648565E0,4.9161515E0,5.1918156E1,1.8802154E0,2.7046594E-1,-1.1336725E-1,3.3743417E0,1.24769874E-1,1.9229431E1,1.2385048E0,5.1205873E0,1.0020233E0,6.649281E0,1.075994E0,2.1392665E0,1.3982269E1,5.6648654E-1,1.9449867E-1,1.0648217E1,-1.2336554E-1,-1.0923763E-2,3.8026407E-1,-1.6612047E-1,5.1150817E-1,1.1434023E0,8.570061E-1,7.799997E-2,5.1963735E-1,9.638536E-1,1.223015E-1,1.4458405E-2,1.9690304E0,6.1203733E-2,-1.6228443E-1,7.50106E-1,-1.1749839E-1,2.3041647E1,-1.0254249E-2,2.857593E-1,8.436766E-1,9.054587E0,1.5923092E0,1.9450564E0,6.261679E-1,1.1667804E0,5.013709E-2,1.031976E-2,1.5065889E-1,3.4267929E0,2.3598417E-3,5.639809E-3,1.2031879E1,6.7572904E-1,9.203112E-3,4.176611E-1,2.762357E-1,6.592219E-1,2.2598913E-1,3.0343575E0,1.6069686E-2,-1.2352474E-1,3.5161972E-2,-1.19838275E-1,1.533359E0,-1.6696696E-1,1.0874048E-1,-1.5645063E-1,3.522088E-2,-1.5614799E-1,2.3353443E-1,1.8319163E-2,5.118503E-1,3.253014E-2,-1.6424067E-1,3.6178235E-2,-1.5027098E-1,-1.5082347E-1,-1.1884479E-2,-1.3469033E-1,2.0531508E-1,5.077181E-1,-1.1036712E-1,3.7802884E-1,-1.4420971E-1,-6.8246454E-2,1.0036559E-1,2.1509749E-1,-1.1578182E-1,4.82433E-2,-1.6509154E-1,3.8556966E-1,-6.899656E-2,1.5691787E-1,-1.2950331E-1,-1.021472E-1,4.1921583E-1,4.7846977E-2,-1.0838437E-1,4.1405705E-1,3.448536E-2,-4.6600956E-2,3.951154E-1],"split_indices":[2668,846,2806,1369,1622,873,0,1125,2070,2070,2640,2666,1997,2395,1367,2481,1752,813,0,820,0,0,2959,0,1504,2880,2567,2967,765,2364,1512,1260,2749,0,0,319,0,1362,0,1806,2925,2795,358,2514,2215,452,0,1406,2071,1222,521,979,1421,812,977,288,781,2883,1839,2889,0,0,0,0,1189,0,0,0,0,0,0,0,0,0,0,0,0,0,0,0,0,0,0,0,0,0,0,0,0,0,0,0,0,0,0,0,0,0,0,0,0,0,0],"split_type":[0,0,0,0,0,0,0,0,0,0,0,0,0,0,0,0,0,0,0,0,0,0,0,0,0,0,0,0,0,0,0,0,0,0,0,0,0,0,0,0,0,0,0,0,0,0,0,0,0,0,0,0,0,0,0,0,0,0,0,0,0,0,0,0,0,0,0,0,0,0,0,0,0,0,0,0,0,0,0,0,0,0,0,0,0,0,0,0,0,0,0,0,0,0,0,0,0,0,0,0,0,0,0],"sum_hessian":[9.114922E4,7.50121E4,1.6137116E4,7.487272E4,1.3938318E2,1.6135445E4,1.6707387E0,7.384106E4,1.031651E3,2.536502E1,1.1401816E2,1.608882E4,4.6625797E1,7.219363E4,1.6474283E3,4.4868225E2,5.829688E2,2.4282043E1,1.0829761E0,1.114368E2,2.5813596E0,1.8546767E0,1.6086965E4,3.0649493E0,4.356085E1,7.2178945E4,1.4690517E1,9.624391E2,6.849893E2,1.457017E2,3.0298056E2,4.5817E2,1.2479878E2,1.0315826E0,2.3250462E1,1.0939232E2,2.044475E0,1.6085582E4,1.383216E0,2.5321085E0,4.102874E1,6.401623E4,8.1627153E3,1.0204484E1,4.4860334E0,9.612934E2,1.1456783E0,3.6973584E2,3.1525345E2,1.4264836E2,3.053333E0,5.3307175E1,2.4967339E2,3.1806178E0,4.5498938E2,1.0314003E1,1.1448478E2,1.0685663E2,2.535691E0,1.6084387E4,1.1954877E0,1.3939239E0,1.1381848E0,1.1718395E0,3.98569E1,6.4011562E4,4.669454E0,8.1468677E3,1.5847717E1,8.5925045E0,1.6119789E0,1.4076174E0,3.0784159E0,1.3343725E0,9.5995905E2,1.869831E1,3.5103754E2,7.405492E1,2.4119855E2,1.4002733E2,2.6210375E0,1.4384725E0,1.6148605E0,1.4970181E0,5.1810158E1,3.4856823E1,2.1481656E2,1.0014192E0,2.1791987E0,1.1626154E0,4.5382678E2,3.620212E0,6.693791E0,5.9470477E0,1.08537735E2,1.0234075E0,1.0583322E2,1.0047735E0,1.5309175E0,1.608313E4,1.256647E0,1.8442107E0,3.8012688E1],"tree_param":{"num_deleted":"0","num_feature":"3000","num_nodes":"103","size_leaf_vector":"1"}},{"base_weights":[2.3121753E-1,-5.2666104E-1,1.3663964E0,-5.367095E-1,4.5035917E-1,1.3691113E0,8.323165E-1,-2.846363E-1,-5.414012E-1,-3.892626E-1,9.399018E-1,1.3703189E0,8.862507E-1,2.5191158E-2,9.7806394E-1,-3.4826362E-1,2.360897E-1,-2.3555686E-1,-5.4276353E-1,4.7724134E-1,-4.6956572E-1,1.0613766E0,1.8178548E-1,1.3779126E0,1.3221792E0,1.0105652E0,1.1960176E-1,-2.5439656E-1,7.239389E-1,3.4031205E-2,1.0690488E0,-9.76483E-2,-4.2688248E-1,4.4100624E-2,8.0116165E-1,1.0944061E0,-3.383403E-1,-4.901162E-1,-5.4816896E-1,9.751423E-1,-2.2494403E-1,4.424467E-1,-4.988413E-1,1.4081076E0,9.151426E-1,-1.0641182E-1,1.232571E0,1.3784972E0,8.88943E-1,1.3333557E0,1.152392E0,1.0657624E0,-2.7988622E-1,-1.5647885E-1,3.1827888E-1,3.6492804E-1,-3.9631745E-1,-1.6279376E-1,1.5519115E0,1.0125318E0,-2.978015E-1,1.1243542E0,4.5799714E-2,3.7011996E-1,-2.6757234E-1,-4.5538506E-1,-7.996431E-2,4.5806527E-1,-5.789629E-3,4.6587862E-2,1.1186059E0,-2.4012312E-1,1.3893455E0,-3.967483E-1,1.5853988E-1,-5.2475536E-1,-4.0711814E-1,-5.4839534E-1,5.318181E-1,-2.0884591E-1,1.3900551E0,-1.5869038E-1,2.712109E-1,-1.3444579E-1,1.4732895E0,5.314669E-1,-5.167811E-1,1.4284884E0,-9.145768E-2,-1.5946674E-1,9.549287E-1,5.1871544E-1,-4.0964827E-1,1.5952096E0,-1.63671E-1,1.044193E0,1.3793297E0,1.135335E0,1.0230043E-2,-2.5252822E-1,1.334127E0,1.1847966E0,2.812422E-1,1.1869287E-1,1.1335938E0,-1.3605294E-1,4.7157187E-2,7.50366E-1,-4.8139352E-1,2.8020078E-1,-5.1702577E-1,-1.4621569E-1,1.9986258E-1,5.3738135E-1,1.4752696E-1,4.461621E-1,-8.812893E-2,3.300478E-1,-5.0472707E-1,1.2005048E0,2.1495058E-1,3.7054476E-1,-4.254189E-1,4.3645743E-1,4.824247E-2,-1.2727185E-1,6.512834E-3,2.1891727E-1,-1.3815297E-1,-5.5018023E-2,3.031037E-1,5.94795E-2,-1.2839577E-1,3.40906E-1,-1.5005198E-1,6.651119E-1,2.0590878E-1,6.0347192E-2,-1.2738669E-1,4.7729325E-1,-1.08826034E-1,3.063205E-3,-1.3821341E-1,3.1083056E-1,-3.132243E-2,-1.1370563E-1,-1.5952197E-1,-1.2757131E-1,5.9844542E-2,-1.6453415E-1,3.5125178E-1,5.604168E-1,-5.1219847E-2,6.1004333E-2,-1.2245676E-1,5.0362426E-1,-9.5457554E-2,5.1806096E-2,5.8260363E-1,-1.0899736E-1,4.107735E-1,6.969396E-2,-1.6045375E-1,5.8029685E-2,4.3172762E-1,-1.6147773E-1,2.510883E-1,4.419052E-2,3.0120885E-1,-4.7596924E-2,3.4555745E-1,-1.4840728E-1,1.52311E-1,4.2650875E-2,5.2908134E-1,4.512841E-2,-1.0585868E-1,-1.393831E-1,3.2387993E-1,4.1382968E-1,-5.7693217E-2,4.119734E-1,1.5267406E-1,-8.984229E-2,3.6867803E-1,2.7531493E-2,-1.3543944E-1,4.0038916E-1,-1.2688045E-1,3.686003E-1,2.2441135E-1,-1.7894521E-1,2.2571689E-1,2.844114E-1,-1.5339892E-1,-7.495634E-2,3.5424542E-1,3.2810873E-1,1.3323093E-2,-1.7179382E-1,5.7951014E-2,5.791279E-2,-1.6791528E-1,-1.7326398E-1,5.097551E-2,-3.510486E-2,3.7603885E-1,2.1121602E-1,-1.1912864E-1,5.4828424E-2,-1.6305698E-1],"categories":[],"categories_nodes":[],"categories_segments":[],"categories_sizes":[],"default_left":[0,0,0,0,0,0,0,0,0,0,0,0,0,0,0,0,0,0,0,0,0,0,0,0,0,0,0,0,0,0,0,0,0,0,0,0,0,0,0,0,0,0,0,0,0,0,0,0,0,0,0,0,0,0,0,0,0,0,0,0,0,0,0,0,0,0,0,0,0,0,0,0,0,0,0,0,0,0,0,0,0,0,0,0,0,0,0,0,0,0,0,0,0,0,0,0,0,0,0,0,0,0,0,0,0,0,0,0,0,0,0,0,0,0,0,0,0,0,0,0,0,0,0,0,0,0,0,0,0,0,0,0,0,0,0,0,0,0,0,0,0,0,0,0,0,0,0,0,0,0,0,0,0,0,0,0,0,0,0,0,0,0,0,0,0,0,0,0,0,0,0,0,0,0,0,0,0,0,0,0,0,0,0,0,0,0,0,0,0,0,0,0,0,0,0,0,0,0,0,0,0,0,0,0,0,0,0,0,0,0,0],"id":8,"left_children":[1,3,5,7,9,11,13,15,17,19,21,23,25,27,29,31,33,35,37,39,41,43,45,47,49,51,53,55,57,59,61,63,65,67,69,71,73,75,77,79,81,83,85,87,89,91,93,95,97,99,101,103,105,107,-1,-1,109,111,113,115,117,119,121,123,125,127,129,-1,131,133,135,137,139,141,143,145,147,149,151,153,155,-1,-1,-1,157,159,161,163,-1,165,167,169,171,173,175,177,179,181,183,185,187,189,191,193,195,-1,-1,197,199,-1,201,-1,-1,-1,-1,-1,-1,-1,203,205,207,-1,209,-1,-1,-1,-1,-1,-1,-1,-1,-1,-1,-1,-1,-1,-1,-1,-1,-1,-1,-1,-1,-1,-1,-1,-1,-1,-1,-1,-1,-1,-1,-1,-1,-1,-1,-1,-1,-1,-1,-1,-1,-1,-1,-1,-1,-1,-1,-1,-1,-1,-1,-1,-1,-1,-1,-1,-1,-1,-1,-1,-1,-1,-1,-1,-1,-1,-1,-1,-1,-1,-1,-1,-1,-1,-1,-1,-1,-1,-1,-1,-1,-1,-1,-1,-1,-1,-1,-1,-1],"loss_changes":[9.192173E4,6.2925586E2,6.0882812E1,7.484766E1,2.6868088E2,2.3601562E1,2.5723953E1,3.854641E1,2.5814453E1,1.70029E1,3.780905E1,1.36953125E1,1.026709E1,6.92527E0,1.5886124E1,2.034945E1,1.3742945E1,3.8352463E1,1.736914E1,7.543036E0,6.126316E0,1.6734436E1,1.7754692E1,9.25E0,9.485352E0,6.969208E0,4.4130836E0,5.78092E0,7.683434E0,5.9281445E0,9.515152E0,1.9845394E1,7.750366E0,7.099758E0,7.648817E0,8.272268E0,7.570402E0,1.6405884E1,1.403125E1,6.4035215E0,3.7401493E0,7.46241E0,4.244484E0,4.0518494E0,1.0963608E1,9.044197E0,6.6435127E0,8.7421875E0,1.00728035E1,6.995117E0,1.0001617E1,5.648445E0,4.2291734E-1,4.341224E0,0E0,0E0,4.3216124E0,1.8833032E0,4.713812E-1,3.2988925E0,4.5221148E0,1.0845566E1,5.967824E0,1.4891475E1,8.2943735E0,4.7544556E0,7.064328E0,0E0,8.159779E0,6.8625507E0,9.201918E0,4.5205662E-1,6.464798E0,6.0375137E0,6.551795E0,3.9464111E0,1.8842896E1,5.6484375E0,1.1852783E1,4.197802E-1,5.1429844E0,0E0,0E0,0E0,1.900394E0,3.6224937E0,2.9877777E0,1.0645599E0,0E0,4.181429E0,9.527344E0,6.8985896E0,2.7422175E0,2.2204304E0,2.614141E-1,5.577278E0,6.1484375E0,4.721161E0,4.5988364E0,2.8027672E-1,5.3789062E0,5.838318E0,6.420684E0,4.2120624E0,5.7755585E0,0E0,0E0,9.09755E-1,7.6026344E-1,0E0,7.919421E-1,0E0,0E0,0E0,0E0,0E0,0E0,0E0,7.186384E-1,1.0454315E1,4.3528295E0,0E0,6.5234435E-1,0E0,0E0,0E0,0E0,0E0,0E0,0E0,0E0,0E0,0E0,0E0,0E0,0E0,0E0,0E0,0E0,0E0,0E0,0E0,0E0,0E0,0E0,0E0,0E0,0E0,0E0,0E0,0E0,0E0,0E0,0E0,0E0,0E0,0E0,0E0,0E0,0E0,0E0,0E0,0E0,0E0,0E0,0E0,0E0,0E0,0E0,0E0,0E0,0E0,0E0,0E0,0E0,0E0,0E0,0E0,0E0,0E0,0E0,0E0,0E0,0E0,0E0,0E0,0E0,0E0,0E0,0E0,0E0,0E0,0E0,0E0,0E0,0E0,0E0,0E0,0E0,0E0,0E0,0E0,0E0,0E0,0E0,0E0,0E0,0E0,0E0,0E0,0E0],"parents":[2147483647,0,0,1,1,2,2,3,3,4,4,5,5,6,6,7,7,8,8,9,9,10,10,11,11,12,12,13,13,14,14,15,15,16,16,17,17,18,18,19,19,20,20,21,21,22,22,23,23,24,24,25,25,26,26,27,27,28,28,29,29,30,30,31,31,32,32,33,33,34,34,35,35,36,36,37,37,38,38,39,39,40,40,41,41,42,42,43,43,44,44,45,45,46,46,47,47,48,48,49,49,50,50,51,51,52,52,53,53,56,56,57,57,58,58,59,59,60,60,61,61,62,62,63,63,64,64,65,65,66,66,68,68,69,69,70,70,71,71,72,72,73,73,74,74,75,75,76,76,77,77,78,78,79,79,80,80,84,84,85,85,86,86,87,87,89,89,90,90,91,91,92,92,93,93,94,94,95,95,96,96,97,97,98,98,99,99,100,100,101,101,102,102,103,103,104,104,107,107,108,108,110,110,118,118,119,119,120,120,122,122],"right_children":[2,4,6,8,10,12,14,16,18,20,22,24,26,28,30,32,34,36,38,40,42,44,46,48,50,52,54,56,58,60,62,64,66,68,70,72,74,76,78,80,82,84,86,88,90,92,94,96,98,100,102,104,106,108,-1,-1,110,112,114,116,118,120,122,124,126,128,130,-1,132,134,136,138,140,142,144,146,148,150,152,154,156,-1,-1,-1,158,160,162,164,-1,166,168,170,172,174,176,178,180,182,184,186,188,190,192,194,196,-1,-1,198,200,-1,202,-1,-1,-1,-1,-1,-1,-1,204,206,208,-1,210,-1,-1,-1,-1,-1,-1,-1,-1,-1,-1,-1,-1,-1,-1,-1,-1,-1,-1,-1,-1,-1,-1,-1,-1,-1,-1,-1,-1,-1,-1,-1,-1,-1,-1,-1,-1,-1,-1,-1,-1,-1,-1,-1,-1,-1,-1,-1,-1,-1,-1,-1,-1,-1,-1,-1,-1,-1,-1,-1,-1,-1,-1,-1,-1,-1,-1,-1,-1,-1,-1,-1,-1,-1,-1,-1,-1,-1,-1,-1,-1,-1,-1,-1,-1,-1,-1,-1,-1],"split_conditions":[2.4546473E0,2.4612079E0,9.52962E-1,6.21575E-1,3.7254965E0,2.617482E-1,6.3428E-1,1.8580728E0,8.4278055E-2,3.208309E-2,2.2608958E-1,3.9959326E-1,3.174053E-1,2.1401815E0,6.914566E1,1.3814458E-1,6.545207E0,7.539388E-2,9.501644E-2,1.5277107E0,4.1957057E-1,6.541728E-1,9.0308094E-1,7.0089293E0,3.670335E-1,2.4072835E0,6.3984203E-1,2.7537507E-1,6.666797E0,2.6004403E0,1.8551549E0,5.4614717E-1,9.5573634E-1,9.347235E-1,5.0255485E-2,3.3572337E-1,1.3791565E0,2.8002722E0,5.8937013E-2,1.19033195E-1,7.5598845E0,1.5917233E-1,3.1030586E-2,1.4256277E0,2.4159324E-1,1.7637955E0,5.738758E-2,3.246151E-1,4.794799E0,7.0544136E-1,1.1720313E1,5.718373E-1,7.751107E-1,1.9283746E0,3.1827888E-1,3.6492804E-1,1.0879066E-1,1.941289E-1,8.834487E-1,4.6336988E-1,3.056238E-1,7.1458644E-1,1.959092E0,8.250767E-1,1.1025288E-1,1.29318E0,9.0794325E-1,4.5806527E-1,4.0432715E-1,4.151464E-1,2.7140552E-1,6.9875455E-1,2.7515867E-1,1.6793592E-1,8.7405555E-2,1.2505804E-1,1.0969132E0,4.823985E0,5.2338886E-1,5.461484E-1,6.7811453E-1,-1.5869038E-1,2.712109E-1,-1.3444579E-1,3.1697124E1,1.747045E0,9.5356956E-2,6.1098516E-2,-9.145768E-2,1.380358E1,3.1011784E0,8.635566E0,1.7135582E0,2.1468222E0,1.7177384E0,6.1343636E-2,1.1333854E0,2.5171056E-1,5.0090263E1,2.3449016E0,3.5959747E0,3.007272E1,1.9846237E0,1.110676E0,7.940061E-2,-1.3605294E-1,4.7157187E-2,5.622814E-1,3.2084218E-1,2.8020078E-1,3.1803352E-1,-1.4621569E-1,1.9986258E-1,5.3738135E-1,1.4752696E-1,4.461621E-1,-8.812893E-2,3.300478E-1,1.4875392E1,8.7834924E-1,8.4938556E-1,3.7054476E-1,5.739753E-1,4.3645743E-1,4.824247E-2,-1.2727185E-1,6.512834E-3,2.1891727E-1,-1.3815297E-1,-5.5018023E-2,3.031037E-1,5.94795E-2,-1.2839577E-1,3.40906E-1,-1.5005198E-1,6.651119E-1,2.0590878E-1,6.0347192E-2,-1.2738669E-1,4.7729325E-1,-1.08826034E-1,3.063205E-3,-1.3821341E-1,3.1083056E-1,-3.132243E-2,-1.1370563E-1,-1.5952197E-1,-1.2757131E-1,5.9844542E-2,-1.6453415E-1,3.5125178E-1,5.604168E-1,-5.1219847E-2,6.1004333E-2,-1.2245676E-1,5.0362426E-1,-9.5457554E-2,5.1806096E-2,5.8260363E-1,-1.0899736E-1,4.107735E-1,6.969396E-2,-1.6045375E-1,5.8029685E-2,4.3172762E-1,-1.6147773E-1,2.510883E-1,4.419052E-2,3.0120885E-1,-4.7596924E-2,3.4555745E-1,-1.4840728E-1,1.52311E-1,4.2650875E-2,5.2908134E-1,4.512841E-2,-1.0585868E-1,-1.393831E-1,3.2387993E-1,4.1382968E-1,-5.7693217E-2,4.119734E-1,1.5267406E-1,-8.984229E-2,3.6867803E-1,2.7531493E-2,-1.3543944E-1,4.0038916E-1,-1.2688045E-1,3.686003E-1,2.2441135E-1,-1.7894521E-1,2.2571689E-1,2.844114E-1,-1.5339892E-1,-7.495634E-2,3.5424542E-1,3.2810873E-1,1.3323093E-2,-1.7179382E-1,5.7951014E-2,5.791279E-2,-1.6791528E-1,-1.7326398E-1,5.097551E-2,-3.510486E-2,3.7603885E-1,2.1121602E-1,-1.1912864E-1,5.4828424E-2,-1.6305698E-1],"split_indices":[2888,1207,2676,594,1363,1759,237,2890,219,1273,917,940,974,316,351,677,2039,1978,470,534,2727,2376,775,2648,558,801,986,1568,2998,2044,1160,1561,129,811,1605,1640,1375,1618,767,2761,1951,899,2827,217,1852,1728,683,1411,1687,1674,403,354,410,1790,0,0,2507,268,2657,263,1101,2941,587,856,1382,200,2193,0,350,2181,1310,721,2637,2567,2286,1429,1086,447,2561,1803,3,0,0,0,1795,282,867,2726,0,1763,2903,1541,1748,2771,118,723,609,1285,1747,1793,1454,2135,1662,2834,1613,0,0,1024,360,0,903,0,0,0,0,0,0,0,2453,1370,2193,0,2052,0,0,0,0,0,0,0,0,0,0,0,0,0,0,0,0,0,0,0,0,0,0,0,0,0,0,0,0,0,0,0,0,0,0,0,0,0,0,0,0,0,0,0,0,0,0,0,0,0,0,0,0,0,0,0,0,0,0,0,0,0,0,0,0,0,0,0,0,0,0,0,0,0,0,0,0,0,0,0,0,0,0,0,0,0,0,0,0],"split_type":[0,0,0,0,0,0,0,0,0,0,0,0,0,0,0,0,0,0,0,0,0,0,0,0,0,0,0,0,0,0,0,0,0,0,0,0,0,0,0,0,0,0,0,0,0,0,0,0,0,0,0,0,0,0,0,0,0,0,0,0,0,0,0,0,0,0,0,0,0,0,0,0,0,0,0,0,0,0,0,0,0,0,0,0,0,0,0,0,0,0,0,0,0,0,0,0,0,0,0,0,0,0,0,0,0,0,0,0,0,0,0,0,0,0,0,0,0,0,0,0,0,0,0,0,0,0,0,0,0,0,0,0,0,0,0,0,0,0,0,0,0,0,0,0,0,0,0,0,0,0,0,0,0,0,0,0,0,0,0,0,0,0,0,0,0,0,0,0,0,0,0,0,0,0,0,0,0,0,0,0,0,0,0,0,0,0,0,0,0,0,0,0,0,0,0,0,0,0,0,0,0,0,0,0,0,0,0,0,0,0,0],"sum_hessian":[1.06843164E5,6.406922E4,4.277394E4,6.3417434E4,6.517859E2,4.255606E4,2.1788278E2,1.1599236E3,6.2257508E4,2.4013379E2,4.116521E2,4.2448062E4,1.0799627E2,3.350583E1,1.8437695E2,1.0339204E3,1.26003204E2,2.768543E2,6.1980656E4,1.9947626E1,2.2018616E2,3.5445663E2,5.7195446E1,3.6640586E4,5.8074775E3,9.2653984E1,1.5342282E1,2.4384758E1,9.121071E0,1.6328726E1,1.6804822E2,2.4742851E2,7.8649194E2,9.4853714E1,3.114949E1,1.9169075E1,2.5768524E2,5.779688E3,5.620097E4,1.1444156E1,8.50347E0,6.4092026E0,2.1377696E2,1.02586876E2,2.5186977E2,4.5590218E1,1.1605227E1,3.6595008E4,4.557761E1,5.4423745E3,3.6510318E2,8.902038E1,3.6336079E0,1.25076885E1,2.8345935E0,1.4795904E0,2.2905169E1,4.7921796E0,4.328891E0,3.6156495E0,1.2713077E1,1.593374E2,8.710822E0,6.561763E1,1.8181087E2,7.264912E2,6.0000725E1,2.1239233E0,9.272979E1,9.563511E0,2.158598E1,3.5033088E0,1.5665766E1,2.3076094E2,2.6924292E1,4.0740608E3,1.7056271E3,5.618968E4,1.12860565E1,3.098624E0,8.345531E0,7.1180973E0,1.3853734E0,3.7417574E0,2.667445E0,3.1687038E0,2.1060826E2,1.01544785E2,1.0420973E0,8.884843E0,2.4298492E2,1.4659272E1,3.0930946E1,9.099388E0,2.505839E0,9.401153E1,3.6500996E4,3.536827E1,1.0209339E1,2.4871025E0,5.439887E3,3.516622E2,1.34409685E1,6.1335087E0,8.288687E1,2.5736566E0,1.0599514E0,2.9538884E0,9.553801E0,1.3449433E0,2.1560225E1,3.7399154E0,1.0522642E0,2.9689386E0,1.3599523E0,2.5504036E0,1.0652459E0,1.0825858E0,1.1630491E1,1.4673056E2,1.2606837E1,2.0118244E0,6.698998E0,9.651093E0,5.5966537E1,1.1763593E2,6.417494E1,2.5192907E0,7.239719E2,5.5561813E1,4.4389133E0,6.2872726E1,2.9857061E1,2.834885E0,6.7286267E0,4.9295826E0,1.6656397E1,1.0062637E0,2.497045E0,1.4131473E1,1.5342929E0,3.1457268E1,1.9930368E2,5.529574E0,2.1394716E1,1.88851E2,3.8852097E3,1.6564469E3,4.9180134E1,5.6188668E4,1.0116776E0,3.3174229E0,7.9686337E0,1.0035131E0,2.0951111E0,7.153812E0,1.1917193E0,1.0691655E0,1.5982795E0,1.8060597E0,1.362644E0,4.680047E0,2.059282E2,1.0281973E0,1.0051659E2,6.7707505E0,2.1140924E0,1.4155204E1,2.2882973E2,7.444326E0,7.2149463E0,2.8728432E1,2.2025158E0,1.1365576E0,7.9628305E0,1.0189867E0,1.4868524E0,1.8776157E0,9.213391E1,3.649874E4,2.2589278E0,2.4769007E1,1.0599264E1,8.742019E0,1.4673204E0,1.1080638E0,1.3790387E0,5.4385693E3,1.3179064E0,3.1791547E2,3.3746742E1,4.6018705E0,8.839099E0,2.4299796E0,3.7035294E0,2.594334E0,8.0292534E1,1.6178384E0,1.33605E0,8.54848E0,1.0053203E0,1.0230268E0,2.0537197E1,1.062733E1,1.003161E0,5.6232166E0,1.4110735E2,6.92364E0,5.683198E0,1.0003288E0,5.698669E0],"tree_param":{"num_deleted":"0","num_feature":"3000","num_nodes":"211","size_leaf_vector":"1"}},{"base_weights":[-1.2402155E-1,-5.556634E-1,1.3527862E0,-5.5799687E-1,4.1740027E-1,1.3584876E0,-1.3104732E-1,-5.580637E-1,7.1548045E-1,7.0832485E-1,1.3623303E0,9.4150645E-1,-2.4252571E-1,-5.1172566E-1,-5.5847174E-1,4.0738022E-1,-1.0220713E-1,-3.9458805E-1,7.6588094E-1,1.3629744E0,-2.28097E-1,1.297908E0,-1.0312107E-1,1.864086E-1,-4.8088086E-1,-5.147181E-1,1.9047056E-1,-5.584988E-1,-5.5364437E-2,4.0701173E-2,-1.5371121E-1,2.204265E-1,9.126014E-1,1.3658776E0,1.0613204E0,-1.551205E-1,2.2720654E-1,8.075561E-3,4.9804017E-1,4.8298326E-1,-4.181329E-1,-5.1901877E-1,1.4629935E-1,2.8177807E-1,-5.1912755E-1,-5.5859005E-1,-4.425148E-1,-1.2731396E-1,2.0810175E-1,7.053376E-1,-2.359658E-1,1.0164808E0,1.0872419E-1,1.3821623E0,1.3219792E0,-1.9623503E-1,1.1008692E0,1.3820571E0,3.3064015E-2,-1.542774E-1,6.13419E-2,-1.677278E-1,1.07865565E-1,-1.1639331E-1,3.480537E-1,-1.5661633E-1,1.1290741E-2,-1.6758117E-1,-2.7824817E-2,4.551561E-2,-1.5536417E-1,4.1633055E-1,-2.7780807E-2,-1.2825789E-1,3.2025975E-1,3.432032E-1,1.1813411E-1,3.446298E-1,-9.6791975E-2,4.1469052E-1,-9.214488E-2,4.021351E-1,3.6311972E-1,-1.758644E-1,2.515586E-1,3.374852E-1,-1.343292E-1,5.826991E-1,-1.0149593E-1,-9.841963E-2,2.6185018E-1],"categories":[],"categories_nodes":[],"categories_segments":[],"categories_sizes":[],"default_left":[0,0,0,0,0,0,0,0,0,0,0,0,0,0,0,0,0,0,0,0,0,0,0,0,0,0,0,0,0,0,0,0,0,0,0,0,0,0,0,0,0,0,0,0,0,0,0,0,0,0,0,0,0,0,0,0,0,0,0,0,0,0,0,0,0,0,0,0,0,0,0,0,0,0,0,0,0,0,0,0,0,0,0,0,0,0,0,0,0,0,0],"id":9,"left_children":[1,3,5,7,-1,9,11,13,15,17,19,21,23,25,27,-1,-1,29,31,33,35,37,-1,39,41,43,-1,45,47,-1,-1,49,51,53,55,-1,-1,-1,-1,57,59,61,-1,63,65,67,69,-1,-1,71,73,75,77,79,81,83,85,87,89,-1,-1,-1,-1,-1,-1,-1,-1,-1,-1,-1,-1,-1,-1,-1,-1,-1,-1,-1,-1,-1,-1,-1,-1,-1,-1,-1,-1,-1,-1,-1,-1],"loss_changes":[5.9757465E4,3.3034375E2,1.7955078E2,6.5683594E0,0E0,5.1804688E1,1.0040955E1,1.0859375E0,3.3411596E0,8.312328E0,2.1824219E1,4.0793433E0,7.7715025E0,2.5377808E0,9.453125E-1,0E0,0E0,5.01603E-1,9.423653E0,1.6929688E1,3.0561972E0,2.9105663E0,0E0,5.143114E0,2.0474653E0,2.4054718E0,0E0,5.136719E-1,1.6672615E0,0E0,0E0,6.1000323E0,7.777054E0,1.303125E1,1.0389481E1,0E0,0E0,0E0,0E0,7.621015E0,6.8007004E-1,1.8635778E0,0E0,2.9149556E0,1.0626984E0,4.1210938E-1,2.822713E0,0E0,0E0,7.343747E0,4.0922894E0,6.182556E0,5.7223077E0,3.9921875E0,1.0016602E1,3.350849E0,7.9052734E0,6.7264547E0,4.427832E0,0E0,0E0,0E0,0E0,0E0,0E0,0E0,0E0,0E0,0E0,0E0,0E0,0E0,0E0,0E0,0E0,0E0,0E0,0E0,0E0,0E0,0E0,0E0,0E0,0E0,0E0,0E0,0E0,0E0,0E0,0E0,0E0],"parents":[2147483647,0,0,1,1,2,2,3,3,5,5,6,6,7,7,8,8,9,9,10,10,11,11,12,12,13,13,14,14,17,17,18,18,19,19,20,20,21,21,23,23,24,24,25,25,27,27,28,28,31,31,32,32,33,33,34,34,39,39,40,40,41,41,43,43,44,44,45,45,46,46,49,49,50,50,51,51,52,52,53,53,54,54,55,55,56,56,57,57,58,58],"right_children":[2,4,6,8,-1,10,12,14,16,18,20,22,24,26,28,-1,-1,30,32,34,36,38,-1,40,42,44,-1,46,48,-1,-1,50,52,54,56,-1,-1,-1,-1,58,60,62,-1,64,66,68,70,-1,-1,72,74,76,78,80,82,84,86,88,90,-1,-1,-1,-1,-1,-1,-1,-1,-1,-1,-1,-1,-1,-1,-1,-1,-1,-1,-1,-1,-1,-1,-1,-1,-1,-1,-1,-1,-1,-1,-1,-1],"split_conditions":[1.072307E0,7.7463636E0,6.4872795E-1,2.4348476E0,4.1740027E-1,1.4447194E0,3.9510825E-1,4.3315478E-4,3.2666886E-1,5.790442E-1,2.1036375E0,2.2578794E-1,4.9735603E0,5.2064415E1,5.497226E0,4.0738022E-1,-1.0220713E-1,6.4256244E0,1.3742834E0,2.472678E0,3.4407387E0,5.804757E-1,-1.0312107E-1,8.2643527E-1,1.631861E0,5.1052002E1,1.9047056E-1,2.431662E1,3.0899668E-1,4.0701173E-2,-1.5371121E-1,1.7884368E-1,1.1943573E0,2.1751972E-1,1.0207793E-1,-1.551205E-1,2.2720654E-1,8.075561E-3,4.9804017E-1,3.5223776E-1,2.6462507E0,2.6123843E0,1.4629935E-1,2.3167937E0,3.049691E-1,1.8200583E0,2.7837119E-1,-1.2731396E-1,2.0810175E-1,9.11858E0,2.0131332E-1,2.7095582E0,4.4279596E-1,5.040549E-1,1.0691081E0,5.8313805E-1,1.6741737E0,2.324642E0,4.5529905E-1,-1.542774E-1,6.13419E-2,-1.677278E-1,1.07865565E-1,-1.1639331E-1,3.480537E-1,-1.5661633E-1,1.1290741E-2,-1.6758117E-1,-2.7824817E-2,4.551561E-2,-1.5536417E-1,4.1633055E-1,-2.7780807E-2,-1.2825789E-1,3.2025975E-1,3.432032E-1,1.1813411E-1,3.446298E-1,-9.6791975E-2,4.1469052E-1,-9.214488E-2,4.021351E-1,3.6311972E-1,-1.758644E-1,2.515586E-1,3.374852E-1,-1.343292E-1,5.826991E-1,-1.0149593E-1,-9.841963E-2,2.6185018E-1],"split_indices":[1768,794,1273,2874,0,1238,1165,2468,669,417,1296,75,1056,1215,1642,0,0,2348,2950,2458,1097,265,0,2182,2510,1104,0,2953,1331,0,0,1448,2996,162,2551,0,0,0,0,709,1106,741,0,1325,2310,1890,94,0,0,1974,1015,1540,1138,508,1086,1030,2675,1871,933,0,0,0,0,0,0,0,0,0,0,0,0,0,0,0,0,0,0,0,0,0,0,0,0,0,0,0,0,0,0,0,0],"split_type":[0,0,0,0,0,0,0,0,0,0,0,0,0,0,0,0,0,0,0,0,0,0,0,0,0,0,0,0,0,0,0,0,0,0,0,0,0,0,0,0,0,0,0,0,0,0,0,0,0,0,0,0,0,0,0,0,0,0,0,0,0,0,0,0,0,0,0,0,0,0,0,0,0,0,0,0,0,0,0,0,0,0,0,0,0,0,0,0,0,0,0],"sum_hessian":[9.374207E4,7.254053E4,2.1201547E4,7.245441E4,8.612092E1,2.1120479E4,8.106822E1,7.2451164E4,3.2422276E0,1.2518449E2,2.0995293E4,6.931676E0,7.413654E1,6.433796E2,7.180778E4,1.8383011E0,1.4039264E0,5.918384E0,1.19266106E2,2.0986938E4,8.357086E0,5.4190927E0,1.5125833E0,2.655935E1,4.7577198E1,6.422546E2,1.1250193E0,7.180382E4,3.9668963E0,1.0480735E0,4.870311E0,2.5811285E1,9.345482E1,2.0783383E4,2.0355411E2,6.8296704E0,1.5274156E0,1.4401529E0,3.9789395E0,1.7953053E1,8.606296E0,4.622129E1,1.3559064E0,3.189654E0,6.390649E2,7.174355E4,6.0273876E1,2.9479916E0,1.0189048E0,1.2250171E1,1.3561114E1,8.2526085E1,1.0928739E1,1.5137474E4,5.645909E3,6.085578E0,1.9746852E2,5.296756E0,1.2656298E1,7.6060147E0,1.0002812E0,4.4552757E1,1.6685328E0,2.1265407E0,1.0631136E0,6.357849E2,3.2799983E0,7.174121E4,2.3324335E0,6.67001E0,5.3603867E1,6.2045765E0,6.0455937E0,1.2409453E1,1.1516613E0,6.780281E1,1.47232685E1,2.7163572E0,8.212381E0,1.5136406E4,1.0674654E0,4.8345776E3,8.1133136E2,4.734666E0,1.3509117E0,1.9471428E2,2.7542467E0,3.8982139E0,1.3985419E0,9.276449E0,3.379848E0],"tree_param":{"num_deleted":"0","num_feature":"3000","num_nodes":"91","size_leaf_vector":"1"}},{"base_weights":[-3.2905418E-1,-5.5717844E-1,1.3463333E0,-3.4474206E-1,-5.577096E-1,-8.404846E-2,1.3761854E0,-4.2560443E-1,-4.4503417E-3,-5.583632E-1,-5.3182334E-1,-4.477518E-1,3.9778724E-1,1.3785506E0,1.940643E-1,-4.476069E-1,2.3644826E-1,-9.135328E-2,4.0673319E-1,-5.5838865E-1,-2.8404457E-2,-4.5107555E-1,-5.4922783E-1,-4.7052112E-1,3.072575E-1,6.771626E-1,1.49019575E-2,6.455009E-1,1.3808562E0,1.1208938E0,-1.0008855E-1,-4.5940146E-1,9.864163E-2,-1.2565438E-1,3.231473E-1,2.9662776E-1,-4.3726245E-1,-5.584785E-1,-4.207669E-1,2.1185166E-1,-1.269238E-1,-4.591621E-1,1.7596373E-1,-5.5048126E-1,-6.03753E-3,-5.156614E-1,2.2137944E-1,-1.3752723E-1,7.760783E-1,8.061497E-1,-2.1833436E-1,-3.9504427E-1,9.351075E-1,4.609595E-1,1.3815775E0,4.0372783E-1,4.0507007E-2,-2.9305232E-1,3.0219698E-1,-4.7668612E-1,1.2389329E-1,-3.6108997E-1,1.5282805E0,-1.5992866E-1,1.3724066E-1,-5.584917E-1,2.409943E-2,6.2518895E-1,-5.113261E-1,1.8866678E-1,-4.646774E-1,-5.511107E-1,4.360339E-3,1.904944E-1,-1.19682945E-1,1.15791425E-1,-5.3218615E-1,-3.1937683E-1,3.896624E-1,4.593814E-1,1.4244627E0,1.1359178E0,-1.0932117E-1,7.6661E-1,-4.4668335E-1,-1.4857905E-1,4.7428276E-2,-2.66356E-1,1.1246873E0,-2.5125867E-1,9.0983176E-1,1.3819094E0,4.3103525E-1,-4.7509006E-1,2.3714763E-1,4.8502043E-2,-1.4672165E-1,-1.3001029E-1,3.5298145E-1,-1.534074E-1,8.3130136E-2,6.0151446E-1,-9.231017E-2,-1.05114274E-1,2.1115032E-1,-1.6760626E-1,-1.532838E-1,-1.1481399E-1,4.8949587E-1,-1.6547294E-1,1.7460088E-1,7.965393E-2,-1.4099433E-1,-1.6552134E-1,-3.3281405E-2,7.338749E-2,-1.6488351E-1,-1.3904956E-1,6.521495E-2,-8.01802E-3,2.36237E-1,-1.11931734E-1,5.053235E-1,-9.2518404E-2,4.3244052E-1,4.933627E-1,-1.2383618E-1,1.505327E-1,-1.6586386E-1,-1.3659851E-1,5.5629384E-2,3.7634748E-1,-1.1482959E-1,-1.3296145E-1,6.160637E-2,-1.0550535E-1,4.0345255E-1,4.1462645E-1,6.0249195E-3,-1.243763E-1,3.1128028E-1,4.584923E-2,-1.6140884E-1],"categories":[],"categories_nodes":[],"categories_segments":[],"categories_sizes":[],"default_left":[0,0,0,0,0,0,0,0,0,0,0,0,0,0,0,0,0,0,0,0,0,0,0,0,0,0,0,0,0,0,0,0,0,0,0,0,0,0,0,0,0,0,0,0,0,0,0,0,0,0,0,0,0,0,0,0,0,0,0,0,0,0,0,0,0,0,0,0,0,0,0,0,0,0,0,0,0,0,0,0,0,0,0,0,0,0,0,0,0,0,0,0,0,0,0,0,0,0,0,0,0,0,0,0,0,0,0,0,0,0,0,0,0,0,0,0,0,0,0,0,0,0,0,0,0,0,0,0,0,0,0,0,0,0,0,0,0,0,0,0,0,0,0],"id":10,"left_children":[1,3,5,7,9,11,13,15,17,19,21,23,25,27,29,31,33,35,-1,37,39,41,43,45,-1,47,49,51,53,55,57,59,-1,-1,-1,61,63,65,67,-1,-1,69,-1,71,73,75,77,-1,79,81,83,85,87,89,91,-1,-1,93,-1,95,97,99,101,-1,103,105,-1,107,109,-1,111,113,-1,-1,-1,-1,115,117,-1,119,121,123,-1,125,127,-1,-1,129,131,133,135,137,139,141,-1,-1,-1,-1,-1,-1,-1,-1,-1,-1,-1,-1,-1,-1,-1,-1,-1,-1,-1,-1,-1,-1,-1,-1,-1,-1,-1,-1,-1,-1,-1,-1,-1,-1,-1,-1,-1,-1,-1,-1,-1,-1,-1,-1,-1,-1,-1,-1,-1],"loss_changes":[3.34348E4,8.494141E0,4.4778516E2,5.353676E0,1.0039062E0,3.7903603E1,2.8449219E1,2.396452E0,4.6606355E0,9.941406E-1,2.4401245E0,4.6091213E0,9.951658E0,1.6429688E1,6.0204782E0,1.5479031E0,3.5981078E0,5.0969186E0,0E0,6.9140625E-1,1.647205E0,3.161911E0,1.0648804E0,3.9231033E0,0E0,6.4011383E0,7.614856E0,1.0618442E1,6.1445312E0,9.938946E-1,4.0066867E0,1.5781384E0,0E0,0E0,0E0,1.516636E1,1.1726933E0,6.796875E-1,5.3294697E0,0E0,0E0,2.34832E0,0E0,5.6463623E-1,1.4176526E0,1.9156284E0,5.1744595E0,0E0,9.587683E0,4.038517E0,7.5212955E0,5.2776265E-1,6.4272594E0,3.2676451E0,2.6230469E0,0E0,0E0,3.4458551E0,0E0,1.2377319E0,3.5193613E0,1.3471007E0,6.2816E0,0E0,1.2551472E0,4.1210938E-1,0E0,5.355965E0,2.4872923E0,0E0,1.4472198E0,3.703003E-1,0E0,0E0,0E0,0E0,1.6659431E0,5.836086E-1,0E0,5.6006794E0,8.054325E0,3.7847586E0,0E0,7.2801733E0,2.9509282E0,0E0,0E0,4.6648398E-1,5.06435E0,4.817891E-1,3.7916398E0,2.453125E0,3.0032263E0,6.336043E-1,0E0,0E0,0E0,0E0,0E0,0E0,0E0,0E0,0E0,0E0,0E0,0E0,0E0,0E0,0E0,0E0,0E0,0E0,0E0,0E0,0E0,0E0,0E0,0E0,0E0,0E0,0E0,0E0,0E0,0E0,0E0,0E0,0E0,0E0,0E0,0E0,0E0,0E0,0E0,0E0,0E0,0E0,0E0,0E0,0E0,0E0,0E0,0E0,0E0],"parents":[2147483647,0,0,1,1,2,2,3,3,4,4,5,5,6,6,7,7,8,8,9,9,10,10,11,11,12,12,13,13,14,14,15,15,16,16,17,17,19,19,20,20,21,21,22,22,23,23,25,25,26,26,27,27,28,28,29,29,30,30,31,31,35,35,36,36,37,37,38,38,41,41,43,43,44,44,45,45,46,46,48,48,49,49,50,50,51,51,52,52,53,53,54,54,57,57,59,59,60,60,61,61,62,62,64,64,65,65,67,67,68,68,70,70,71,71,76,76,77,77,79,79,80,80,81,81,83,83,84,84,87,87,88,88,89,89,90,90,91,91,92,92,93,93],"right_children":[2,4,6,8,10,12,14,16,18,20,22,24,26,28,30,32,34,36,-1,38,40,42,44,46,-1,48,50,52,54,56,58,60,-1,-1,-1,62,64,66,68,-1,-1,70,-1,72,74,76,78,-1,80,82,84,86,88,90,92,-1,-1,94,-1,96,98,100,102,-1,104,106,-1,108,110,-1,112,114,-1,-1,-1,-1,116,118,-1,120,122,124,-1,126,128,-1,-1,130,132,134,136,138,140,142,-1,-1,-1,-1,-1,-1,-1,-1,-1,-1,-1,-1,-1,-1,-1,-1,-1,-1,-1,-1,-1,-1,-1,-1,-1,-1,-1,-1,-1,-1,-1,-1,-1,-1,-1,-1,-1,-1,-1,-1,-1,-1,-1,-1,-1,-1,-1,-1,-1],"split_conditions":[6.391672E-1,2.5748493E-2,4.652732E0,6.9691217E-1,1.0577728E1,4.855122E0,1.8590714E0,4.962079E1,6.1330765E-1,4.442451E0,5.56109E-3,1.466047E1,1.1050141E0,2.4251895E-1,5.449233E-2,7.632754E-1,3.1686276E-1,1.0005957E0,4.0673319E-1,1.7590743E0,3.5179286E0,6.4520127E-1,1.1577824E1,1.7636898E0,3.072575E-1,9.409173E-2,1.4327128E0,6.162059E-2,1.2793748E0,4.3987665E-2,2.726014E-1,2.0413855E-1,9.864163E-2,-1.2565438E-1,3.231473E-1,9.31094E-1,5.0841355E0,6.4439816E0,1.2100401E-1,2.1185166E-1,-1.269238E-1,5.46959E-1,1.7596373E-1,7.810453E-1,1.8710116E0,3.0269E-2,3.3281234E-1,-1.3752723E-1,5.32754E-1,7.1076757E-1,1.5019489E-2,6.9469104E0,7.356209E-2,7.28924E-1,6.7458305E0,4.0372783E-1,4.0507007E-2,5.8941402E0,3.0219698E-1,1.7801653E0,1.0388702E-2,1.3456569E0,3.631632E0,-1.5992866E-1,1.5583693E0,3.4467847E0,2.409943E-2,2.9275528E-1,1.338421E0,1.8866678E-1,4.5599104E-3,2.3425806E1,4.360339E-3,1.904944E-1,-1.19682945E-1,1.15791425E-1,3.8998604E-1,6.311984E1,3.896624E-1,6.1631877E-2,1.2421547E-1,1.7555618E-1,-1.0932117E-1,2.3357546E-1,1.1468146E0,-1.4857905E-1,4.7428276E-2,2.9744647E0,1.6777413E0,9.5162123E-1,4.780584E-1,3.2701745E0,4.137447E0,2.208431E0,2.3714763E-1,4.8502043E-2,-1.4672165E-1,-1.3001029E-1,3.5298145E-1,-1.534074E-1,8.3130136E-2,6.0151446E-1,-9.231017E-2,-1.05114274E-1,2.1115032E-1,-1.6760626E-1,-1.532838E-1,-1.1481399E-1,4.8949587E-1,-1.6547294E-1,1.7460088E-1,7.965393E-2,-1.4099433E-1,-1.6552134E-1,-3.3281405E-2,7.338749E-2,-1.6488351E-1,-1.3904956E-1,6.521495E-2,-8.01802E-3,2.36237E-1,-1.11931734E-1,5.053235E-1,-9.2518404E-2,4.3244052E-1,4.933627E-1,-1.2383618E-1,1.505327E-1,-1.6586386E-1,-1.3659851E-1,5.5629384E-2,3.7634748E-1,-1.1482959E-1,-1.3296145E-1,6.160637E-2,-1.0550535E-1,4.0345255E-1,4.1462645E-1,6.0249195E-3,-1.243763E-1,3.1128028E-1,4.584923E-2,-1.6140884E-1],"split_indices":[1158,324,1808,2146,1733,840,281,446,1724,2280,509,1586,1783,320,1110,2052,838,2909,0,1787,1466,1419,1192,311,0,2523,2175,2923,826,2607,911,1836,0,0,0,2079,231,534,1051,0,0,1002,0,1336,591,674,2261,0,1169,913,2740,2310,1745,1073,2264,0,0,90,0,2649,261,1083,840,0,2877,2655,0,824,389,0,2330,954,0,0,0,0,2336,1104,0,2452,2,2866,0,142,2749,0,0,2578,410,259,511,233,1299,2697,0,0,0,0,0,0,0,0,0,0,0,0,0,0,0,0,0,0,0,0,0,0,0,0,0,0,0,0,0,0,0,0,0,0,0,0,0,0,0,0,0,0,0,0,0,0,0,0,0],"split_type":[0,0,0,0,0,0,0,0,0,0,0,0,0,0,0,0,0,0,0,0,0,0,0,0,0,0,0,0,0,0,0,0,0,0,0,0,0,0,0,0,0,0,0,0,0,0,0,0,0,0,0,0,0,0,0,0,0,0,0,0,0,0,0,0,0,0,0,0,0,0,0,0,0,0,0,0,0,0,0,0,0,0,0,0,0,0,0,0,0,0,0,0,0,0,0,0,0,0,0,0,0,0,0,0,0,0,0,0,0,0,0,0,0,0,0,0,0,0,0,0,0,0,0,0,0,0,0,0,0,0,0,0,0,0,0,0,0,0,0,0,0,0,0],"sum_hessian":[8.747768E4,7.69946E4,1.048308E4,1.9362906E2,7.680098E4,2.1427257E2,1.0268808E4,1.5624934E2,3.737971E1,7.488941E4,1.9115677E3,1.2214487E2,9.212769E1,1.0248136E4,2.0671494E1,1.5153712E2,4.7122245E0,3.601181E1,1.3679018E0,7.488576E4,3.651087E0,3.4373505E2,1.5678326E3,1.2095418E2,1.1906862E0,5.2819176E1,3.930852E1,3.3010544E1,1.0215126E4,4.3029594E0,1.6368534E1,1.4967174E2,1.8653818E0,2.930118E0,1.7821065E0,1.7040827E1,1.8970984E1,7.483387E4,5.1890045E1,1.0002156E0,2.6508715E0,3.4163007E2,2.1049528E0,1.5642097E3,3.6229317E0,1.13785416E2,7.168761E0,3.9409695E0,4.8878204E1,8.389844E0,3.0918676E1,7.107937E0,2.5902607E1,8.506067E0,1.0206619E4,3.2065387E0,1.0964209E0,1.4565844E1,1.8026901E0,1.455417E2,4.1300364E0,1.1569432E1,5.4713945E0,1.632061E1,2.6503732E0,7.483244E4,1.4237838E0,3.6642637E0,4.822578E1,1.1529363E0,3.4047714E2,1.5624938E3,1.7160227E0,1.1426313E0,2.4803004E0,1.6454995E0,1.1213992E2,5.2417216E0,1.9270394E0,3.3986393E1,1.4891812E1,6.5688562E0,1.8209872E0,5.375441E0,2.5543236E1,6.1062236E0,1.001713E0,3.4749694E0,2.2427637E1,3.4586034E0,5.047464E0,1.0202604E4,4.0164175E0,1.2951505E1,1.6143392E0,2.5407698E0,1.4300093E2,3.085196E0,1.0448403E0,9.525339E0,2.0440936E0,4.2703776E0,1.2010169E0,1.6295509E0,1.0208222E0,7.451474E4,3.176978E2,2.1404748E0,1.5237889E0,4.6991325E1,1.2344545E0,2.1013947E0,3.3837576E2,1.560018E3,2.4758363E0,2.1742845E0,1.0996564E2,4.2398086E0,1.0019132E0,1.4064944E1,1.992145E1,1.8264511E0,1.3065361E1,1.145389E0,5.423467E0,2.8554666E0,2.5199745E0,2.1969411E0,2.3346294E1,2.4446075E0,1.030362E0,2.080404E1,1.6235956E0,2.455677E0,1.0029261E0,1.3433465E0,3.7041175E0,1.020125E4,1.3529316E0,1.8098192E0,2.2065983E0,1.049805E0,1.1901699E1],"tree_param":{"num_deleted":"0","num_feature":"3000","num_nodes":"143","size_leaf_vector":"1"}},{"base_weights":[-3.083838E-1,-5.4337704E-1,1.378952E0,-5.5015445E-1,6.308589E-1,1.3793378E0,-1.21325195E-1,1.13040686E-1,-5.526866E-1,-4.852401E-1,1.0480776E0,1.3795383E0,-9.034361E-2,7.719112E-1,-4.997087E-1,-5.5282205E-1,1.2195823E0,6.7242914E-1,-5.232571E-1,6.4070916E-1,1.1803719E0,9.628767E-3,1.3797284E0,3.0537483E-1,1.0657135E0,2.2097704E-1,-5.1858866E-1,-5.5355924E-1,-3.853469E-1,4.516453E-1,2.3215378E-2,3.858629E-1,-1.0315218E-1,-5.393882E-1,1.2771848E-1,9.958471E-1,2.957018E-1,1.216106E0,1.120963E-1,1.3800128E0,3.631905E-1,8.170086E-1,-1.7214058E-2,1.145278E0,-1.4432853E-1,-5.31392E-1,2.035961E-1,-5.539171E-1,-3.7316567E-1,-5.0930375E-1,1.6565701E-1,5.8224246E-2,-5.4776204E-1,-4.6840303E-2,1.2212147E0,-1.2989812E-1,7.9947776E-1,1.3361615E0,8.5987246E-1,3.724153E-1,-3.905028E-1,5.9074547E-2,1.3801973E0,2.7212813E-1,-1.17053755E-1,3.9936817E-1,6.534149E-2,2.4524485E-1,-5.3828944E-2,-6.3228374E-3,3.666981E-1,-1.7672135E-2,-1.6522478E-1,-1.4518252E-1,-1.6644752E-1,1.8439244E-1,-1.4956872E-1,-1.5801303E-1,1.6102503E-1,-5.352554E-2,2.0258619E-1,4.021388E-2,-1.6676828E-1,2.872831E-1,-1.1366328E-1,5.562809E-2,4.1613013E-1,1.719769E-1,-1.7114332E-1,3.01874E-1,-1.4274764E-1,-5.5097554E-2,4.0739366E-1,2.777728E-1,-1.4091763E-1,4.749389E-2,-1.5516198E-1,4.1413265E-1,1.7733833E-1],"categories":[],"categories_nodes":[],"categories_segments":[],"categories_sizes":[],"default_left":[0,0,0,0,0,0,0,0,0,0,0,0,0,0,0,0,0,0,0,0,0,0,0,0,0,0,0,0,0,0,0,0,0,0,0,0,0,0,0,0,0,0,0,0,0,0,0,0,0,0,0,0,0,0,0,0,0,0,0,0,0,0,0,0,0,0,0,0,0,0,0,0,0,0,0,0,0,0,0,0,0,0,0,0,0,0,0,0,0,0,0,0,0,0,0,0,0,0,0],"id":11,"left_children":[1,3,5,7,9,11,-1,13,15,17,19,21,-1,23,25,27,29,31,33,35,37,-1,39,41,43,-1,45,47,49,-1,-1,-1,-1,51,-1,53,55,57,59,61,63,65,67,69,-1,71,-1,73,75,77,79,-1,81,83,85,87,89,91,93,-1,95,-1,97,-1,-1,-1,-1,-1,-1,-1,-1,-1,-1,-1,-1,-1,-1,-1,-1,-1,-1,-1,-1,-1,-1,-1,-1,-1,-1,-1,-1,-1,-1,-1,-1,-1,-1,-1,-1],"loss_changes":[3.490893E4,6.1533594E2,7.9609375E0,1.2908984E2,2.0722678E2,4.0429688E0,0E0,1.1870572E2,1.9052734E1,5.6981907E0,1.6675293E1,2.7109375E0,0E0,1.9085579E1,3.9405441E0,9.234375E0,1.8960686E0,3.124445E0,2.0387115E0,9.6887245E0,9.138824E0,0E0,2.6074219E0,9.276992E0,1.1195587E1,0E0,2.6714592E0,4.7128906E0,2.3218525E1,0E0,0E0,0E0,0E0,8.227272E-1,0E0,9.3927E0,9.270004E0,8.901764E0,5.5736427E0,2.0742188E0,2.142639E0,6.4033785E0,4.9398537E0,7.4447784E0,0E0,1.3368759E0,0E0,4.564453E0,1.9373354E1,5.3217926E0,1.1160406E1,0E0,7.1541214E-1,3.0388482E0,5.362049E0,7.772613E0,5.6781187E0,6.0177917E0,5.8823586E0,0E0,5.662234E-1,0E0,1.2617188E0,0E0,0E0,0E0,0E0,0E0,0E0,0E0,0E0,0E0,0E0,0E0,0E0,0E0,0E0,0E0,0E0,0E0,0E0,0E0,0E0,0E0,0E0,0E0,0E0,0E0,0E0,0E0,0E0,0E0,0E0,0E0,0E0,0E0,0E0,0E0,0E0],"parents":[2147483647,0,0,1,1,2,2,3,3,4,4,5,5,7,7,8,8,9,9,10,10,11,11,13,13,14,14,15,15,16,16,17,17,18,18,19,19,20,20,22,22,23,23,24,24,26,26,27,27,28,28,33,33,35,35,36,36,37,37,38,38,39,39,40,40,41,41,42,42,43,43,45,45,47,47,48,48,49,49,50,50,52,52,53,53,54,54,55,55,56,56,57,57,58,58,60,60,62,62],"right_children":[2,4,6,8,10,12,-1,14,16,18,20,22,-1,24,26,28,30,32,34,36,38,-1,40,42,44,-1,46,48,50,-1,-1,-1,-1,52,-1,54,56,58,60,62,64,66,68,70,-1,72,-1,74,76,78,80,-1,82,84,86,88,90,92,94,-1,96,-1,98,-1,-1,-1,-1,-1,-1,-1,-1,-1,-1,-1,-1,-1,-1,-1,-1,-1,-1,-1,-1,-1,-1,-1,-1,-1,-1,-1,-1,-1,-1,-1,-1,-1,-1,-1,-1],"split_conditions":[6.7985654E0,1.9190714E1,2.579929E-1,3.099748E-1,5.9348187E0,7.6996384E0,-1.21325195E-1,6.1473804E0,5.3168707E0,7.518879E-2,6.878734E-1,2.1899512E0,-9.034361E-2,5.834788E-1,5.79509E-1,6.1638135E-1,7.986443E0,4.3377197E-1,4.2212796E0,4.1569117E-1,3.3733234E-1,9.628767E-3,6.338337E0,5.443035E0,1.7168024E-1,2.2097704E-1,2.4874392E0,7.368967E1,1.81983E0,4.516453E-1,2.3215378E-2,3.858629E-1,-1.0315218E-1,1.08997084E-1,1.2771848E-1,1.6905729E0,3.9763913E-1,2.997572E0,4.180457E0,1.9337538E-1,1.9562466E0,6.4931974E0,4.0775788E-1,1.9424326E1,-1.4432853E-1,8.567591E-1,2.035961E-1,2.66423E-3,3.246151E-1,9.816431E-1,1.7854685E1,5.8224246E-2,8.006203E-1,9.373449E1,4.958102E-1,1.4723598E0,6.2862337E-1,1.1685574E0,2.690886E0,3.724153E-1,7.3277974E-1,5.9074547E-2,7.0713365E-1,2.7212813E-1,-1.17053755E-1,3.9936817E-1,6.534149E-2,2.4524485E-1,-5.3828944E-2,-6.3228374E-3,3.666981E-1,-1.7672135E-2,-1.6522478E-1,-1.4518252E-1,-1.6644752E-1,1.8439244E-1,-1.4956872E-1,-1.5801303E-1,1.6102503E-1,-5.352554E-2,2.0258619E-1,4.021388E-2,-1.6676828E-1,2.872831E-1,-1.1366328E-1,5.562809E-2,4.1613013E-1,1.719769E-1,-1.7114332E-1,3.01874E-1,-1.4274764E-1,-5.5097554E-2,4.0739366E-1,2.777728E-1,-1.4091763E-1,4.749389E-2,-1.5516198E-1,4.1413265E-1,1.7733833E-1],"split_indices":[1335,1767,296,2985,2216,2375,0,1470,359,2600,1037,1986,0,385,344,2769,989,2563,1642,2636,2362,0,1300,800,141,0,69,2901,2734,0,0,0,0,2623,0,458,2148,113,1017,1737,774,2778,702,766,0,1298,0,956,1411,1413,1470,0,568,2124,2355,894,2029,440,1153,0,1180,0,2627,0,0,0,0,0,0,0,0,0,0,0,0,0,0,0,0,0,0,0,0,0,0,0,0,0,0,0,0,0,0,0,0,0,0,0,0],"split_type":[0,0,0,0,0,0,0,0,0,0,0,0,0,0,0,0,0,0,0,0,0,0,0,0,0,0,0,0,0,0,0,0,0,0,0,0,0,0,0,0,0,0,0,0,0,0,0,0,0,0,0,0,0,0,0,0,0,0,0,0,0,0,0,0,0,0,0,0,0,0,0,0,0,0,0,0,0,0,0,0,0,0,0,0,0,0,0,0,0,0,0,0,0,0,0,0,0,0,0],"sum_hessian":[8.803703E4,7.7275625E4,1.0761406E4,7.6832695E4,4.4292767E2,1.0759305E4,2.10067E0,2.9207257E2,7.6540625E4,1.2047711E2,3.2245053E2,1.07582E4,1.1046652E0,1.4061444E2,1.5145811E2,7.653546E4,5.1630025E0,3.2999978E0,1.1717712E2,8.0478745E1,2.419718E2,1.5417323E0,1.0756659E4,5.5122845E1,8.54916E1,1.7063776E0,1.4975174E2,7.619775E4,3.3771033E2,3.8749974E0,1.2880054E0,1.8918117E0,1.4081861E0,1.15643E2,1.5341154E0,3.872756E1,4.1751186E1,2.3400586E2,7.9659376E0,1.0753294E4,3.36526E0,2.0723001E1,3.439984E1,8.155612E1,3.9354813E0,1.487175E2,1.0342354E0,7.604482E4,1.5292963E2,2.7575146E2,6.1958885E1,1.0550354E0,1.1458797E2,7.0237203E0,3.1703838E1,2.3033867E1,1.8717318E1,1.7296393E2,6.1041935E1,2.0006826E0,5.965255E0,1.843266E0,1.075145E4,1.8358209E0,1.5294391E0,1.0494919E1,1.0228083E1,4.9401813E0,2.9459661E1,5.0987363E0,7.645738E1,6.0121546E0,1.4270535E2,9.8085986E2,7.506396E4,1.6787245E1,1.3614238E2,2.717264E2,4.0250497E0,3.7375095E1,2.4583788E1,1.168133E0,1.1341983E2,1.276902E0,5.746818E0,4.668927E0,2.703491E1,8.756909E0,1.4276958E1,1.6287542E1,2.4297764E0,2.34282E0,1.7062111E2,5.844288E1,2.5990539E0,1.0720795E0,4.893175E0,1.0747366E4,4.0843086E0],"tree_param":{"num_deleted":"0","num_feature":"3000","num_nodes":"99","size_leaf_vector":"1"}},{"base_weights":[7.6366246E-1,-5.29837E-1,1.3676962E0,-5.3956676E-1,-3.137036E-1,1.3706594E0,1.1925866E-1,-5.4577255E-1,-4.8501825E-1,-3.941791E-1,-2.348833E-2,1.3068993E0,1.3736095E0,-1.1370975E-1,1.0657282E0,-5.4630476E-1,9.816097E-2,-4.9339893E-1,-1.1821484E-1,-4.9531856E-1,-2.7828053E-1,-1.9537863E-1,2.880757E-1,1.3526891E0,1.2161132E0,1.3736696E0,-1.3103068E-1,-1.9476469E-1,9.791537E-1,1.1431216E0,-1.2323003E-1,-5.471894E-1,-3.2292408E-1,-3.303734E-1,6.7524433E-1,-4.9577078E-1,1.5454844E-1,3.425023E-1,-3.2060534E-1,4.2945012E-1,-5.072759E-1,-2.881756E-1,1.1924853E0,8.63238E-1,-2.2819474E-1,2.4098602E-1,1.3324378E0,1.3533989E0,-8.5587045E-3,1.3665076E0,1.1632112E0,1.3773674E0,1.3478826E0,-4.376807E-1,-1.3564622E-2,1.2873143E0,-1.2344989E-1,1.2357002E0,-1.720027E-1,-5.493226E-1,-4.7076675E-1,-5.302951E-1,4.602795E-1,2.4768923E-1,-4.8093072E-1,1.4135236E0,6.664714E-2,-5.04071E-1,-3.3526823E-1,1.2087294E0,-2.766639E-1,1.3101983E0,7.5940685E-3,-3.7452546E-1,2.9450193E-1,1.5172415E0,-1.2026485E-1,-5.11036E-1,2.190317E-1,4.1518864E-1,-3.0561665E-1,5.1128083E-1,-9.346998E-2,1.763191E0,-2.2305591E-1,5.371652E-1,-2.7141753E-1,-4.346686E-1,3.001581E-1,2.0957408E0,-1.0824446E-1,1.3541048E0,-7.653832E-3,-3.756905E-2,1.374407E0,1.0472842E0,1.2939943E0,1.3774492E0,6.94996E-1,1.3481389E0,-1.12166345E-1,-4.7655734E-1,3.152006E-1,-1.0064492E-1,1.8419216E0,5.65402E-3,4.5250025E-1,-9.923515E-2,1.2896849E0,5.00862E-2,-1.12369545E-1,-1.6481315E-1,2.083685E-1,2.9461467E-1,-1.4264071E-1,-1.6408864E-1,1.6422464E-1,3.2298493E-1,1.9979501E-2,-1.611866E-1,6.2543765E-2,5.3103316E-1,2.6983753E-2,-1.442679E-1,3.1820688E-1,-1.514448E-1,2.7708387E-1,-1.1501774E-1,3.1678528E-1,-9.792538E-2,5.652567E-1,2.9517832E-1,-1.5519488E-1,5.477169E-1,-1.05641834E-1,3.5921124E-1,-6.2488433E-2,-1.3305457E-1,1.7788693E-1,5.955476E-1,5.4981202E-2,-1.4090742E-1,1.7035592E-1,-1.5407139E-1,2.0661826E-1,-1.0486681E-1,2.6873624E-1,2.4879184E-2,-9.8547764E-2,7.0697916E-1,3.7546135E-2,-1.225935E-1,6.528052E-2,-5.6088608E-2,4.7810015E-1,-1.0464177E-1,1.5208948E-2,-1.5490806E-1,6.443871E-2,5.251883E-1,7.8227535E-2,1.5881036E-1,7.675811E-1,4.068256E-1,2.2390483E-1,9.87669E-4,4.138685E-1,2.9334548E-1,3.7407517E-1,3.9046976E-1,1.07323445E-1,4.1324595E-1,4.0985156E-2,3.518775E-1,-4.0240277E-2,4.0451965E-1,-4.437603E-2,1.2655337E-1,-1.5533444E-1,-7.2502516E-2,1.5133125E-1,7.0972395E-1,5.055082E-2,2.8187754E-2,4.1082057E-1],"categories":[],"categories_nodes":[],"categories_segments":[],"categories_sizes":[],"default_left":[0,0,0,0,0,0,0,0,0,0,0,0,0,0,0,0,0,0,0,0,0,0,0,0,0,0,0,0,0,0,0,0,0,0,0,0,0,0,0,0,0,0,0,0,0,0,0,0,0,0,0,0,0,0,0,0,0,0,0,0,0,0,0,0,0,0,0,0,0,0,0,0,0,0,0,0,0,0,0,0,0,0,0,0,0,0,0,0,0,0,0,0,0,0,0,0,0,0,0,0,0,0,0,0,0,0,0,0,0,0,0,0,0,0,0,0,0,0,0,0,0,0,0,0,0,0,0,0,0,0,0,0,0,0,0,0,0,0,0,0,0,0,0,0,0,0,0,0,0,0,0,0,0,0,0,0,0,0,0,0,0,0,0,0,0,0,0,0,0,0,0,0,0,0,0,0,0,0,0,0,0,0,0,0,0],"id":12,"left_children":[1,3,5,7,9,11,13,15,17,19,21,23,25,27,29,31,33,35,37,39,41,43,45,47,49,51,-1,53,55,57,-1,59,61,63,65,67,69,71,73,75,77,79,81,83,85,87,89,91,-1,93,95,97,99,101,103,105,-1,107,109,111,113,115,117,-1,119,121,123,125,127,129,131,133,135,137,-1,139,141,143,-1,145,147,-1,-1,149,151,153,155,157,159,161,-1,163,-1,-1,165,167,169,171,173,175,-1,177,-1,179,181,-1,-1,-1,183,-1,-1,-1,-1,-1,-1,-1,-1,-1,-1,-1,-1,-1,-1,-1,-1,-1,-1,-1,-1,-1,-1,-1,-1,-1,-1,-1,-1,-1,-1,-1,-1,-1,-1,-1,-1,-1,-1,-1,-1,-1,-1,-1,-1,-1,-1,-1,-1,-1,-1,-1,-1,-1,-1,-1,-1,-1,-1,-1,-1,-1,-1,-1,-1,-1,-1,-1,-1,-1,-1,-1,-1,-1,-1,-1,-1],"loss_changes":[1.0603743E5,9.068262E1,3.4207812E2,1.3729492E1,4.3512344E1,1.5546875E1,4.8665966E1,1.2772461E1,1.2950195E1,1.6962692E1,2.177887E1,1.5408203E1,1.01875E1,1.59208E1,5.449894E0,7.151367E0,8.011169E0,6.434143E0,9.046419E0,8.817947E0,1.0270561E1,9.298622E0,6.791051E0,2.703125E0,9.431641E0,6.546875E0,0E0,7.3073754E0,5.855234E0,5.2868423E0,0E0,5.7626953E0,2.4396515E1,3.6593194E0,6.083301E0,5.3223877E0,7.5394936E0,9.626981E0,5.079704E0,6.4429474E0,3.9476166E0,8.448502E0,4.1896567E0,8.298756E0,8.578431E0,5.7116623E0,8.535055E0,2.678711E0,0E0,4.352417E0,1.4283691E1,3.34375E0,5.40625E0,4.6062517E0,1.5728309E1,2.8914757E0,0E0,3.7296295E0,3.109977E-1,2.8173828E0,7.365814E0,2.4197273E0,7.6119313E0,0E0,7.8090954E-1,2.7495384E0,5.1831083E0,4.6325073E0,1.4174585E1,5.5794134E0,4.1683474E0,7.189646E0,6.181851E0,4.6122293E0,0E0,1.8758068E0,2.1617696E0,2.6853638E0,0E0,6.5016108E0,5.9158897E0,0E0,0E0,4.1130486E0,4.6115947E-1,1.0979332E1,6.048914E0,7.2900057E-1,6.912754E0,1.7597904E0,0E0,2.256836E0,0E0,0E0,2.4899902E0,6.4364014E0,2.9401245E0,3.359375E0,4.6159053E0,4.5195312E0,0E0,2.8048525E0,0E0,8.04368E0,3.4267654E0,0E0,0E0,0E0,3.4897919E0,0E0,0E0,0E0,0E0,0E0,0E0,0E0,0E0,0E0,0E0,0E0,0E0,0E0,0E0,0E0,0E0,0E0,0E0,0E0,0E0,0E0,0E0,0E0,0E0,0E0,0E0,0E0,0E0,0E0,0E0,0E0,0E0,0E0,0E0,0E0,0E0,0E0,0E0,0E0,0E0,0E0,0E0,0E0,0E0,0E0,0E0,0E0,0E0,0E0,0E0,0E0,0E0,0E0,0E0,0E0,0E0,0E0,0E0,0E0,0E0,0E0,0E0,0E0,0E0,0E0,0E0,0E0,0E0,0E0,0E0,0E0,0E0,0E0,0E0,0E0,0E0],"parents":[2147483647,0,0,1,1,2,2,3,3,4,4,5,5,6,6,7,7,8,8,9,9,10,10,11,11,12,12,13,13,14,14,15,15,16,16,17,17,18,18,19,19,20,20,21,21,22,22,23,23,24,24,25,25,27,27,28,