{"learner":{"attributes":{"best_iteration":"31","best_score":"0.06407704274197722"},"feature_names":[],"feature_types":[],"gradient_booster":{"model":{"gbtree_model_param":{"num_parallel_tree":"1","num_trees":"294"},"iteration_indptr":[0,7,14,21,28,35,42,49,56,63,70,77,84,91,98,105,112,119,126,133,140,147,154,161,168,175,182,189,196,203,210,217,224,231,238,245,252,259,266,273,280,287,294],"tree_info":[0,1,2,3,4,5,6,0,1,2,3,4,5,6,0,1,2,3,4,5,6,0,1,2,3,4,5,6,0,1,2,3,4,5,6,0,1,2,3,4,5,6,0,1,2,3,4,5,6,0,1,2,3,4,5,6,0,1,2,3,4,5,6,0,1,2,3,4,5,6,0,1,2,3,4,5,6,0,1,2,3,4,5,6,0,1,2,3,4,5,6,0,1,2,3,4,5,6,0,1,2,3,4,5,6,0,1,2,3,4,5,6,0,1,2,3,4,5,6,0,1,2,3,4,5,6,0,1,2,3,4,5,6,0,1,2,3,4,5,6,0,1,2,3,4,5,6,0,1,2,3,4,5,6,0,1,2,3,4,5,6,0,1,2,3,4,5,6,0,1,2,3,4,5,6,0,1,2,3,4,5,6,0,1,2,3,4,5,6,0,1,2,3,4,5,6,0,1,2,3,4,5,6,0,1,2,3,4,5,6,0,1,2,3,4,5,6,0,1,2,3,4,5,6,0,1,2,3,4,5,6,0,1,2,3,4,5,6,0,1,2,3,4,5,6,0,1,2,3,4,5,6,0,1,2,3,4,5,6,0,1,2,3,4,5,6,0,1,2,3,4,5,6,0,1,2,3,4,5,6,0,1,2,3,4,5,6,0,1,2,3,4,5,6],"trees":[{"base_weights":[-2.3734441E-1,-5.7004845E-1,3.4851313E0,-5.724057E-1,2.3382237E0,3.4857118E0,1.735537E-2,-3.4073234E-1,-5.7641864E-1,-1.37031E-1,2.7694435E0,3.4867532E0,1.5431309E0,-4.7404316E-1,-2.5246399E-2,-5.766831E-1,1.4223999E0,-1.5717256E-1,9.2817676E-1,3.0085003E0,4.4598335E-1,3.4871016E0,1.733945E-1,-1.10526316E-1,6.969432E-1,-5.237814E-1,-2.9335508E-1,-4.3184227E-1,7.48292E-2,-5.770594E-1,-1.6847953E-1,-3.032491E-1,2.4508815E0,5.7798165E-1,-1.04132235E-1,3.0815613E0,1.735537E-2,-1.3755459E-1,1.4696132E0,3.4876795E0,1.7717842E0,2.731707E-1,-5.2691597E-1,-5.018636E-1,-1.6883788E-1,6.774193E-1,-4.8010552E-1,3.02439E-1,-1.7459972E-1,-5.0852036E-1,-5.78571E-1,-3.8576972E-1,1.510891E0,3.8532108E-2,-1.3548388E-1,8.1008905E-1,1.733945E-1,3.140865E0,1.3884297E-1,3.8532108E-2,6.2479335E-1,1.0463735E0,3.082569E-1,-9.633028E-2,7.657459E-1,3.082569E-1,-1.1586207E-1,-1.6776931E-1,-1.3247703E-1,4.356846E-2,-1.5957886E-1,-1.2786886E-1,-2.1815966E-3,-1.2038217E-1,5.7798165E-1,9.792746E-2,-1.5303065E-1,1.6177051E-1,2.3204368E-3,-9.20918E-2,6.2411044E-2,-1.5944028E-1,-4.160881E-2,-1.7425966E-1,-1.666789E-1,-1.3024968E-1,4.4311926E-1,7.2284865E-1,-6.774194E-2,9.605971E-1,2.2105263E-1],"categories":[],"categories_nodes":[],"categories_segments":[],"categories_sizes":[],"default_left":[0,0,0,0,0,0,0,0,0,0,0,0,0,0,0,0,0,0,0,0,0,0,0,0,0,0,0,0,0,0,0,0,0,0,0,0,0,0,0,0,0,0,0,0,0,0,0,0,0,0,0,0,0,0,0,0,0,0,0,0,0,0,0,0,0,0,0,0,0,0,0,0,0,0,0,0,0,0,0,0,0,0,0,0,0,0,0,0,0,0,0],"id":0,"left_children":[1,3,5,7,9,11,-1,13,15,17,19,21,23,25,27,29,31,-1,33,35,37,39,-1,-1,-1,41,43,45,47,49,51,53,55,-1,-1,57,-1,-1,59,61,63,65,67,69,71,73,75,77,79,81,83,85,87,-1,-1,-1,-1,89,-1,-1,-1,-1,-1,-1,-1,-1,-1,-1,-1,-1,-1,-1,-1,-1,-1,-1,-1,-1,-1,-1,-1,-1,-1,-1,-1,-1,-1,-1,-1,-1,-1],"loss_changes":[1.2944399E5,6.590742E2,1.6867188E1,8.8927734E1,8.3526184E1,1.196875E1,0E0,6.874037E1,5.0634766E1,5.6417966E0,3.5532654E1,6.6640625E0,1.0380267E1,1.0173279E1,1.9833555E1,1.4375E1,2.338096E1,0E0,5.372081E0,1.2760742E1,7.495059E0,2.3125E0,0E0,0E0,0E0,2.391632E0,6.4139366E0,5.4789467E0,2.2271698E1,9.457031E0,3.276203E1,4.200675E-1,2.2239838E0,0E0,0E0,7.6394043E0,0E0,0E0,2.7695422E0,1.296875E0,8.855823E0,2.477808E0,2.2252045E0,1.8881893E0,6.5767784E0,6.740546E0,2.412529E0,1.4301708E1,9.554153E0,1.723462E1,4.53125E0,7.752371E0,1.6627855E1,0E0,0E0,0E0,0E0,6.0285645E0,0E0,0E0,0E0,0E0,0E0,0E0,0E0,0E0,0E0,0E0,0E0,0E0,0E0,0E0,0E0,0E0,0E0,0E0,0E0,0E0,0E0,0E0,0E0,0E0,0E0,0E0,0E0,0E0,0E0,0E0,0E0,0E0,0E0],"parents":[2147483647,0,0,1,1,2,2,3,3,4,4,5,5,7,7,8,8,9,9,10,10,11,11,12,12,13,13,14,14,15,15,16,16,18,18,19,19,20,20,21,21,25,25,26,26,27,27,28,28,29,29,30,30,31,31,32,32,35,35,38,38,39,39,40,40,41,41,42,42,43,43,44,44,45,45,46,46,47,47,48,48,49,49,50,50,51,51,52,52,57,57],"right_children":[2,4,6,8,10,12,-1,14,16,18,20,22,24,26,28,30,32,-1,34,36,38,40,-1,-1,-1,42,44,46,48,50,52,54,56,-1,-1,58,-1,-1,60,62,64,66,68,70,72,74,76,78,80,82,84,86,88,-1,-1,-1,-1,90,-1,-1,-1,-1,-1,-1,-1,-1,-1,-1,-1,-1,-1,-1,-1,-1,-1,-1,-1,-1,-1,-1,-1,-1,-1,-1,-1,-1,-1,-1,-1,-1,-1],"split_conditions":[6.233876E0,3.3702955E0,2.0939968E0,1.8406514E-3,2.2827427E0,2.8923354E0,1.735537E-2,2.5674982E0,1.9939538E0,8.145927E0,8.536789E0,1.1570591E0,7.036113E-2,3.153195E0,2.8502417E-1,3.3173094E0,9.861835E-1,-1.5717256E-1,1.4274958E0,4.202124E0,1.2524256E0,2.8520143E-1,1.733945E-1,-1.10526316E-1,6.969432E-1,1.151458E0,2.466537E0,6.163466E-1,3.9034042E1,3.247319E-3,2.947087E0,2.4012222E0,1.7020507E0,5.7798165E-1,-1.04132235E-1,4.351543E0,1.735537E-2,-1.3755459E-1,1.0447226E0,2.9233828E1,1.5767796E-1,2.692903E0,5.1314263E0,4.5969467E0,1.1740757E0,8.859899E0,6.979553E-2,4.925377E-3,4.23016E0,6.816015E0,1.2350113E0,1.112323E1,5.713898E0,3.8532108E-2,-1.3548388E-1,8.1008905E-1,1.733945E-1,8.260351E-1,1.3884297E-1,3.8532108E-2,6.2479335E-1,1.0463735E0,3.082569E-1,-9.633028E-2,7.657459E-1,3.082569E-1,-1.1586207E-1,-1.6776931E-1,-1.3247703E-1,4.356846E-2,-1.5957886E-1,-1.2786886E-1,-2.1815966E-3,-1.2038217E-1,5.7798165E-1,9.792746E-2,-1.5303065E-1,1.6177051E-1,2.3204368E-3,-9.20918E-2,6.2411044E-2,-1.5944028E-1,-4.160881E-2,-1.7425966E-1,-1.666789E-1,-1.3024968E-1,4.4311926E-1,7.2284865E-1,-6.774194E-2,9.605971E-1,2.2105263E-1],"split_indices":[670,2673,2034,1526,2302,691,0,2284,1167,898,460,161,13,1587,2827,2395,1938,0,1277,2540,1938,944,0,0,0,2791,2206,15,1996,1526,921,0,2574,0,0,771,0,0,1541,1493,1641,513,2925,1344,2061,1578,641,1824,448,682,2880,1563,1408,0,0,0,0,2547,0,0,0,0,0,0,0,0,0,0,0,0,0,0,0,0,0,0,0,0,0,0,0,0,0,0,0,0,0,0,0,0,0],"split_type":[0,0,0,0,0,0,0,0,0,0,0,0,0,0,0,0,0,0,0,0,0,0,0,0,0,0,0,0,0,0,0,0,0,0,0,0,0,0,0,0,0,0,0,0,0,0,0,0,0,0,0,0,0,0,0,0,0,0,0,0,0,0,0,0,0,0,0,0,0,0,0,0,0,0,0,0,0,0,0,0,0,0,0,0,0,0,0,0,0,0,0],"sum_hessian":[1.045156E5,9.594148E4,8.574123E3,9.586458E4,7.6897964E1,8.572653E3,1.4693879E0,1.6337144E3,9.423087E4,1.1510205E1,6.538776E1,8.567266E3,5.3877554E0,1.1480817E3,4.856327E2,9.421911E4,1.1755103E1,8.816327E0,2.6938777E0,5.9020412E1,6.3673472E0,8.566041E3,1.2244899E0,1.7142859E0,3.6734695E0,8.987756E2,2.4930614E2,9.526531E1,3.9036737E2,9.413192E4,8.718368E1,4.6530614E0,7.1020412E0,1.2244899E0,1.4693879E0,5.7551025E1,1.4693879E0,3.6734695E0,2.6938777E0,8.562123E3,3.9183676E0,3.1836736E0,8.955919E2,9.208164E1,1.572245E2,3.4285717E0,9.183674E1,2.0400002E2,1.8636736E2,2.0385308E3,9.209339E4,7.7877556E1,9.306123E0,1.2244899E0,3.4285717E0,5.8775516E0,1.2244899E0,5.608164E1,1.4693879E0,1.2244899E0,1.4693879E0,8.560898E3,1.2244899E0,1.2244899E0,2.6938777E0,1.2244899E0,1.9591838E0,6.455511E2,2.5004083E2,3.9183676E0,8.816327E1,6.0000004E1,9.7224495E1,2.2040818E0,1.2244899E0,2.9387758E0,8.8897964E1,1.1265307E2,9.134695E1,1.3861226E2,4.7755104E1,1.9190205E3,1.19510216E2,8.370907E4,8.384327E3,7.665307E1,1.2244899E0,5.8775516E0,3.4285717E0,5.436735E1,1.7142859E0],"tree_param":{"num_deleted":"0","num_feature":"3000","num_nodes":"91","size_leaf_vector":"1"}},{"base_weights":[3.1662503E-1,-5.5577046E-1,3.4320135E0,-5.609761E-1,1.8392218E0,3.4470975E0,1.6330109E0,-5.639402E-1,7.716473E-1,8.633264E-1,2.4359736E0,3.4526606E0,2.5649376E0,5.5656236E-1,2.2297497E0,-5.700642E-1,-4.2029446E-1,1.5774463E0,-4.516129E-1,4.3340755E-1,1.6474086E0,2.5792403E0,2.5454542E-1,3.4661343E0,3.2028248E0,2.6615162E0,-3.032491E-1,4.3887127E-2,1.4599837E0,5.8249635E-1,2.4225273E0,-5.7041854E-1,3.7269622E-1,-4.4071087E-1,9.142741E-1,1.9355986E0,7.932011E-1,2.8965518E-1,-5.0446814E-1,1.0096805E0,-5.551151E-2,-1.3459113E-8,1.9217045E0,1.9907012E0,3.136964E0,-3.255814E-1,4.4210526E-1,2.3477254E0,3.4673593E0,3.3379326E0,3.0063515E0,3.037503E0,2.1202931E0,3.8532108E-2,-1.3548388E-1,-1.4575928E-1,1.2300318E0,1.6319017E0,-1.1586207E-1,1.03512E-1,1.707317E0,2.4886816E0,-1.5469614E-1,-5.722474E-1,-4.5442784E-1,-1.6013865E-1,9.1141933E-1,-4.8362365E-1,-1.0737015E-1,1.8751625E0,4.6719906E-1,2.0461853E0,2.274368E-1,1.6937617E0,3.9221787E-1,-5.318275E-1,1.733945E-1,-2.4454148E-1,1.2883939E0,-2.576687E-1,1.3254437E0,-1.2038217E-1,1.733945E-1,-9.633028E-2,2.080084E0,2.1094322E0,-1.5469614E-1,3.1883461E0,1.733945E-1,3.8532108E-2,-1.394191E-1,-1.24260366E-1,2.6049275E0,2.2105263E-1,3.467544E0,3.3434057E0,2.2105263E-1,3.0553753E0,2.0319066E0,3.093023E0,-9.633028E-2,2.2956846E0,6.3636357E-1,-4.7000894E-1,2.6415092E-1,-1.24260366E-1,6.3108814E-1,1.8079469E0,-1.10526316E-1,-2.9099306E-1,3.477707E-1,3.8532108E-2,6.9517237E-1,1.0041579E0,2.6113987E0,-1.04132235E-1,3.8532108E-2,-1.7199244E-1,-1.18704945E-1,-1.3760664E-1,8.44504E-2,7.9746835E-2,4.8983833E-1,-1.509097E-1,-8.7810405E-2,2.6238445E-2,-1.2595841E-1,-1.1586207E-1,6.6775626E-1,2.116165E-1,-1.5201074E-1,6.4254206E-1,1.0243898E-2,4.4311926E-1,-1.3548388E-1,-1.10526316E-1,6.3707864E-1,-1.1971497E-1,2.208105E-1,-1.6805017E-1,1.733945E-1,3.8532108E-2,-1.2426036E-1,7.753845E-2,5.2772963E-1,2.032258E-1,-1.3597123E-1,3.8532108E-2,5.7798165E-1,2.9093197E-1,7.93178E-1,3.6928487E-1,7.5063825E-1,-1.04132235E-1,3.8532108E-2,9.726966E-1,1.733945E-1,3.8532108E-2,-9.633028E-2,1.1052631E-1,8.280878E-1,1.0435073E0,1.0144274E0,1.0042462E0,2.603306E-1,3.971347E-1,9.227459E-1,3.1898734E-1,7.770807E-1,4.175074E-1,9.628138E-1,7.205474E-1,9.792746E-2,4.404878E-1,-7.336245E-2,1.3884297E-1,-1.6679427E-1,4.7419354E-1,-4.297408E-2,3.8532108E-2,-9.633028E-2,1.1921397E-1,6.2257695E-1,1.733945E-1,-1.5201074E-1,5.0474775E-1,-1.3056995E-1,-1.04132235E-1,7.979381E-1],"categories":[],"categories_nodes":[],"categories_segments":[],"categories_sizes":[],"default_left":[0,0,0,0,0,0,0,0,0,0,0,0,0,0,0,0,0,0,0,0,0,0,0,0,0,0,0,0,0,0,0,0,0,0,0,0,0,0,0,0,0,0,0,0,0,0,0,0,0,0,0,0,0,0,0,0,0,0,0,0,0,0,0,0,0,0,0,0,0,0,0,0,0,0,0,0,0,0,0,0,0,0,0,0,0,0,0,0,0,0,0,0,0,0,0,0,0,0,0,0,0,0,0,0,0,0,0,0,0,0,0,0,0,0,0,0,0,0,0,0,0,0,0,0,0,0,0,0,0,0,0,0,0,0,0,0,0,0,0,0,0,0,0,0,0,0,0,0,0,0,0,0,0,0,0,0,0,0,0,0,0,0,0,0,0,0,0,0,0,0,0,0,0,0,0,0,0,0,0,0,0,0,0,0,0,0,0,0,0],"id":1,"left_children":[1,3,5,7,9,11,13,15,17,19,21,23,25,27,29,31,33,35,37,39,41,43,45,47,49,51,53,55,57,59,61,63,65,67,69,71,73,-1,75,77,79,81,83,85,87,89,-1,91,93,95,97,99,101,-1,-1,103,105,107,-1,109,111,113,115,117,119,-1,121,123,125,127,129,131,133,135,137,139,-1,141,143,145,147,-1,-1,-1,149,151,153,155,-1,-1,-1,157,159,-1,161,163,-1,165,167,169,-1,171,173,175,177,179,-1,181,-1,183,-1,-1,-1,185,187,-1,-1,-1,-1,-1,-1,-1,-1,-1,-1,-1,-1,-1,-1,-1,-1,-1,-1,-1,-1,-1,-1,-1,-1,-1,-1,-1,-1,-1,-1,-1,-1,-1,-1,-1,-1,-1,-1,-1,-1,-1,-1,-1,-1,-1,-1,-1,-1,-1,-1,-1,-1,-1,-1,-1,-1,-1,-1,-1,-1,-1,-1,-1,-1,-1,-1,-1,-1,-1,-1,-1,-1,-1,-1],"loss_changes":[2.840624E5,1.019041E3,6.1484375E2,3.2226953E2,1.0116614E2,1.0240625E2,1.2210492E2,7.127539E1,1.7936584E2,2.2490288E1,3.356189E1,6.475E1,4.1244263E1,3.227218E1,3.771277E1,2.625586E1,9.107953E1,2.921814E1,5.936633E0,1.2964836E1,1.0854286E1,2.7443665E1,6.036808E0,2.1140625E1,2.0916016E1,2.2318481E1,4.200675E-1,1.0430495E1,8.642818E0,7.487022E0,1.9135864E1,1.6273438E1,1.5087124E1,4.6845215E1,2.0805038E1,1.3601868E1,1.2342995E1,0E0,2.4040184E0,7.68454E0,7.5258813E0,1.2590429E0,7.982437E0,1.3743576E1,4.8576355E0,4.477752E-1,0E0,1.7152939E1,8.234375E0,7.2421875E0,1.696875E1,1.6112549E1,1.4479248E1,0E0,0E0,5.465096E0,7.8187685E0,8.866081E0,0E0,4.935701E0,3.7312307E0,1.692279E1,2.4582013E-1,1.4142578E1,3.9381409E0,0E0,8.471622E0,1.0614685E1,2.2880339E1,1.3305569E1,8.656371E0,1.3359161E1,5.464018E0,1.0351831E1,7.4281244E0,2.5119E0,0E0,3.4893724E-1,7.9847164E0,4.5653825E0,2.234407E0,0E0,0E0,0E0,9.560738E0,1.4161758E1,2.4582013E-1,5.133484E0,0E0,0E0,0E0,2.1280059E-1,7.329529E0,0E0,8.09375E0,3.9672852E0,0E0,1.22109375E1,1.1428993E1,1.1342102E1,0E0,1.0583954E1,6.1171703E0,2.0854597E0,1.0088454E1,2.1280059E-1,0E0,7.3090057E0,0E0,1.9492748E0,0E0,0E0,0E0,1.0316828E1,1.502179E1,0E0,0E0,0E0,0E0,0E0,0E0,0E0,0E0,0E0,0E0,0E0,0E0,0E0,0E0,0E0,0E0,0E0,0E0,0E0,0E0,0E0,0E0,0E0,0E0,0E0,0E0,0E0,0E0,0E0,0E0,0E0,0E0,0E0,0E0,0E0,0E0,0E0,0E0,0E0,0E0,0E0,0E0,0E0,0E0,0E0,0E0,0E0,0E0,0E0,0E0,0E0,0E0,0E0,0E0,0E0,0E0,0E0,0E0,0E0,0E0,0E0,0E0,0E0,0E0,0E0,0E0,0E0,0E0,0E0,0E0,0E0,0E0,0E0,0E0],"parents":[2147483647,0,0,1,1,2,2,3,3,4,4,5,5,6,6,7,7,8,8,9,9,10,10,11,11,12,12,13,13,14,14,15,15,16,16,17,17,18,18,19,19,20,20,21,21,22,22,23,23,24,24,25,25,26,26,27,27,28,28,29,29,30,30,31,31,32,32,33,33,34,34,35,35,36,36,38,38,39,39,40,40,41,41,42,42,43,43,44,44,45,45,47,47,48,48,49,49,50,50,51,51,52,52,55,55,56,56,57,57,59,59,60,60,61,61,62,62,63,63,64,64,66,66,67,67,68,68,69,69,70,70,71,71,72,72,73,73,74,74,75,75,77,77,78,78,79,79,80,80,84,84,85,85,86,86,87,87,91,91,92,92,94,94,95,95,97,97,98,98,99,99,101,101,102,102,103,103,104,104,105,105,107,107,109,109,113,113,114,114],"right_children":[2,4,6,8,10,12,14,16,18,20,22,24,26,28,30,32,34,36,38,40,42,44,46,48,50,52,54,56,58,60,62,64,66,68,70,72,74,-1,76,78,80,82,84,86,88,90,-1,92,94,96,98,100,102,-1,-1,104,106,108,-1,110,112,114,116,118,120,-1,122,124,126,128,130,132,134,136,138,140,-1,142,144,146,148,-1,-1,-1,150,152,154,156,-1,-1,-1,158,160,-1,162,164,-1,166,168,170,-1,172,174,176,178,180,-1,182,-1,184,-1,-1,-1,186,188,-1,-1,-1,-1,-1,-1,-1,-1,-1,-1,-1,-1,-1,-1,-1,-1,-1,-1,-1,-1,-1,-1,-1,-1,-1,-1,-1,-1,-1,-1,-1,-1,-1,-1,-1,-1,-1,-1,-1,-1,-1,-1,-1,-1,-1,-1,-1,-1,-1,-1,-1,-1,-1,-1,-1,-1,-1,-1,-1,-1,-1,-1,-1,-1,-1,-1,-1,-1,-1,-1,-1,-1,-1,-1],"split_conditions":[2.6774776E0,1.6688485E0,7.804397E-1,7.15333E1,2.5747618E-2,9.921882E-2,1.0075108E0,1.0582057E1,8.1573255E-2,3.9622825E-1,7.1631324E-1,1.447417E-1,1.3614995E0,1.0472928E0,1.1994223E1,6.1245686E-1,4.5000496E0,9.785389E-2,7.7787206E-2,9.2453694E-1,6.249072E-1,3.5178345E-2,2.3069792E0,2.425039E0,5.606725E-1,1.518015E0,1.724175E-2,7.7007713E0,1.8199568E0,1.1033214E0,7.733224E-1,2.5110528E0,5.229631E-1,1.2062927E0,8.012254E-1,5.1069045E0,1.0669445E0,2.8965518E-1,3.9594644E-1,1.5754901E-1,1.1987573E0,3.1632574E1,3.0375885E1,1.93189E0,1.0412879E0,3.7352931E-1,4.4210526E-1,1.332286E1,4.966663E-2,9.419694E-1,6.159803E-1,2.1496255E0,1.3919522E0,3.8532108E-2,-1.3548388E-1,3.6161044E-1,4.789045E0,6.249167E-1,-1.1586207E-1,1.5432374E0,2.27291E-1,1.4852334E-2,5.232624E-1,5.0836885E-1,6.2822616E-1,-1.6013865E-1,1.825021E0,5.350403E-1,8.728323E-1,1.2747513E-1,9.129299E-1,4.2201E-1,6.2933307E0,4.364621E-2,1.2344731E0,1.4709693E0,1.733945E-1,6.040408E-2,2.1338303E-1,5.830759E-1,3.2838827E-1,-1.2038217E-1,1.733945E-1,-9.633028E-2,3.119157E0,1.1150934E0,4.2745447E0,1.0441484E0,1.733945E-1,3.8532108E-2,-1.394191E-1,1.5661024E0,1.3240315E-2,2.2105263E-1,2.0134929E-1,1.3589718E0,2.2105263E-1,5.189597E0,3.4570843E-1,5.9045625E-1,-9.633028E-2,9.565921E0,7.8358024E-1,2.3382856E-1,2.9290327E-1,2.736303E1,6.3108814E-1,1.0487298E0,-1.10526316E-1,9.815867E-1,3.477707E-1,3.8532108E-2,6.9517237E-1,3.1038266E-1,6.9811195E-2,-1.04132235E-1,3.8532108E-2,-1.7199244E-1,-1.18704945E-1,-1.3760664E-1,8.44504E-2,7.9746835E-2,4.8983833E-1,-1.509097E-1,-8.7810405E-2,2.6238445E-2,-1.2595841E-1,-1.1586207E-1,6.6775626E-1,2.116165E-1,-1.5201074E-1,6.4254206E-1,1.0243898E-2,4.4311926E-1,-1.3548388E-1,-1.10526316E-1,6.3707864E-1,-1.1971497E-1,2.208105E-1,-1.6805017E-1,1.733945E-1,3.8532108E-2,-1.2426036E-1,7.753845E-2,5.2772963E-1,2.032258E-1,-1.3597123E-1,3.8532108E-2,5.7798165E-1,2.9093197E-1,7.93178E-1,3.6928487E-1,7.5063825E-1,-1.04132235E-1,3.8532108E-2,9.726966E-1,1.733945E-1,3.8532108E-2,-9.633028E-2,1.1052631E-1,8.280878E-1,1.0435073E0,1.0144274E0,1.0042462E0,2.603306E-1,3.971347E-1,9.227459E-1,3.1898734E-1,7.770807E-1,4.175074E-1,9.628138E-1,7.205474E-1,9.792746E-2,4.404878E-1,-7.336245E-2,1.3884297E-1,-1.6679427E-1,4.7419354E-1,-4.297408E-2,3.8532108E-2,-9.633028E-2,1.1921397E-1,6.2257695E-1,1.733945E-1,-1.5201074E-1,5.0474775E-1,-1.3056995E-1,-1.04132235E-1,7.979381E-1],"split_indices":[2888,1157,2676,1584,1869,1162,237,2404,1010,1186,1137,1184,2412,320,422,768,376,99,682,2118,507,1869,1406,1100,1102,1553,1536,509,1360,2452,2437,2833,1771,2938,643,1103,390,0,1538,1013,1959,512,1795,1825,18,1024,0,1712,2235,2788,1165,1422,1566,0,0,472,1484,2551,0,1653,1432,2991,1024,439,1236,0,1616,2409,2951,2850,267,897,1960,1384,726,1147,0,0,1577,26,2817,0,0,0,2575,1911,768,1146,0,0,0,256,2557,0,1524,1576,0,623,2133,2494,0,1136,25,2793,1601,512,0,649,0,256,0,0,0,1710,871,0,0,0,0,0,0,0,0,0,0,0,0,0,0,0,0,0,0,0,0,0,0,0,0,0,0,0,0,0,0,0,0,0,0,0,0,0,0,0,0,0,0,0,0,0,0,0,0,0,0,0,0,0,0,0,0,0,0,0,0,0,0,0,0,0,0,0,0,0,0,0,0,0,0],"split_type":[0,0,0,0,0,0,0,0,0,0,0,0,0,0,0,0,0,0,0,0,0,0,0,0,0,0,0,0,0,0,0,0,0,0,0,0,0,0,0,0,0,0,0,0,0,0,0,0,0,0,0,0,0,0,0,0,0,0,0,0,0,0,0,0,0,0,0,0,0,0,0,0,0,0,0,0,0,0,0,0,0,0,0,0,0,0,0,0,0,0,0,0,0,0,0,0,0,0,0,0,0,0,0,0,0,0,0,0,0,0,0,0,0,0,0,0,0,0,0,0,0,0,0,0,0,0,0,0,0,0,0,0,0,0,0,0,0,0,0,0,0,0,0,0,0,0,0,0,0,0,0,0,0,0,0,0,0,0,0,0,0,0,0,0,0,0,0,0,0,0,0,0,0,0,0,0,0,0,0,0,0,0,0,0,0,0,0,0,0],"sum_hessian":[1.045156E5,8.165168E4,2.286392E4,8.147535E4,1.7632654E2,2.26729E4,1.9102042E2,8.129511E4,1.802449E2,6.783674E1,1.0848981E2,2.252792E4,1.449796E2,6.881633E1,1.22204094E2,7.796817E4,3.326939E3,1.0848981E2,7.1755104E1,4.481633E1,2.302041E1,1.0163266E2,6.8571434E0,2.136294E4,1.1649796E3,1.4032654E2,4.6530614E0,4.457143E1,2.42449E1,1.3224491E1,1.089796E2,7.793927E4,2.889796E1,3.2774697E3,4.946939E1,7.346939E1,3.5020412E1,1.9591838E0,6.979592E1,2.0081635E1,2.4734695E1,3.4285717E0,1.9591839E1,5.1673473E1,4.9959187E1,5.1428576E0,1.7142859E0,2.5469389E1,2.133747E4,6.8081635E2,4.841633E2,8.0081635E1,6.0244904E1,1.2244899E0,3.4285717E0,3.9183678E1,5.3877554E0,2.2285715E1,1.9591838E0,1.0040817E1,3.1836736E0,1.0628572E2,2.6938777E0,7.6725555E4,1.2137144E3,1.0775511E1,1.812245E1,2.9032656E3,3.742041E2,1.4693878E1,3.4775513E1,6.881633E1,4.6530614E0,9.795919E0,2.5224491E1,6.8571434E1,1.2244899E0,3.6734695E0,1.6408165E1,2.2285715E1,2.4489799E0,2.2040818E0,1.2244899E0,1.2244899E0,1.8367348E1,4.8979595E1,2.6938777E0,4.8734695E1,1.2244899E0,1.2244899E0,3.9183676E0,2.4489799E0,2.302041E1,1.7142859E0,2.1335756E4,6.791021E2,1.7142859E0,4.589388E2,2.5224491E1,7.885715E1,1.2244899E0,5.338776E1,6.8571434E0,2.179592E1,1.7387756E1,2.4489799E0,2.9387758E0,2.057143E1,1.7142859E0,7.8367352E0,2.2040818E0,1.2244899E0,1.9591838E0,8.816327E0,9.746939E1,1.4693879E0,1.2244899E0,7.626515E4,4.604082E2,1.2071022E3,6.6122456E0,1.0285715E1,7.8367352E0,2.6338777E3,2.693878E2,2.309388E2,1.4326532E2,1.9591838E0,1.27346945E1,2.8163267E1,6.6122456E0,6.563266E1,3.1836736E0,1.2244899E0,3.4285717E0,1.7142859E0,8.081634E0,7.5918374E0,1.7632654E1,6.734695E1,1.2244899E0,1.2244899E0,2.4489799E0,5.632653E0,1.0775511E1,3.4285717E0,1.8857143E1,1.2244899E0,1.2244899E0,7.1020412E0,1.1265306E1,1.6408165E1,3.257143E1,1.4693879E0,1.2244899E0,4.751021E1,1.2244899E0,1.2244899E0,1.2244899E0,1.7142859E0,2.1306124E1,1.8920572E4,2.4151838E3,6.776327E2,1.4693879E0,6.1224494E0,4.5281635E2,1.0285715E1,1.4938777E1,5.8775516E0,7.29796E1,5.0448982E1,2.9387758E0,3.1836736E0,3.6734695E0,1.4693879E0,2.0326532E1,3.4285717E0,1.3959185E1,1.2244899E0,1.2244899E0,3.6734695E0,1.689796E1,1.2244899E0,6.6122456E0,5.8775516E0,2.9387758E0,1.4693879E0,9.600001E1],"tree_param":{"num_deleted":"0","num_feature":"3000","num_nodes":"189","size_leaf_vector":"1"}},{"base_weights":[-1.4871734E-1,-5.783853E-1,3.3493469E0,-5.8193994E-1,3.2842178E0,3.3913121E0,-2.8238946E-1,-5.819614E-1,7.2538845E-2,3.3507915E0,8.6896546E-2,3.4145854E0,1.5225328E0,-5.027772E-1,6.3236445E-1,-5.232274E-1,-5.822146E-1,1.733945E-1,-1.10526316E-1,3.3967268E0,1.3884297E-1,3.4274566E0,2.733859E0,1.2464921E0,2.813084E0,1.0355029E0,-5.48912E-1,1.695962E0,1.0099887E-1,-5.2795154E-1,1.733945E-1,-5.822254E-1,3.8532108E-2,1.733945E-1,1.0296501E0,3.4520087E0,3.238272E0,3.0823672E0,1.868768E0,-3.9904988E-1,1.3634511E0,2.990045E0,1.735537E-2,-9.633028E-2,5.7798165E-1,-5.6790614E-1,1.3884297E-1,2.4418604E0,-1.24260366E-1,-1.5403423E-1,5.5637705E-1,8.6896546E-2,-5.326125E-1,-3.73246E-1,-5.822683E-1,3.4526215E0,-1.04132235E-1,3.24874E0,1.069705E0,-1.04132235E-1,3.1187162E0,-1.45546215E-8,2.0336015E0,3.8532108E-2,-1.5124653E-1,9.9348706E-1,2.098017E0,1.0393013E0,9.943784E-1,-1.7327431E-1,3.8532108E-2,8.3651453E-1,1.733945E-1,3.8532108E-2,-9.633028E-2,-3.3546326E-1,1.4657038E0,6.6878974E-2,-1.6118723E-1,-1.5165496E-1,2.603306E-1,-1.7468373E-1,-3.293941E-9,1.0359087E0,3.8532108E-2,8.99292E-1,1.006848E0,-1.2038217E-1,5.230189E-1,6.395153E-1,9.725829E-1,3.082569E-1,-1.394191E-1,1.9090907E-1,6.622372E-1,2.450546E-1,5.9149337E-1,7.0091087E-1,1.2129963E-1,6.2479335E-1,-2.6751596E-2,3.8532108E-2,-1.4110672E-1,6.556097E-1,-1.04132235E-1],"categories":[],"categories_nodes":[],"categories_segments":[],"categories_sizes":[],"default_left":[0,0,0,0,0,0,0,0,0,0,0,0,0,0,0,0,0,0,0,0,0,0,0,0,0,0,0,0,0,0,0,0,0,0,0,0,0,0,0,0,0,0,0,0,0,0,0,0,0,0,0,0,0,0,0,0,0,0,0,0,0,0,0,0,0,0,0,0,0,0,0,0,0,0,0,0,0,0,0,0,0,0,0,0,0,0,0,0,0,0,0,0,0,0,0,0,0,0,0,0,0,0,0,0,0],"id":2,"left_children":[1,3,5,7,9,11,13,15,17,19,-1,21,23,25,27,29,31,-1,-1,33,-1,35,37,39,41,43,45,47,49,51,-1,53,-1,-1,-1,55,57,59,61,63,65,67,-1,-1,-1,69,-1,71,73,-1,75,-1,77,79,81,83,-1,85,87,-1,89,91,93,-1,-1,95,97,99,-1,-1,-1,-1,-1,-1,-1,101,103,-1,-1,-1,-1,-1,-1,-1,-1,-1,-1,-1,-1,-1,-1,-1,-1,-1,-1,-1,-1,-1,-1,-1,-1,-1,-1,-1,-1],"loss_changes":[1.5709102E5,1.2799785E3,1.7435156E3,1.3496094E0,1.6121521E1,4.8639844E2,2.683459E1,1.0820312E0,1.090815E0,9.541687E0,0E0,8.84375E1,4.6665833E1,8.130129E0,1.4511313E1,2.4328766E0,7.8515625E-1,0E0,0E0,6.2383423E0,0E0,3.9695312E1,5.8186646E1,2.3219131E1,1.1538635E1,4.7880135E0,2.2633457E0,1.1968569E1,5.4306645E0,1.7082443E0,0E0,6.152344E-1,0E0,0E0,0E0,2.371875E1,2.5451172E1,1.9738037E1,1.9544556E1,5.411024E-1,2.7870575E1,1.0832474E1,0E0,0E0,0E0,7.65625E-1,0E0,2.355877E0,2.1280059E-1,0E0,9.44551E0,0E0,1.5541916E0,4.0198135E0,5.78125E-1,1.26640625E1,0E0,2.413086E1,8.243204E0,0E0,1.1111938E1,3.4108644E0,1.275885E1,0E0,0E0,1.138324E1,1.3596542E1,5.6881876E0,0E0,0E0,0E0,0E0,0E0,0E0,0E0,4.6013987E-1,8.133604E0,0E0,0E0,0E0,0E0,0E0,0E0,0E0,0E0,0E0,0E0,0E0,0E0,0E0,0E0,0E0,0E0,0E0,0E0,0E0,0E0,0E0,0E0,0E0,0E0,0E0,0E0,0E0,0E0],"parents":[2147483647,0,0,1,1,2,2,3,3,4,4,5,5,6,6,7,7,8,8,9,9,11,11,12,12,13,13,14,14,15,15,16,16,19,19,21,21,22,22,23,23,24,24,25,25,26,26,27,27,28,28,29,29,31,31,35,35,36,36,37,37,38,38,39,39,40,40,41,41,45,45,47,47,48,48,50,50,52,52,53,53,54,54,55,55,57,57,58,58,60,60,61,61,62,62,65,65,66,66,67,67,75,75,76,76],"right_children":[2,4,6,8,10,12,14,16,18,20,-1,22,24,26,28,30,32,-1,-1,34,-1,36,38,40,42,44,46,48,50,52,-1,54,-1,-1,-1,56,58,60,62,64,66,68,-1,-1,-1,70,-1,72,74,-1,76,-1,78,80,82,84,-1,86,88,-1,90,92,94,-1,-1,96,98,100,-1,-1,-1,-1,-1,-1,-1,102,104,-1,-1,-1,-1,-1,-1,-1,-1,-1,-1,-1,-1,-1,-1,-1,-1,-1,-1,-1,-1,-1,-1,-1,-1,-1,-1,-1,-1],"split_conditions":[9.721501E-1,1.770691E0,1.7451339E0,2.5384407E0,1.7623558E0,1.1581317E0,3.5769315E0,6.4273174E-3,2.1070795E-1,7.698917E-1,8.6896546E-2,1.9524567E0,1.5670699E1,4.525106E0,5.4704267E-1,1.1565285E1,3.0820002E1,1.733945E-1,-1.10526316E-1,3.2082517E-2,1.3884297E-1,8.5688424E-1,7.004568E-1,7.913047E0,1.354704E-1,2.158699E0,9.7311574E-1,7.160842E-1,4.7627914E-1,1.8542265E0,1.733945E-1,1.6392901E0,3.8532108E-2,1.733945E-1,1.0296501E0,1.8120021E0,1.0002474E0,1.2586841E1,6.203246E0,3.6252832E0,9.785389E-2,9.976967E-2,1.735537E-2,-9.633028E-2,5.7798165E-1,6.8966446E0,1.3884297E-1,1.188163E0,1.2633858E0,-1.5403423E-1,4.9913015E0,8.6896546E-2,3.1516644E1,3.6631696E0,4.7712007E0,1.3566991E0,-1.04132235E-1,1.1984087E0,1.5436884E1,-1.04132235E-1,7.798434E-2,4.611805E-1,2.3217964E-1,3.8532108E-2,-1.5124653E-1,1.0588375E1,9.782804E1,1.2566498E-1,9.943784E-1,-1.7327431E-1,3.8532108E-2,8.3651453E-1,1.733945E-1,3.8532108E-2,-9.633028E-2,9.480172E-1,5.327522E-1,6.6878974E-2,-1.6118723E-1,-1.5165496E-1,2.603306E-1,-1.7468373E-1,-3.293941E-9,1.0359087E0,3.8532108E-2,8.99292E-1,1.006848E0,-1.2038217E-1,5.230189E-1,6.395153E-1,9.725829E-1,3.082569E-1,-1.394191E-1,1.9090907E-1,6.622372E-1,2.450546E-1,5.9149337E-1,7.0091087E-1,1.2129963E-1,6.2479335E-1,-2.6751596E-2,3.8532108E-2,-1.4110672E-1,6.556097E-1,-1.04132235E-1],"split_indices":[1422,1768,1909,2529,2283,1131,1423,63,2048,945,0,2458,2536,415,1975,764,252,0,0,782,0,2745,843,1847,2719,1028,1324,2168,1042,1871,0,1564,0,0,0,1115,2731,70,995,514,99,2144,0,0,0,2818,0,2605,256,0,1303,0,735,2814,1343,291,0,914,1818,0,2507,1294,2163,0,0,1139,2230,116,0,0,0,0,0,0,0,256,1696,0,0,0,0,0,0,0,0,0,0,0,0,0,0,0,0,0,0,0,0,0,0,0,0,0,0,0,0],"split_type":[0,0,0,0,0,0,0,0,0,0,0,0,0,0,0,0,0,0,0,0,0,0,0,0,0,0,0,0,0,0,0,0,0,0,0,0,0,0,0,0,0,0,0,0,0,0,0,0,0,0,0,0,0,0,0,0,0,0,0,0,0,0,0,0,0,0,0,0,0,0,0,0,0,0,0,0,0,0,0,0,0,0,0,0,0,0,0,0,0,0,0,0,0,0,0,0,0,0,0,0,0,0,0,0,0],"sum_hessian":[1.045156E5,9.308302E4,1.1432572E4,9.299829E4,8.47347E1,1.1302042E4,1.3053062E2,9.299535E4,2.9387758E0,8.277551E1,1.9591838E0,1.1162205E4,1.3983675E2,1.05551025E2,2.4979593E1,4.0800003E2,9.258735E4,1.2244899E0,1.7142859E0,8.130613E1,1.4693879E0,1.0951103E4,2.1110205E2,1.1681634E2,2.302041E1,2.4489799E0,1.0310205E2,7.5918374E0,1.7387756E1,4.0677554E2,1.2244899E0,9.258613E4,1.2244899E0,1.2244899E0,8.0081635E1,9.677878E3,1.2732246E3,1.4865308E2,6.2448982E1,7.5918374E0,1.09224495E2,2.1551022E1,1.4693879E0,1.2244899E0,1.2244899E0,1.0163266E2,1.4693879E0,5.1428576E0,2.4489799E0,7.346939E0,1.0040817E1,1.9591838E0,4.0481635E2,2.0816328E1,9.256531E4,9.676409E3,1.4693879E0,1.2666123E3,6.6122456E0,1.4693879E0,1.4718369E2,5.1428576E0,5.7306126E1,1.2244899E0,6.3673472E0,7.420409E1,3.5020412E1,3.6734695E0,1.7877552E1,1.0040817E2,1.2244899E0,3.9183676E0,1.2244899E0,1.2244899E0,1.2244899E0,5.3877554E0,4.6530614E0,2.2040818E0,4.0261227E2,1.9346941E1,1.4693879E0,9.25636E4,1.7142859E0,9.675185E3,1.2244899E0,3.881633E2,8.7844904E2,2.2040818E0,4.4081635E0,1.8367348E1,1.2881633E2,1.2244899E0,3.9183676E0,6.8571434E0,5.0448982E1,6.4408165E1,9.795919E0,3.036735E1,4.6530614E0,1.4693879E0,2.2040818E0,1.2244899E0,4.1632657E0,3.1836736E0,1.4693879E0],"tree_param":{"num_deleted":"0","num_feature":"3000","num_nodes":"105","size_leaf_vector":"1"}},{"base_weights":[-3.6789784E-1,-5.745782E-1,3.4944432E0,-5.7957184E-1,2.5746915E0,1.1052631E-1,3.4953835E0,-5.8070034E-1,7.644759E-1,3.0602665E0,7.453896E-1,3.4959476E0,2.603306E-1,-5.808214E-1,6.376237E-1,2.2805429E0,2.005268E-1,3.182368E0,5.192878E-1,1.4413606E-1,1.7814028E0,3.4963236E0,3.082569E-1,-3.5098305E-1,-5.8127207E-1,-2.5454545E-1,7.4556214E-1,2.5530226E0,-1.1586207E-1,7.892518E-1,-6.551241E-2,3.2524374E0,3.2642484E-1,-1.394191E-1,5.937931E-1,-1.06598996E-1,1.4696132E0,7.2538845E-2,2.2985075E0,1.04901E0,3.082569E-1,3.0434778E-1,-4.0860337E-1,-5.815831E-1,-3.8706404E-1,1.733945E-1,-1.4861539E-1,2.6996837E0,3.8532108E-2,1.8722138E-1,1.9169229E0,-4.0352282E-1,3.884738E-1,3.284895E0,3.8532108E-2,3.082569E-1,-1.10526316E-1,9.9024385E-1,-3.7153196E-1,3.8532108E-2,6.2479335E-1,1.733945E-1,-1.10526316E-1,1.8827586E-1,2.6461124E0,5.2209944E-1,-3.1203572E-2,2.603306E-1,-1.2717132E-1,-1.7448099E-1,2.1761654E-2,-1.3000649E-1,3.7598252E-1,2.2105263E-1,8.545665E-1,-1.504298E-1,2.4209115E-1,1.735537E-2,7.304348E-1,1.8827586E-1,-1.5481353E-1,-1.10526316E-1,2.3855999E-1,3.8532108E-2,9.954174E-1,-1.10526316E-1,6.2479335E-1,-1.4473343E-1,1.733945E-1,1.733945E-1,8.85623E-1],"categories":[],"categories_nodes":[],"categories_segments":[],"categories_sizes":[],"default_left":[0,0,0,0,0,0,0,0,0,0,0,0,0,0,0,0,0,0,0,0,0,0,0,0,0,0,0,0,0,0,0,0,0,0,0,0,0,0,0,0,0,0,0,0,0,0,0,0,0,0,0,0,0,0,0,0,0,0,0,0,0,0,0,0,0,0,0,0,0,0,0,0,0,0,0,0,0,0,0,0,0,0,0,0,0,0,0,0,0,0,0],"id":3,"left_children":[1,3,5,7,9,-1,11,13,15,17,19,21,-1,23,25,27,29,31,33,35,37,39,-1,41,43,45,-1,47,-1,49,51,53,55,-1,-1,57,59,61,63,-1,-1,65,67,69,71,-1,-1,73,-1,75,77,79,81,83,-1,-1,-1,85,87,-1,-1,-1,-1,-1,89,-1,-1,-1,-1,-1,-1,-1,-1,-1,-1,-1,-1,-1,-1,-1,-1,-1,-1,-1,-1,-1,-1,-1,-1,-1,-1],"loss_changes":[8.343448E4,1.5616797E3,1.4308594E1,1.506836E2,1.3739368E2,0E0,4.8320312E0,1.4964844E1,7.0960075E1,3.6800415E1,2.1112747E1,1.3320312E0,0E0,1.0042969E1,1.7620766E1,1.737236E1,9.759194E0,2.2563965E1,1.0800745E1,7.7327375E0,1.0888054E1,1.3320312E0,0E0,7.5323296E0,5.7421875E0,1.8617208E0,0E0,6.97554E0,0E0,1.2789457E1,6.849148E0,1.1251343E1,2.2973557E0,0E0,0E0,6.209356E0,2.7695422E0,1.090815E0,3.8986206E0,0E0,0E0,9.814693E0,3.8979626E0,1.3476562E0,1.27621E1,0E0,0E0,3.5603943E0,0E0,6.266509E0,6.244652E0,3.281259E0,6.1797943E0,1.1496582E1,0E0,0E0,0E0,6.9767265E0,2.0605717E0,0E0,0E0,0E0,0E0,0E0,3.1105843E0,0E0,0E0,0E0,0E0,0E0,0E0,0E0,0E0,0E0,0E0,0E0,0E0,0E0,0E0,0E0,0E0,0E0,0E0,0E0,0E0,0E0,0E0,0E0,0E0,0E0,0E0],"parents":[2147483647,0,0,1,1,2,2,3,3,4,4,6,6,7,7,8,8,9,9,10,10,11,11,13,13,14,14,15,15,16,16,17,17,18,18,19,19,20,20,21,21,23,23,24,24,25,25,27,27,29,29,30,30,31,31,32,32,35,35,36,36,37,37,38,38,41,41,42,42,43,43,44,44,47,47,49,49,50,50,51,51,52,52,53,53,57,57,58,58,64,64],"right_children":[2,4,6,8,10,-1,12,14,16,18,20,22,-1,24,26,28,30,32,34,36,38,40,-1,42,44,46,-1,48,-1,50,52,54,56,-1,-1,58,60,62,64,-1,-1,66,68,70,72,-1,-1,74,-1,76,78,80,82,84,-1,-1,-1,86,88,-1,-1,-1,-1,-1,90,-1,-1,-1,-1,-1,-1,-1,-1,-1,-1,-1,-1,-1,-1,-1,-1,-1,-1,-1,-1,-1,-1,-1,-1,-1,-1],"split_conditions":[4.311898E0,3.4583068E0,2.2803E1,2.4487236E0,4.468083E0,1.1052631E-1,1.5414983E0,1.8401725E0,6.206758E-1,3.701518E-2,8.24323E-1,1.3205768E1,2.603306E-1,6.133217E-2,7.3754184E-2,1.7349807E0,1.1623633E-2,1.7983203E0,6.737238E0,2.6429987E-1,2.9618068E-2,1.3910635E0,3.082569E-1,6.464186E-1,6.621431E-1,4.0729103E0,7.4556214E-1,1.1681354E0,-1.1586207E-1,1.5012178E-1,3.8042374E0,9.721332E0,3.133138E-2,-1.394191E-1,5.937931E-1,5.266312E-3,4.1236678E-1,3.5985676E-3,4.067257E-2,1.04901E0,3.082569E-1,5.0930196E-1,5.5825E-2,3.4590957E0,1.013483E0,1.733945E-1,-1.4861539E-1,4.4947937E-2,3.8532108E-2,2.4526885E0,1.3914518E-1,1.8750808E0,6.288039E-1,4.2392532E-3,3.8532108E-2,3.082569E-1,-1.10526316E-1,2.2758207E1,4.9936028E0,3.8532108E-2,6.2479335E-1,1.733945E-1,-1.10526316E-1,1.8827586E-1,6.5199685E0,5.2209944E-1,-3.1203572E-2,2.603306E-1,-1.2717132E-1,-1.7448099E-1,2.1761654E-2,-1.3000649E-1,3.7598252E-1,2.2105263E-1,8.545665E-1,-1.504298E-1,2.4209115E-1,1.735537E-2,7.304348E-1,1.8827586E-1,-1.5481353E-1,-1.10526316E-1,2.3855999E-1,3.8532108E-2,9.954174E-1,-1.10526316E-1,6.2479335E-1,-1.4473343E-1,1.733945E-1,1.733945E-1,8.85623E-1],"split_indices":[777,2698,285,1758,689,0,2600,2114,94,1925,2572,5,0,89,270,2907,1149,2160,736,183,236,1581,0,2457,1837,1792,0,553,0,2290,706,1306,512,0,0,2958,2822,768,1613,0,0,2980,1175,2553,148,0,0,2801,0,304,1432,602,2788,2930,0,0,0,2820,2979,0,0,0,0,0,1220,0,0,0,0,0,0,0,0,0,0,0,0,0,0,0,0,0,0,0,0,0,0,0,0,0,0],"split_type":[0,0,0,0,0,0,0,0,0,0,0,0,0,0,0,0,0,0,0,0,0,0,0,0,0,0,0,0,0,0,0,0,0,0,0,0,0,0,0,0,0,0,0,0,0,0,0,0,0,0,0,0,0,0,0,0,0,0,0,0,0,0,0,0,0,0,0,0,0,0,0,0,0,0,0,0,0,0,0,0,0,0,0,0,0,0,0,0,0,0,0],"sum_hessian":[1.045156E5,9.920768E4,5.307919E3,9.905144E4,1.562449E2,1.7142859E0,5.3062046E3,9.896891E4,8.253062E1,1.2293878E2,3.3306126E1,5.304735E3,1.4693879E0,9.89596E4,9.306123E0,2.1551022E1,6.0979595E1,1.1706123E2,5.8775516E0,2.179592E1,1.1510205E1,5.3035107E3,1.2244899E0,1.9518369E2,9.8764414E4,6.8571434E0,2.4489799E0,1.9591839E1,1.9591838E0,1.8367348E1,4.2612247E1,1.1412246E2,2.9387758E0,3.9183676E0,1.9591838E0,1.9102041E1,2.6938777E0,2.9387758E0,8.571429E0,5.302286E3,1.2244899E0,1.5428573E1,1.7975511E2,9.86045E4,1.5991838E2,1.2244899E0,5.632653E0,1.8367348E1,1.2244899E0,1.27346945E1,5.632653E0,2.4489798E1,1.812245E1,1.12897964E2,1.2244899E0,1.2244899E0,1.7142859E0,3.1836736E0,1.5918368E1,1.2244899E0,1.4693879E0,1.2244899E0,1.7142859E0,1.9591838E0,6.6122456E0,2.6938777E0,1.27346945E1,1.4693879E0,1.7828572E2,9.8601555E4,2.9387758E0,1.562449E2,3.6734695E0,1.7142859E0,1.6653063E1,6.1224494E0,6.6122456E0,1.4693879E0,4.1632657E0,1.9591838E0,2.2530613E1,6.3673472E0,1.1755103E1,1.2244899E0,1.1167348E2,1.7142859E0,1.4693879E0,1.4693878E1,1.2244899E0,1.2244899E0,5.3877554E0],"tree_param":{"num_deleted":"0","num_feature":"3000","num_nodes":"91","size_leaf_vector":"1"}},{"base_weights":[-3.4855163E-1,-5.700681E-1,3.4782307E0,-5.727405E-1,2.2774234E0,-1.772152E-1,3.4848478E0,6.3351095E-1,-5.7776266E-1,2.372854E0,-3.0567698E-2,-1.5573035E-1,2.541401E-1,3.487632E0,1.4626865E0,1.7460436E0,-3.2296762E-1,-5.781792E-1,-3.7708807E-1,-1.1586207E-1,2.4392698E0,-1.2426036E-1,1.733945E-1,3.4885056E0,1.1052631E-1,-1.2038217E-1,2.0747921E0,2.345834E0,8.9707E-1,-5.1429266E-1,2.731707E-1,-5.175216E-1,-5.7920116E-1,-5.211869E-1,9.148112E-1,1.0669745E0,2.5613267E0,3.4893765E0,1.5806451E0,8.3651453E-1,4.5562127E-1,1.6942868E0,2.7810032E0,2.9560113E-1,1.3296605E0,-5.3725976E-1,5.121951E-1,-7.079121E-2,8.199419E-1,-5.209208E-1,2.2921912E-1,-5.796521E-1,-4.7214893E-1,8.3419687E-1,-5.4744685E-1,1.8270797E-1,1.7761194E0,-1.2038217E-1,1.6153846E0,-9.633028E-2,2.610603E0,3.082569E-1,1.0469177E0,6.9517237E-1,1.735537E-2,3.082569E-1,-9.633028E-2,-1.2762432E-1,5.5002314E-1,8.6030704E-1,6.6878974E-2,-1.5132111E-2,3.368317E-1,4.9071297E-1,1.3266563E-1,1.733945E-1,-1.6474704E-1,4.4311926E-1,-1.1586207E-1,-7.883959E-2,3.0113208E-1,3.781719E-1,-6.618912E-2,-1.6552563E-1,-1.331583E-1,3.2642484E-1,-1.4110672E-1,-1.7396732E-1,-1.5079376E-1,1.4090541E-1,-1.5976933E-1,-9.633028E-2,4.4210526E-1,-1.6743402E-1,1.1052631E-1,5.7798165E-1,-5.3164564E-2,-2.6751596E-2,7.038781E-1,6.5352696E-1,-3.293941E-9,8.263515E-1,4.0892497E-1],"categories":[],"categories_nodes":[],"categories_segments":[],"categories_sizes":[],"default_left":[0,0,0,0,0,0,0,0,0,0,0,0,0,0,0,0,0,0,0,0,0,0,0,0,0,0,0,0,0,0,0,0,0,0,0,0,0,0,0,0,0,0,0,0,0,0,0,0,0,0,0,0,0,0,0,0,0,0,0,0,0,0,0,0,0,0,0,0,0,0,0,0,0,0,0,0,0,0,0,0,0,0,0,0,0,0,0,0,0,0,0,0,0,0,0,0,0,0,0,0,0,0,0],"id":4,"left_children":[1,3,5,7,9,11,13,15,17,19,21,-1,-1,23,25,27,29,31,33,-1,35,-1,-1,37,-1,-1,39,41,43,45,47,49,51,53,55,57,59,61,63,-1,65,67,69,71,73,75,77,79,81,83,85,87,89,91,93,95,97,-1,99,-1,101,-1,-1,-1,-1,-1,-1,-1,-1,-1,-1,-1,-1,-1,-1,-1,-1,-1,-1,-1,-1,-1,-1,-1,-1,-1,-1,-1,-1,-1,-1,-1,-1,-1,-1,-1,-1,-1,-1,-1,-1,-1,-1],"loss_changes":[8.860022E4,7.5312305E2,1.3896094E2,5.9833203E2,2.052008E1,4.392123E0,2.7046875E1,4.3656818E2,8E0,1.7280762E1,1.3304684E0,0E0,0E0,1.425E1,1.1752991E1,9.4426575E1,2.536553E1,5.78125E0,3.891337E1,0E0,1.1873657E1,0E0,0E0,3.953125E0,0E0,0E0,7.2419624E0,2.6609863E1,2.0448677E1,4.230564E0,1.0286667E1,4.2688904E0,4.3847656E0,7.0906525E0,1.2968861E1,7.7635727E0,1.2111267E1,1.3125E0,4.8334036E0,0E0,1.8620052E0,1.4580078E1,1.3702179E1,1.0016462E1,1.1853447E1,2.501217E0,4.1970296E0,7.341981E0,9.944229E0,3.6220398E0,5.3798122E0,1.4746094E0,2.3578522E1,3.3831615E0,1.997757E0,8.193693E0,1.0388235E1,0E0,6.0325584E0,0E0,1.0273621E1,0E0,0E0,0E0,0E0,0E0,0E0,0E0,0E0,0E0,0E0,0E0,0E0,0E0,0E0,0E0,0E0,0E0,0E0,0E0,0E0,0E0,0E0,0E0,0E0,0E0,0E0,0E0,0E0,0E0,0E0,0E0,0E0,0E0,0E0,0E0,0E0,0E0,0E0,0E0,0E0,0E0,0E0],"parents":[2147483647,0,0,1,1,2,2,3,3,4,4,5,5,6,6,7,7,8,8,9,9,10,10,13,13,14,14,15,15,16,16,17,17,18,18,20,20,23,23,26,26,27,27,28,28,29,29,30,30,31,31,32,32,33,33,34,34,35,35,36,36,37,37,38,38,40,40,41,41,42,42,43,43,44,44,45,45,46,46,47,47,48,48,49,49,50,50,51,51,52,52,53,53,54,54,55,55,56,56,58,58,60,60],"right_children":[2,4,6,8,10,12,14,16,18,20,22,-1,-1,24,26,28,30,32,34,-1,36,-1,-1,38,-1,-1,40,42,44,46,48,50,52,54,56,58,60,62,64,-1,66,68,70,72,74,76,78,80,82,84,86,88,90,92,94,96,98,-1,100,-1,102,-1,-1,-1,-1,-1,-1,-1,-1,-1,-1,-1,-1,-1,-1,-1,-1,-1,-1,-1,-1,-1,-1,-1,-1,-1,-1,-1,-1,-1,-1,-1,-1,-1,-1,-1,-1,-1,-1,-1,-1,-1,-1],"split_conditions":[4.8741007E0,3.68959E1,5.4382463E0,3.1494248E-1,1.0532275E0,4.647504E0,4.4263938E-1,3.1185938E-2,3.225016E0,1.1170367E0,1.528092E-1,-1.5573035E-1,2.541401E-1,3.3596644E-1,4.0935817E-1,1.0075108E0,9.323917E-1,1.8406514E-3,1.8812826E0,-1.1586207E-1,9.659342E-1,-1.2426036E-1,1.733945E-1,5.731975E0,1.1052631E-1,-1.2038217E-1,1.0227963E0,1.2994419E0,2.9741257E-1,2.736055E0,1.3935052E0,1.2619061E0,5.410151E-1,4.8267648E-2,1.9521885E0,3.2801902E-1,6.946651E-2,1.8641876E0,3.3601098E0,8.3651453E-1,1.034786E0,5.3112485E-2,5.514594E-1,2.3336613E0,6.0855585E-1,1.1430636E-2,3.2379806E-1,6.0872203E-1,6.1434776E-1,5.4571337E-1,9.4500494E-1,5.4750885E1,1.0089203E0,9.20544E-1,2.9389772E0,2.9197533E-2,6.7274785E-1,-1.2038217E-1,3.189539E-1,-9.633028E-2,3.018205E-1,3.082569E-1,1.0469177E0,6.9517237E-1,1.735537E-2,3.082569E-1,-9.633028E-2,-1.2762432E-1,5.5002314E-1,8.6030704E-1,6.6878974E-2,-1.5132111E-2,3.368317E-1,4.9071297E-1,1.3266563E-1,1.733945E-1,-1.6474704E-1,4.4311926E-1,-1.1586207E-1,-7.883959E-2,3.0113208E-1,3.781719E-1,-6.618912E-2,-1.6552563E-1,-1.331583E-1,3.2642484E-1,-1.4110672E-1,-1.7396732E-1,-1.5079376E-1,1.4090541E-1,-1.5976933E-1,-9.633028E-2,4.4210526E-1,-1.6743402E-1,1.1052631E-1,5.7798165E-1,-5.3164564E-2,-2.6751596E-2,7.038781E-1,6.5352696E-1,-3.293941E-9,8.263515E-1,4.0892497E-1],"split_indices":[1335,1585,105,2985,2897,105,987,1869,1641,1793,768,0,0,2086,1245,237,1594,1526,2865,0,2737,0,0,1697,0,0,28,374,216,2332,232,2698,2769,2964,707,2485,961,2911,1554,0,513,376,2505,1346,678,1555,1841,1472,2898,1075,2879,356,1370,12,596,691,1596,0,1315,0,1329,0,0,0,0,0,0,0,0,0,0,0,0,0,0,0,0,0,0,0,0,0,0,0,0,0,0,0,0,0,0,0,0,0,0,0,0,0,0,0,0,0,0],"split_type":[0,0,0,0,0,0,0,0,0,0,0,0,0,0,0,0,0,0,0,0,0,0,0,0,0,0,0,0,0,0,0,0,0,0,0,0,0,0,0,0,0,0,0,0,0,0,0,0,0,0,0,0,0,0,0,0,0,0,0,0,0,0,0,0,0,0,0,0,0,0,0,0,0,0,0,0,0,0,0,0,0,0,0,0,0,0,0,0,0,0,0,0,0,0,0,0,0,0,0,0,0,0,0],"sum_hessian":[1.045156E5,9.879748E4,5.718123E3,9.870564E4,9.183674E1,1.0285715E1,5.707837E3,4.087347E2,9.829691E4,8.816327E1,3.6734695E0,8.081634E0,2.2040818E0,5.6992656E3,8.571429E0,1.8857144E2,2.2016328E2,9.809144E4,2.054694E2,1.9591838E0,8.620409E1,2.4489799E0,1.2244899E0,5.6975513E3,1.7142859E0,2.2040818E0,6.3673472E0,1.094694E2,7.910204E1,1.6677553E2,5.338776E1,1.6337144E3,9.645772E4,1.8538777E2,2.0081635E1,7.8367352E0,7.8367355E1,5.694123E3,3.4285717E0,3.9183676E0,2.4489799E0,4.579592E1,6.3673473E1,3.379592E1,4.5306126E1,1.6359184E2,3.1836736E0,3.3306126E1,2.0081635E1,1.6266123E3,7.1020412E0,9.604874E4,4.089796E2,2.9387758E0,1.8244899E2,1.1510205E1,8.571429E0,2.2040818E0,5.632653E0,1.2244899E0,7.714286E1,1.2244899E0,5.6928984E3,1.9591838E0,1.4693879E0,1.2244899E0,1.2244899E0,2.6938777E0,4.3102043E1,6.146939E1,2.2040818E0,2.4489798E1,9.306123E0,3.3061226E1,1.2244899E1,1.2244899E0,1.6236736E2,1.2244899E0,1.9591838E0,2.889796E1,4.4081635E0,1.3959185E1,6.1224494E0,1.1573878E3,4.6922452E2,2.9387758E0,4.1632657E0,9.574507E4,3.036735E2,2.42449E1,3.847347E2,1.2244899E0,1.7142859E0,1.8073471E2,1.7142859E0,1.2244899E0,1.0285715E1,2.2040818E0,6.3673472E0,3.9183676E0,1.7142859E0,6.8081635E1,9.061225E0],"tree_param":{"num_deleted":"0","num_feature":"3000","num_nodes":"103","size_leaf_vector":"1"}},{"base_weights":[1.3269526E0,3.4520817E0,-5.479891E-1,3.1295986E0,3.4631407E0,-5.58317E-1,2.6046326E0,3.2724268E0,2.785909E0,3.4699461E0,3.3471963E0,-5.667635E-1,-3.4212562E-1,6.0987394E-2,2.920723E0,1.0185976E0,3.1466963E0,3.2766588E0,2.6580799E0,3.3670995E0,3.4745624E0,3.3482568E0,1.733945E-1,1.18602164E-1,-5.674976E-1,-3.789019E-1,5.167339E-1,-1.4568159E-1,5.033058E-1,1.2467153E0,3.05871E0,1.6675899E0,3.1601686E0,2.2105263E-1,3.3149145E0,2.6738386E0,6.774193E-1,3.3949854E0,2.914987E0,1.0423964E0,3.477707E-1,3.3492904E0,3.3157894E-1,3.3102926E-2,5.5263156E-1,-5.7332087E-1,-5.2634734E-1,-4.8877156E-1,-2.7086827E-1,8.467177E-1,-2.8865978E-1,3.818182E-1,-3.3070865E-1,-1.2426036E-1,1.6353981E0,1.735537E-2,3.088321E0,7.6113534E-1,1.1602208E-1,1.733945E-1,3.1646698E0,3.9103448E-1,3.3433986E0,2.4605756E0,2.8867698E0,4.4210526E-1,-1.10526316E-1,3.396007E0,3.082569E-1,1.735537E-2,2.9497683E0,3.3499756E0,3.082569E-1,5.4010147E-1,-2.4324325E-1,-5.7424664E-1,-3.6176968E-1,-5.344117E-1,4.2086196E-1,-3.600978E-1,-5.2248347E-1,-3.2622528E-1,-1.4264706E-2,2.3501804E0,6.8157226E-1,7.5121945E-1,-4.6877828E-1,-1.6348994E-1,5.803108E-1,2.4181817E0,-3.0567698E-2,3.1178865E0,1.1052631E-1,1.733945E-1,-1.04132235E-1,9.939547E-1,8.983701E-1,3.3157894E-1,1.0120368E0,8.2034814E-1,5.742235E-1,8.8147855E-1,3.3026707E-1,3.082569E-1,1.019109E0,9.004776E-1,3.117904E-1,1.0051985E0,3.082569E-1,6.0258205E-3,4.6112758E-1,1.598616E-1,-1.1347744E-1,-1.722933E-1,2.603306E-1,-1.1743631E-1,2.2743681E-1,-1.6107994E-1,-5.220639E-3,-4.124117E-2,2.609629E-1,9.478862E-3,-1.4389434E-1,-1.57853E-1,1.8827586E-1,-1.13047056E-1,-1.9790582E-2,-7.025168E-2,1.656338E-1,8.129032E-1,1.733945E-1,-1.504298E-1,2.5050545E-1,-1.10526316E-1,5.033058E-1,1.733945E-1,-1.6679427E-1,-1.10526316E-1,4.4311926E-1,8.790698E-1,1.1052631E-1,-1.2426036E-1,1.733945E-1,1.3884297E-1,9.425408E-1],"categories":[],"categories_nodes":[],"categories_segments":[],"categories_sizes":[],"default_left":[0,0,0,0,0,0,0,0,0,0,0,0,0,0,0,0,0,0,0,0,0,0,0,0,0,0,0,0,0,0,0,0,0,0,0,0,0,0,0,0,0,0,0,0,0,0,0,0,0,0,0,0,0,0,0,0,0,0,0,0,0,0,0,0,0,0,0,0,0,0,0,0,0,0,0,0,0,0,0,0,0,0,0,0,0,0,0,0,0,0,0,0,0,0,0,0,0,0,0,0,0,0,0,0,0,0,0,0,0,0,0,0,0,0,0,0,0,0,0,0,0,0,0,0,0,0,0,0,0,0,0,0,0,0,0,0,0,0,0,0,0,0,0,0,0],"id":5,"left_children":[1,3,5,7,9,11,13,15,17,19,21,23,25,27,29,-1,31,33,35,37,39,41,-1,43,45,47,49,51,-1,53,55,57,59,-1,61,63,65,67,69,-1,-1,71,-1,73,-1,75,77,79,81,83,85,-1,87,-1,89,-1,91,-1,93,-1,95,-1,97,99,101,-1,-1,103,-1,-1,105,107,-1,109,111,113,115,117,119,121,123,125,127,129,131,133,135,-1,137,139,141,143,-1,-1,-1,-1,-1,-1,-1,-1,-1,-1,-1,-1,-1,-1,-1,-1,-1,-1,-1,-1,-1,-1,-1,-1,-1,-1,-1,-1,-1,-1,-1,-1,-1,-1,-1,-1,-1,-1,-1,-1,-1,-1,-1,-1,-1,-1,-1,-1,-1,-1,-1,-1,-1],"loss_changes":[4.1644753E5,1.63875E2,1.8094375E3,7.112988E1,2.575E1,1.0087305E2,1.4574365E2,7.0722656E0,2.1817871E1,9.5E0,5.8554688E0,2.6867188E1,6.600807E1,7.288234E0,3.347046E1,0E0,6.3203125E0,6.9108887E0,1.0403809E1,1.4720703E1,5.125E0,2.4492188E0,0E0,8.458731E0,1.2447266E1,2.3590576E1,2.3094946E1,5.568019E0,0E0,9.702187E0,1.3010376E1,9.645161E0,4.8569336E0,0E0,1.0593262E0,1.0513428E1,4.2308993E0,9.433594E-1,1.1804993E1,0E0,0E0,7.753906E-1,0E0,7.9916716E0,0E0,8.918945E0,5.0703857E1,4.1048126E0,1.4341904E1,1.3604687E1,5.1723013E0,0E0,3.8576093E0,0E0,1.5110886E1,0E0,1.0669189E1,0E0,9.9091613E-1,0E0,4.580078E0,0E0,2.5003662E0,2.4793701E1,1.4085327E1,0E0,0E0,9.4921875E-1,0E0,0E0,8.666382E0,7.7734375E-1,0E0,1.0391039E1,4.078685E0,4.805664E0,7.1361485E0,8.532959E0,1.4245721E1,9.786718E0,3.6516418E0,1.0914421E1,2.2581455E1,2.0354176E0,1.0691669E1,4.957859E0,2.3798075E0,0E0,3.8952072E0,7.1671486E0,1.3304684E0,7.768921E0,0E0,0E0,0E0,0E0,0E0,0E0,0E0,0E0,0E0,0E0,0E0,0E0,0E0,0E0,0E0,0E0,0E0,0E0,0E0,0E0,0E0,0E0,0E0,0E0,0E0,0E0,0E0,0E0,0E0,0E0,0E0,0E0,0E0,0E0,0E0,0E0,0E0,0E0,0E0,0E0,0E0,0E0,0E0,0E0,0E0,0E0,0E0,0E0,0E0,0E0,0E0,0E0,0E0],"parents":[2147483647,0,0,1,1,2,2,3,3,4,4,5,5,6,6,7,7,8,8,9,9,10,10,11,11,12,12,13,13,14,14,16,16,17,17,18,18,19,19,20,20,21,21,23,23,24,24,25,25,26,26,27,27,29,29,30,30,31,31,32,32,34,34,35,35,36,36,37,37,38,38,41,41,43,43,45,45,46,46,47,47,48,48,49,49,50,50,52,52,54,54,56,56,58,58,60,60,62,62,63,63,64,64,67,67,70,70,71,71,73,73,74,74,75,75,76,76,77,77,78,78,79,79,80,80,81,81,82,82,83,83,84,84,85,85,86,86,88,88,89,89,90,90,91,91],"right_children":[2,4,6,8,10,12,14,16,18,20,22,24,26,28,30,-1,32,34,36,38,40,42,-1,44,46,48,50,52,-1,54,56,58,60,-1,62,64,66,68,70,-1,-1,72,-1,74,-1,76,78,80,82,84,86,-1,88,-1,90,-1,92,-1,94,-1,96,-1,98,100,102,-1,-1,104,-1,-1,106,108,-1,110,112,114,116,118,120,122,124,126,128,130,132,134,136,-1,138,140,142,144,-1,-1,-1,-1,-1,-1,-1,-1,-1,-1,-1,-1,-1,-1,-1,-1,-1,-1,-1,-1,-1,-1,-1,-1,-1,-1,-1,-1,-1,-1,-1,-1,-1,-1,-1,-1,-1,-1,-1,-1,-1,-1,-1,-1,-1,-1,-1,-1,-1,-1,-1,-1,-1],"split_conditions":[9.618884E-1,1.8406514E-3,2.9499054E0,2.5674982E0,3.992725E0,5.056536E-1,6.5599847E-1,4.0869308E-1,2.8502417E-1,3.247319E-3,8.145763E-2,8.885245E-1,9.340228E-1,1.1925925E0,3.1144469E0,1.0185976E0,2.7396518E-3,6.32862E-1,2.4311448E-2,6.816015E0,6.6466814E-1,6.1330855E-2,1.733945E-1,1.04644755E-2,1.441083E1,2.2760995E-1,1.9630232E0,1.548729E0,5.033058E-1,3.1218243E-1,3.006005E-1,1.7426876E0,7.515911E0,2.2105263E-1,3.976739E0,4.198849E-3,8.296063E-1,1.4478134E-2,9.4655E-1,1.0423964E0,3.477707E-1,1.9566328E1,3.3157894E-1,2.881118E-1,5.5263156E-1,2.0106668E0,1.8403813E-1,1.270653E-1,3.0093105E0,1.386274E0,1.9275372E0,3.818182E-1,5.0952153E0,-1.2426036E-1,4.664068E0,1.735537E-2,9.6595293E-1,7.6113534E-1,1.4985951E-2,1.733945E-1,4.5824475E0,3.9103448E-1,7.564755E0,1.0820471E-2,1.2425741E0,4.4210526E-1,-1.10526316E-1,3.3374035E-1,3.082569E-1,1.735537E-2,7.9681287E0,3.2775774E0,3.082569E-1,2.7256622E0,1.5397774E0,1.7987113E0,8.61852E0,2.8914428E0,1.9647357E-1,1.40209785E-2,2.5863603E-1,1.0937704E0,3.6569977E1,6.4003406E0,2.5008476E0,1.1781582E0,3.7559965E-1,-1.6348994E-1,2.9371784E0,1.0257729E0,5.092146E-1,1.5916525E0,1.1052631E-1,1.733945E-1,-1.04132235E-1,9.939547E-1,8.983701E-1,3.3157894E-1,1.0120368E0,8.2034814E-1,5.742235E-1,8.8147855E-1,3.3026707E-1,3.082569E-1,1.019109E0,9.004776E-1,3.117904E-1,1.0051985E0,3.082569E-1,6.0258205E-3,4.6112758E-1,1.598616E-1,-1.1347744E-1,-1.722933E-1,2.603306E-1,-1.1743631E-1,2.2743681E-1,-1.6107994E-1,-5.220639E-3,-4.124117E-2,2.609629E-1,9.478862E-3,-1.4389434E-1,-1.57853E-1,1.8827586E-1,-1.13047056E-1,-1.9790582E-2,-7.025168E-2,1.656338E-1,8.129032E-1,1.733945E-1,-1.504298E-1,2.5050545E-1,-1.10526316E-1,5.033058E-1,1.733945E-1,-1.6679427E-1,-1.10526316E-1,4.4311926E-1,8.790698E-1,1.1052631E-1,-1.2426036E-1,1.733945E-1,1.3884297E-1,9.425408E-1],"split_indices":[1747,1526,608,2284,900,715,156,1417,2827,1526,1442,535,658,1561,307,0,1045,1495,2958,682,2395,1081,0,1003,2699,1015,102,95,0,2845,935,2393,1933,0,2262,1615,1591,338,1988,0,0,1371,0,1476,0,2634,750,1436,1306,29,1258,0,2535,0,44,0,2619,0,0,0,1212,0,1240,2166,994,0,0,637,0,0,118,1930,0,1782,1414,1879,1578,1499,2286,74,1631,2431,2773,1027,1041,546,116,0,1028,1483,1024,2892,0,0,0,0,0,0,0,0,0,0,0,0,0,0,0,0,0,0,0,0,0,0,0,0,0,0,0,0,0,0,0,0,0,0,0,0,0,0,0,0,0,0,0,0,0,0,0,0,0,0,0,0,0],"split_type":[0,0,0,0,0,0,0,0,0,0,0,0,0,0,0,0,0,0,0,0,0,0,0,0,0,0,0,0,0,0,0,0,0,0,0,0,0,0,0,0,0,0,0,0,0,0,0,0,0,0,0,0,0,0,0,0,0,0,0,0,0,0,0,0,0,0,0,0,0,0,0,0,0,0,0,0,0,0,0,0,0,0,0,0,0,0,0,0,0,0,0,0,0,0,0,0,0,0,0,0,0,0,0,0,0,0,0,0,0,0,0,0,0,0,0,0,0,0,0,0,0,0,0,0,0,0,0,0,0,0,0,0,0,0,0,0,0,0,0,0,0,0,0,0,0],"sum_hessian":[1.045156E5,4.8988902E4,5.55267E4,1.6337144E3,4.7355188E4,5.5346207E4,1.804898E2,1.1480817E3,4.856327E2,4.4702453E4,2.6527349E3,5.3263594E4,2.0826123E3,2.0081635E1,1.6040817E2,5.674286E2,5.806531E2,9.526531E1,3.9036737E2,1.9515919E3,4.275086E4,2.6515105E3,1.2244899E0,5.681633E1,5.3206777E4,1.9976328E3,8.49796E1,1.8612246E1,1.4693879E0,1.2979592E1,1.4742859E2,6.3673472E0,5.7428577E2,1.7142859E0,9.3551025E1,3.869388E2,3.4285717E0,1.8320818E3,1.19510216E2,4.2748656E4,2.2040818E0,2.6497961E3,1.7142859E0,5.5102043E1,1.7142859E0,4.6599434E4,6.607347E3,9.8865314E2,1.0089797E3,6.0244904E1,2.4734695E1,1.4693879E0,1.7142859E1,2.4489799E0,1.0530613E1,1.4693879E0,1.459592E2,3.6734695E0,2.6938777E0,1.2244899E0,5.730613E2,1.9591838E0,9.159184E1,1.9959186E2,1.8734695E2,1.7142859E0,1.7142859E0,1.8308573E3,1.2244899E0,1.4693879E0,1.18040825E2,2.6485715E3,1.2244899E0,1.9102041E1,3.6000004E1,4.6394695E4,2.0473471E2,6.5520005E3,5.5346943E1,2.0767348E2,7.809797E2,8.2971436E2,1.7926532E2,4.6530614E0,5.559184E1,3.1836736E0,2.1551022E1,1.42040825E1,2.9387758E0,6.8571434E0,3.6734695E0,1.442449E2,1.7142859E0,1.2244899E0,1.4693879E0,2.9608167E2,2.769796E2,1.7142859E0,8.9877556E1,1.3028572E2,6.930613E1,1.814694E2,5.8775516E0,1.2244899E0,1.8296328E3,1.14367355E2,3.6734695E0,2.6473472E3,1.2244899E0,1.3224491E1,5.8775516E0,4.8979597E0,3.1102043E1,4.6393227E4,1.4693879E0,2.0008165E2,4.6530614E0,6.5201636E3,3.1836737E1,2.4979593E1,3.036735E1,4.8734695E1,1.5893878E2,7.7902045E2,1.9591838E0,6.9428577E2,1.3542857E2,1.2955103E2,4.971429E1,3.4285717E0,1.2244899E0,6.1224494E0,4.946939E1,1.7142859E0,1.4693879E0,1.2244899E0,2.0326532E1,1.7142859E0,1.2244899E0,5.1428576E0,1.7142859E0,2.4489799E0,1.2244899E0,1.4693879E0,1.4277551E2],"tree_param":{"num_deleted":"0","num_feature":"3000","num_nodes":"145","size_leaf_vector":"1"}},{"base_weights":[-5.410665E-1,-5.729224E-1,1.0457948E0,-5.776504E-1,3.29863E0,-5.7985806E-1,1.6536089E0,3.3435912E0,8.6896546E-2,-5.801767E-1,2.6752474E0,-2.2459893E-1,2.2844255E0,3.3744419E0,3.8532108E-2,-5.803988E-1,2.3274558E0,8.9287406E-1,2.2105263E-1,1.4696132E0,-4.7578588E-1,8.601134E-1,2.479477E0,3.397729E0,1.733945E-1,-5.807653E-1,5.5763423E-1,8.916923E-1,-1.04132235E-1,6.2479335E-1,3.8532108E-2,-1.6723981E-1,1.3884297E-1,1.6996804E0,-2.9056603E-1,2.5902486E0,5.518672E-1,3.3157894E-1,3.4211683E0,-1.7435573E-1,-1.1955842E-1,-6.441718E-2,6.20708E-1,-9.633028E-2,6.72332E-1,3.8532108E-2,-1.3317074E-1,2.4759825E-1,8.0558795E-1,-1.2038217E-1,4.4210526E-1,3.082569E-1,1.0311377E0],"categories":[],"categories_nodes":[],"categories_segments":[],"categories_sizes":[],"default_left":[0,0,0,0,0,0,0,0,0,0,0,0,0,0,0,0,0,0,0,0,0,0,0,0,0,0,0,0,0,0,0,0,0,0,0,0,0,0,0,0,0,0,0,0,0,0,0,0,0,0,0,0,0],"id":6,"left_children":[1,3,-1,5,7,9,11,13,-1,15,17,19,21,23,-1,25,27,-1,-1,29,31,33,35,37,-1,39,41,-1,-1,-1,-1,-1,-1,43,45,47,49,-1,51,-1,-1,-1,-1,-1,-1,-1,-1,-1,-1,-1,-1,-1,-1],"loss_changes":[1.3409928E4,1.9000742E3,0E0,5.111289E2,1.616333E1,1.08875E2,1.221127E2,1.1932861E1,0E0,6.816797E1,3.8201752E0,1.206786E1,1.923639E1,6.0755615E0,0E0,4.3476562E1,1.500528E1,0E0,0E0,2.7695422E0,2.0995178E0,1.09235115E1,1.2902832E1,2.786255E0,0E0,7.6914062E0,3.9919292E1,0E0,0E0,0E0,0E0,0E0,0E0,7.7084923E0,4.044837E-1,8.386017E0,4.9127345E0,0E0,1.0712891E0,0E0,0E0,0E0,0E0,0E0,0E0,0E0,0E0,0E0,0E0,0E0,0E0,0E0,0E0],"parents":[2147483647,0,0,1,1,3,3,4,4,5,5,6,6,7,7,9,9,10,10,11,11,12,12,13,13,15,15,16,16,19,19,20,20,21,21,22,22,23,23,25,25,26,26,33,33,34,34,35,35,36,36,38,38],"right_children":[2,4,-1,6,8,10,12,14,-1,16,18,20,22,24,-1,26,28,-1,-1,30,32,34,36,38,-1,40,42,-1,-1,-1,-1,-1,-1,44,46,48,50,-1,52,-1,-1,-1,-1,-1,-1,-1,-1,-1,-1,-1,-1,-1,-1],"split_conditions":[1.0397436E1,1.4202495E0,1.0457948E0,1.5431185E1,8.0962944E-1,8.795208E0,5.433059E0,3.5976443E0,8.6896546E-2,4.728407E0,4.4064048E-1,9.69434E-1,6.4960724E-1,1.7703986E0,3.8532108E-2,2.8923354E0,4.6615255E-1,8.9287406E-1,2.2105263E-1,4.6105E-1,1.470124E0,3.9805466E-1,3.2394916E-1,4.981423E-2,1.733945E-1,2.1377368E0,4.123407E0,8.916923E-1,-1.04132235E-1,6.2479335E-1,3.8532108E-2,-1.6723981E-1,1.3884297E-1,5.77222E-2,5.8811978E-2,8.5010755E-1,2.3397211E-2,3.3157894E-1,6.609598E-1,-1.7435573E-1,-1.1955842E-1,-6.441718E-2,6.20708E-1,-9.633028E-2,6.72332E-1,3.8532108E-2,-1.3317074E-1,2.4759825E-1,8.0558795E-1,-1.2038217E-1,4.4210526E-1,3.082569E-1,1.0311377E0],"split_indices":[2429,1452,0,393,2479,2315,1153,6,0,1745,2933,2703,1399,2748,0,691,1913,0,0,2585,39,1340,2267,241,0,1126,445,0,0,0,0,0,0,264,512,2058,2924,0,2906,0,0,0,0,0,0,0,0,0,0,0,0,0,0],"split_type":[0,0,0,0,0,0,0,0,0,0,0,0,0,0,0,0,0,0,0,0,0,0,0,0,0,0,0,0,0,0,0,0,0,0,0,0,0,0,0,0,0,0,0,0,0,0,0,0,0,0,0,0,0],"sum_hessian":[1.045156E5,1.0369617E5,8.1942865E2,1.0357054E5,1.2563266E2,1.0346891E5,1.0163266E2,1.2367348E2,1.9591838E0,1.034596E5,9.306123E0,2.5714287E1,7.591837E1,1.2244899E2,1.2244899E0,1.034525E5,7.1020412E0,7.5918374E0,1.7142859E0,2.6938777E0,2.302041E1,9.795919E0,6.612245E1,1.21224495E2,1.2244899E0,1.0341968E5,3.281633E1,5.632653E0,1.4693879E0,1.4693879E0,1.2244899E0,2.1551022E1,1.4693879E0,5.3877554E0,4.4081635E0,6.2204086E1,3.9183676E0,1.7142859E0,1.19510216E2,1.0317944E5,2.4024492E2,2.2285715E1,1.0530613E1,1.2244899E0,4.1632657E0,1.2244899E0,3.1836736E0,3.6734695E0,5.8530617E1,2.2040818E0,1.7142859E0,1.2244899E0,1.1828572E2],"tree_param":{"num_deleted":"0","num_feature":"3000","num_nodes":"53","size_leaf_vector":"1"}},{"base_weights":[-2.0296797E-1,-5.43376E-1,1.3791955E0,-5.4651815E-1,9.332571E-1,1.3793144E0,-5.6014564E-3,-2.8278998E-1,-5.51497E-1,-5.0814486E-1,1.2211435E0,1.6160218E-2,1.3794224E0,-4.617945E-1,-3.3752978E-2,-5.5188894E-1,-1.4261487E-1,5.7918917E-2,-1.6266608E-1,1.2787286E0,-1.4134097E-1,1.379639E0,6.6452706E-1,-4.9718812E-1,-3.0311188E-1,7.0080906E-2,-3.2486963E-1,-4.5842424E-1,-5.5357784E-1,-3.280498E-1,1.0770981E0,1.3175392E0,-1.24937125E-1,3.740516E-2,1.3797151E0,-1.3198115E-1,3.0578297E-1,-5.001006E-1,1.9818948E-1,-3.398353E-1,4.5053345E-1,-1.6287054E-1,2.0572679E-1,-3.8832572E-1,3.6692747E-1,-5.1087046E-1,-2.113436E-1,-5.5659914E-1,-5.2402294E-1,-3.9852133E-1,1.0161799E0,-1.6267905E-1,1.5880735E0,1.3495053E0,-1.16081506E-1,1.3797895E0,3.817174E-2,1.5414758E-1,-1.5090439E-1,-7.486093E-2,-1.6592807E-1,-1.3274525E-1,4.018955E-1,-5.6660272E-2,3.48157E-1,2.2345941E-1,3.3489127E-2,2.56662E-1,-1.2236933E-1,-1.13611914E-1,3.8394132E-1,1.3480008E-1,-1.5406193E-1,3.5382897E-2,-1.1920428E-1,-1.6755624E-1,-1.6309553E-1,-1.5759005E-1,8.541284E-2,-1.3762851E-1,2.2570966E-1,2.6192168E-2,4.5670626E-1,-1.0836056E-1,5.6109685E-2,5.5443347E-2,5.3940517E-1,4.1473606E-1,1.1141645E-1,4.1396633E-1,8.232385E-2],"categories":[],"categories_nodes":[],"categories_segments":[],"categories_sizes":[],"default_left":[0,0,0,0,0,0,0,0,0,0,0,0,0,0,0,0,0,0,0,0,0,0,0,0,0,0,0,0,0,0,0,0,0,0,0,0,0,0,0,0,0,0,0,0,0,0,0,0,0,0,0,0,0,0,0,0,0,0,0,0,0,0,0,0,0,0,0,0,0,0,0,0,0,0,0,0,0,0,0,0,0,0,0,0,0,0,0,0,0,0,0],"id":7,"left_children":[1,3,5,7,9,11,-1,13,15,17,19,-1,21,23,25,27,29,-1,-1,31,-1,33,35,37,39,41,43,45,47,49,51,53,-1,-1,55,-1,-1,57,-1,59,61,63,65,67,69,71,73,75,77,79,81,83,85,87,-1,89,-1,-1,-1,-1,-1,-1,-1,-1,-1,-1,-1,-1,-1,-1,-1,-1,-1,-1,-1,-1,-1,-1,-1,-1,-1,-1,-1,-1,-1,-1,-1,-1,-1,-1,-1],"loss_changes":[4.9101906E4,3.486172E2,2.7089844E0,9.815039E1,6.6881485E1,2.2382812E0,0E0,6.191584E1,1.1699219E1,7.567296E-1,1.360144E1,0E0,1.5839844E0,4.3884277E0,1.7617117E1,1.1332031E1,1.6574669E1,0E0,0E0,9.053558E0,0E0,1.3671875E0,3.1199658E0,2.5534363E0,4.3032665E0,1.361649E1,6.867893E0,1.6851288E1,6.1445312E0,6.374976E0,6.4020863E0,7.42099E0,0E0,0E0,1.328125E0,0E0,0E0,2.203064E0,0E0,2.6264305E0,6.466241E0,5.6807866E0,1.3721168E1,3.7771473E0,9.596283E0,2.9960022E0,1.4186861E1,1.3242188E0,7.074463E0,4.546563E0,1.4755566E0,3.270411E-1,1.7183323E0,3.4991455E0,0E0,1.3730469E0,0E0,0E0,0E0,0E0,0E0,0E0,0E0,0E0,0E0,0E0,0E0,0E0,0E0,0E0,0E0,0E0,0E0,0E0,0E0,0E0,0E0,0E0,0E0,0E0,0E0,0E0,0E0,0E0,0E0,0E0,0E0,0E0,0E0,0E0,0E0],"parents":[2147483647,0,0,1,1,2,2,3,3,4,4,5,5,7,7,8,8,9,9,10,10,12,12,13,13,14,14,15,15,16,16,19,19,21,21,22,22,23,23,24,24,25,25,26,26,27,27,28,28,29,29,30,30,31,31,34,34,37,37,39,39,40,40,41,41,42,42,43,43,44,44,45,45,46,46,47,47,48,48,49,49,50,50,51,51,52,52,53,53,55,55],"right_children":[2,4,6,8,10,12,-1,14,16,18,20,-1,22,24,26,28,30,-1,-1,32,-1,34,36,38,40,42,44,46,48,50,52,54,-1,-1,56,-1,-1,58,-1,60,62,64,66,68,70,72,74,76,78,80,82,84,86,88,-1,90,-1,-1,-1,-1,-1,-1,-1,-1,-1,-1,-1,-1,-1,-1,-1,-1,-1,-1,-1,-1,-1,-1,-1,-1,-1,-1,-1,-1,-1,-1,-1,-1,-1,-1,-1],"split_conditions":[6.233876E0,2.6506226E0,4.6988967E-1,1.8406514E-3,7.451875E-1,2.3686628E0,-5.6014564E-3,2.2207587E0,3.3173094E0,9.664127E-1,1.1286559E0,1.6160218E-2,4.150272E0,3.153195E0,5.3254522E-2,2.9837864E-3,2.4670465E0,5.7918917E-2,-1.6266608E-1,2.9723878E0,-1.4134097E-1,8.8357884E-1,3.3333957E-1,1.21445574E-1,2.934087E0,8.1957184E-2,2.4045212E1,5.410338E0,1.2350113E0,5.1406155E0,9.516175E-1,1.3084478E1,-1.24937125E-1,3.740516E-2,1.9598111E0,-1.3198115E-1,3.0578297E-1,1.0076375E0,1.9818948E-1,9.540545E-3,3.255346E-3,1.9652618E0,8.7075205E0,1.8940455E-1,5.124026E0,1.3055521E-1,1.9073585E0,8.243717E-1,4.7593457E-1,2.4051678E0,3.3163172E-1,4.4127422E1,7.384508E-1,1.1921992E1,-1.16081506E-1,1.3618681E0,3.817174E-2,1.5414758E-1,-1.5090439E-1,-7.486093E-2,-1.6592807E-1,-1.3274525E-1,4.018955E-1,-5.6660272E-2,3.48157E-1,2.2345941E-1,3.3489127E-2,2.56662E-1,-1.2236933E-1,-1.13611914E-1,3.8394132E-1,1.3480008E-1,-1.5406193E-1,3.5382897E-2,-1.1920428E-1,-1.6755624E-1,-1.6309553E-1,-1.5759005E-1,8.541284E-2,-1.3762851E-1,2.2570966E-1,2.6192168E-2,4.5670626E-1,-1.0836056E-1,5.6109685E-2,5.5443347E-2,5.3940517E-1,4.1473606E-1,1.1141645E-1,4.1396633E-1,8.232385E-2],"split_indices":[670,846,963,1526,2213,2302,0,2284,2395,847,927,0,870,1587,1228,1526,2761,0,0,651,0,292,1286,2124,517,1588,2008,1212,2880,2150,2867,2501,0,0,434,0,0,1191,0,965,1533,1467,1815,2312,333,749,1754,1285,2615,839,1797,2824,673,57,0,339,0,0,0,0,0,0,0,0,0,0,0,0,0,0,0,0,0,0,0,0,0,0,0,0,0,0,0,0,0,0,0,0,0,0,0],"split_type":[0,0,0,0,0,0,0,0,0,0,0,0,0,0,0,0,0,0,0,0,0,0,0,0,0,0,0,0,0,0,0,0,0,0,0,0,0,0,0,0,0,0,0,0,0,0,0,0,0,0,0,0,0,0,0,0,0,0,0,0,0,0,0,0,0,0,0,0,0,0,0,0,0,0,0,0,0,0,0,0,0,0,0,0,0,0,0,0,0,0,0],"sum_hessian":[9.11666E4,7.50253E4,1.6141302E4,7.486662E4,1.5868034E2,1.6139941E4,1.36102E0,1.3882588E3,7.347836E4,2.6289225E1,1.3239111E2,1.3556738E0,1.6138585E4,8.071998E2,5.8105896E2,7.340764E4,7.071948E1,1.0021002E0,2.5287125E1,1.2827068E2,4.1204324E0,1.6132767E4,5.81851E0,6.582469E2,1.4895293E2,4.2885617E2,1.5220277E2,1.3077433E3,7.20999E4,6.2021324E1,8.698159E0,1.2561749E2,2.6531906E0,1.0770955E0,1.6131689E4,1.3561591E0,4.462351E0,6.571619E2,1.0850105E0,1.425556E2,6.3973293E0,1.577476E2,2.7110858E2,1.3981657E2,1.2386204E1,1.077881E3,2.2986232E2,6.539675E4,6.70315E3,5.9600296E1,2.4210267E0,2.7375891E0,5.96057E0,1.2350944E2,2.1080575E0,1.6130631E4,1.05908E0,1.3808248E0,6.5578107E2,1.016743E2,4.0881306E1,3.442283E0,2.9550462E0,1.5554926E2,2.198357E0,3.9258083E1,2.3185048E2,1.504249E0,1.3831233E2,7.139688E0,5.2465153E0,2.5242276E0,1.0753567E3,8.3105286E1,1.4675703E2,5.6908355E4,8.488393E3,6.69293E3,1.0219398E1,5.7207306E1,2.3929908E0,1.2675145E0,1.1535122E0,1.7253128E0,1.0122763E0,1.0204144E0,4.9401555E0,1.1908465E2,4.424788E0,1.6128949E4,1.6812198E0],"tree_param":{"num_deleted":"0","num_feature":"3000","num_nodes":"91","size_leaf_vector":"1"}},{"base_weights":[2.321463E-1,-5.326019E-1,1.3577977E0,-5.3615254E-1,5.453838E-1,1.365391E0,-3.1482205E-1,-5.4354066E-1,-3.6638534E-1,9.2188025E-1,-3.93664E-1,1.3683108E0,4.50661E-1,-4.5914844E-1,1.4279413E-1,-4.5086455E-1,-5.471175E-1,-3.898092E-1,6.858868E-1,1.104419E0,5.488596E-1,-4.5416674E-1,2.9541034E-1,1.3716556E0,1.1604062E0,1.9606847E-1,9.515862E-1,6.834686E-1,-4.8447782E-1,1.0553176E0,-2.4264062E-2,-4.5373532E-1,7.9813826E-1,-5.472493E-1,4.8556274E-1,-4.1449556E-1,3.6145285E-1,9.8209214E-1,8.072836E-2,1.2894397E0,4.2839038E-1,9.147393E-2,8.865998E-1,1.9079354E-1,-4.8581305E-1,1.372062E0,6.3111055E-1,1.2837337E0,1.016385E0,7.790703E-1,5.9824653E-2,-1.9926359E-1,1.08894E0,5.018803E-1,-1.0464525E-1,-4.9698702E-1,1.3223633E-1,-1.15208484E-1,1.4968294E0,-2.8761664E-1,5.524043E-1,-5.1589936E-1,-3.9530912E-1,1.7858328E0,-1.1796667E-1,-2.9173675E-1,-5.4839545E-1,5.560905E-1,-4.2353317E-1,-6.9056734E-2,8.04825E-1,1.090467E0,-1.2420753E-1,-1.5458106E-1,3.914462E-1,1.3440032E0,-1.2976228E-1,-1.564164E-1,6.710683E-1,-7.840389E-2,3.8819215E-1,1.1730516E0,-3.3493757E-2,-5.1915264E-1,1.7863381E-1,1.3772296E0,1.3168713E0,5.278541E-2,1.0705233E0,1.2959192E0,-2.0113327E-2,1.0378574E0,-2.1967779E-1,-6.497524E-2,1.3851863E0,1.0320058E0,-1.1129217E-2,1.897942E-1,-1.5539838E-1,1.1981138E0,-1.340403E-1,-5.101644E-1,1.1421979E-1,5.8410674E-1,-8.762178E-2,8.0390817E-1,-4.4521913E-1,1.4385346E0,-1.7333399E-1,-1.56812E-1,-5.3613223E-3,-1.2047512E-1,8.474766E-2,6.3750304E-2,7.2336674E-1,-1.2306066E-1,1.0687761E-2,-9.614145E-3,-1.6464414E-1,5.831137E-1,9.1969006E-2,-1.4467695E-1,-9.238178E-2,-6.1546084E-2,3.813797E-1,1.263738E-1,5.3176886E-1,2.2775114E-1,4.8499003E-1,-1.4590123E-1,2.7552235E-1,4.133605E-1,-1.0114935E-1,-1.3914835E-1,2.766599E-1,3.472234E-1,-5.9896138E-2,-6.295204E-2,4.1980818E-1,3.4385592E-1,-1.5412799E-1,1.7541893E-1,-1.66278E-1,1.401561E-1,4.1321388E-1,3.9540908E-1,-1.2973568E-1,3.399871E-1,-1.1154361E-1,4.3845236E-1,8.5910216E-2,3.9162144E-1,-5.6946144E-2,1.8929327E-1,-1.256374E-1,-1.4970715E-1,3.160578E-1,1.8849944E-1,-1.5602781E-1,-1.5367556E-1,2.7022234E-1,1.1909615E-2,4.8474064E-1,-9.095563E-2,4.41023E-1,3.287444E-1,-2.4459252E-2,1.3726887E-1,4.1947198E-1,7.888622E-2,-1.5706746E-1,-9.7049266E-2,4.3760094E-1,-1.672988E-1,2.801526E-1,1.5586882E-2,5.6024086E-1,-1.5465517E-1,3.0843502E-1],"categories":[],"categories_nodes":[],"categories_segments":[],"categories_sizes":[],"default_left":[0,0,0,0,0,0,0,0,0,0,0,0,0,0,0,0,0,0,0,0,0,0,0,0,0,0,0,0,0,0,0,0,0,0,0,0,0,0,0,0,0,0,0,0,0,0,0,0,0,0,0,0,0,0,0,0,0,0,0,0,0,0,0,0,0,0,0,0,0,0,0,0,0,0,0,0,0,0,0,0,0,0,0,0,0,0,0,0,0,0,0,0,0,0,0,0,0,0,0,0,0,0,0,0,0,0,0,0,0,0,0,0,0,0,0,0,0,0,0,0,0,0,0,0,0,0,0,0,0,0,0,0,0,0,0,0,0,0,0,0,0,0,0,0,0,0,0,0,0,0,0,0,0,0,0,0,0,0,0,0,0,0,0,0,0,0,0,0,0,0,0,0,0,0,0,0,0,0,0],"id":8,"left_children":[1,3,5,7,9,11,13,15,17,19,21,23,25,27,29,31,33,35,37,39,41,43,-1,45,47,49,51,53,55,57,59,61,63,65,-1,67,69,71,73,75,77,79,81,-1,83,85,87,89,91,93,95,97,99,-1,-1,101,-1,-1,103,105,107,109,111,113,-1,115,117,119,121,123,125,127,-1,-1,129,131,-1,-1,133,135,-1,137,139,141,-1,143,145,147,149,151,153,155,157,159,161,163,165,-1,-1,167,-1,169,-1,-1,-1,171,173,175,177,-1,-1,-1,-1,-1,-1,-1,-1,-1,-1,-1,-1,-1,-1,-1,-1,-1,-1,-1,-1,-1,-1,-1,-1,-1,-1,-1,-1,-1,-1,-1,-1,-1,-1,-1,-1,-1,-1,-1,-1,-1,-1,-1,-1,-1,-1,-1,-1,-1,-1,-1,-1,-1,-1,-1,-1,-1,-1,-1,-1,-1,-1,-1,-1,-1,-1,-1,-1,-1,-1],"loss_changes":[9.200984E4,2.4389648E2,5.4959375E2,7.936719E1,7.440987E1,1.1435156E2,1.30252495E1,1.9904297E1,6.5551636E1,9.593758E0,5.5043173E0,2.825E1,1.7469986E1,4.6553593E0,7.3140464E0,8.482239E0,1.7597656E1,4.821341E1,1.0324062E1,1.1904526E1,7.829238E0,2.336646E0,0E0,1.184375E1,1.0876953E1,7.3446946E0,7.5507164E0,4.3169246E0,1.9176712E0,5.2906723E0,6.4446006E0,8.0047E0,7.2395763E0,1.6978516E1,0E0,2.2249329E1,1.5895304E1,6.3335648E0,3.9354298E0,7.8812866E0,5.627578E0,4.772457E0,7.7725124E0,0E0,2.3885546E0,1.021875E1,6.3000584E0,5.8356323E0,8.752411E0,9.065141E0,5.28916E0,1.8635141E0,7.510479E0,0E0,0E0,1.8744202E0,0E0,0E0,5.3065863E0,5.358962E0,8.814348E0,3.6918945E0,5.0865936E0,2.6538668E0,0E0,1.0232584E1,1.2564453E1,7.5704474E0,1.6733582E1,8.108951E0,1.4458017E1,5.109253E0,0E0,0E0,6.839676E0,4.7659454E0,0E0,0E0,5.750265E0,3.3745306E0,0E0,7.304863E0,5.0863695E0,2.5134287E0,0E0,4.6171875E0,7.9404297E0,5.8586597E0,3.923458E0,5.3535156E0,1.3987039E0,8.131958E0,1.9341427E0,4.041263E0,3.1181412E0,3.4959316E0,5.723363E0,0E0,0E0,5.1568756E0,0E0,1.6241035E0,0E0,0E0,0E0,3.4425783E0,4.5597725E0,3.5333815E0,3.9070294E0,0E0,0E0,0E0,0E0,0E0,0E0,0E0,0E0,0E0,0E0,0E0,0E0,0E0,0E0,0E0,0E0,0E0,0E0,0E0,0E0,0E0,0E0,0E0,0E0,0E0,0E0,0E0,0E0,0E0,0E0,0E0,0E0,0E0,0E0,0E0,0E0,0E0,0E0,0E0,0E0,0E0,0E0,0E0,0E0,0E0,0E0,0E0,0E0,0E0,0E0,0E0,0E0,0E0,0E0,0E0,0E0,0E0,0E0,0E0,0E0,0E0,0E0,0E0,0E0,0E0,0E0,0E0,0E0,0E0,0E0],"parents":[2147483647,0,0,1,1,2,2,3,3,4,4,5,5,6,6,7,7,8,8,9,9,10,10,11,11,12,12,13,13,14,14,15,15,16,16,17,17,18,18,19,19,20,20,21,21,23,23,24,24,25,25,26,26,27,27,28,28,29,29,30,30,31,31,32,32,33,33,35,35,36,36,37,37,38,38,39,39,40,40,41,41,42,42,44,44,45,45,46,46,47,47,48,48,49,49,50,50,51,51,52,52,55,55,58,58,59,59,60,60,61,61,62,62,63,63,65,65,66,66,67,67,68,68,69,69,70,70,71,71,74,74,75,75,78,78,79,79,81,81,82,82,83,83,85,85,86,86,87,87,88,88,89,89,90,90,91,91,92,92,93,93,94,94,95,95,96,96,99,99,101,101,105,105,106,106,107,107,108,108],"right_children":[2,4,6,8,10,12,14,16,18,20,22,24,26,28,30,32,34,36,38,40,42,44,-1,46,48,50,52,54,56,58,60,62,64,66,-1,68,70,72,74,76,78,80,82,-1,84,86,88,90,92,94,96,98,100,-1,-1,102,-1,-1,104,106,108,110,112,114,-1,116,118,120,122,124,126,128,-1,-1,130,132,-1,-1,134,136,-1,138,140,142,-1,144,146,148,150,152,154,156,158,160,162,164,166,-1,-1,168,-1,170,-1,-1,-1,172,174,176,178,-1,-1,-1,-1,-1,-1,-1,-1,-1,-1,-1,-1,-1,-1,-1,-1,-1,-1,-1,-1,-1,-1,-1,-1,-1,-1,-1,-1,-1,-1,-1,-1,-1,-1,-1,-1,-1,-1,-1,-1,-1,-1,-1,-1,-1,-1,-1,-1,-1,-1,-1,-1,-1,-1,-1,-1,-1,-1,-1,-1,-1,-1,-1,-1,-1,-1,-1,-1,-1,-1],"split_conditions":[1.2491641E0,7.15333E1,2.6687462E0,1.0582057E1,8.5088044E-1,1.7688684E1,1.2413151E0,1.5750796E-2,4.5000496E0,2.7900523E-1,2.4511147E1,1.2258742E-1,3.3734593E-1,5.29794E-1,4.30587E-1,7.711969E-2,8.696108E0,3.5396125E0,1.0638155E-1,1.458761E0,5.543042E-1,4.934436E-2,2.9541034E-1,7.0705056E0,2.0144995E-1,2.0701884E-1,1.8642633E0,9.842872E-1,2.3255832E0,4.2649645E-1,4.5873327E0,1.6188877E0,2.0316904E0,8.5522965E-2,4.8556274E-1,4.3681655E-3,2.073334E0,1.3914026E0,1.7786175E1,1.2175825E0,2.578508E-1,6.704296E-1,1.9026023E-1,1.9079354E-1,7.423387E-1,5.0600725E-1,7.091843E-1,2.2116761E0,2.2145529E0,2.5002825E-1,5.6963915E-1,4.445274E0,8.653276E-1,5.018803E-1,-1.0464525E-1,3.436125E0,1.3223633E-1,-1.15208484E-1,8.816335E0,2.8482732E-1,1.3692425E0,1.6597424E0,2.2679846E0,5.827317E0,-1.1796667E-1,3.4235263E-1,8.4520596E-1,9.917398E-2,7.638359E-1,8.16723E-1,2.3461387E0,1.6134857E-1,-1.2420753E-1,-1.5458106E-1,7.375913E-3,1.7936244E0,-1.2976228E-1,-1.564164E-1,2.5121868E0,5.97305E-1,3.8819215E-1,4.2466578E-1,4.5308408E-1,8.661402E-2,1.7863381E-1,4.719582E-2,3.3296793E0,2.0827147E-1,1.0887425E1,1.8166165E0,8.013433E-1,2.899888E-2,2.9110527E-1,2.3125217E1,1.3293694E-2,1.09236725E-1,2.4152556E-1,1.897942E-1,-1.5539838E-1,1.0113368E0,-1.340403E-1,9.687058E-2,1.1421979E-1,5.8410674E-1,-8.762178E-2,8.8607967E-1,9.770369E0,2.554805E-1,1.4479095E1,-1.56812E-1,-5.3613223E-3,-1.2047512E-1,8.474766E-2,6.3750304E-2,7.2336674E-1,-1.2306066E-1,1.0687761E-2,-9.614145E-3,-1.6464414E-1,5.831137E-1,9.1969006E-2,-1.4467695E-1,-9.238178E-2,-6.1546084E-2,3.813797E-1,1.263738E-1,5.3176886E-1,2.2775114E-1,4.8499003E-1,-1.4590123E-1,2.7552235E-1,4.133605E-1,-1.0114935E-1,-1.3914835E-1,2.766599E-1,3.472234E-1,-5.9896138E-2,-6.295204E-2,4.1980818E-1,3.4385592E-1,-1.5412799E-1,1.7541893E-1,-1.66278E-1,1.401561E-1,4.1321388E-1,3.9540908E-1,-1.2973568E-1,3.399871E-1,-1.1154361E-1,4.3845236E-1,8.5910216E-2,3.9162144E-1,-5.6946144E-2,1.8929327E-1,-1.256374E-1,-1.4970715E-1,3.160578E-1,1.8849944E-1,-1.5602781E-1,-1.5367556E-1,2.7022234E-1,1.1909615E-2,4.8474064E-1,-9.095563E-2,4.41023E-1,3.287444E-1,-2.4459252E-2,1.3726887E-1,4.1947198E-1,7.888622E-2,-1.5706746E-1,-9.7049266E-2,4.3760094E-1,-1.672988E-1,2.801526E-1,1.5586882E-2,5.6024086E-1,-1.5465517E-1,3.0843502E-1],"split_indices":[2888,1584,522,2404,1636,1300,909,868,376,1429,2679,1031,2586,689,1694,1185,1405,247,2742,2303,1393,1961,0,2648,1631,2664,2130,698,2480,2934,1743,314,1458,721,0,1516,130,1269,356,1962,2038,120,2353,0,129,2663,263,1768,864,2110,1192,2484,276,0,0,685,0,0,1630,2192,357,111,1108,306,0,1066,2191,355,2745,423,1567,2519,0,0,2709,2705,0,0,2550,1102,0,2580,2093,1753,0,2508,1139,1042,1434,2838,650,187,2308,1434,122,2565,562,0,0,2815,0,879,0,0,0,2839,666,871,2344,0,0,0,0,0,0,0,0,0,0,0,0,0,0,0,0,0,0,0,0,0,0,0,0,0,0,0,0,0,0,0,0,0,0,0,0,0,0,0,0,0,0,0,0,0,0,0,0,0,0,0,0,0,0,0,0,0,0,0,0,0,0,0,0,0,0,0,0,0,0],"split_type":[0,0,0,0,0,0,0,0,0,0,0,0,0,0,0,0,0,0,0,0,0,0,0,0,0,0,0,0,0,0,0,0,0,0,0,0,0,0,0,0,0,0,0,0,0,0,0,0,0,0,0,0,0,0,0,0,0,0,0,0,0,0,0,0,0,0,0,0,0,0,0,0,0,0,0,0,0,0,0,0,0,0,0,0,0,0,0,0,0,0,0,0,0,0,0,0,0,0,0,0,0,0,0,0,0,0,0,0,0,0,0,0,0,0,0,0,0,0,0,0,0,0,0,0,0,0,0,0,0,0,0,0,0,0,0,0,0,0,0,0,0,0,0,0,0,0,0,0,0,0,0,0,0,0,0,0,0,0,0,0,0,0,0,0,0,0,0,0,0,0,0,0,0,0,0,0,0,0,0],"sum_hessian":[1.0688197E5,6.3643914E4,4.3238055E4,6.3435477E4,2.0843953E2,4.3042832E4,1.9522188E2,6.078784E4,2.6476355E3,1.4879913E2,5.9640392E1,4.2905383E4,1.3744827E2,1.4841144E2,4.6810444E1,2.2636309E3,5.8524207E4,2.5905977E3,5.7037823E1,9.859208E1,5.020705E1,5.7774895E1,1.8655012E0,4.222055E4,6.84834E2,9.2053825E1,4.5394447E1,2.655114E0,1.4575632E2,6.420828E0,4.0389614E1,2.2590752E3,4.555661E0,5.8521395E4,2.8158562E0,2.5086133E3,8.198439E1,3.7875923E1,1.91619E1,7.66944E1,2.189768E1,2.1865913E1,2.8341139E1,1.0911376E0,5.6683754E1,4.2196535E4,2.4013693E1,3.6465823E2,3.2017575E2,1.6543636E1,7.551019E1,4.7920904E0,4.0602356E1,1.0387968E0,1.6163173E0,1.4426874E2,1.4875821E0,1.5377848E0,4.8830433E0,2.8071281E1,1.2318334E1,1.090733E3,1.1683422E3,2.2179165E0,2.3377445E0,2.6247766E2,5.8258914E4,2.2585087E1,2.4860283E3,4.202389E1,3.9960503E1,3.535072E1,2.525202E0,6.340893E0,1.2821006E1,7.455162E1,2.14278E0,4.22269E0,1.767499E1,1.997836E1,1.8875545E0,2.1402876E1,6.938262E0,5.5492558E1,1.1911983E0,3.856201E4,3.6345237E3,1.0851636E1,1.3162057E1,3.612878E2,3.3704264E0,3.1486633E2,5.3094153E0,7.2878113E0,9.255825E0,4.2148795E0,7.129531E1,1.054604E0,3.7374864E0,3.8112812E1,2.4895432E0,1.4254741E2,1.7213324E0,3.8306394E0,1.0524037E0,3.0243502E0,2.504693E1,5.1040697E0,7.214264E0,1.0759766E3,1.47564535E1,1.1580294E3,1.0312739E1,1.0119302E0,1.2059863E0,1.9254626E2,6.993138E1,4.7220013E1,5.8211695E4,2.4074817E0,2.0177605E1,1.6464412E3,8.395871E2,3.891898E1,3.1049113E0,2.9645359E1,1.0315142E1,2.319132E1,1.2159399E1,4.8384585E0,7.9825473E0,7.325636E1,1.295253E0,3.049036E0,1.4625954E1,1.0214783E0,1.895688E1,3.0202146E0,1.8382662E1,1.6062521E0,5.33201E0,1.2279087E0,5.426465E1,6.8684006E0,3.8555145E4,3.6323635E3,2.1600227E0,2.5904446E0,8.261191E0,8.206469E0,4.955589E0,3.5911646E2,2.1713772E0,1.0587238E0,2.3117025E0,2.866336E0,3.12E2,1.1033473E0,4.206068E0,5.3018117E0,1.9859993E0,1.5258223E0,7.730003E0,1.11732E0,3.0975595E0,3.3922853E0,6.790302E1,8.807548E0,2.9305265E1,2.1101942E0,1.4043721E2,1.2970119E0,1.7273382E0,2.370938E1,1.3375521E0,1.4707713E0,3.6332982E0,6.0594134E0,1.1548507E0],"tree_param":{"num_deleted":"0","num_feature":"3000","num_nodes":"179","size_leaf_vector":"1"}},{"base_weights":[-1.238947E-1,-5.538766E-1,1.350348E0,-5.5798215E-1,1.3500034E0,1.3590808E0,-2.752872E-1,-4.8592898E-1,-5.5829954E-1,-1.10473745E-1,1.3663776E0,1.3644047E0,8.69208E-1,-5.031955E-1,3.8347778E-1,-4.945225E-1,3.3447936E-1,-5.5832636E-1,9.02804E-2,-3.735498E-2,1.3869572E0,1.3692031E0,1.2244897E0,-1.5205398E-1,9.117209E-1,7.212058E-1,-5.4759526E-1,1.8658313E-1,1.3800657E0,9.6363194E-2,-5.002763E-1,3.5813928E-1,-1.1116479E-1,-5.5833995E-1,4.798221E-2,2.1093564E-1,-1.1220769E-1,3.8235035E-2,1.3950062E0,1.3741869E0,1.2685245E0,-1.2839052E-1,1.234745E0,6.1720943E-1,1.1112845E0,3.3426467E-1,2.0263959E-2,5.5280883E-2,-1.6764611E-1,4.607758E-1,-1.5062606E-1,4.9732205E-1,5.504344E-2,7.844415E-2,-5.060594E-1,-3.2301763E-1,-5.5839306E-1,4.2089802E-1,3.986565E-2,1.3743423E0,-1.08420625E-1,1.2773397E0,3.0276284E-1,2.6559117E-1,-1.7461678E-1,8.50138E-1,1.2741402E0,1.225157E0,4.4167975E-1,1.1568642E0,-3.2620412E-1,8.786114E-1,-2.50716E-1,-3.130747E-2,-1.5433025E-1,-1.5872477E-1,1.6677251E-1,-1.6752207E-1,3.0225921E-2,-1.06837995E-1,4.1234022E-1,3.8474378E-1,4.091155E-2,-1.5240647E-1,2.3515269E-1,3.4806928E-1,1.4981899E-1,3.8432E-1,-1.4284548E-1,-1.18818484E-1,4.259176E-1,5.7478774E-2,3.4726351E-1,2.8662048E-3,3.62216E-1,5.5079114E-2,-1.5421231E-1,-5.724654E-2,3.730332E-1,-1.4718159E-1,2.0618224E-1],"categories":[],"categories_nodes":[],"categories_segments":[],"categories_sizes":[],"default_left":[0,0,0,0,0,0,0,0,0,0,0,0,0,0,0,0,0,0,0,0,0,0,0,0,0,0,0,0,0,0,0,0,0,0,0,0,0,0,0,0,0,0,0,0,0,0,0,0,0,0,0,0,0,0,0,0,0,0,0,0,0,0,0,0,0,0,0,0,0,0,0,0,0,0,0,0,0,0,0,0,0,0,0,0,0,0,0,0,0,0,0,0,0,0,0,0,0,0,0,0,0],"id":9,"left_children":[1,3,5,7,9,11,13,15,17,-1,19,21,23,25,27,29,31,33,35,-1,37,39,41,-1,43,45,47,49,51,-1,53,-1,-1,55,-1,-1,-1,-1,57,59,61,63,65,67,69,-1,-1,-1,-1,71,-1,-1,-1,-1,73,75,77,-1,-1,79,-1,81,83,-1,-1,85,87,89,91,93,95,97,99,-1,-1,-1,-1,-1,-1,-1,-1,-1,-1,-1,-1,-1,-1,-1,-1,-1,-1,-1,-1,-1,-1,-1,-1,-1,-1,-1,-1],"loss_changes":[5.9427203E4,5.6806836E2,3.0089844E2,1.3867188E0,4.9053345E0,5.3722656E1,1.7299934E1,2.4592514E0,1.3046875E0,0E0,4.9346313E0,1.2308594E1,1.3866043E1,5.0205135E0,5.600692E0,1.673851E0,2.8470929E0,7.9296875E-1,1.356799E0,0E0,1.375E0,8.355469E0,9.87146E0,0E0,1.2398193E1,8.005091E-1,7.8219223E-1,5.1570897E0,1.2803812E0,0E0,1.5443192E0,0E0,0E0,7.1875E-1,0E0,0E0,0E0,0E0,1.3468323E0,5.6679688E0,7.806885E0,3.3539875E0,9.445679E0,9.2943535E0,8.990036E0,0E0,0E0,0E0,0E0,5.9219017E0,0E0,0E0,0E0,0E0,1.0176239E0,3.667842E0,7.109375E-1,0E0,0E0,4.6328125E0,0E0,5.4161377E0,4.3049417E0,0E0,0E0,6.769665E0,8.227173E0,6.8980045E0,1.2861866E1,7.3865356E0,5.5593395E-1,5.038226E0,2.1089187E0,0E0,0E0,0E0,0E0,0E0,0E0,0E0,0E0,0E0,0E0,0E0,0E0,0E0,0E0,0E0,0E0,0E0,0E0,0E0,0E0,0E0,0E0,0E0,0E0,0E0,0E0,0E0,0E0],"parents":[2147483647,0,0,1,1,2,2,3,3,4,4,5,5,6,6,7,7,8,8,10,10,11,11,12,12,13,13,14,14,15,15,16,16,17,17,18,18,20,20,21,21,22,22,24,24,25,25,26,26,27,27,28,28,30,30,33,33,38,38,39,39,40,40,41,41,42,42,43,43,44,44,49,49,54,54,55,55,56,56,59,59,61,61,62,62,65,65,66,66,67,67,68,68,69,69,70,70,71,71,72,72],"right_children":[2,4,6,8,10,12,14,16,18,-1,20,22,24,26,28,30,32,34,36,-1,38,40,42,-1,44,46,48,50,52,-1,54,-1,-1,56,-1,-1,-1,-1,58,60,62,64,66,68,70,-1,-1,-1,-1,72,-1,-1,-1,-1,74,76,78,-1,-1,80,-1,82,84,-1,-1,86,88,90,92,94,96,98,100,-1,-1,-1,-1,-1,-1,-1,-1,-1,-1,-1,-1,-1,-1,-1,-1,-1,-1,-1,-1,-1,-1,-1,-1,-1,-1,-1,-1],"split_conditions":[9.721501E-1,1.770691E0,1.8579236E0,6.4273174E-3,6.6096516E0,5.4211E-1,4.9800375E-1,2.775945E0,2.5384407E0,-1.10473745E-1,2.0032694E0,1.2151659E0,1.386301E0,1.2476662E0,5.718348E0,1.8542265E0,1.1095564E0,3.0820002E1,4.352826E-1,-3.735498E-2,1.9325074E-2,1.8046248E0,2.6823647E-2,-1.5205398E-1,9.998981E-2,1.9023664E0,3.194917E-1,1.2953035E0,1.7143764E0,9.6363194E-2,3.1516644E1,3.5813928E-1,-1.1116479E-1,1.6392901E0,4.798221E-2,2.1093564E-1,-1.1220769E-1,3.8235035E-2,1.6069531E0,4.1389484E0,8.072245E0,1.8970861E0,3.5461348E-2,3.316749E-1,4.303679E-1,3.3426467E-1,2.0263959E-2,5.5280883E-2,-1.6764611E-1,7.6214004E0,-1.5062606E-1,4.9732205E-1,5.504344E-2,7.844415E-2,7.2795177E-1,1.6064452E0,1.9618639E0,4.2089802E-1,3.986565E-2,8.025782E-1,-1.08420625E-1,1.4399203E0,1.791839E-1,2.6559117E-1,-1.7461678E-1,4.5571305E-2,1.677615E-1,1.6238941E-1,3.5713446E-1,1.4475709E-1,7.644343E0,6.941762E0,9.312087E-1,-3.130747E-2,-1.5433025E-1,-1.5872477E-1,1.6677251E-1,-1.6752207E-1,3.0225921E-2,-1.06837995E-1,4.1234022E-1,3.8474378E-1,4.091155E-2,-1.5240647E-1,2.3515269E-1,3.4806928E-1,1.4981899E-1,3.8432E-1,-1.4284548E-1,-1.18818484E-1,4.259176E-1,5.7478774E-2,3.4726351E-1,2.8662048E-3,3.62216E-1,5.5079114E-2,-1.5421231E-1,-5.724654E-2,3.730332E-1,-1.4718159E-1,2.0618224E-1],"split_indices":[1422,1768,1909,63,2359,655,421,1029,2529,0,2032,1414,2366,1207,949,1871,1464,252,1660,0,1382,2722,2091,0,2377,1280,1827,2418,2697,0,735,0,0,1564,0,0,0,0,1918,1666,2654,1057,978,743,2343,0,0,0,0,2472,0,0,0,0,2767,1653,1890,0,0,2386,0,2341,195,0,0,2021,1175,2620,210,461,1302,1279,1758,0,0,0,0,0,0,0,0,0,0,0,0,0,0,0,0,0,0,0,0,0,0,0,0,0,0,0,0],"split_type":[0,0,0,0,0,0,0,0,0,0,0,0,0,0,0,0,0,0,0,0,0,0,0,0,0,0,0,0,0,0,0,0,0,0,0,0,0,0,0,0,0,0,0,0,0,0,0,0,0,0,0,0,0,0,0,0,0,0,0,0,0,0,0,0,0,0,0,0,0,0,0,0,0,0,0,0,0,0,0,0,0,0,0,0,0,0,0,0,0,0,0,0,0,0,0,0,0,0,0,0,0],"sum_hessian":[9.3746695E4,7.257878E4,2.1167914E4,7.242332E4,1.5546706E2,2.1054973E4,1.1294162E2,3.2435745E2,7.209896E4,1.2647047E0,1.5420236E2,2.0826846E4,2.281275E2,8.408684E1,2.885478E1,3.213882E2,2.969227E0,7.209612E4,2.8440897E0,2.030785E0,1.5217157E2,2.0127773E4,6.990706E2,6.5093966E0,2.216181E2,2.409068E0,8.167777E1,2.5085827E1,3.7689536E0,1.8670384E0,3.1952118E2,1.0257452E0,1.9434819E0,7.209498E4,1.1418163E0,1.0042435E0,1.8398461E0,1.0731981E0,1.5109837E2,1.9166344E4,9.6143097E2,5.1727037E0,6.9389795E2,9.1167694E1,1.3045041E2,1.0644753E0,1.3445927E0,1.000952E0,8.067682E1,1.8178865E1,6.9069614E0,2.7462764E0,1.0226774E0,2.0743082E0,3.1744687E2,1.7627422E1,7.207734E4,1.5003728E2,1.0611012E0,1.9164834E4,1.5086501E0,9.5241504E2,9.015937E0,1.3050911E0,3.8676128E0,6.6569984E1,6.2732794E2,1.9085443E1,7.208225E1,1.2663044E2,3.8199666E0,1.1304954E1,6.8739114E0,6.7579713E0,3.106889E2,1.4602006E1,3.0254169E0,7.207599E4,1.35849E0,1.178221E0,1.9163656E4,9.480206E2,4.3944306E0,3.336605E0,5.6793313E0,3.4107437E1,3.246255E1,6.251223E2,2.2056491E0,1.9341072E0,1.7151335E1,5.435964E1,1.7722618E1,5.3911967E0,1.2123924E2,1.0345918E0,2.7853749E0,2.9969525E0,8.3080015E0,5.853779E0,1.0201322E0],"tree_param":{"num_deleted":"0","num_feature":"3000","num_nodes":"101","size_leaf_vector":"1"}},{"base_weights":[-3.2858518E-1,-5.56968E-1,1.3477693E0,-3.019247E-1,-5.573709E-1,1.3726424E0,-2.2486064E-1,-4.4159296E-1,2.20015E-2,-5.5742174E-1,3.2416558E-1,1.3797171E0,4.0561998E-1,-3.4214053E-1,6.202002E-1,1.3664168E-1,-4.6286777E-1,3.3733004E-1,-4.6466893E-1,-5.576296E-1,-4.00027E-1,-1.2298016E-1,3.696614E-1,1.3803687E0,-2.6131114E-2,2.4629387E-1,1.1258595E0,-3.737072E-1,1.1989836E0,8.856526E-1,-2.819744E-1,-4.8494726E-1,1.2733951E-1,-1.559051E-1,9.035952E-1,6.381334E-2,-1.5808946E-1,-5.582536E-1,-5.202209E-1,-5.172844E-1,5.2202624E-1,1.8166253E-1,1.3810098E0,-1.4791067E-1,2.6530993E-1,-2.5339353E-1,4.4938037E-1,-1.16888545E-1,1.3934768E0,-4.147967E-1,3.645615E-1,5.048662E-1,5.019118E-2,-1.2151862E-1,1.1226285E0,6.0642365E-2,-1.318897E-1,-1.9538634E-1,-5.281093E-1,3.4473473E-1,-3.5889596E-1,1.7511847E0,1.0153647E-1,-5.582794E-1,5.395628E-2,-5.3176093E-1,-1.9981807E-1,2.1317826E-1,-5.383709E-1,1.284673E0,-3.2814458E-1,8.490153E-1,-1.4560817E-1,1.3813719E0,-1.2868962E-1,-4.3227303E-1,5.503005E-1,1.0043443E-1,7.9289055E-1,1.2072909E-2,4.7217003E-1,-4.3564948E-1,2.991095E-1,-2.994146E-1,4.32538E-1,1.4055829E0,-1.4027335E-1,-1.264265E-1,2.773366E-1,-1.6659987E-1,-3.7143886E-2,1.8055661E-1,-1.5429309E-1,3.1249328E-2,6.7712647E-1,-1.3614693E-1,3.2743612E-1,-1.6748774E-1,5.202761E-2,2.0063551E-1,-1.1555602E-1,-1.6000775E-1,2.0826466E-1,-1.4219055E-1,8.471264E-2,6.195768E-2,-1.679252E-1,-2.4054639E-2,5.8745813E-1,-1.3916765E-1,6.523259E-2,3.9342184E-2,3.3131373E-1,4.1450664E-1,-3.6609888E-2,1.754091E-1,-1.650052E-1,-1.1018094E-1,3.8679183E-1,-1.13704324E-1,1.8401338E-1,4.3111315E-1,1.05558455E-1,-1.3697095E-1,2.2933866E-1,-1.3553213E-1,6.393187E-2,2.3264842E-2,4.7047952E-1,4.855278E-2,-1.01602755E-1],"categories":[],"categories_nodes":[],"categories_segments":[],"categories_sizes":[],"default_left":[0,0,0,0,0,0,0,0,0,0,0,0,0,0,0,0,0,0,0,0,0,0,0,0,0,0,0,0,0,0,0,0,0,0,0,0,0,0,0,0,0,0,0,0,0,0,0,0,0,0,0,0,0,0,0,0,0,0,0,0,0,0,0,0,0,0,0,0,0,0,0,0,0,0,0,0,0,0,0,0,0,0,0,0,0,0,0,0,0,0,0,0,0,0,0,0,0,0,0,0,0,0,0,0,0,0,0,0,0,0,0,0,0,0,0,0,0,0,0,0,0,0,0,0,0,0,0,0,0,0,0],"id":10,"left_children":[1,3,5,7,9,11,13,15,17,19,21,23,25,27,29,-1,31,33,35,37,39,-1,-1,41,43,45,47,49,51,53,55,57,-1,59,61,-1,-1,63,65,67,69,71,73,-1,-1,75,77,-1,79,81,83,-1,-1,-1,85,-1,-1,87,89,-1,91,93,95,97,99,101,103,-1,105,107,109,111,-1,113,-1,115,117,119,121,-1,-1,123,-1,125,-1,127,129,-1,-1,-1,-1,-1,-1,-1,-1,-1,-1,-1,-1,-1,-1,-1,-1,-1,-1,-1,-1,-1,-1,-1,-1,-1,-1,-1,-1,-1,-1,-1,-1,-1,-1,-1,-1,-1,-1,-1,-1,-1,-1,-1,-1],"loss_changes":[3.3497242E4,7.7421875E0,4.1066992E2,5.602968E0,3.6269531E0,7.00957E1,1.6485971E1,1.8603401E0,6.018743E0,2.2929688E0,3.8828328E0,9.4296875E0,8.492645E0,7.4940166E0,5.1272264E0,0E0,1.8696632E0,6.776843E0,7.636056E-1,1.5019531E0,1.1613615E1,0E0,0E0,7.623047E0,2.8724804E0,6.594453E0,6.0439587E0,4.4797325E0,1.2883921E0,5.341872E0,5.001609E-1,9.3826485E-1,0E0,4.0022383E0,7.4414835E0,0E0,0E0,1.2246094E0,4.6052856E0,2.8056068E0,8.41927E0,3.3630729E0,7.3027344E0,0E0,0E0,2.9828951E0,5.406296E0,0E0,2.804617E0,4.427519E0,6.193201E0,0E0,0E0,0E0,5.1158485E0,0E0,0E0,3.52756E0,7.229557E-1,0E0,2.174352E0,4.254114E0,4.244775E0,8.183594E-1,1.3644798E0,2.7790222E0,6.2017555E0,0E0,1.5898914E0,6.3211985E0,5.918493E-1,5.2934575E-1,0E0,5.044922E0,0E0,2.2587662E0,3.1289306E0,6.097645E0,6.005168E0,0E0,0E0,3.7222881E0,0E0,5.500818E-1,0E0,2.3274555E0,2.6033235E-1,0E0,0E0,0E0,0E0,0E0,0E0,0E0,0E0,0E0,0E0,0E0,0E0,0E0,0E0,0E0,0E0,0E0,0E0,0E0,0E0,0E0,0E0,0E0,0E0,0E0,0E0,0E0,0E0,0E0,0E0,0E0,0E0,0E0,0E0,0E0,0E0,0E0,0E0,0E0,0E0,0E0,0E0,0E0,0E0],"parents":[2147483647,0,0,1,1,2,2,3,3,4,4,5,5,6,6,7,7,8,8,9,9,10,10,11,11,12,12,13,13,14,14,16,16,17,17,18,18,19,19,20,20,23,23,24,24,25,25,26,26,27,27,28,28,29,29,30,30,31,31,33,33,34,34,37,37,38,38,39,39,40,40,41,41,42,42,45,45,46,46,48,48,49,49,50,50,54,54,57,57,58,58,60,60,61,61,62,62,63,63,64,64,65,65,66,66,68,68,69,69,70,70,71,71,73,73,75,75,76,76,77,77,78,78,81,81,83,83,85,85,86,86],"right_children":[2,4,6,8,10,12,14,16,18,20,22,24,26,28,30,-1,32,34,36,38,40,-1,-1,42,44,46,48,50,52,54,56,58,-1,60,62,-1,-1,64,66,68,70,72,74,-1,-1,76,78,-1,80,82,84,-1,-1,-1,86,-1,-1,88,90,-1,92,94,96,98,100,102,104,-1,106,108,110,112,-1,114,-1,116,118,120,122,-1,-1,124,-1,126,-1,128,130,-1,-1,-1,-1,-1,-1,-1,-1,-1,-1,-1,-1,-1,-1,-1,-1,-1,-1,-1,-1,-1,-1,-1,-1,-1,-1,-1,-1,-1,-1,-1,-1,-1,-1,-1,-1,-1,-1,-1,-1,-1,-1,-1,-1],"split_conditions":[2.8653803E0,6.133217E-2,1.6443017E0,3.4403987E0,4.817447E0,6.235838E-1,1.2522967E1,6.094793E-1,4.407218E-1,6.621431E-1,2.9636288E-1,2.024177E1,6.3498282E0,8.465836E0,7.346559E-2,1.3664168E-1,6.399863E-1,1.0516553E-1,3.0751517E0,1.1503267E1,1.4835793E0,-1.2298016E-1,3.696614E-1,5.7874274E-1,5.5761175E0,6.310166E-1,5.3961315E0,8.154941E0,1.2169034E1,1.2074169E-1,5.3761154E-2,4.110867E-1,1.2733951E-1,1.3896462E-1,3.6105092E0,6.381334E-2,-1.5808946E-1,5.3237257E0,2.2541459E0,2.4183899E-1,3.668813E-1,1.5849236E0,7.016372E0,-1.4791067E-1,2.6530993E-1,1.128931E0,4.809081E-3,-1.16888545E-1,1.1912805E1,3.0209837E0,9.829948E-2,5.048662E-1,5.019118E-2,-1.2151862E-1,1.4435543E1,6.0642365E-2,-1.318897E-1,2.6896688E1,7.3912483E-1,3.4473473E-1,2.094156E-1,3.5323641E0,5.5973265E-2,3.4590957E0,1.4512745E-1,1.5702136E0,5.5425997E0,2.1317826E-1,7.33515E-1,9.5552707E-1,1.5232332E0,7.3043054E-1,-1.4560817E-1,2.5524052E1,-1.2868962E-1,5.927717E0,1.2827225E0,1.1935565E0,1.06340624E-1,1.2072909E-2,4.7217003E-1,7.756654E0,2.991095E-1,4.465997E-2,4.32538E-1,4.4902418E-2,5.3585124E-1,-1.264265E-1,2.773366E-1,-1.6659987E-1,-3.7143886E-2,1.8055661E-1,-1.5429309E-1,3.1249328E-2,6.7712647E-1,-1.3614693E-1,3.2743612E-1,-1.6748774E-1,5.202761E-2,2.0063551E-1,-1.1555602E-1,-1.6000775E-1,2.0826466E-1,-1.4219055E-1,8.471264E-2,6.195768E-2,-1.679252E-1,-2.4054639E-2,5.8745813E-1,-1.3916765E-1,6.523259E-2,3.9342184E-2,3.3131373E-1,4.1450664E-1,-3.6609888E-2,1.754091E-1,-1.650052E-1,-1.1018094E-1,3.8679183E-1,-1.13704324E-1,1.8401338E-1,4.3111315E-1,1.05558455E-1,-1.3697095E-1,2.2933866E-1,-1.3553213E-1,6.393187E-2,2.3264842E-2,4.7047952E-1,4.855278E-2,-1.01602755E-1],"split_indices":[2513,89,2524,1189,641,2210,2954,2457,2393,1837,1289,2685,1605,2494,1284,0,2153,1658,1845,1733,2193,0,0,642,1053,1164,1451,2044,1287,702,857,143,0,546,602,0,0,2280,2341,2663,62,847,254,0,0,2834,2607,0,2915,843,663,0,0,0,2070,0,0,1434,2381,0,2309,2087,2469,2553,2561,617,490,0,2907,2052,2127,774,0,1732,0,364,2059,465,1503,0,0,531,0,2991,0,2048,227,0,0,0,0,0,0,0,0,0,0,0,0,0,0,0,0,0,0,0,0,0,0,0,0,0,0,0,0,0,0,0,0,0,0,0,0,0,0,0,0,0,0,0,0],"split_type":[0,0,0,0,0,0,0,0,0,0,0,0,0,0,0,0,0,0,0,0,0,0,0,0,0,0,0,0,0,0,0,0,0,0,0,0,0,0,0,0,0,0,0,0,0,0,0,0,0,0,0,0,0,0,0,0,0,0,0,0,0,0,0,0,0,0,0,0,0,0,0,0,0,0,0,0,0,0,0,0,0,0,0,0,0,0,0,0,0,0,0,0,0,0,0,0,0,0,0,0,0,0,0,0,0,0,0,0,0,0,0,0,0,0,0,0,0,0,0,0,0,0,0,0,0,0,0,0,0,0,0],"sum_hessian":[8.749135E4,7.700151E4,1.0489846E4,1.2262909E2,7.6878875E4,1.0326645E4,1.6320139E2,8.5430504E1,3.7198586E1,7.687481E4,4.0671406E0,1.025122E4,7.54245E1,1.4383473E2,1.9366652E1,1.5063275E0,8.392418E1,2.275912E1,1.4439464E1,7.677089E4,1.0391892E2,2.5522985E0,1.5148422E0,1.0246488E4,4.7312827E0,6.2860847E1,1.2563653E1,1.4169002E2,2.1447124E0,1.4977921E1,4.3887315E0,8.232906E1,1.5951136E0,1.2551253E1,1.0207867E1,1.0127465E0,1.3426718E1,7.549763E4,1.2732578E3,9.258401E1,1.1334912E1,5.629367E0,1.0240859E4,3.4305768E0,1.3007059E0,1.8093845E1,4.4767006E1,1.8171895E0,1.0746464E1,1.3463486E2,7.055166E0,1.0302624E0,1.1144501E0,2.2133536E0,1.2764567E1,1.0088215E0,3.37991E0,1.1396996E1,7.093207E1,1.0621037E0,1.148915E1,4.387713E0,5.820154E0,7.549453E4,3.0995634E0,1.228356E3,4.490177E1,1.0110484E0,9.157296E1,5.7056108E0,5.6293015E0,2.6776006E0,2.9517665E0,1.0239048E4,1.8111553E0,1.5177832E1,2.916013E0,2.284891E1,2.1918095E1,1.4081221E0,9.338342E0,1.333566E2,1.2782536E0,4.811526E0,2.2436402E0,1.0335834E1,2.4287333E0,1.0001843E1,1.3951526E0,6.6107124E1,4.8249474E0,1.1997662E0,1.0289384E1,1.3144112E0,3.0733018E0,4.0753636E0,1.7447904E0,7.549342E4,1.1078745E0,1.0735673E0,2.025996E0,1.2273209E3,1.0350041E0,2.8637196E1,1.6264576E1,2.3133438E0,8.925961E1,2.1763334E0,3.5292773E0,4.627635E0,1.0016667E0,1.099696E0,1.5779045E0,1.0236972E4,2.0762763E0,1.1634214E0,1.401441E1,1.5252459E0,1.3907671E0,1.1945003E1,1.0903908E1,7.9899035E0,1.3928191E1,1.316807E2,1.6758966E0,3.8003163E0,1.0112092E0,1.289103E0,9.046731E0,1.0357792E0,1.392954E0],"tree_param":{"num_deleted":"0","num_feature":"3000","num_nodes":"131","size_leaf_vector":"1"}},{"base_weights":[-3.088519E-1,-5.4359066E-1,1.3781236E0,-5.4999465E-1,5.0713587E-1,-1.4205582E-1,1.3790452E0,1.844763E-1,-5.529704E-1,-5.3996617E-1,1.0949816E0,1.3793563E0,-1.1019666E-1,-4.649587E-1,6.8637186E-1,-4.815564E-1,-5.5421937E-1,-5.512693E-1,1.5957166E-1,1.1376394E0,-2.252602E-1,1.3795902E0,-9.6345454E-2,3.1074584E-1,-4.8582205E-1,8.083788E-1,-2.0060542E-1,-4.165755E-1,-5.3699E-1,-5.542825E-1,7.197206E-1,4.1562077E-2,-1.6711238E-1,6.213652E-2,1.1636666E0,-1.5307249E-1,2.6607713E-1,1.3798021E0,-4.6246797E-3,-5.132534E-1,4.4178402E-1,9.528936E-1,3.4836462E-1,4.2717025E-1,-4.496953E-1,-4.250034E-1,4.922024E-1,1.9529095E-1,-5.3975075E-1,-5.543821E-1,1.5926619E-1,-9.7367205E-2,3.9364478E-1,9.1328907E-1,-1.5561478E-1,1.2981008E0,9.519514E-1,1.3799536E0,2.1466888E-2,1.8865423E-1,-1.5840381E-1,3.5708392E-1,-1.13348E-1,7.427019E-2,3.270952E-1,3.5078424E-1,1.4555973E-2,2.0666035E-1,-1.6432694E-1,2.3845468E-2,-1.314795E-1,-1.2106935E-1,3.4072053E-1,-1.6273318E-1,-2.1398908E-2,-1.6643429E-1,-1.10313654E-1,-1.4720657E-1,3.3564472E-1,3.891226E-1,2.3513144E-2,3.978078E-1,-2.5284627E-2,3.0142716E-1,-5.359268E-2,4.140285E-1,1.6951527E-2],"categories":[],"categories_nodes":[],"categories_segments":[],"categories_sizes":[],"default_left":[0,0,0,0,0,0,0,0,0,0,0,0,0,0,0,0,0,0,0,0,0,0,0,0,0,0,0,0,0,0,0,0,0,0,0,0,0,0,0,0,0,0,0,0,0,0,0,0,0,0,0,0,0,0,0,0,0,0,0,0,0,0,0,0,0,0,0,0,0,0,0,0,0,0,0,0,0,0,0,0,0,0,0,0,0,0,0],"id":11,"left_children":[1,3,5,7,9,-1,11,13,15,17,19,21,-1,23,25,27,29,31,-1,33,35,37,-1,-1,39,41,43,45,47,49,51,-1,-1,53,55,-1,-1,57,-1,59,61,63,65,-1,67,69,71,-1,73,75,77,-1,-1,79,-1,81,83,85,-1,-1,-1,-1,-1,-1,-1,-1,-1,-1,-1,-1,-1,-1,-1,-1,-1,-1,-1,-1,-1,-1,-1,-1,-1,-1,-1,-1,-1],"loss_changes":[3.485821E4,5.202344E2,1.9003906E1,1.679668E2,2.8904898E2,0E0,6.345703E0,1.0158262E2,6.5566406E0,2.342743E0,1.7178009E1,4.7148438E0,0E0,4.7623997E0,1.9170158E1,4.539917E0,6.4433594E0,7.456398E-1,0E0,8.079803E0,3.697831E0,3.1933594E0,0E0,0E0,3.6578808E0,9.946075E0,9.558945E0,4.9061737E0,2.6805573E0,5.4316406E0,2.9996648E0,0E0,0E0,4.398016E0,6.8556213E0,0E0,0E0,2.0332031E0,0E0,2.547535E0,3.1554322E0,1.1077553E1,9.428644E0,0E0,2.5958166E0,4.103569E0,3.9737825E0,0E0,8.5583496E-1,5.392578E0,7.5770063E0,0E0,0E0,1.0460708E0,0E0,6.717926E0,6.9950027E0,1.9277344E0,0E0,0E0,0E0,0E0,0E0,0E0,0E0,0E0,0E0,0E0,0E0,0E0,0E0,0E0,0E0,0E0,0E0,0E0,0E0,0E0,0E0,0E0,0E0,0E0,0E0,0E0,0E0,0E0,0E0],"parents":[2147483647,0,0,1,1,2,2,3,3,4,4,6,6,7,7,8,8,9,9,10,10,11,11,13,13,14,14,15,15,16,16,17,17,19,19,20,20,21,21,24,24,25,25,26,26,27,27,28,28,29,29,30,30,33,33,34,34,37,37,39,39,40,40,41,41,42,42,44,44,45,45,46,46,48,48,49,49,50,50,53,53,55,55,56,56,57,57],"right_children":[2,4,6,8,10,-1,12,14,16,18,20,22,-1,24,26,28,30,32,-1,34,36,38,-1,-1,40,42,44,46,48,50,52,-1,-1,54,56,-1,-1,58,-1,60,62,64,66,-1,68,70,72,-1,74,76,78,-1,-1,80,-1,82,84,86,-1,-1,-1,-1,-1,-1,-1,-1,-1,-1,-1,-1,-1,-1,-1,-1,-1,-1,-1,-1,-1,-1,-1,-1,-1,-1,-1,-1,-1],"split_conditions":[1.790748E1,1.5580763E1,8.9267653E-1,3.1494248E-1,1.4491022E0,-1.4205582E-1,2.6437238E-1,8.620412E-1,1.8406514E-3,9.006473E-1,8.5743994E-1,9.3278366E-1,-1.1019666E-1,7.633223E-1,3.5206595E-1,6.882501E-1,3.68959E1,1.9970661E0,1.5957166E-1,5.8757585E-1,1.1101725E0,4.781919E0,-9.6345454E-2,3.1074584E-1,2.736055E0,6.9042367E-1,6.232637E0,1.2476748E0,8.706523E-1,4.8741007E0,5.427175E0,4.1562077E-2,-1.6711238E-1,1.1337512E0,1.6840553E-1,-1.5307249E-1,2.6607713E-1,9.65651E0,-4.6246797E-3,5.217441E-3,1.7811306E-1,9.435634E-2,2.00575E0,4.2717025E-1,1.0311939E1,2.3654146E0,1.5234044E0,1.9529095E-1,2.546537E-2,3.225016E0,4.647504E0,-9.7367205E-2,3.9364478E-1,6.994561E-1,-1.5561478E-1,6.3764515E0,2.8372288E0,2.0467103E0,2.1466888E-2,1.8865423E-1,-1.5840381E-1,3.5708392E-1,-1.13348E-1,7.427019E-2,3.270952E-1,3.5078424E-1,1.4555973E-2,2.0666035E-1,-1.6432694E-1,2.3845468E-2,-1.314795E-1,-1.2106935E-1,3.4072053E-1,-1.6273318E-1,-2.1398908E-2,-1.6643429E-1,-1.10313654E-1,-1.4720657E-1,3.3564472E-1,3.891226E-1,2.3513144E-2,3.978078E-1,-2.5284627E-2,3.0142716E-1,-5.359268E-2,4.140285E-1,1.6951527E-2],"split_indices":[155,1136,820,2985,641,0,835,485,1526,974,1528,1949,0,1302,2239,2980,1585,2491,0,732,536,2423,0,0,2332,2714,708,2698,1728,1335,2860,0,0,2618,2567,0,0,1325,0,1745,2552,187,1882,0,593,1569,1806,0,2116,1641,105,0,0,768,0,1700,2887,1624,0,0,0,0,0,0,0,0,0,0,0,0,0,0,0,0,0,0,0,0,0,0,0,0,0,0,0,0,0],"split_type":[0,0,0,0,0,0,0,0,0,0,0,0,0,0,0,0,0,0,0,0,0,0,0,0,0,0,0,0,0,0,0,0,0,0,0,0,0,0,0,0,0,0,0,0,0,0,0,0,0,0,0,0,0,0,0,0,0,0,0,0,0,0,0,0,0,0,0,0,0,0,0,0,0,0,0,0,0,0,0,0,0,0,0,0,0,0,0],"sum_hessian":[8.802321E4,7.72717E4,1.0751502E4,7.680408E4,4.676298E2,5.0934424E0,1.0746408E4,3.0967325E2,7.649441E4,1.6816563E2,2.9946414E2,1.0744705E4,1.7034338E0,1.3502687E2,1.7464636E2,1.3214401E3,7.517296E4,1.6689143E2,1.2742071E0,2.902251E2,9.239052E0,1.0743416E4,1.2887628E0,1.1843526E0,1.3384251E2,1.5360593E2,2.1040445E1,6.122535E2,7.091866E2,7.5169805E4,3.1602774E0,1.1939996E0,1.6569743E2,6.937552E0,2.8328754E2,7.7853827E0,1.4536688E0,1.0741796E4,1.6208817E0,1.3043204E2,3.4104688E0,1.16070564E2,3.753536E1,2.1702392E0,1.8870207E1,6.071551E2,5.0983744E0,1.0999223E0,7.080867E2,7.515953E4,1.0268921E1,1.3075708E0,1.8527064E0,2.5818748E0,4.355677E0,1.7012856E2,1.1315899E2,1.0740496E4,1.2992449E0,1.1332368E0,1.2929881E2,1.5461881E0,1.8642806E0,1.9383972E1,9.668659E1,9.266333E0,2.8269026E1,1.0186014E0,1.7851604E1,1.5423666E1,5.9173145E2,2.2873642E0,2.8110104E0,7.038817E2,4.204979E0,7.49973E4,1.622372E2,6.413402E0,3.8555183E0,1.3895767E0,1.192298E0,1.6679984E2,3.3287158E0,1.0821593E2,4.943064E0,1.0739308E4,1.188351E0],"tree_param":{"num_deleted":"0","num_feature":"3000","num_nodes":"87","size_leaf_vector":"1"}},{"base_weights":[7.6275146E-1,-5.307474E-1,1.3671855E0,-5.426532E-1,-3.6353192E-1,1.3703915E0,-4.5393992E-2,-5.439861E-1,-3.3830854E-1,-3.9143902E-1,1.935624E-1,6.498407E-2,1.3705347E0,-1.01207756E-1,1.6207277E0,-5.441262E-1,7.1356726E-1,-5.164485E-1,4.5072925E-1,-4.800449E-1,-2.9126003E-1,-3.6799148E-1,3.0475825E-1,-1.5157202E-1,8.248257E-1,1.3224155E0,1.3745543E0,-3.006817E-1,3.2649875E-1,5.906009E-1,2.0061601E-2,-5.4855764E-1,-5.0714475E-1,-1.11222126E-1,4.3966994E-1,-5.2993435E-1,5.6810355E-1,1.05095E0,1.2233728E-1,-4.9339002E-1,-1.7911795E-1,-3.6843514E-1,-8.299727E-2,-4.92319E-1,2.6201588E-1,4.666872E-2,6.583809E-1,-1.1143177E-1,4.4484833E-1,1.3445076E0,1.2227883E0,1.9846842E-1,1.3746736E0,-3.7326154E-1,3.9136848E-1,1.7196077E-1,1.4966875E0,-5.486394E-1,2.4948691E-1,-5.1107603E-1,3.4525773E-1,-5.3917617E-1,1.874688E-1,3.356426E-1,-8.587195E-2,-2.3626746E-1,1.3867803E0,-4.3858353E-2,1.4281815E0,3.0355927E-1,-4.954835E-1,-2.6007608E-1,1.1471715E0,-3.8384062E-1,2.0295762E-1,2.0284644E-1,-2.7032733E-1,6.543668E-2,-1.6112095E-1,1.0229223E0,-3.4692146E-2,1.6448289E0,4.8145744E-1,1.3453181E0,4.259625E-1,-1.5920202E-1,1.2262291E0,7.4706715E-1,-1.6197887E-1,1.3747456E0,3.5841113E-1,-4.26358E-1,3.3302033E-1,1.0816598E0,-2.498369E-1,2.9648427E-2,1.6736327E0,-1.9411212E-2,8.7221104E-1,-1.651172E-1,-1.4648885E-1,-1.5359575E-1,3.3500227E-1,5.078882E-1,-2.1966973E-3,-1.6449107E-1,-2.4189463E-2,-1.2752004E-1,6.1396066E-2,5.619278E-1,7.725516E-2,-6.9728E-2,3.1560445E-1,4.983975E-2,5.648276E-1,-1.5845533E-3,-1.5018281E-1,-9.53408E-2,2.7649096E-1,-9.204918E-2,5.780016E-1,-1.21603124E-1,-3.0788327E-2,4.5057443E-1,-4.6959832E-2,2.593947E-1,1.3301373E-2,2.6100504E-1,-8.935684E-2,5.123316E-1,-1.0987302E-1,-3.2160033E-2,3.269966E-1,-1.040135E-1,6.788288E-1,1.9990027E-2,3.0314076E-1,-7.2034295E-3,4.0369326E-1,2.8462145E-1,-1.4873725E-1,3.561984E-1,4.0902367E-1,-1.1513607E-1,3.8504428E-1,-1.0230994E-1,4.12431E-1,3.6293095E-1,-1.5382764E-1,-1.350743E-1,3.4050667E-1,-6.442882E-2,4.4579393E-1,5.105534E-1,2.6005005E-2,2.0766357E-1,-1.4633691E-1,-3.7301596E-2,2.687479E-1,6.949595E-1,-9.8917924E-2,-1.241024E-1,2.1032117E-1],"categories":[],"categories_nodes":[],"categories_segments":[],"categories_sizes":[],"default_left":[0,0,0,0,0,0,0,0,0,0,0,0,0,0,0,0,0,0,0,0,0,0,0,0,0,0,0,0,0,0,0,0,0,0,0,0,0,0,0,0,0,0,0,0,0,0,0,0,0,0,0,0,0,0,0,0,0,0,0,0,0,0,0,0,0,0,0,0,0,0,0,0,0,0,0,0,0,0,0,0,0,0,0,0,0,0,0,0,0,0,0,0,0,0,0,0,0,0,0,0,0,0,0,0,0,0,0,0,0,0,0,0,0,0,0,0,0,0,0,0,0,0,0,0,0,0,0,0,0,0,0,0,0,0,0,0,0,0,0,0,0,0,0,0,0,0,0,0,0,0,0,0,0,0,0,0,0,0,0,0,0,0,0],"id":12,"left_children":[1,3,5,7,9,11,13,15,17,19,21,23,25,27,29,31,33,35,37,39,41,43,45,-1,47,49,51,53,55,-1,-1,57,59,-1,-1,61,63,65,67,69,71,73,75,77,-1,79,81,-1,-1,83,85,87,89,91,93,95,97,99,-1,101,103,105,-1,-1,-1,107,109,111,113,-1,115,117,119,121,123,125,127,-1,-1,129,131,133,135,137,139,-1,141,143,-1,145,147,149,151,153,155,157,159,161,-1,-1,-1,-1,-1,-1,-1,-1,-1,-1,-1,-1,-1,-1,-1,-1,-1,-1,-1,-1,-1,-1,-1,-1,-1,-1,-1,-1,-1,-1,-1,-1,-1,-1,-1,-1,-1,-1,-1,-1,-1,-1,-1,-1,-1,-1,-1,-1,-1,-1,-1,-1,-1,-1,-1,-1,-1,-1,-1,-1,-1,-1,-1,-1,-1],"loss_changes":[1.0605444E5,8.5805664E1,4.1875E2,1.0799805E1,4.4764526E1,1.715625E1,1.9722168E1,7.4492188E0,3.733818E1,2.4160889E1,8.716278E0,5.253932E0,1.6015625E1,1.7540543E1,3.5858402E0,6.2871094E0,4.5365424E0,3.4577866E0,9.560455E0,5.739502E0,2.0662369E1,4.014963E0,1.0516439E1,0E0,4.617277E0,1.4063477E1,1.1703125E1,7.175168E0,1.1587996E1,0E0,0E0,4.4921875E0,1.4585327E1,0E0,0E0,2.6176376E0,1.7944727E0,7.785301E0,7.203726E0,4.878418E0,7.0836363E0,8.344162E0,1.8763496E1,8.0874014E-1,0E0,5.427332E0,7.7043495E0,0E0,0E0,3.7675781E0,8.532349E0,4.3765783E0,5.734375E0,4.9109783E0,6.365795E0,1.2557125E1,1.6121487E1,3.5107422E0,0E0,6.9107666E0,9.675811E0,8.4531784E-1,0E0,0E0,0E0,4.55272E-1,7.1114235E0,6.476908E0,1.8355694E0,0E0,3.484314E0,4.411304E0,4.9210386E0,5.4899597E0,1.2052983E1,1.4531828E1,6.898385E0,0E0,0E0,5.6248417E0,5.305586E0,9.386236E0,9.301379E0,2.6328125E0,3.652781E0,0E0,5.340576E0,4.1606984E0,0E0,4.03125E0,6.0890045E0,4.939251E0,6.289549E0,4.0606318E0,2.120199E0,7.434279E0,7.3176537E0,1.6006185E0,0E0,0E0,0E0,0E0,0E0,0E0,0E0,0E0,0E0,0E0,0E0,0E0,0E0,0E0,0E0,0E0,0E0,0E0,0E0,0E0,0E0,0E0,0E0,0E0,0E0,0E0,0E0,0E0,0E0,0E0,0E0,0E0,0E0,0E0,0E0,0E0,0E0,0E0,0E0,0E0,0E0,0E0,0E0,0E0,0E0,0E0,0E0,0E0,0E0,0E0,0E0,0E0,0E0,0E0,0E0,0E0,0E0,0E0,0E0,0E0,0E0,0E0,0E0,0E0,0E0],"parents":[2147483647,0,0,1,1,2,2,3,3,4,4,5,5,6,6,7,7,8,8,9,9,10,10,11,11,12,12,13,13,14,14,15,15,16,16,17,17,18,18,19,19,20,20,21,21,22,22,24,24,25,25,26,26,27,27,28,28,31,31,32,32,35,35,36,36,37,37,38,38,39,39,40,40,41,41,42,42,43,43,45,45,46,46,49,49,50,50,51,51,52,52,53,53,54,54,55,55,56,56,57,57,59,59,60,60,61,61,65,65,66,66,67,67,68,68,70,70,71,71,72,72,73,73,74,74,75,75,76,76,79,79,80,80,81,81,82,82,83,83,84,84,86,86,87,87,89,89,90,90,91,91,92,92,93,93,94,94,95,95,96,96,97,97],"right_children":[2,4,6,8,10,12,14,16,18,20,22,24,26,28,30,32,34,36,38,40,42,44,46,-1,48,50,52,54,56,-1,-1,58,60,-1,-1,62,64,66,68,70,72,74,76,78,-1,80,82,-1,-1,84,86,88,90,92,94,96,98,100,-1,102,104,106,-1,-1,-1,108,110,112,114,-1,116,118,120,122,124,126,128,-1,-1,130,132,134,136,138,140,-1,142,144,-1,146,148,150,152,154,156,158,160,162,-1,-1,-1,-1,-1,-1,-1,-1,-1,-1,-1,-1,-1,-1,-1,-1,-1,-1,-1,-1,-1,-1,-1,-1,-1,-1,-1,-1,-1,-1,-1,-1,-1,-1,-1,-1,-1,-1,-1,-1,-1,-1,-1,-1,-1,-1,-1,-1,-1,-1,-1,-1,-1,-1,-1,-1,-1,-1,-1,-1,-1,-1,-1,-1,-1],"split_conditions":[5.9892373E0,4.0180558E-1,3.2591195E0,3.9520688E0,8.884212E-1,2.6847484E0,6.8454237E0,7.265976E1,2.0168192E0,6.155208E0,1.0542815E-1,4.344683E0,1.6187554E-2,4.372057E-1,9.6359605E-1,1.441083E1,5.4740846E-1,3.6786535E-1,2.8390684E0,1.3251852E0,7.7397984E-1,2.0526893E0,5.056536E-1,-1.5157202E-1,2.3266602E0,7.5599704E0,3.4068918E0,6.198747E-1,1.7261837E0,5.906009E-1,2.0061601E-2,1.5800875E0,7.8905827E-1,-1.11222126E-1,4.3966994E-1,2.255582E0,1.4632782E-1,1.1430724E1,2.3374525E1,3.0786595E-3,7.329858E-1,1.1038796E0,1.2906934E1,4.4418633E-1,2.6201588E-1,4.932055E-2,1.4027057E0,-1.1143177E-1,4.4484833E-1,5.1761656E-3,3.89598E-1,2.8521454E0,6.331651E0,2.0564017E0,7.9482263E-1,7.16705E0,2.8455963E1,3.1405766E0,2.4948691E-1,8.324802E-1,3.590506E-1,2.5509858E-1,1.874688E-1,3.356426E-1,-8.587195E-2,2.4617666E-1,9.519745E1,6.2370074E-1,1.231655E-1,3.0355927E-1,1.22177444E-1,4.5294614E0,1.0653702E1,1.9940662E1,3.3160436E-1,1.4009178E0,7.216716E-1,6.543668E-2,-1.6112095E-1,2.4751117E0,1.3697057E0,3.8339183E-1,9.089172E-1,7.5002783E-3,7.155926E0,-1.5920202E-1,1.1167552E0,1.5663103E0,-1.6197887E-1,7.4887596E-2,5.6236815E-1,3.1472649E1,3.0685014E-1,9.652517E-1,6.4222056E-1,2.0982146E0,1.5059923E0,4.436789E-1,8.7221104E-1,-1.651172E-1,-1.4648885E-1,-1.5359575E-1,3.3500227E-1,5.078882E-1,-2.1966973E-3,-1.6449107E-1,-2.4189463E-2,-1.2752004E-1,6.1396066E-2,5.619278E-1,7.725516E-2,-6.9728E-2,3.1560445E-1,4.983975E-2,5.648276E-1,-1.5845533E-3,-1.5018281E-1,-9.53408E-2,2.7649096E-1,-9.204918E-2,5.780016E-1,-1.21603124E-1,-3.0788327E-2,4.5057443E-1,-4.6959832E-2,2.593947E-1,1.3301373E-2,2.6100504E-1,-8.935684E-2,5.123316E-1,-1.0987302E-1,-3.2160033E-2,3.269966E-1,-1.040135E-1,6.788288E-1,1.9990027E-2,3.0314076E-1,-7.2034295E-3,4.0369326E-1,2.8462145E-1,-1.4873725E-1,3.561984E-1,4.0902367E-1,-1.1513607E-1,3.8504428E-1,-1.0230994E-1,4.12431E-1,3.6293095E-1,-1.5382764E-1,-1.350743E-1,3.4050667E-1,-6.442882E-2,4.4579393E-1,5.105534E-1,2.6005005E-2,2.0766357E-1,-1.4633691E-1,-3.7301596E-2,2.687479E-1,6.949595E-1,-9.8917924E-2,-1.241024E-1,2.1032117E-1],"split_indices":[1595,715,1040,814,1515,307,254,2392,1426,2652,1631,2421,2664,369,806,2699,453,1006,1233,87,350,602,715,0,644,1826,2666,2479,2963,0,0,899,2125,0,0,2833,1352,2679,2901,1446,2882,46,1274,320,0,1438,1705,0,0,2048,2762,611,1339,2989,905,2801,2770,1519,0,375,852,1681,0,0,0,2312,597,746,547,0,1710,105,1521,1445,1073,570,2595,0,0,387,2938,744,2745,291,2578,0,475,2305,0,2629,2372,610,571,2613,621,1309,2591,2673,0,0,0,0,0,0,0,0,0,0,0,0,0,0,0,0,0,0,0,0,0,0,0,0,0,0,0,0,0,0,0,0,0,0,0,0,0,0,0,0,0,0,0,0,0,0,0,0,0,0,0,0,0,0,0,0,0,0,0,0,0,0,0,0,0],"split_type":[0,0,0,0,0,0,0,0,0,0,0,0,0,0,0,0,0,0,0,0,0,0,0,0,0,0,0,0,0,0,0,0,0,0,0,0,0,0,0,0,0,0,0,0,0,0,0,0,0,0,0,0,0,0,0,0,0,0,0,0,0,0,0,0,0,0,0,0,0,0,0,0,0,0,0,0,0,0,0,0,0,0,0,0,0,0,0,0,0,0,0,0,0,0,0,0,0,0,0,0,0,0,0,0,0,0,0,0,0,0,0,0,0,0,0,0,0,0,0,0,0,0,0,0,0,0,0,0,0,0,0,0,0,0,0,0,0,0,0,0,0,0,0,0,0,0,0,0,0,0,0,0,0,0,0,0,0,0,0,0,0,0,0],"sum_hessian":[1.3564623E5,4.3199246E4,9.2446984E4,4.0325793E4,2.8734521E3,9.2237664E4,2.0931947E2,4.006281E4,2.6298422E2,2.7366592E3,1.3679291E2,1.0164137E1,9.22275E4,2.0344353E2,5.875943E0,4.005891E4,3.8972342E0,2.1482822E2,4.8156002E1,1.4502001E3,1.2864591E3,2.2228193E1,1.1456472E2,5.9980016E0,4.1661353E0,7.135574E3,8.509193E4,1.389411E2,6.4502426E1,4.5827975E0,1.2931454E0,3.5760062E4,4.298848E3,1.8036069E0,2.0936275E0,2.1269485E2,2.1333737E0,1.6251646E1,3.1904356E1,1.388007E3,6.219306E1,9.380722E2,3.4838687E2,2.0753119E1,1.4750744E0,6.688271E1,4.7682007E1,1.6329302E0,2.5332053E0,5.8302354E3,1.3053389E3,8.808368E0,8.508312E4,1.26169525E2,1.2771579E1,5.799095E1,6.511475E0,3.5758547E4,1.5163301E0,4.2795117E3,1.9336617E1,2.115351E2,1.1597486E0,1.1089785E0,1.0243952E0,3.4240246E0,1.2827621E1,2.9159607E1,2.744748E0,1.2578156E0,1.3867491E3,5.937279E1,2.820271E0,9.137642E2,2.4307991E1,1.37894E2,2.1049289E2,1.0002064E0,1.9752913E1,4.254929E0,6.2627785E1,5.9896264E0,4.1692383E1,5.824631E3,5.604279E0,2.256359E0,1.3030825E3,5.046953E0,3.761415E0,8.507675E4,6.373393E0,1.17716255E2,8.45327E0,5.8195796E0,6.9519997E0,5.39024E1,4.0885477E0,3.6138322E0,2.897643E0,3.474215E4,1.0163965E3,4.277806E3,1.7054623E0,3.2214193E0,1.6115196E1,2.0721474E2,4.3203635E0,2.4226289E0,1.0013958E0,8.505904E0,4.321717E0,2.5550932E1,3.608675E0,1.0884197E0,1.6563284E0,1.4371587E1,1.3723776E3,5.730453E1,2.0682573E0,1.195912E0,1.624359E0,8.484458E2,6.531838E1,4.5802264E0,1.9727764E1,2.5784405E1,1.1210959E2,4.2402935E0,2.062526E2,2.696313E0,1.5586159E0,5.9684612E1,2.9431722E0,1.522304E0,4.4673223E0,2.3999308E1,1.7693073E1,1.3690914E0,5.8232617E3,3.5574074E0,2.046872E0,1.02272314E3,2.803594E2,1.7153106E0,3.3316424E0,1.0118303E0,8.5075734E4,3.0267758E0,3.346617E0,1.1664321E2,1.0730451E0,6.282241E0,2.1710296E0,3.147349E0,2.6722302E0,1.0169382E0,5.9350615E0,4.649337E1,7.4090314E0,2.9769042E0,1.1116434E0,2.610917E0,1.0029151E0],"tree_param":{"num_deleted":"0","num_feature":"3000","num_nodes":"163","size_leaf_vector":"1"}},{"base_weights":[-5.113456E-1,-5.555494E-1,1.2226003E0,-5.5617315E-1,6.578861E-1,-5.360535E-1,1.3597211E0,-5.5664015E-1,4.4048837E-1,-4.6191806E-1,1.2457291E0,-5.493517E-1,2.1463825E-1,1.3716729E0,6.7270684E-1,-5.567104E-1,8.306317E-1,-4.147673E-1,1.0093377E0,-1.5665296E-1,5.7563696E-2,-1.11612014E-1,1.3500237E0,-1.6682133E-1,5.0429165E-2,1.3740762E0,-1.2372209E-1,8.238926E-1,-3.1499082E-1,-5.5717784E-1,-3.703005E-1,-9.62146E-2,4.180705E-1,1.9613451E-1,-1.6124661E-1,1.4391221E0,4.5649037E-2,1.5107853E0,1.9233999E-1,2.7796507E-1,1.3767636E0,1.112121E0,1.7745692E-1,5.5314533E-2,-1.424703E-1,